SVM-light Version V6.02
0 # kernel type
3 # kernel parameter -d 
1 # kernel parameter -g 
1 # kernel parameter -s 
1 # kernel parameter -r 
empty# kernel parameter -u 
8285 # highest feature index 
160 # number of training documents 
83 # number of support vectors plus 1 
-1.9392421 # threshold b, each following line is a SV (starting with alpha*y)
0.00045886180578870320104223345936134 2:2 4:2 6:4 11:7 13:1 14:2 15:3 19:6 22:15 24:11 25:14 26:3 34:7 45:5 47:5 58:2 59:1 60:1 61:1 65:2 71:1 72:1 77:2 78:1 90:2 96:3 112:1 116:2 135:1 136:1 146:1 168:1 173:1 187:1 194:1 197:2 205:1 207:1 213:1 226:1 237:1 250:1 312:1 325:1 329:1 381:2 404:1 405:1 422:1 461:1 501:3 502:1 544:1 586:1 595:1 599:1 602:1 611:2 614:1 627:1 635:1 637:1 638:3 654:1 655:1 664:2 692:1 693:1 705:1 731:1 766:1 773:1 797:1 843:1 899:1 985:1 988:2 1009:1 1026:1 1032:1 1062:1 1063:1 1116:1 1167:1 1331:1 1347:1 1361:1 1447:1 1509:1 1529:1 1587:1 1607:1 1609:1 1648:1 1763:1 1785:1 1788:1 1944:1 2116:1 2182:1 2226:1 2538:1 2649:1 2658:1 2672:1 2673:1 2674:1 2675:1 2676:1 2677:4 2678:4 2679:1 2680:1 2681:1 2682:1 2683:1 2684:1 2685:1 2686:1 2687:1 2688:2 2689:2 2690:1 2691:1 2692:1 2693:1 2694:1 2695:1 2696:1 2697:1 2698:1 2699:1 2700:1 2701:2 2702:1 2703:1 2704:1 2705:1 2706:1 2707:1 2708:1 2709:1 2710:1 2711:1 2712:1 2713:1 2714:1 2715:1 2716:1 2717:1 2718:1 2719:1 2720:1 2721:1 2722:1 2723:1 2724:1 2725:1 2726:1 2727:1 2728:1 2729:1 2730:1 2731:1 #
-0.00078192597698898259981487024461444 2:7 6:5 11:1 14:2 19:4 22:15 24:2 25:7 31:1 32:2 34:7 37:1 45:10 46:1 47:1 58:4 59:4 62:1 65:1 66:3 68:1 70:1 78:1 85:1 108:1 109:1 112:3 114:2 116:2 124:4 136:6 146:3 167:1 168:1 173:2 177:3 178:1 202:1 204:1 207:1 215:2 220:1 235:2 304:2 305:2 306:1 307:1 314:1 319:1 338:1 342:1 344:3 365:1 379:1 410:1 424:1 435:1 449:1 519:1 539:1 555:1 575:1 606:1 614:1 755:1 756:1 764:1 779:1 811:1 837:1 855:1 863:1 951:1 955:1 1003:1 1006:1 1046:1 1063:1 1073:1 1118:1 1131:1 1169:1 1202:1 1346:1 1383:1 1451:1 1475:1 1653:1 1764:1 1765:1 2177:1 2284:1 2310:1 2369:1 2492:1 2544:1 2552:1 2553:1 2632:1 2662:1 2785:2 2787:1 2788:1 2790:5 2791:6 2792:6 2796:4 2797:1 2798:1 2799:1 2810:1 2811:1 2818:1 2829:1 2830:1 2833:1 2834:1 2870:1 3018:1 3247:1 3260:1 3269:1 3434:3 3444:1 3445:1 3452:1 3510:1 3511:1 3512:7 3513:1 3621:1 3622:1 3623:1 3624:1 3625:1 3646:1 3647:1 4482:1 4943:1 5146:1 5147:1 5148:1 5149:1 5150:1 5151:1 5152:1 5153:1 5154:1 5155:1 5156:1 5157:1 5158:1 5159:1 5160:1 5161:1 5162:1 5163:1 5164:1 5165:1 5166:1 5167:1 5168:1 5169:1 5170:1 5171:1 5172:1 5173:1 5174:1 5175:1 5176:1 5177:1 #
-0.00078192597698898259981487024461444 2:6 6:6 11:5 14:3 19:11 20:1 21:1 22:13 24:5 25:13 29:1 34:8 37:3 43:3 45:12 49:1 51:2 54:1 58:2 59:1 62:1 66:1 70:1 76:1 77:3 78:2 81:1 84:1 90:1 92:1 93:1 101:2 109:3 110:2 116:2 118:1 123:1 124:2 132:1 133:2 136:10 141:1 146:4 168:1 169:1 173:2 178:1 182:1 187:2 191:1 197:1 202:1 204:1 207:1 215:2 222:2 226:1 233:1 245:1 250:1 276:2 325:1 327:1 345:2 373:1 377:5 381:1 387:1 399:3 407:1 415:1 452:1 461:1 497:2 504:1 527:1 544:1 549:1 638:2 646:1 682:1 705:2 736:3 738:1 746:1 756:2 770:1 793:1 795:1 796:1 820:1 831:1 842:1 899:1 936:1 954:1 1030:1 1063:2 1094:1 1135:1 1149:1 1220:1 1243:1 1309:1 1311:1 1316:1 1367:1 1371:1 1389:1 1458:1 1488:1 1544:1 1572:1 1604:1 1611:1 1635:1 1660:1 1733:1 1872:1 1876:1 1886:1 1949:2 1967:1 2116:1 2168:2 2200:1 2203:1 2295:2 2460:1 2472:1 2474:1 2740:1 2757:1 2803:6 2817:1 2851:8 2853:1 2855:4 2856:3 2857:1 2858:6 2862:1 2863:1 2975:1 3104:1 3122:1 3481:1 3495:1 3583:1 3658:1 3664:1 3668:1 3707:1 3751:1 3770:2 3777:1 3790:1 3843:1 3904:2 3923:1 3938:1 4306:1 4386:1 4534:1 4701:1 4755:1 4924:1 4954:1 5082:4 5084:1 5085:1 5086:1 5087:1 5088:1 5089:1 5090:1 5091:1 5092:1 5093:1 5094:2 5095:1 5096:1 5097:1 5098:1 5100:1 5108:1 5109:1 5110:1 5633:2 5806:1 6192:1 7306:1 7307:1 7308:1 7309:3 7310:1 7311:1 7312:1 7313:1 7314:1 7315:1 7316:1 7317:1 #
-0.00078192597698898259981487024461444 2:12 6:7 11:2 14:3 15:1 19:4 22:12 24:7 25:12 30:1 34:4 39:1 45:9 46:1 54:1 58:2 59:1 61:1 62:1 65:1 66:1 77:3 90:1 112:2 114:2 116:2 119:1 123:1 125:1 134:1 136:5 141:1 146:2 168:1 171:1 178:5 195:1 207:1 235:1 237:1 238:1 241:1 249:1 294:3 316:1 317:1 327:1 336:1 338:3 345:1 351:1 363:1 377:1 408:3 409:2 415:1 424:1 450:1 479:1 519:1 555:1 620:1 662:3 689:1 736:1 779:1 786:1 805:1 830:2 842:1 863:1 954:1 977:1 988:1 1044:1 1075:1 1138:1 1151:1 1205:1 1272:1 1280:1 1336:1 1376:1 1428:1 1450:1 1513:1 1524:1 1543:1 1572:1 1641:1 1652:2 1656:1 1749:1 1757:1 1761:1 1853:1 2052:1 2174:1 2310:1 2439:1 2532:1 2553:1 2770:1 2903:1 2918:1 2951:2 3055:1 3067:1 3091:1 3128:1 3420:1 3721:1 3844:1 3977:1 4137:1 4253:2 4254:1 4255:1 4463:1 4699:1 4791:1 5055:1 5077:1 5343:1 5355:1 5854:1 6176:1 6922:1 7200:1 7318:1 7319:1 7320:1 7321:1 7322:2 7323:1 7324:1 7325:1 7326:1 7327:1 7328:1 7329:1 7330:1 7331:1 7332:1 7333:1 7334:1 7335:1 7336:1 7337:1 7338:1 7339:1 7340:1 7341:1 7342:1 7343:1 7344:1 7345:1 7346:1 7347:1 7348:1 7349:1 7350:1 7351:1 7352:1 7353:1 7354:1 7355:1 7356:1 7357:1 7358:1 7359:1 7360:1 #
-0.00060212786810290741968537675532502 2:3 6:3 11:3 14:1 19:5 22:19 24:2 25:12 26:2 32:2 34:10 39:1 45:15 54:4 56:2 58:8 59:3 61:1 65:1 66:1 68:1 72:5 76:1 78:1 84:2 85:3 90:1 96:2 110:1 114:1 124:1 125:2 135:1 136:12 146:1 168:2 169:1 173:4 176:1 178:2 185:1 195:1 202:1 204:1 205:2 207:1 215:3 235:1 243:1 246:1 249:3 250:2 294:3 301:3 304:1 305:1 306:1 316:1 327:1 336:1 353:1 365:1 366:1 381:3 397:1 465:1 535:2 549:2 553:1 563:2 595:1 614:1 619:2 638:1 654:1 659:1 662:2 707:1 727:1 731:1 738:1 760:1 773:1 811:1 847:1 865:3 869:1 956:1 965:1 977:3 985:1 1003:1 1146:1 1168:1 1240:1 1241:1 1309:1 1329:1 1340:1 1676:1 1678:1 1687:2 1756:1 1776:1 1854:1 1903:1 1984:1 2051:1 2107:1 2140:1 2351:1 2446:1 2455:1 2484:1 2494:1 2552:1 2553:1 2559:1 2703:1 2780:1 2900:1 2950:1 3120:1 3124:1 3175:1 3201:1 3210:1 3232:1 3249:1 3292:1 3534:1 3717:1 3722:1 3739:2 3760:1 3769:1 3977:1 4114:1 4148:1 4221:1 4260:1 4467:1 4490:1 4632:1 4791:1 5008:1 5025:3 5222:1 5329:1 5632:1 5734:2 6115:1 6224:1 6600:1 6954:1 7230:1 7368:1 7629:3 7658:1 7659:1 7660:1 7661:1 7662:3 7663:1 7664:1 7665:1 7666:1 7667:1 7668:1 7669:1 7670:1 7671:1 7672:1 7673:1 7674:2 7675:1 7676:1 7677:1 7678:2 7679:1 7680:1 7681:1 7682:2 7683:1 7684:1 7685:1 #
0.00028306844520571672850495215101319 2:4 6:4 11:6 14:1 19:7 22:14 24:10 25:6 26:2 31:1 32:4 34:8 45:5 48:2 55:1 56:1 57:3 58:4 59:1 62:1 65:3 66:5 72:9 76:2 77:1 80:1 81:2 84:3 85:1 89:4 116:1 119:1 125:1 166:1 173:2 202:1 204:1 246:2 248:1 286:1 325:1 329:1 333:2 349:1 350:1 402:1 403:1 411:1 415:1 449:2 465:3 516:1 550:1 585:1 595:1 606:1 612:1 650:1 654:1 726:1 736:1 761:1 791:1 810:2 842:3 868:1 877:1 943:1 1041:1 1059:1 1065:1 1129:1 1135:1 1194:1 1207:1 1218:1 1329:1 1334:1 1370:1 1447:3 1501:1 1507:2 1513:1 1843:1 1846:1 1894:1 1902:1 1937:1 1950:1 1951:1 1979:1 2051:1 2107:1 2140:1 2182:1 2194:1 2451:1 2470:1 2471:3 2684:1 2695:1 2729:1 2730:1 2902:1 3048:1 3267:1 3310:1 3490:1 3534:1 3614:1 3864:2 4006:1 4146:1 4272:1 5040:1 5169:1 6309:1 6734:1 6767:1 7245:1 7246:1 7247:1 7248:1 7249:1 7250:1 7251:2 7252:1 7253:1 7254:1 7255:1 7256:1 7257:1 7258:1 7259:1 7260:1 7261:1 7262:1 7263:1 7264:1 7265:1 7266:1 7267:1 7268:1 7269:1 #
0.00025847857586555850022136393562278 2:4 4:1 5:1 6:6 11:6 14:1 15:1 19:1 21:2 22:14 23:1 24:4 25:5 26:2 27:1 28:2 32:2 34:1 37:1 45:7 54:1 58:4 59:2 61:1 62:1 65:1 66:5 72:2 77:3 81:1 89:2 90:1 118:1 136:3 145:1 168:1 169:1 173:1 207:2 227:1 233:1 235:1 239:1 250:2 251:1 286:1 310:2 338:1 349:1 350:1 423:1 459:1 526:1 544:1 549:1 552:1 567:1 568:1 583:1 585:1 595:3 598:2 614:1 619:1 682:1 731:3 756:1 770:3 771:1 867:1 899:1 988:1 1062:1 1073:1 1094:2 1168:1 1185:1 1243:1 1272:1 1370:1 1401:1 1430:1 1494:1 1722:2 1773:1 1787:1 1808:1 2189:1 2227:1 2351:1 2438:1 2470:1 2471:1 2515:1 2557:1 2567:2 2595:1 2644:1 2898:1 3162:1 3231:1 3357:1 3706:1 4098:1 4192:1 4219:1 4454:1 4469:1 4543:1 5252:1 5341:1 5342:1 5343:1 5344:1 5345:1 5346:3 5347:1 5348:1 5349:1 5350:1 5351:1 5352:1 5353:1 5354:1 5355:1 5356:1 5357:1 5358:1 5359:1 5360:1 5361:1 5362:1 5363:1 5364:1 5365:1 5366:1 5367:1 5368:1 5369:1 5370:1 5371:1 5372:2 5373:1 5374:1 5375:1 5376:1 5377:1 5378:1 5379:1 #
0.00061067932400744569590433918904182 2:3 4:1 6:2 11:4 14:2 15:1 19:4 20:1 22:15 24:4 25:7 29:1 30:1 32:3 34:8 35:1 45:6 47:2 51:1 58:2 59:1 62:1 72:4 77:1 78:1 84:2 85:1 89:2 90:1 114:1 124:2 128:1 136:4 173:2 235:1 240:1 246:1 249:2 250:2 310:1 311:3 316:3 317:1 327:2 328:1 338:1 363:2 364:3 365:2 406:1 465:2 520:1 533:1 544:1 550:2 585:1 595:3 614:8 619:2 623:1 637:1 650:1 731:1 763:1 773:1 778:1 792:2 801:2 825:2 891:1 937:2 938:1 965:1 1009:1 1064:1 1100:1 1141:1 1164:1 1165:1 1272:1 1303:1 1334:1 1440:1 1571:2 1626:3 1693:1 1706:1 1707:2 1722:1 1731:1 1878:1 1902:1 2087:1 2238:1 2376:1 2510:1 2533:1 2609:1 2630:1 2631:2 2632:3 2633:3 2634:1 2635:1 2636:1 2637:1 2638:2 2639:1 2640:4 2641:1 2642:1 2643:1 2644:1 2645:1 2646:1 2647:1 2648:1 2649:1 2650:1 2651:1 2652:1 2653:1 2654:1 2655:1 2656:1 2657:1 2658:1 2659:1 2660:1 2661:1 2662:1 2663:1 2664:1 2665:1 2666:1 2667:1 2668:1 2669:1 2670:1 2671:1 #
0.00011268400210809128322679562028696 2:3 6:12 11:4 13:1 14:2 15:1 19:3 22:15 24:7 25:11 26:1 27:1 28:1 34:2 37:1 39:3 45:7 54:1 57:1 58:2 59:1 60:1 61:1 72:2 77:1 78:1 81:1 85:1 93:1 109:1 116:3 118:1 136:1 169:1 173:1 193:1 202:1 204:1 248:1 280:1 317:1 338:3 345:1 363:1 374:1 379:1 403:1 411:1 459:1 465:1 478:1 519:2 539:1 544:1 556:1 585:1 595:1 606:1 614:1 636:1 638:2 707:1 712:1 729:1 731:1 756:1 773:2 812:1 813:1 820:1 831:1 842:3 880:1 926:1 936:1 988:1 1009:1 1036:1 1044:2 1045:1 1049:1 1059:1 1112:1 1272:1 1488:1 1499:1 1501:1 1513:1 1539:1 1587:1 1609:1 1641:1 1653:1 1654:1 1661:2 1699:1 1741:1 1742:1 1747:1 1749:1 1758:1 1910:1 1957:1 2159:1 2411:2 2567:1 2781:1 2884:1 2886:1 2903:1 3029:1 3072:1 3184:1 3537:1 3567:1 3568:1 3569:1 4020:1 4272:1 4433:1 4965:1 5772:1 5891:1 6033:1 6332:1 6711:1 6815:1 6992:1 7196:1 7467:1 7468:1 7469:1 7470:1 7471:5 7472:1 7473:1 7474:1 7475:1 7476:3 7477:1 7478:1 7479:1 7480:1 7481:2 7482:1 7483:1 7484:1 7485:1 7486:1 7487:1 7488:1 7489:1 7490:1 7491:1 7492:1 7493:1 7494:1 7495:1 7496:1 7497:1 7498:1 7499:1 7500:1 7501:1 7502:1 7503:1 7504:1 #
-0.00067726581785226055293369640253331 2:8 6:4 11:5 15:1 19:9 22:13 24:6 25:13 26:2 29:1 32:4 34:17 35:1 39:1 45:13 47:2 51:1 54:4 57:1 58:6 59:5 66:3 71:1 72:3 78:1 81:1 84:5 85:4 89:1 90:2 96:2 101:3 109:3 112:1 123:3 124:2 134:1 135:5 136:2 173:2 178:1 187:1 202:1 204:1 207:3 209:1 215:1 232:1 240:1 241:1 249:1 254:2 258:1 262:1 270:1 301:2 304:2 305:2 309:1 310:1 311:3 316:1 327:1 333:1 336:1 338:1 349:1 350:1 353:2 381:2 383:1 389:1 398:1 403:1 404:1 423:1 424:1 430:1 442:1 452:1 465:2 473:1 478:1 501:1 539:1 544:1 552:1 585:1 595:2 596:1 599:1 602:1 614:1 619:1 638:1 653:1 661:1 674:1 682:1 705:1 738:2 785:1 812:1 813:1 824:1 825:1 831:6 847:1 904:1 923:1 936:1 1003:1 1012:1 1030:1 1050:1 1051:1 1064:1 1065:1 1103:2 1291:1 1327:2 1347:1 1423:2 1431:1 1432:1 1441:1 1447:1 1504:1 1533:1 1537:1 1538:1 1587:1 1609:1 1611:1 1656:1 1669:1 1733:1 1878:1 1914:2 1969:1 1970:1 1971:1 1972:1 1973:1 1974:5 1975:5 1976:3 1977:2 1978:1 1979:2 1980:2 1981:1 1982:1 1983:1 1984:1 1985:1 1986:1 1987:1 1988:1 1989:2 1990:2 1991:1 1992:1 1993:1 1994:1 1995:2 1996:1 1997:1 1998:1 1999:1 2000:1 2001:1 2002:1 2003:1 2004:1 2005:1 2006:1 2007:1 2008:1 2009:1 2010:1 2011:1 2012:1 2013:1 2014:1 2015:1 2016:1 2017:1 2018:1 2019:1 2020:1 2021:1 2022:1 2023:1 2024:1 2025:1 2026:1 #
-0.00078192597698898259981487024461444 2:2 6:1 14:1 19:1 22:2 24:1 25:1 32:1 34:2 37:1 39:2 45:4 47:1 58:1 59:1 66:1 85:1 173:1 178:1 187:2 202:1 204:1 215:1 345:1 365:1 373:1 381:2 401:1 407:1 430:1 526:1 614:1 684:1 1167:1 1367:1 1749:1 1846:1 1853:1 2295:1 2351:1 2851:2 2852:1 2853:1 2854:1 2855:1 2856:1 2857:1 2858:1 2859:1 2860:1 2861:1 2862:2 2863:1 2864:1 2865:1 2866:2 2867:1 #
-0.00078192597698898259981487024461444 2:1 4:1 5:1 11:2 19:1 22:5 24:2 25:1 29:1 32:3 34:2 36:2 45:4 46:1 52:1 58:2 59:1 62:1 66:1 70:1 72:1 89:1 90:1 110:1 136:1 168:1 178:1 202:1 204:1 215:2 310:1 320:1 402:1 684:1 714:1 726:1 831:2 923:1 977:1 1009:1 1243:1 1302:1 1561:1 1562:2 1618:1 1843:1 1947:1 2006:1 2451:1 2472:1 2653:1 2916:1 3120:1 3605:1 4105:1 4274:2 5713:1 6912:1 7965:1 7966:1 7967:1 #
-0.00078192597698898259981487024461444 2:1 13:1 15:2 22:3 24:2 25:4 29:1 32:1 34:4 40:1 45:4 47:3 51:4 54:1 58:2 62:2 85:1 134:1 139:1 173:2 178:1 187:1 202:1 204:1 215:1 241:1 259:1 261:1 317:2 364:1 381:1 397:1 465:1 589:1 595:3 606:1 655:1 692:1 693:1 756:1 801:2 808:1 824:1 845:1 889:1 935:1 1000:1 1004:1 1005:1 1006:1 1009:1 1045:1 1076:1 1438:1 1749:1 1786:1 1894:1 1976:1 2101:1 3364:1 5852:1 5853:1 5854:1 5855:1 5856:1 5857:2 5858:1 #
-0.00078192597698898259981487024461444 2:2 6:4 11:3 19:2 22:2 24:1 25:2 27:1 34:3 45:4 46:1 58:3 59:1 61:1 66:3 68:2 77:1 78:2 90:1 116:3 128:1 134:2 135:2 136:3 173:3 215:1 232:1 259:1 303:1 308:1 309:1 345:1 394:1 397:1 430:1 544:2 588:1 589:2 662:1 673:1 727:1 902:3 903:1 904:1 905:1 906:1 907:1 908:1 909:1 910:1 911:1 912:1 913:1 914:2 915:1 916:1 917:1 918:1 919:1 920:1 921:1 922:1 923:1 924:1 925:1 926:1 927:1 928:1 929:1 930:1 931:1 932:1 933:1 934:1 935:1 936:1 937:1 938:1 #
-0.00078192597698898259981487024461444 2:1 6:2 14:1 19:4 22:5 23:1 24:2 25:5 26:1 34:4 37:1 45:5 46:1 47:3 51:2 58:1 76:1 78:1 85:1 109:1 114:3 118:1 124:1 135:1 136:2 141:1 146:1 173:1 178:1 187:1 206:1 215:1 226:1 245:2 278:2 280:2 291:1 341:1 345:1 346:1 379:1 381:1 410:1 420:2 423:1 585:1 662:1 674:1 731:1 736:1 752:1 831:3 923:1 1009:1 1011:1 1013:1 1088:1 1131:1 1328:1 1637:1 1851:2 1852:2 1911:1 1962:1 2089:1 2209:1 2338:1 2711:1 2758:2 2965:1 2982:1 3345:1 3481:1 3867:1 3908:1 3915:1 3939:1 4364:1 4899:2 4900:2 4901:1 4910:1 5022:1 5023:1 5024:1 5025:1 5026:1 5027:1 5028:1 5029:1 5030:1 5031:1 5032:1 5033:1 5034:1 5035:1 5036:1 #
0.00078192597698898259981487024461444 2:16 6:8 7:1 11:5 14:2 19:5 22:13 24:7 25:15 32:1 34:14 45:5 51:4 54:5 57:1 58:2 59:2 61:1 62:1 66:1 78:2 80:2 81:3 83:1 84:3 85:1 88:1 89:1 90:1 109:2 114:1 116:2 119:1 124:6 133:1 136:1 143:1 166:1 168:1 169:4 173:1 187:1 207:1 226:1 241:1 249:1 257:1 316:2 326:1 338:2 344:2 381:1 397:1 451:1 477:2 504:1 522:1 549:1 585:1 594:2 595:2 606:1 637:1 638:2 640:1 656:1 664:1 666:1 673:1 676:1 678:3 679:3 687:2 702:1 725:1 731:2 748:1 773:1 778:1 787:1 811:1 870:1 923:1 937:1 952:1 1154:1 1243:1 1328:1 1334:1 1371:1 1374:1 1398:3 1418:1 1438:1 1478:1 1501:1 1509:1 1531:1 1559:1 1607:1 1635:2 1770:1 1844:1 1862:1 1941:3 1956:3 1965:1 2050:1 2051:1 2068:1 2116:1 2227:1 2241:2 2242:1 2254:1 2333:2 2581:1 2653:1 2664:1 2711:1 2733:1 2737:1 2758:1 2914:2 2916:1 2943:1 3239:1 3242:1 3301:1 3426:1 3429:1 3501:1 3521:1 3610:2 3611:2 3938:1 3998:1 4010:1 4171:1 4243:1 4347:1 5131:1 5166:1 5226:1 5294:1 5315:1 5662:1 5675:1 5995:1 5996:1 6062:1 6130:1 6275:1 6374:1 6631:1 6735:1 6872:1 7650:1 7868:1 8040:1 8041:1 8042:1 8043:1 8044:1 8045:1 8046:1 8047:1 8048:1 8049:1 8050:1 8051:1 8052:1 8053:1 8054:1 8055:1 8056:1 8057:1 8058:1 8059:1 8060:1 8061:1 8062:1 8063:1 8064:1 8065:1 8066:1 8067:1 8068:1 8069:1 8070:1 8071:1 8072:1 #
0.00078192597698898259981487024461444 2:8 6:6 11:3 13:1 19:5 22:16 24:4 25:13 29:1 30:1 32:1 34:6 37:3 39:1 40:1 45:4 46:1 47:1 54:2 57:2 58:4 59:1 61:2 62:1 65:2 66:2 68:1 75:1 78:1 84:1 85:1 89:2 90:2 93:2 94:1 109:1 111:1 124:2 132:1 136:3 168:1 169:1 173:3 187:5 197:2 205:1 207:1 220:1 234:1 239:1 248:1 249:3 250:2 258:1 263:2 286:1 314:1 327:2 336:1 363:1 364:1 396:1 405:1 410:1 424:2 425:1 426:3 446:1 453:1 465:2 490:1 520:1 539:1 562:1 567:1 595:1 606:1 611:1 637:2 650:1 654:1 735:1 763:1 768:1 811:1 825:1 828:1 856:1 868:1 955:4 977:1 998:1 1044:1 1075:1 1091:1 1135:1 1154:2 1161:4 1231:3 1239:1 1243:1 1257:1 1266:1 1319:1 1327:1 1329:1 1340:1 1348:1 1383:1 1389:1 1436:1 1509:1 1513:1 1537:1 1553:1 1572:1 1587:1 1609:1 1747:1 1778:1 1812:1 1878:1 1886:1 1972:2 2071:1 2146:1 2168:1 2242:1 2343:1 2389:1 2418:1 2453:1 2455:2 2472:2 2500:1 2538:1 2607:1 2721:1 2900:1 3184:1 3267:1 3331:1 3475:1 3567:1 3568:1 3716:1 3811:1 3904:1 3915:1 3937:1 3995:1 4008:1 4041:1 4055:1 4307:1 4778:1 4951:1 5689:1 5781:1 6019:1 6020:1 6021:1 6022:2 6023:1 6024:1 6025:1 6026:1 6027:1 6028:2 6029:1 6030:1 6031:1 6032:1 6033:1 6034:1 6035:1 6036:1 6037:1 6038:1 6039:1 6040:1 6041:1 6042:1 6043:1 6044:1 6045:1 6046:1 6047:1 6048:1 #
0.00078192597698898259981487024461444 2:7 4:1 6:9 11:1 19:5 22:16 24:3 25:10 34:6 39:2 40:1 43:1 45:4 47:4 51:1 54:5 57:1 58:2 59:1 62:2 65:3 71:1 75:1 77:1 78:1 81:1 84:2 85:1 88:1 89:1 90:2 95:1 118:1 125:2 130:1 136:3 168:1 173:8 187:1 191:3 205:1 207:2 233:1 249:1 250:2 267:2 268:1 280:1 294:10 301:8 308:1 310:2 333:2 338:1 364:1 365:1 377:1 394:1 404:2 410:2 442:1 451:1 473:1 497:1 501:1 511:1 513:1 533:1 595:1 611:1 614:1 637:1 657:1 674:1 699:1 703:1 709:1 728:1 773:2 811:1 828:1 866:2 977:2 1012:5 1014:1 1037:1 1046:1 1219:1 1242:1 1347:1 1361:1 1427:1 1440:1 1507:1 1572:1 1626:1 1635:1 1662:1 1715:3 1721:1 1724:1 1759:1 1780:1 1783:2 1788:1 1878:1 1957:1 2070:1 2152:1 2172:1 2184:1 2229:1 2237:1 2293:1 2431:1 2476:1 2612:1 2614:1 2644:1 2721:1 2727:1 2758:1 2829:1 2855:1 2870:1 2950:1 3153:1 3247:2 3570:1 3679:1 3851:1 4010:1 4084:1 4241:1 4249:1 4263:1 4720:1 4721:1 5651:1 7005:1 7722:1 7723:1 7724:1 7725:2 7726:4 7727:1 7728:2 7729:1 7730:1 7731:1 7732:1 7733:1 7734:1 7735:1 7736:1 7737:1 7738:1 7739:1 7740:1 7741:1 7742:1 7743:1 7744:1 7745:1 7746:1 7747:1 7748:1 7749:1 #
0.00078192597698898259981487024461444 2:6 4:4 5:1 6:5 11:7 14:2 19:3 22:13 24:3 25:8 29:2 30:3 32:2 34:10 39:1 45:8 47:4 48:2 54:2 57:1 58:2 61:4 65:1 66:2 68:1 72:8 77:2 78:2 81:1 84:1 85:3 88:2 89:2 90:4 116:3 132:1 136:4 169:2 173:1 227:1 232:1 233:1 239:1 241:1 245:1 246:3 250:1 310:2 311:1 327:1 365:1 366:1 396:1 402:1 415:1 499:1 504:1 516:1 539:1 564:1 585:2 619:2 637:1 638:1 650:1 674:1 682:1 731:2 735:1 756:1 773:2 793:1 794:1 796:1 800:1 811:1 856:2 880:1 910:1 951:2 954:1 988:1 1028:1 1030:1 1040:1 1054:2 1061:1 1128:1 1147:1 1154:1 1168:2 1218:1 1309:1 1401:1 1487:1 1512:1 1558:1 1581:1 1714:1 1735:2 1763:2 1781:1 1829:1 1886:1 1910:1 1928:1 1972:1 2006:1 2140:1 2306:1 2316:1 2581:1 2638:1 2852:1 2937:2 3140:1 3337:1 3769:1 3915:1 3955:1 4245:1 4285:1 4538:1 4960:1 5037:1 5089:1 5114:1 5272:1 5473:1 5499:1 5603:1 5604:1 5605:1 5606:1 5607:1 5608:2 5609:1 5610:1 5611:1 5612:1 5613:1 5614:1 5615:1 5616:2 5617:1 5618:1 5619:1 5620:1 5621:1 5622:1 5623:1 5624:1 5625:1 5626:1 5627:1 5628:1 5629:1 #
0.00078192597698898259981487024461444 2:3 6:5 11:5 13:1 14:1 15:3 19:2 22:17 24:8 25:9 29:2 30:1 32:2 34:8 45:9 47:2 48:3 51:1 54:2 57:1 58:2 59:1 61:5 62:2 65:5 68:3 71:1 72:15 77:1 78:2 81:1 85:1 90:1 109:1 116:1 136:2 173:4 176:1 207:2 220:1 226:1 234:2 240:1 245:1 246:3 248:2 249:2 250:2 311:1 316:6 317:1 325:1 329:1 379:1 381:1 394:1 396:3 402:2 403:2 415:1 465:2 473:2 474:1 502:1 552:1 585:1 595:3 610:1 618:1 662:1 666:1 672:1 676:3 696:1 702:1 705:1 736:1 748:1 768:1 772:1 773:1 825:1 880:2 954:1 985:1 988:1 1014:1 1045:1 1065:1 1073:1 1094:1 1102:1 1116:1 1147:1 1151:1 1154:2 1160:1 1171:1 1185:1 1194:1 1272:2 1285:1 1347:1 1501:1 1513:1 1616:1 1643:1 1662:1 1693:1 1707:1 1739:1 1747:1 1812:1 1819:1 1843:1 1846:1 1925:1 1963:1 2101:1 2122:1 2182:1 2284:1 2288:1 2343:1 2391:3 2395:1 2396:1 2397:1 2398:1 2399:1 2400:1 2401:1 2402:1 2403:1 2404:1 2405:1 2406:1 2407:5 2408:1 2409:1 2410:1 2411:1 2412:1 2413:1 2414:1 2415:1 2416:2 2417:1 2418:1 2419:1 2420:1 2421:1 2422:1 2423:1 2424:1 2425:1 2426:1 2427:1 2428:1 2429:1 2430:1 2431:1 2432:1 2433:1 2434:1 2435:1 2436:1 2437:1 2438:1 2439:1 2440:1 2441:1 2442:1 2443:1 2444:1 2445:1 2446:1 2447:1 2448:1 2449:1 2450:1 2451:1 2452:1 2453:2 2454:1 2455:1 2456:1 2457:1 2458:1 #
-0.00078192597698898259981487024461444 2:1 6:4 19:8 22:6 24:9 25:19 32:3 34:10 37:1 41:1 45:10 46:2 47:2 51:1 54:2 58:2 59:1 65:3 66:1 70:1 84:3 89:1 109:3 114:2 136:4 173:1 178:1 184:2 197:1 202:1 204:1 215:1 220:1 222:1 241:3 245:1 257:1 258:1 264:1 291:1 304:1 305:1 306:1 331:1 353:1 371:1 373:1 374:1 377:5 381:1 389:1 402:1 403:1 414:1 422:1 473:1 539:1 544:1 623:1 644:1 738:1 756:1 802:1 809:1 815:1 842:1 994:1 1050:1 1059:1 1094:1 1103:1 1131:2 1408:1 1456:3 1503:2 1678:1 1688:1 1759:1 1845:6 2159:3 2197:1 2253:1 2270:1 2327:1 2331:1 2455:1 2518:1 2855:1 2862:1 2885:1 3066:3 3175:1 3282:1 3426:1 3532:2 3549:1 3777:2 3912:1 4014:2 4055:1 4161:1 4212:1 4347:3 4537:1 4591:1 4954:1 4984:1 5072:1 5294:1 5499:2 5630:1 5631:1 5632:6 5633:1 5634:3 5635:1 5636:1 5637:1 5638:1 5639:1 5640:1 5641:1 5642:1 5643:1 5644:1 5645:1 5646:1 5647:1 5648:1 5649:1 5650:1 5651:1 5652:1 5653:1 5654:1 #
-0.00078192597698898259981487024461444 2:6 6:5 11:8 19:9 22:16 24:2 25:12 29:1 30:2 32:7 34:8 37:3 45:14 47:1 51:1 54:3 57:1 58:4 59:1 65:2 66:5 72:4 77:3 81:1 84:1 90:1 109:1 116:1 125:2 128:2 136:4 138:1 146:2 169:1 178:1 191:1 197:1 202:1 204:1 205:1 207:3 212:1 215:1 217:3 227:1 240:3 246:1 252:2 259:5 292:1 299:1 304:2 305:2 306:1 307:1 309:1 311:1 316:4 322:1 324:1 327:1 342:3 363:2 364:2 365:2 369:1 377:2 381:1 393:1 402:1 406:1 424:1 459:1 461:1 465:2 511:2 519:1 520:1 539:2 555:2 567:1 595:2 599:2 618:1 649:1 652:3 673:1 682:1 752:1 773:1 811:2 825:2 836:1 856:1 901:1 977:1 1000:1 1009:3 1012:1 1040:1 1065:1 1118:1 1139:1 1242:1 1248:5 1447:1 1507:1 1587:1 1598:1 1648:2 1660:1 1677:2 1738:1 1812:1 1862:1 1869:1 1955:1 1974:1 1975:1 2174:1 2250:3 2294:5 2295:1 2296:6 2331:1 2373:1 2376:1 2504:1 2653:1 2758:1 2822:1 2829:1 2856:1 2880:1 2962:1 3278:1 3867:1 3911:1 4008:1 4035:1 4036:1 4037:1 4038:1 4039:1 4040:1 4041:1 4042:1 4043:1 4044:1 4045:1 4046:1 4047:1 4048:1 4049:1 4050:1 4051:1 4052:1 4053:1 4054:1 4055:1 4056:1 4057:1 4058:1 4059:1 4060:1 4061:1 4062:1 4063:1 4064:1 4065:1 4066:1 4067:1 4068:1 4069:1 4070:1 4071:1 #
0.00078192597698898259981487024461444 2:2 6:1 11:1 22:11 24:3 25:8 34:2 39:1 45:7 46:1 58:4 59:1 61:1 65:2 66:3 68:1 70:1 72:2 77:3 78:1 84:1 85:1 98:1 109:1 124:1 134:1 136:2 168:1 173:1 205:1 246:1 254:1 311:1 401:1 437:1 552:1 553:1 582:1 585:1 604:1 755:1 757:1 792:1 801:1 808:1 810:1 842:1 896:1 949:1 1003:1 1004:1 1005:1 1006:3 1050:1 1169:1 1501:1 1565:1 1648:1 1722:1 1852:1 1979:1 2302:1 3101:1 3124:1 3263:1 3365:1 3603:1 3729:2 4088:1 5282:1 5864:1 6460:1 6473:1 7770:1 8262:1 8263:1 8264:1 8265:1 8266:2 8267:2 8268:1 8269:1 8270:1 8271:1 8272:1 8273:1 8274:1 8275:1 8276:1 8277:1 8278:1 8279:1 8280:1 8281:1 8282:1 8283:1 8284:1 8285:1 #
0.00056110766662634996640446338744823 2:1 6:3 11:1 13:1 19:1 22:7 25:3 32:1 34:3 45:7 56:1 58:4 62:1 72:3 76:1 78:2 85:1 124:1 134:1 135:4 136:3 205:1 234:1 245:1 248:1 249:1 250:1 251:1 317:1 319:2 328:2 363:6 364:2 366:1 403:2 465:2 473:2 505:1 526:2 569:1 654:1 662:1 667:1 668:1 669:1 670:2 676:3 702:1 727:1 756:1 764:1 773:1 825:1 840:1 842:1 870:1 904:1 919:1 954:1 977:1 1009:1 1036:1 1044:1 1108:1 1182:2 1273:1 1370:1 1374:1 1429:1 1430:1 1513:4 1528:2 1733:1 1790:1 1803:1 1812:1 1822:1 1835:1 2272:1 2416:1 2495:1 2930:1 2935:1 3103:1 3118:1 3162:1 3230:1 3311:1 3371:1 3790:1 4665:1 4700:2 4730:1 4740:1 4741:1 4953:1 5446:1 5724:1 6003:1 6004:1 6005:1 6006:1 6007:1 6008:1 6009:1 6010:1 6011:1 6012:1 6013:1 6014:1 6015:1 6016:1 6017:1 6018:1 #
0.00020817902328459095750642915412243 2:5 6:4 11:6 14:1 19:6 22:9 24:7 25:12 26:2 27:1 32:1 34:5 39:1 45:5 47:1 54:1 57:1 58:2 59:1 60:1 61:1 62:1 65:1 66:1 84:1 85:1 96:2 116:2 124:1 128:2 134:1 135:4 136:2 168:1 173:2 187:2 188:1 205:2 213:1 220:1 226:1 227:1 251:1 264:1 292:1 308:1 341:1 389:1 519:3 544:1 567:2 585:1 588:3 603:1 637:2 638:1 650:1 673:1 687:1 692:1 693:1 773:2 842:2 880:2 904:1 913:1 917:1 928:1 949:1 954:1 965:1 988:1 1036:1 1041:1 1048:2 1063:1 1182:1 1272:1 1278:1 1316:1 1320:1 1321:1 1327:1 1353:1 1355:1 1365:1 1371:1 1501:1 1509:1 1528:1 1558:1 1660:1 1776:1 1941:3 1956:3 2062:1 2087:2 2090:1 2543:1 2591:1 2747:1 2748:1 2749:1 2750:1 2781:1 2868:1 2869:1 2870:1 2871:1 2872:1 2873:1 2874:1 2875:1 2876:1 2877:1 2878:1 2879:1 2880:1 2881:1 2882:1 2883:1 2884:1 2885:1 2886:1 2887:1 2888:1 2889:1 2890:1 2891:1 2892:1 2893:1 2894:1 2895:1 2896:1 2897:1 2898:1 2899:1 2900:1 2901:1 2902:1 2903:1 2904:1 2905:1 2906:1 2907:1 2908:1 2909:1 2910:1 #
0.00035668153106821736536558020702614 2:3 4:1 6:2 10:1 11:1 15:1 19:1 22:7 23:1 24:1 25:6 26:1 27:1 28:3 32:2 34:8 36:1 45:5 46:1 47:2 48:2 49:1 54:2 57:1 58:4 66:6 75:1 76:1 77:1 90:1 116:1 132:1 136:1 139:1 141:1 167:1 168:1 176:1 205:1 207:2 227:1 237:1 239:2 249:1 294:3 383:1 393:1 407:1 430:1 459:1 499:2 558:1 569:2 585:1 662:1 682:1 770:1 849:1 880:1 899:1 977:2 988:1 1037:1 1044:1 1046:1 1063:2 1105:1 1139:1 1180:1 1284:1 1330:1 1357:2 1501:1 1505:1 1521:1 1598:1 1654:2 1763:1 2048:1 2062:1 2140:1 2430:1 2453:1 2581:1 2594:1 2674:1 2870:1 2933:1 3175:1 3269:1 4082:1 4363:1 4549:1 4722:1 4769:1 5030:1 5143:1 5396:1 5397:1 5398:3 5399:1 5400:1 5401:1 5402:1 5403:1 5404:1 5405:1 5406:1 5407:1 5408:1 5409:1 5410:1 5411:1 5412:1 5413:1 5414:1 5415:1 #
-0.00078192597698898259981487024461444 2:4 6:3 11:4 14:2 17:1 18:1 22:10 24:4 25:8 30:1 34:7 45:5 47:2 51:2 53:1 54:1 58:3 62:1 65:1 66:1 77:1 112:1 124:2 125:1 134:1 135:6 136:3 146:1 168:2 201:1 206:1 207:2 255:1 294:2 301:2 311:1 341:1 344:2 353:2 364:1 377:1 381:1 389:1 403:1 408:2 409:4 417:1 418:1 422:1 426:1 473:1 550:1 563:1 569:1 620:1 736:1 764:1 768:1 779:1 811:1 838:1 839:1 841:1 878:1 888:1 904:4 923:1 985:1 1073:1 1075:1 1168:1 1248:1 1264:1 1293:1 1447:1 1542:1 1635:1 1878:1 1910:1 2146:1 2379:1 2472:1 2639:1 3319:1 3564:1 3854:1 4043:1 4889:1 4917:1 4962:1 5333:1 5380:1 5381:1 5382:1 5383:1 5384:1 5385:1 5386:1 5387:1 5388:1 5389:2 5390:1 5391:1 5392:1 5393:1 5394:1 5395:1 #
-0.00078192597698898259981487024461444 2:7 6:2 11:2 14:1 15:1 19:4 22:10 24:8 25:10 34:3 45:5 54:1 58:2 62:1 65:1 81:1 85:1 97:2 98:1 99:1 100:1 101:2 102:1 103:1 104:1 105:1 106:2 107:2 108:1 109:4 110:2 111:1 112:1 113:1 114:1 115:1 116:2 117:1 118:1 119:1 120:1 121:1 122:2 123:2 124:1 125:1 126:1 127:1 128:1 129:1 130:2 131:1 132:1 133:1 134:1 135:3 136:4 137:1 138:1 139:1 140:1 141:1 142:1 143:1 144:1 145:1 146:2 147:1 148:1 149:1 150:1 151:1 152:2 153:1 154:1 155:1 156:1 157:1 158:1 159:1 160:1 161:1 162:1 163:1 164:1 165:1 166:1 167:1 168:2 169:1 170:1 171:1 172:1 173:1 174:1 175:1 176:1 177:1 178:1 179:1 180:1 181:1 182:1 183:1 184:1 185:1 186:1 187:1 188:1 189:1 190:1 191:1 192:1 193:1 194:1 195:1 196:1 197:1 198:1 199:1 200:1 201:1 202:1 203:1 204:1 205:1 206:1 207:1 208:1 209:1 210:1 211:1 212:1 213:1 214:1 #
-0.00078192597698898259981487024461444 2:2 6:1 19:4 22:11 24:4 25:6 26:2 29:1 32:1 34:3 45:7 48:2 54:2 56:1 58:5 59:5 62:2 65:3 66:1 70:2 72:2 77:1 80:1 89:1 96:1 112:1 114:1 116:2 136:4 168:2 173:1 178:2 195:1 197:1 202:1 204:1 205:1 215:1 239:2 250:2 259:2 263:1 291:1 294:8 301:8 304:1 305:1 306:1 310:1 338:1 345:1 363:2 396:1 401:1 408:1 409:2 410:1 424:1 426:1 437:1 451:1 481:1 486:1 519:1 535:1 539:1 541:1 552:1 638:2 662:1 714:2 734:1 756:2 825:1 831:1 840:1 842:1 856:1 944:1 985:1 1009:1 1043:1 1059:1 1118:1 1257:1 1291:1 1309:1 1513:1 1521:1 1533:1 1572:1 1740:1 1763:2 1977:1 2047:2 2316:1 2408:1 2455:1 2468:1 2492:1 2515:1 2537:2 2545:1 2639:1 2721:1 2757:1 2928:1 2949:2 3119:1 3200:2 3404:1 3537:1 3613:1 3919:1 3960:1 3961:3 3962:1 3963:1 3964:1 3965:2 3966:1 3967:1 3968:1 3969:1 3970:1 3971:1 3972:1 3973:1 3974:1 3975:1 3976:1 3977:2 3978:1 3979:1 3980:1 3981:1 3982:1 3983:1 3984:1 3985:1 3986:1 #
-0.00078192597698898259981487024461444 2:7 6:3 11:4 14:2 19:4 22:14 24:7 25:12 32:2 34:6 37:1 45:8 47:1 54:2 58:4 59:2 61:1 62:2 66:1 70:1 72:3 77:2 84:3 136:2 173:3 178:1 202:1 204:1 205:1 207:3 211:1 215:2 234:1 237:3 249:1 250:3 272:1 304:1 305:1 306:1 312:1 333:1 354:1 363:1 373:1 381:1 402:1 416:1 431:1 442:1 459:1 473:1 501:1 560:2 575:1 595:1 619:1 636:1 637:1 655:2 662:2 671:1 673:2 674:1 714:1 727:1 756:1 773:4 825:1 837:2 866:1 869:1 871:2 937:1 1009:1 1032:1 1059:2 1111:3 1146:1 1160:1 1161:1 1220:1 1248:2 1346:1 1399:1 1400:1 1401:1 1403:2 1406:1 1457:1 1464:3 1471:1 1571:1 1626:2 1653:1 1654:3 1661:1 1706:1 1785:1 1963:1 2241:1 2580:1 2595:1 2675:1 2724:3 2872:1 3095:1 3096:1 3102:1 3172:1 3272:1 3273:1 3274:3 3275:1 3276:1 3277:1 3278:1 3279:2 3280:2 3281:1 3282:1 3283:1 3284:1 3285:1 3286:1 3287:1 3288:1 3289:1 3290:1 3291:1 3292:1 3293:1 3294:1 3295:1 #
-0.00078192597698898259981487024461444 2:8 4:1 6:2 11:2 14:2 19:3 22:21 24:8 25:17 26:1 32:4 34:1 45:8 47:5 48:1 49:1 54:5 56:1 58:6 59:1 61:2 65:2 66:2 72:2 78:3 81:1 85:3 90:1 101:3 124:2 134:3 135:2 136:3 168:1 169:1 173:3 178:2 197:2 202:1 204:1 205:1 207:1 213:2 215:2 227:1 233:1 235:1 246:1 248:1 249:2 262:2 292:3 304:1 305:1 306:1 311:1 316:1 363:1 365:2 402:1 407:1 411:1 442:1 443:1 519:1 526:1 539:1 655:1 662:1 687:1 688:1 773:1 779:1 812:1 813:1 816:1 831:3 867:1 888:1 923:1 924:1 937:1 954:1 977:1 985:1 1059:1 1106:1 1140:1 1245:1 1248:1 1334:1 1467:1 1576:1 1577:1 1581:1 1609:1 1722:1 1753:1 1872:1 1990:1 2138:1 2227:1 2315:1 2438:1 2466:1 2753:1 2837:1 3111:1 3154:1 3302:1 3615:1 3864:1 4006:1 4084:1 4176:1 4680:1 4790:1 4801:1 4967:1 5154:1 5472:1 5678:3 5679:1 5680:1 5681:1 5682:1 5683:1 5684:1 5685:1 5686:1 5687:1 5688:1 5689:1 5690:1 5691:1 5692:1 5693:1 5694:1 5695:1 5696:1 5697:1 5698:1 5699:1 5700:1 5701:1 5702:1 #
0.00078192597698898259981487024461444 2:4 6:2 11:3 14:1 15:3 19:5 22:12 24:6 25:10 31:1 34:5 42:1 43:2 45:6 47:2 51:1 57:2 58:2 59:1 60:1 61:1 62:2 65:1 66:1 77:1 78:2 83:1 84:2 89:1 109:3 114:1 128:1 136:5 168:1 173:4 184:1 187:1 197:2 201:1 202:2 204:2 245:1 249:2 250:2 267:1 283:1 294:1 310:2 311:1 315:1 321:1 333:1 334:1 341:1 363:3 381:2 406:1 429:1 446:1 465:1 482:1 486:1 489:1 497:1 550:2 566:1 583:2 595:2 602:1 614:2 637:1 642:1 654:1 673:1 756:1 769:1 773:1 779:1 787:2 797:1 798:4 838:1 868:1 943:3 985:1 1035:1 1046:1 1061:1 1064:1 1065:1 1095:1 1131:1 1135:1 1328:1 1334:1 1410:1 1572:1 1587:1 1607:1 1669:1 1672:1 1736:1 1845:1 1870:1 2116:1 2152:1 2187:1 2278:1 2408:1 2501:1 2533:1 2534:1 2751:1 2816:1 2960:1 3035:1 3156:2 3371:1 3615:1 3654:1 3856:1 3912:1 4004:1 4090:1 4174:1 4288:1 4302:1 4433:1 4554:1 4587:1 4922:4 5260:1 5389:1 5397:1 5416:1 5417:1 5418:1 5419:1 5420:1 5421:1 5422:1 5423:2 5424:1 5425:1 5426:1 5427:1 5428:1 5429:1 5430:1 5431:1 5432:1 5433:1 5434:1 5435:1 5436:1 5437:1 5438:1 5439:1 5440:1 5441:1 5442:1 5443:1 5444:1 5445:1 5446:1 5447:1 5448:1 5449:1 5450:1 5451:1 5452:1 5453:1 #
0.00049679293495971145466771901055836 2:2 4:1 6:2 11:4 14:1 19:3 22:9 24:9 25:13 31:1 32:5 34:1 45:6 51:2 58:3 59:1 65:1 66:2 68:1 72:1 75:1 77:2 78:5 80:1 81:1 84:2 89:1 109:2 116:1 128:1 134:2 135:2 136:5 168:2 169:2 173:2 201:1 213:3 232:1 233:2 249:1 256:2 310:1 338:1 339:1 341:1 373:1 394:1 403:1 421:1 449:1 465:1 541:1 544:1 546:1 602:1 614:1 618:1 619:1 650:2 661:1 692:2 693:2 731:1 770:1 773:1 842:1 856:1 938:1 945:1 949:1 977:1 1062:1 1065:1 1128:1 1248:1 1273:1 1274:1 1410:1 1626:1 1747:1 1928:1 1965:1 2168:1 2182:1 2227:1 2238:1 2241:1 2342:1 2389:1 2529:1 2580:1 2651:2 2808:1 2854:1 2862:1 2909:1 3182:1 3245:1 3288:1 4034:1 4454:1 4467:1 4468:1 4518:1 4734:1 4772:1 4830:1 5057:1 5061:1 5588:1 5906:1 6161:1 6420:2 6791:1 7091:1 7386:1 7635:1 7907:1 7908:1 7909:1 7910:1 7911:3 7912:1 7913:1 7914:1 7915:1 7916:1 7917:1 7918:1 7919:1 7920:1 7921:1 7922:1 7923:1 #
0.00078192597698898259981487024461444 2:6 6:5 11:4 12:2 13:1 15:3 19:4 22:10 24:8 25:13 34:8 41:1 45:6 47:2 54:4 58:4 59:2 62:1 65:3 66:1 68:3 70:1 76:2 78:1 85:1 112:1 124:1 136:3 173:2 180:1 187:5 205:1 206:1 238:1 245:1 248:1 249:2 250:2 251:1 276:1 278:2 311:1 338:1 373:1 401:1 405:1 465:2 473:1 482:1 499:1 519:2 539:2 595:2 610:1 614:1 650:1 654:1 667:2 668:2 673:2 684:2 692:1 693:1 728:1 756:1 773:1 805:1 810:1 825:1 842:2 881:1 949:1 985:1 1012:1 1065:1 1069:1 1091:1 1118:1 1138:1 1169:1 1211:1 1309:1 1327:3 1333:1 1348:1 1413:1 1482:1 1498:1 1503:1 1531:1 1583:1 1778:1 1788:1 1843:1 1878:1 1941:2 1956:2 2027:1 2087:1 2089:1 2116:1 2152:1 2178:1 2277:1 2286:1 2410:1 2451:1 2455:1 2604:1 2653:1 2816:1 2870:1 2999:1 3186:1 3230:1 3301:1 3375:1 3494:1 3532:1 3837:1 4105:1 4212:1 4284:1 4934:1 5312:1 5534:1 5775:1 5810:1 5834:1 6106:1 6113:1 6198:1 6203:1 6356:1 6625:2 6633:1 7091:1 7282:1 7461:1 7571:1 7572:1 7573:1 7574:1 7575:1 7576:1 7577:1 7578:1 7579:2 7580:2 7581:2 7582:1 7583:1 7584:1 7585:1 7586:1 7587:1 7588:1 7589:1 7590:1 7591:1 7592:1 7593:2 7594:1 7595:1 7596:2 7597:1 7598:1 7599:1 7600:1 7601:1 7602:1 7603:1 7604:1 7605:1 7606:1 7607:1 7608:1 7609:1 7610:1 7611:1 7612:1 7613:1 7614:1 7615:1 7616:1 7617:1 7618:1 7619:1 7620:1 7621:1 7622:1 #
0.00046820780900858077365131459934844 2:5 6:5 11:2 13:1 14:1 15:2 19:1 22:8 24:2 25:11 31:1 34:4 36:1 39:2 45:5 47:2 51:1 54:1 56:1 58:2 59:1 61:1 65:3 66:1 77:3 78:1 81:1 85:2 97:1 116:1 125:1 136:7 173:2 187:2 202:2 204:2 205:1 245:1 248:1 316:3 317:2 330:1 338:2 345:2 433:1 446:1 459:2 478:1 501:1 519:2 520:1 544:1 552:1 556:1 567:1 585:1 595:4 610:2 614:1 636:1 649:1 682:3 702:1 735:1 756:1 811:1 831:4 937:1 985:2 1052:2 1061:1 1118:1 1135:1 1136:1 1147:1 1184:1 1241:1 1264:2 1291:1 1293:1 1302:1 1374:1 1376:1 1426:1 1447:1 1478:1 1498:1 1509:1 1625:2 1667:1 1915:1 1937:1 1959:1 2059:1 2116:1 2159:1 2162:1 2168:1 2174:1 2194:1 2422:1 2442:1 2654:1 2841:1 2939:1 2940:1 2941:1 2942:3 2943:1 2944:1 2945:1 2946:2 2947:1 2948:1 2949:2 2950:3 2951:1 2952:1 2953:1 2954:1 2955:1 2956:1 2957:1 2958:1 2959:1 2960:1 2961:1 2962:1 2963:1 2964:1 2965:1 2966:1 2967:1 2968:2 2969:1 2970:1 2971:1 2972:1 2973:1 2974:1 2975:1 2976:1 2977:1 2978:1 2979:1 2980:1 2981:1 2982:1 2983:1 2984:1 2985:1 2986:1 2987:1 #
0.00054023777919795122268165066259371 2:5 4:1 5:2 6:4 11:5 13:1 15:1 19:8 22:8 24:9 25:11 30:1 34:6 40:1 45:5 47:3 54:2 58:4 59:1 61:1 62:1 68:1 71:1 75:1 77:2 78:2 84:2 88:1 89:1 90:2 124:5 136:1 173:2 187:3 190:1 233:1 240:1 249:1 258:1 280:1 310:1 317:1 327:1 338:1 364:1 365:1 381:8 411:4 423:1 456:1 465:1 503:2 517:1 539:2 544:1 550:3 564:1 568:1 583:1 595:6 598:1 599:2 612:1 614:4 637:1 654:1 673:2 674:3 760:1 825:1 850:3 951:1 956:1 988:1 1008:1 1009:1 1013:2 1046:1 1059:1 1167:1 1214:1 1264:1 1268:1 1305:1 1334:1 1348:1 1447:1 1529:1 1538:1 1587:2 1785:1 1868:1 1889:1 1898:1 1924:1 2140:1 2151:1 2273:2 2372:2 2440:1 2477:1 2538:1 2647:1 2658:1 2725:1 2870:1 2933:1 2962:1 3400:1 3486:1 3579:1 3857:1 3866:1 3997:2 4004:1 4170:1 4205:1 4206:1 4207:1 4208:1 4209:1 4210:1 4211:1 4212:1 4213:1 4214:1 4215:1 4216:1 4217:1 4218:1 4219:2 4220:1 4221:1 4222:1 4223:1 4224:1 4225:1 4226:1 4227:1 4228:1 4229:1 4230:1 4231:1 4232:1 4233:1 4234:1 4235:1 4236:1 4237:1 4238:1 4239:1 4240:1 4241:1 4242:1 4243:1 4244:1 4245:1 4246:1 4247:1 #
-0.00078192597698898259981487024461444 2:3 6:4 11:7 14:4 15:4 19:6 20:2 22:5 24:7 25:9 29:1 32:1 34:4 37:1 39:1 40:1 45:9 47:1 49:2 51:1 53:1 54:4 58:7 59:1 62:1 66:2 72:2 77:2 78:2 81:1 84:2 85:1 89:2 90:2 110:1 124:1 128:1 135:2 136:4 169:1 173:4 187:1 206:1 207:2 215:2 216:1 217:1 218:1 219:6 220:1 232:1 233:1 235:3 240:1 249:1 250:1 252:1 267:1 327:1 341:1 353:1 365:1 381:2 406:1 424:1 426:1 429:1 449:1 457:1 465:3 499:1 517:1 568:1 569:1 595:2 598:1 602:1 635:1 663:1 664:3 665:1 666:1 667:1 668:1 669:1 670:2 671:1 672:1 673:1 674:1 675:1 676:8 677:1 678:1 679:1 680:1 681:1 682:1 683:1 684:1 685:1 686:1 687:1 688:1 689:1 690:1 691:1 692:1 693:1 694:1 695:2 696:1 697:2 698:1 699:1 700:1 701:1 702:1 703:1 704:1 705:2 706:1 707:1 708:1 709:1 710:1 711:1 712:1 713:1 714:1 715:1 716:1 717:1 718:1 719:1 720:1 721:1 722:1 723:1 724:1 725:1 726:1 727:1 728:1 729:1 730:1 731:1 732:1 733:1 734:1 735:1 736:1 737:1 738:1 739:1 740:1 741:1 742:1 743:1 744:1 745:1 746:1 747:1 748:1 #
-0.00078192597698898259981487024461444 2:4 4:1 6:2 11:4 14:1 19:1 22:7 24:5 25:8 31:1 34:6 45:9 47:1 49:1 54:4 58:3 59:2 61:1 77:2 81:1 85:1 89:1 90:1 109:1 114:3 135:1 136:1 168:1 173:4 178:1 202:1 204:1 206:1 215:2 226:1 227:1 232:1 248:1 262:1 295:1 301:1 304:2 305:2 306:1 308:1 312:1 316:1 338:1 396:1 403:1 497:3 498:1 535:1 544:2 550:1 606:2 611:1 664:1 673:1 726:2 727:1 744:1 756:1 923:1 1118:1 1274:1 1278:1 1293:1 1403:1 1475:1 1482:1 1485:1 1546:1 1801:1 1846:1 1886:1 1969:1 2118:1 2174:1 2215:1 2223:1 2256:1 2309:1 2528:1 2530:1 2657:2 2758:1 3290:1 3428:1 3659:1 3915:1 3973:1 4064:1 4119:1 4263:1 4267:1 4761:1 4933:1 5054:1 5247:1 5474:2 5478:1 5575:1 5744:2 6605:1 6948:1 7225:1 7282:1 7580:1 7628:1 8189:1 8190:5 8191:5 8192:2 8193:1 8194:1 8195:1 8196:1 8197:1 8198:1 8199:1 8200:1 8201:1 8202:1 8203:1 8204:1 8205:1 8206:1 8207:1 8208:1 8209:1 8210:1 8211:1 8212:1 8213:1 8214:1 8215:1 #
-0.00078192597698898259981487024461444 2:4 6:3 11:9 14:1 19:4 22:20 24:2 25:8 29:1 30:1 32:9 34:16 37:1 41:1 43:1 45:11 46:1 47:1 48:1 51:1 54:3 58:4 59:3 61:1 65:1 66:2 70:1 72:5 78:1 80:2 81:1 84:4 89:4 112:1 119:2 124:1 125:1 136:3 168:3 173:4 178:1 195:1 202:2 204:2 205:1 207:1 215:1 232:1 233:1 234:4 249:1 250:2 257:1 286:1 292:1 298:2 304:2 305:2 306:1 307:1 310:2 316:2 319:1 321:1 325:1 338:1 345:1 377:1 383:1 394:1 397:1 405:1 406:2 415:1 421:2 423:1 424:2 425:1 426:1 430:1 439:1 465:3 499:1 511:1 533:2 544:1 549:1 555:1 569:2 595:2 610:1 612:1 614:1 650:1 654:2 669:1 670:1 676:8 677:1 678:1 679:1 684:1 707:1 725:5 727:2 748:1 772:1 773:1 794:1 810:2 811:3 842:3 955:5 1027:1 1091:1 1118:3 1154:1 1168:2 1231:2 1235:1 1272:1 1488:1 1507:1 1587:1 1637:1 1652:4 1677:1 1684:2 1722:1 1730:1 1739:1 1746:1 1773:1 1790:1 1846:1 1937:2 1947:1 1965:1 2174:1 2182:2 2392:1 2407:1 2422:1 2472:1 2495:2 2520:1 2530:1 2605:1 2690:1 2699:1 2902:3 2952:1 2974:3 3052:1 3094:1 3120:1 3245:1 3318:7 3456:1 3691:1 4169:1 4306:1 4755:1 4906:1 5015:1 5196:1 5565:1 5717:1 5742:2 5743:1 5744:3 5745:1 5746:1 5747:1 5748:1 5749:1 5750:1 5751:1 5752:1 5753:1 5754:1 5755:1 5756:1 5757:1 5758:1 5759:1 5760:1 #
-0.00078192597698898259981487024461444 2:6 6:13 13:1 14:2 15:1 19:3 22:6 24:4 25:13 34:14 39:1 45:10 47:3 51:5 54:1 57:1 58:2 62:3 65:1 77:1 78:2 85:2 90:2 102:1 109:1 114:4 125:2 136:2 140:1 173:1 178:1 202:1 204:1 205:1 207:1 215:1 248:1 273:1 286:1 295:3 304:2 305:2 306:1 309:1 311:1 314:1 335:1 381:3 407:2 409:5 424:2 450:2 468:1 477:1 512:1 582:1 595:1 603:1 614:1 620:1 636:1 654:1 656:1 664:1 674:1 698:1 702:1 744:1 773:1 811:2 815:1 824:1 833:1 877:1 899:1 923:1 1046:1 1059:1 1065:1 1118:1 1124:1 1169:1 1172:2 1245:1 1278:2 1427:1 1433:1 1509:1 1548:1 1607:1 1646:1 1650:1 1676:3 1689:1 1693:1 1694:1 1722:1 1843:1 1887:1 1888:1 2089:2 2209:1 2214:1 2254:3 2333:6 2385:1 2803:1 2836:2 2973:1 3169:1 3282:1 3283:1 3317:1 3318:1 3358:1 3461:1 3479:1 3610:3 3611:1 3858:2 3943:1 3951:1 4145:1 4163:1 4362:1 4363:1 4364:1 4365:2 4366:1 4367:1 4368:1 4369:1 4370:1 4371:1 4372:1 4373:1 4374:1 4375:1 4376:1 4377:1 4378:2 4379:1 4380:1 4381:1 4382:1 4383:3 4384:1 4385:1 4386:1 4387:1 4388:1 4389:1 4390:1 4391:1 4392:1 4393:1 4394:1 4395:1 4396:1 4397:1 4398:1 4399:1 4400:1 4401:1 4402:1 4403:1 4404:1 4405:1 4406:1 4407:1 4408:1 4409:1 4410:1 #
0.00048843456379229458104440642074451 2:3 6:6 11:2 19:2 22:18 24:2 25:5 29:1 30:1 32:4 34:2 45:5 47:1 51:1 54:2 58:5 60:1 61:1 62:1 66:2 72:2 78:1 85:1 119:1 124:1 125:1 134:1 135:3 136:1 168:1 173:2 207:2 213:1 241:2 259:1 264:1 311:2 327:1 344:1 351:1 422:1 430:1 451:1 452:1 473:1 478:1 539:1 564:2 567:1 585:1 637:1 654:1 674:1 682:1 692:1 693:1 761:1 791:1 842:1 963:1 1005:1 1065:1 1092:1 1118:1 1161:1 1272:1 1329:1 1494:1 1519:1 1529:1 1647:1 1695:1 1941:1 1942:1 1956:1 2051:1 2454:1 2470:2 2471:1 2537:1 2721:1 2783:1 2935:1 2956:1 2960:1 2965:1 3020:1 3527:1 3571:1 3572:1 3573:1 3574:1 3575:1 3576:1 3577:1 3578:1 3579:1 3580:1 3581:1 3582:1 3583:1 3584:1 3585:1 3586:1 3587:1 3588:1 3589:1 3590:1 3591:1 3592:1 3593:1 3594:1 3595:1 3596:1 3597:1 3598:1 3599:1 3600:1 3601:1 3602:1 3603:1 3604:1 3605:1 3606:1 3607:1 3608:1 3609:1 #
0.00077631670837671111571470783374593 2:5 6:2 11:8 14:1 15:1 18:1 19:1 22:12 24:8 25:10 26:2 32:3 34:7 39:1 40:1 45:6 54:4 57:1 58:2 59:2 61:2 66:5 85:1 89:2 96:2 109:1 114:1 116:2 124:1 128:1 134:2 135:3 136:2 168:2 173:1 187:2 190:1 205:2 213:3 227:1 237:1 250:1 278:1 292:1 310:1 325:1 328:1 338:3 365:1 394:1 405:1 432:1 456:1 465:1 480:1 516:1 531:1 565:1 585:2 614:1 637:1 662:1 673:1 699:1 709:1 731:1 768:1 804:2 866:1 870:1 880:1 904:1 923:1 926:1 937:1 988:1 1061:1 1064:1 1088:1 1168:1 1169:2 1194:1 1205:1 1243:2 1320:1 1334:1 1420:1 1430:1 1488:1 1501:1 1518:1 1519:1 1520:1 1527:1 1645:1 1764:1 1941:1 1956:1 1963:1 1966:2 2087:2 2322:1 2372:1 2418:1 2500:1 2614:1 2817:1 2905:1 2916:1 3061:1 3168:2 3230:1 3269:1 3681:1 4030:1 4562:1 4599:1 5514:1 5727:1 5772:1 5917:1 5926:2 6020:1 6057:1 6662:1 6804:1 6819:1 6906:1 6922:1 7157:1 7250:1 7330:1 7547:1 7578:1 7650:1 7750:1 7751:1 7752:1 7753:1 7754:2 7755:1 7756:1 7757:1 7758:2 7759:1 7760:1 7761:1 7762:1 7763:1 7764:1 7765:1 7766:1 7767:1 7768:1 7769:1 7770:1 7771:1 #
-0.00078192597698898259981487024461444 2:3 6:7 11:5 19:2 22:28 24:10 25:11 27:3 32:4 34:5 45:12 46:1 47:3 55:1 58:5 59:3 61:3 66:4 68:2 72:6 76:1 77:3 78:2 85:2 89:1 90:1 112:1 134:3 135:4 136:7 173:5 175:1 178:3 185:2 187:3 197:1 199:1 201:1 202:1 204:1 205:1 207:2 213:1 215:3 227:2 240:1 248:1 249:2 250:1 281:1 292:1 316:1 345:1 363:4 365:1 369:1 381:1 405:1 407:1 415:1 439:1 449:1 456:1 465:4 473:2 519:3 526:1 539:2 544:2 555:1 619:1 620:1 626:1 637:1 649:2 682:1 685:2 686:2 687:1 688:1 689:3 692:1 693:1 694:1 698:1 705:1 709:1 714:1 725:3 726:2 731:1 744:1 787:1 856:1 867:2 902:6 914:1 977:2 1001:1 1045:1 1059:3 1118:1 1149:2 1151:3 1233:1 1274:1 1302:1 1309:1 1334:3 1465:1 1565:1 1575:1 1587:1 1643:1 1714:1 1773:1 1788:3 1862:1 1905:1 2090:1 2174:1 2184:1 2254:1 2475:1 2701:1 2870:1 3331:1 3546:3 3698:1 3767:1 3790:1 3997:1 4064:1 4243:1 4535:1 4536:1 4537:1 4538:1 4539:1 4540:1 4541:1 4542:1 4543:1 4544:1 4545:1 4546:1 4547:1 4548:1 4549:1 4550:1 4551:1 4552:1 4553:1 4554:1 4555:1 4556:1 4557:1 4558:1 4559:1 4560:1 4561:1 #
-0.0005703012220319673020868522783644 2:7 6:4 11:8 15:1 19:7 22:18 24:10 25:21 31:1 33:1 34:13 45:14 47:2 51:3 54:5 56:1 58:4 59:4 61:3 62:2 65:1 68:1 70:1 72:3 77:2 78:1 84:2 85:3 89:3 90:3 109:1 116:1 125:1 128:1 130:2 134:1 135:1 136:2 165:1 173:2 178:1 202:1 204:1 205:1 207:4 215:2 226:1 232:1 234:1 238:4 239:2 240:1 245:1 250:1 291:1 294:1 301:3 308:1 316:1 317:1 322:1 325:1 345:1 363:2 365:1 381:1 387:1 394:1 399:4 406:1 465:3 473:2 499:2 519:1 551:1 555:1 560:1 588:4 595:1 598:1 612:1 614:2 648:2 655:1 662:1 682:1 684:1 705:1 708:2 727:1 738:1 744:2 768:2 796:1 797:1 798:2 824:1 831:1 871:1 904:1 937:2 985:1 1012:1 1013:1 1059:1 1073:3 1118:1 1127:1 1151:3 1168:1 1182:1 1197:1 1267:1 1327:1 1399:3 1400:2 1403:7 1405:1 1406:2 1407:1 1408:1 1484:2 1493:1 1508:1 1536:1 1551:3 1587:1 1667:1 1676:2 1722:1 1730:1 1747:1 1773:1 1805:1 1808:1 1829:1 1945:3 1947:1 2140:2 2147:1 2159:1 2174:1 2180:1 2241:2 2382:1 2389:1 2392:1 2423:1 2707:1 3012:2 3320:4 3647:1 3879:1 3915:1 3919:1 3951:1 4074:1 4146:1 4461:1 4507:1 4958:1 5290:2 5335:1 5575:1 5697:1 5929:1 5978:1 6290:4 6378:2 6599:1 6717:1 6792:2 7040:1 7146:1 7212:1 7695:2 8159:1 8160:6 8161:1 8162:1 8163:1 8164:1 8165:1 8166:1 8167:1 8168:1 8169:1 8170:1 8171:1 8172:1 8173:1 8174:1 8175:1 8176:1 8177:1 8178:1 8179:1 8180:1 8181:1 8182:1 8183:1 8184:1 8185:1 8186:1 8187:1 8188:1 #
-0.00078192597698898259981487024461444 2:8 6:6 11:4 19:7 22:16 24:5 25:10 29:2 30:1 31:1 34:8 37:3 43:1 45:13 47:2 48:2 54:2 56:1 58:6 59:1 62:3 65:2 66:5 72:6 77:1 78:1 81:1 85:2 109:1 114:2 116:2 124:2 128:1 136:2 146:2 156:1 168:2 169:1 173:3 178:1 180:1 184:1 197:1 201:1 202:1 204:1 205:1 206:1 207:1 209:1 215:1 220:1 234:2 235:1 240:1 241:1 243:1 245:2 249:2 250:2 251:1 261:2 294:1 304:2 305:2 306:1 308:1 314:1 316:3 324:1 331:1 338:1 349:1 350:1 363:5 364:1 365:1 377:1 381:1 402:2 407:1 438:1 473:1 497:1 526:1 552:1 602:1 648:1 662:1 684:1 695:1 727:1 756:1 762:1 773:2 787:1 800:1 807:1 812:1 813:7 814:1 815:2 816:3 817:2 818:2 819:1 820:1 821:1 822:2 823:2 824:2 825:1 826:1 827:1 828:1 829:1 830:1 831:2 832:1 833:3 834:1 835:1 836:1 837:1 838:1 839:1 840:2 841:1 842:1 843:1 844:1 845:1 846:1 847:3 848:1 849:1 850:1 851:1 852:1 853:1 854:1 855:1 856:1 857:1 858:1 859:1 860:1 861:7 862:1 863:1 864:1 865:1 866:1 867:3 868:1 869:1 870:1 871:1 872:1 873:1 874:1 875:1 876:1 877:1 878:1 879:1 880:1 881:1 882:1 883:1 884:1 885:1 886:1 887:1 888:1 889:1 890:1 891:1 892:1 893:1 894:1 895:1 896:1 897:1 898:1 899:1 900:1 901:1 #
-0.00075899175193512352557284605936161 2:10 6:7 7:3 11:5 14:3 19:6 22:20 24:7 25:15 29:1 32:3 34:6 36:1 45:14 47:1 48:1 54:1 56:1 57:1 58:6 59:2 61:2 62:2 66:2 72:7 75:1 77:3 84:1 85:1 89:4 93:1 94:1 109:3 114:3 116:4 119:1 124:1 128:1 132:1 169:1 173:9 178:2 185:3 195:1 202:1 204:1 205:3 206:1 207:1 213:1 215:1 227:5 234:1 235:2 245:2 248:1 249:1 250:2 258:1 261:2 262:1 292:1 304:2 305:2 306:1 308:1 311:1 316:2 321:1 328:2 336:1 341:1 344:2 407:1 409:6 438:1 449:2 450:2 456:1 459:2 465:5 474:1 499:1 541:3 542:2 544:1 548:4 619:1 637:1 647:1 664:1 731:1 738:1 768:2 810:1 811:1 824:1 830:1 842:2 847:2 866:1 868:1 870:1 949:1 955:1 1009:1 1059:1 1150:1 1151:2 1182:3 1272:1 1293:1 1294:1 1319:1 1334:1 1340:1 1346:1 1369:1 1407:1 1433:1 1441:1 1587:1 1772:1 1785:1 1867:1 1941:1 1956:1 2071:1 2087:1 2203:1 2207:1 2306:1 2310:1 2416:1 2582:1 2653:1 2703:2 2802:1 2870:1 2878:1 2937:1 2988:1 2989:1 2990:1 2991:1 2992:1 2993:2 2994:4 2995:2 2996:4 2997:5 2998:2 2999:1 3000:1 3001:2 3002:2 3003:1 3004:1 3005:2 3006:2 3007:1 3008:1 3009:1 3010:1 3011:1 3012:2 3013:1 3014:3 3015:1 3016:1 3017:1 3018:1 3019:1 3020:1 3021:1 3022:1 3023:1 3024:1 3025:1 3026:1 3027:1 3028:2 3029:1 3030:1 3031:1 3032:1 3033:1 3034:1 3035:1 3036:1 3037:1 3038:1 3039:1 3040:1 3041:1 3042:1 3043:1 3044:1 3045:1 3046:1 3047:1 3048:1 3049:1 3050:1 3051:1 3052:1 #
-0.00078192597698898259981487024461444 2:11 6:5 11:6 14:2 15:1 19:9 20:1 22:20 24:5 25:11 32:2 34:11 37:2 45:13 46:1 51:2 54:1 58:6 59:3 61:1 62:3 66:1 70:1 72:4 78:4 84:6 90:4 109:2 110:1 114:1 116:2 124:4 136:4 173:1 178:1 187:1 202:1 204:1 207:1 215:1 217:1 220:1 226:1 240:1 246:3 250:1 259:2 295:1 308:1 310:2 311:2 312:1 316:2 327:3 328:1 331:1 342:1 344:1 345:1 367:1 381:2 383:1 384:1 394:1 399:2 403:1 406:3 415:1 424:1 459:2 461:1 465:2 493:1 538:1 539:2 544:1 550:1 553:2 567:1 588:1 595:2 638:1 655:3 656:1 662:1 673:1 674:1 692:1 693:1 708:1 727:2 756:1 768:1 797:1 827:1 841:1 870:1 871:4 937:2 943:1 955:2 988:1 1126:1 1167:1 1218:1 1227:1 1231:1 1235:1 1308:1 1309:1 1334:1 1348:1 1399:2 1400:1 1401:2 1403:6 1406:1 1411:1 1457:1 1458:1 1464:1 1484:1 1507:2 1528:1 1551:2 1572:1 1587:4 1660:1 1698:1 1720:1 1722:2 1773:1 1785:2 1884:1 1976:1 1977:1 2096:1 2116:4 2287:1 2294:2 2295:1 2296:3 2327:1 2439:1 2504:1 2533:1 2698:1 2703:1 3011:1 3073:2 3080:1 3373:1 3387:1 3471:1 3521:1 3706:1 3788:1 3975:1 4108:1 4426:1 4695:1 4756:1 4984:1 5651:1 5723:1 6062:1 6290:2 6429:1 6430:1 6465:1 6748:1 7396:2 7397:1 7398:1 7399:1 7400:1 7401:2 7402:1 7403:1 7404:1 7405:1 7406:1 7407:1 7408:1 #
0.00065195755723986806469405497210801 2:7 6:1 11:1 13:1 14:1 19:8 22:6 24:14 25:9 26:2 33:3 34:5 45:4 56:1 58:2 61:1 62:1 72:1 80:1 84:2 94:1 95:1 96:2 110:1 134:2 135:3 136:5 173:4 176:1 207:1 228:1 248:1 254:2 258:2 321:1 365:1 381:1 424:1 430:1 505:3 552:1 585:1 614:3 637:1 638:1 649:2 662:1 679:1 707:1 710:1 766:1 899:1 949:1 977:1 1044:1 1108:1 1161:1 1182:1 1319:1 1357:1 1390:1 1401:1 1440:1 1447:1 1501:1 1607:1 1748:1 1819:1 1887:1 2047:1 2220:1 2943:2 2962:1 2972:1 3045:1 3092:1 3418:1 3723:1 3731:1 4003:1 4175:1 4308:1 4309:1 4310:1 4311:1 4312:1 4313:2 4314:1 4315:1 4316:1 4317:1 4318:1 4319:1 4320:1 4321:1 4322:1 4323:1 4324:1 4325:1 4326:1 4327:1 4328:1 4329:1 4330:1 4331:1 4332:1 4333:1 4334:1 4335:1 4336:1 4337:1 4338:1 4339:1 4340:1 4341:1 4342:1 4343:1 4344:1 4345:1 4346:1 4347:1 4348:1 4349:1 4350:1 4351:1 4352:1 4353:1 4354:1 4355:1 4356:2 4357:1 4358:1 4359:1 4360:1 4361:1 #
0.0004745121162816290328809176735092 2:3 6:5 7:1 11:2 14:1 19:4 22:9 24:7 25:7 29:1 30:1 32:4 34:6 45:5 47:2 50:1 51:1 57:1 58:4 59:1 61:1 62:1 66:5 78:1 81:1 90:1 109:1 114:1 116:1 136:2 173:1 197:1 207:1 232:1 233:1 267:1 292:1 308:1 309:2 310:1 316:1 357:1 373:1 377:1 394:2 411:1 414:1 430:1 489:1 519:1 575:1 584:1 590:1 595:1 614:2 621:1 638:2 726:1 727:1 744:1 756:1 761:1 773:1 779:1 842:1 846:1 880:1 937:2 988:1 1031:1 1154:1 1218:1 1235:1 1416:1 1635:2 1661:1 1693:1 1706:1 1731:1 1757:1 1771:1 1898:1 1916:1 1917:1 1918:1 1919:1 1920:1 1921:1 1922:3 1923:1 1924:1 1925:1 1926:1 1927:1 1928:1 1929:1 1930:1 1931:1 1932:1 1933:1 1934:1 1935:1 1936:1 1937:1 1938:1 1939:1 1940:1 1941:1 1942:1 1943:1 1944:1 1945:1 1946:1 1947:1 1948:1 1949:1 1950:1 1951:1 1952:1 1953:1 1954:1 1955:1 1956:1 1957:1 1958:1 1959:1 1960:1 1961:1 1962:1 1963:1 1964:1 1965:1 1966:1 1967:1 1968:1 #
0.00067167822773459007201779513707152 2:2 6:9 11:4 14:2 19:3 20:1 22:10 24:2 25:12 34:11 39:1 40:1 41:1 45:5 46:1 51:1 54:2 58:2 59:1 65:3 75:1 77:1 78:1 81:1 84:3 85:2 94:1 95:1 114:1 123:1 128:2 136:3 146:1 169:1 184:1 191:1 197:2 207:2 245:1 258:1 264:1 267:1 311:3 316:2 325:1 338:1 353:1 363:1 381:3 404:1 406:1 430:1 440:1 465:2 490:1 520:1 564:1 565:1 567:1 580:1 582:1 584:1 595:2 619:1 638:1 654:1 702:1 773:1 778:1 830:1 842:1 851:1 923:1 931:1 937:1 952:1 965:1 966:1 1032:1 1040:1 1065:1 1118:1 1124:1 1150:1 1240:1 1361:1 1401:1 1427:2 1553:4 1635:1 1759:1 1770:1 1845:1 1853:1 1911:1 2091:1 2137:1 2138:1 2139:1 2140:1 2141:1 2142:1 2143:1 2144:1 2145:1 2146:1 2147:1 2148:1 2149:1 2150:1 2151:1 2152:1 2153:1 2154:1 2155:1 2156:1 2157:1 2158:1 2159:1 2160:1 2161:1 2162:1 2163:1 2164:1 2165:1 2166:2 2167:1 2168:1 2169:1 2170:1 2171:1 2172:2 2173:1 2174:1 2175:1 2176:1 2177:1 2178:1 2179:1 2180:1 2181:1 2182:2 2183:1 2184:1 2185:1 2186:1 2187:1 2188:1 2189:1 #
-0.00078192597698898259981487024461444 2:10 4:5 5:3 11:4 15:1 19:3 22:8 24:5 25:9 26:3 29:1 30:1 32:2 34:9 37:1 39:1 45:12 46:1 47:2 54:3 56:1 58:3 59:3 62:1 65:1 66:2 83:1 84:1 85:1 89:3 95:2 96:3 109:1 110:1 114:3 128:3 134:1 135:5 136:1 173:7 178:1 202:1 204:1 215:1 216:1 237:1 241:1 249:1 250:2 300:1 304:2 305:2 306:1 310:2 314:1 322:2 338:1 345:1 353:3 381:1 399:1 405:1 407:1 465:1 478:2 538:1 619:1 646:1 673:1 731:2 756:1 831:1 842:1 856:1 866:1 875:1 898:1 904:1 923:1 1009:3 1012:1 1032:5 1076:2 1094:2 1107:1 1113:1 1136:2 1146:1 1147:1 1160:1 1291:1 1427:1 1505:1 1528:2 1609:1 1676:1 1679:1 1749:1 1759:1 1962:2 1988:1 2116:1 2138:1 2140:2 2152:1 2194:1 2264:1 2372:1 2466:1 2472:2 2476:1 2504:1 2538:1 2687:1 2688:2 2865:2 2877:1 2909:2 3155:1 3160:1 3230:1 3278:1 3461:1 3481:1 3521:1 3556:1 3567:1 3568:1 3615:1 3670:1 3707:1 3767:1 3846:1 3951:1 4037:1 4319:2 4677:1 4840:1 4935:1 4986:1 4995:1 5041:1 5075:1 5596:1 5646:1 5801:1 6288:1 6677:1 6791:1 7051:1 7409:1 7410:1 7411:1 7412:1 7413:1 7414:1 7415:1 7416:1 7417:1 7418:1 7419:1 7420:1 7421:1 7422:1 7423:1 7424:1 #
0.00078192597698898259981487024461444 2:5 6:5 11:9 14:4 19:2 22:13 24:5 25:13 32:1 34:10 45:5 46:1 47:2 51:6 54:1 57:1 58:2 59:1 65:2 72:3 78:3 80:1 81:2 84:4 85:1 89:1 90:3 109:1 134:1 135:3 136:2 146:2 165:1 173:3 187:1 198:2 205:3 206:2 267:1 274:1 325:1 381:1 398:1 405:2 449:1 459:2 465:2 490:1 513:1 544:1 552:1 564:1 567:1 573:1 581:1 582:1 583:1 588:1 589:3 602:1 603:1 606:2 614:1 619:2 638:1 650:1 654:1 655:1 682:2 684:1 692:1 693:1 698:1 699:1 701:1 702:1 705:1 766:1 886:1 899:2 927:1 974:1 980:1 1009:1 1030:1 1076:1 1102:1 1280:1 1291:1 1322:1 1380:1 1447:2 1801:1 1861:1 1960:1 1985:1 2050:1 2062:1 2089:1 2118:1 2159:1 2168:2 2209:1 2254:1 2408:1 2658:1 2684:1 3040:1 3182:1 3246:1 3276:1 3396:1 3656:1 3659:2 3697:1 3698:1 3760:1 3767:1 3985:1 4154:1 4241:1 4250:1 4376:1 4451:1 4808:1 4809:1 4810:1 4811:1 4812:1 4813:1 4814:1 4815:1 4816:1 4817:2 4818:2 4819:1 4820:1 4821:1 4822:1 4823:1 4824:1 4825:1 4826:1 4827:1 4828:1 4829:1 4830:1 4831:1 4832:1 4833:1 4834:1 4835:1 4836:1 4837:1 4838:1 4839:1 4840:1 4841:1 4842:1 4843:1 4844:1 4845:1 4846:1 #
0.00078192597698898259981487024461444 2:2 4:1 6:8 11:4 14:1 19:2 22:16 24:7 25:15 31:1 34:4 35:1 45:6 47:2 48:1 51:3 54:2 57:1 58:2 59:1 62:1 66:1 72:1 77:1 78:1 81:1 85:1 91:1 109:1 124:1 134:1 135:2 136:3 169:1 173:2 207:1 213:1 235:2 239:1 245:1 250:1 254:1 267:2 280:2 308:1 325:1 363:1 364:1 394:1 403:2 405:1 406:2 465:3 519:1 550:1 602:1 628:1 650:1 655:1 660:1 664:2 761:1 773:1 848:1 849:1 904:1 926:1 927:1 988:1 1007:1 1054:1 1167:1 1268:1 1316:1 1420:1 1436:1 1498:1 1503:1 1546:1 1862:1 1886:1 1962:1 1967:1 2077:2 2140:1 2225:1 2283:1 2356:1 2422:1 2524:1 2530:1 2582:1 2721:1 2746:1 3174:1 3545:1 3546:1 3679:1 3844:1 3915:1 4072:1 4073:1 4074:1 4075:1 4076:1 4077:1 4078:2 4079:1 4080:1 4081:1 4082:2 4083:1 4084:1 4085:1 4086:1 4087:1 4088:1 4089:1 4090:1 4091:1 4092:1 4093:1 4094:1 4095:1 4096:1 4097:1 4098:1 4099:1 4100:1 4101:1 4102:1 4103:1 4104:1 4105:1 4106:1 #
-0.00021878868149537104696202016729245 2:6 6:9 7:1 11:2 12:1 14:4 15:2 19:9 22:13 24:8 25:26 26:2 34:12 37:1 40:1 45:14 47:1 51:1 54:7 56:1 58:3 59:1 60:1 61:2 62:2 65:1 68:1 78:1 81:1 84:1 85:3 89:2 90:2 101:1 109:4 110:1 114:3 116:3 124:6 133:2 136:1 168:1 173:2 178:2 201:1 202:3 204:3 205:4 207:3 215:2 220:1 232:1 235:2 245:1 278:2 280:1 300:4 304:2 305:2 306:1 328:1 333:1 338:1 345:1 373:1 381:3 396:1 399:1 401:1 407:1 411:1 423:1 459:1 465:5 501:1 541:1 544:1 564:1 595:2 598:2 612:1 614:2 619:1 638:1 656:1 674:2 687:1 692:4 693:4 702:1 705:1 724:1 735:1 773:2 799:1 831:4 912:1 923:2 930:1 994:1 1003:1 1009:1 1017:1 1018:1 1032:1 1059:1 1075:1 1118:1 1218:1 1243:1 1254:1 1284:1 1329:1 1433:1 1576:1 1583:1 1587:2 1609:1 1763:2 1846:2 1876:1 2088:3 2174:1 2190:1 2191:1 2192:1 2193:1 2194:4 2195:1 2196:1 2197:1 2198:4 2199:4 2200:1 2201:2 2202:1 2203:1 2204:1 2205:1 2206:1 2207:2 2208:2 2209:1 2210:1 2211:1 2212:1 2213:1 2214:1 2215:1 2216:1 2217:1 2218:1 2219:1 2220:1 2221:1 2222:1 2223:1 2224:1 2225:1 2226:1 2227:1 2228:1 2229:1 2230:1 2231:1 2232:1 2233:2 2234:2 2235:2 2236:2 2237:1 2238:1 2239:1 2240:1 2241:1 2242:1 2243:1 2244:1 2245:1 2246:3 2247:2 2248:1 2249:1 2250:1 2251:1 2252:2 2253:2 2254:1 2255:1 2256:1 2257:1 2258:1 2259:1 2260:1 2261:1 2262:1 2263:1 2264:1 2265:1 2266:1 2267:1 2268:1 2269:1 2270:2 2271:2 2272:1 2273:1 2274:1 2275:1 2276:1 2277:1 2278:1 2279:1 2280:1 2281:1 2282:1 2283:1 2284:1 2285:1 2286:1 2287:1 2288:1 2289:1 2290:1 2291:1 2292:1 #
-0.00052627923069150837030727441145928 2:6 4:1 6:7 11:7 19:6 22:15 24:7 25:22 30:1 32:2 34:9 43:1 45:14 47:2 51:1 54:4 58:6 61:2 62:3 65:3 66:1 75:1 77:1 78:1 80:1 84:1 90:1 101:2 109:2 114:4 116:2 136:6 141:1 146:2 168:2 173:3 178:1 183:1 184:1 187:1 197:1 199:1 202:1 204:1 205:1 206:2 207:2 215:1 217:1 226:2 232:2 249:1 250:3 259:4 291:1 301:1 304:2 305:2 306:1 319:1 331:1 342:4 363:1 377:4 380:1 381:1 399:1 404:1 407:1 410:1 438:1 465:1 478:1 519:2 541:1 552:1 595:4 602:1 621:1 629:1 635:1 690:1 695:1 760:1 764:1 773:1 815:1 842:1 889:1 923:1 1003:1 1045:1 1073:2 1127:1 1151:1 1168:1 1207:1 1232:1 1272:1 1279:1 1327:1 1336:2 1447:2 1450:1 1523:1 1587:1 1598:1 1635:1 1733:1 1739:1 1778:1 1782:1 1867:1 1886:1 1887:1 1965:1 2070:1 2107:1 2116:1 2152:1 2255:1 2278:1 2342:1 2476:1 2491:1 2519:1 2537:4 2731:1 2773:1 2855:4 2865:1 2900:1 2916:1 2965:1 3035:1 3040:1 3094:1 3102:1 3175:1 3311:1 3338:1 3476:3 3517:1 3548:1 3637:1 3779:1 3851:2 3939:1 3953:1 4084:1 4145:1 4176:2 4203:1 4424:2 4488:6 4493:1 4534:1 4955:2 4956:10 4957:1 4958:1 4959:1 4960:1 4961:1 4962:1 4963:1 4964:1 4965:1 4966:1 4967:1 4968:1 4969:1 4970:1 4971:1 4972:3 4973:1 4974:1 4975:1 4976:1 4977:1 4978:1 4979:1 4980:1 4981:1 4982:1 4983:1 4984:1 4985:1 4986:1 4987:1 4988:1 4989:1 4990:1 4991:1 4992:1 4993:1 4994:1 #
0.00075106699099161341754565812678379 2:2 6:5 11:2 15:1 19:4 22:9 24:5 25:14 34:5 45:6 46:1 48:1 54:3 58:2 59:1 61:2 66:1 72:2 76:1 77:1 78:1 80:1 84:2 85:2 89:1 90:1 94:1 95:2 106:2 109:1 111:1 116:1 125:1 130:1 136:5 168:1 173:1 176:1 196:1 205:1 212:1 232:1 233:1 245:1 258:1 310:1 312:1 316:2 328:1 329:1 330:1 394:1 414:1 415:1 436:1 452:1 543:1 555:1 595:1 596:1 598:1 612:1 637:1 654:1 659:1 661:1 662:1 682:1 744:1 745:1 768:1 773:1 810:1 842:1 856:1 899:2 990:1 1014:1 1102:1 1106:1 1165:1 1235:1 1294:1 1309:1 1347:1 1420:1 1422:1 1507:1 1558:1 1646:1 1757:1 1836:1 1941:1 1956:1 1965:1 2070:1 2107:1 2490:1 2644:1 2698:1 2740:1 2790:1 2894:1 2943:1 3375:1 3541:1 3815:1 3849:2 4034:1 4754:1 4912:1 5002:2 5624:1 5764:1 5819:1 5892:1 6240:1 6249:1 6280:1 7593:1 7924:1 7925:1 7926:1 7927:1 7928:4 7929:1 7930:1 7931:1 7932:2 7933:1 7934:1 7935:1 7936:1 7937:1 7938:1 7939:1 7940:1 7941:1 7942:1 7943:1 7944:1 7945:1 7946:1 7947:1 7948:1 7949:1 7950:1 7951:1 7952:1 7953:1 7954:1 7955:1 7956:1 7957:1 7958:1 7959:1 7960:1 7961:1 7962:1 7963:1 7964:1 #
0.00078192597698898259981487024461444 1:1 2:4 4:1 5:2 6:5 11:5 14:1 19:1 22:8 23:1 25:14 26:2 27:1 28:1 29:1 30:1 32:3 34:9 37:1 39:1 45:7 58:2 59:1 62:1 65:1 72:3 76:1 77:1 78:2 84:2 89:3 114:2 116:3 118:1 124:1 125:2 134:1 135:1 136:1 168:1 173:2 176:1 213:3 226:2 227:1 237:1 241:1 246:1 250:1 251:1 254:1 258:2 293:1 310:1 312:2 316:2 328:1 353:2 379:1 399:1 405:2 406:1 465:3 478:1 585:1 595:2 603:1 612:1 637:2 638:2 761:1 765:1 773:1 787:1 801:1 842:2 868:1 888:1 899:1 985:1 1003:1 1007:1 1009:1 1041:1 1065:1 1101:1 1136:1 1137:1 1179:1 1220:1 1327:1 1348:1 1501:1 1592:1 1643:1 1667:1 1699:1 1749:1 1764:1 1809:1 1846:1 2011:1 2047:1 2230:1 2249:1 2283:1 2316:1 2426:1 2446:1 2466:2 2472:2 2477:2 2478:2 2480:2 2481:1 2500:1 2891:1 3063:1 3302:1 3534:1 4082:1 4185:1 4319:1 4356:1 4453:1 4768:1 5197:1 5472:1 5621:1 5761:1 5762:1 5763:1 5764:1 5765:1 5766:1 5767:1 5768:1 5769:1 5770:1 5771:1 5772:1 5773:1 5774:1 5775:1 #
0.00054825279140783395558089718946349 2:3 6:5 11:4 19:4 20:1 22:11 24:2 25:6 32:2 34:3 36:1 45:6 46:1 47:6 54:4 56:1 57:1 58:2 62:1 65:3 66:4 70:1 76:2 81:1 85:1 124:1 130:1 134:1 135:1 136:3 141:1 167:1 173:3 187:1 197:2 201:1 207:3 213:1 249:1 267:1 312:1 316:1 333:1 344:2 365:1 394:1 405:1 406:1 410:2 424:1 442:1 555:1 567:1 585:2 618:1 619:1 637:1 644:1 650:1 661:1 682:1 684:2 726:1 728:1 730:1 737:1 842:1 904:1 937:1 949:1 955:3 1013:1 1063:1 1069:1 1135:1 1168:1 1319:1 1370:1 1416:1 1501:1 1572:1 1661:1 1733:1 1808:1 1878:1 1887:1 1941:1 1956:1 1967:1 1972:1 2051:2 2140:1 2284:1 2327:1 2365:1 2439:1 2812:2 2829:1 2837:1 2902:1 2916:1 2934:1 3128:1 3161:1 3307:1 3769:1 3962:1 4173:1 4613:1 5043:2 5232:1 5540:1 6606:1 7124:1 7458:1 7990:1 8073:1 8074:1 8075:3 8076:2 8077:1 8078:1 8079:1 8080:1 8081:1 8082:1 8083:1 8084:1 8085:1 #
0.00069958279199733514400194600568739 2:4 6:5 11:4 19:3 20:1 22:9 24:4 25:7 27:2 32:2 34:8 39:3 43:1 45:5 47:1 54:1 58:2 59:1 66:1 76:1 78:2 85:1 116:1 136:4 168:1 176:1 187:1 188:1 206:1 207:2 227:2 235:1 249:1 258:1 294:3 311:1 316:1 345:1 365:1 397:1 401:1 406:1 407:1 424:1 459:2 465:1 477:1 478:1 539:2 555:1 558:1 569:1 604:1 638:1 654:1 673:1 684:1 756:2 757:1 765:1 768:1 770:1 825:1 830:1 842:1 902:3 913:4 922:1 938:1 990:1 1000:1 1007:1 1065:1 1168:1 1182:1 1257:1 1272:1 1338:1 1523:1 1599:1 1635:1 1665:1 1721:2 1722:1 1752:1 2305:1 2369:1 2370:1 2483:1 2581:2 2725:1 2874:1 3128:1 3162:1 3231:1 3269:2 3537:1 3584:1 3700:1 3753:1 3761:1 4004:1 4015:1 4016:1 4017:1 4018:1 4019:1 4020:1 4021:1 4022:1 4023:1 4024:1 4025:1 4026:1 4027:1 4028:1 4029:1 4030:1 4031:1 4032:1 4033:1 4034:1 #
0.00071433631745274951165003418651622 2:1 4:1 6:2 7:1 11:1 14:1 15:1 19:2 22:14 24:4 25:6 34:6 37:1 41:1 45:7 48:1 54:2 57:1 58:2 59:1 61:3 65:1 72:5 78:1 81:1 84:2 89:4 90:2 109:1 112:1 114:2 119:1 124:1 136:1 168:2 169:1 173:2 222:1 234:1 235:1 245:3 246:2 248:2 250:1 301:2 310:1 311:1 317:1 365:1 394:1 402:1 406:1 410:1 459:1 465:2 544:1 569:1 602:1 650:2 692:1 693:1 699:1 770:1 785:1 842:1 880:1 988:1 1065:1 1118:1 1139:1 1161:1 1169:1 1220:1 1274:1 1533:1 1587:1 1607:1 1667:2 1684:2 1693:1 1695:1 1698:2 1741:1 1742:3 1862:1 1886:1 1928:1 1937:2 1947:1 2194:2 2246:1 2268:1 2455:1 2465:1 2483:1 2554:1 2900:1 2999:1 3195:1 3266:1 3695:1 3800:1 3801:1 3802:1 3803:2 3804:1 3805:2 3806:2 3807:1 3808:1 3809:2 3810:1 3811:1 3812:1 3813:1 3814:1 3815:1 3816:1 3817:1 3818:1 3819:1 3820:1 3821:1 3822:1 3823:1 3824:1 3825:1 3826:1 3827:1 3828:1 3829:1 3830:1 3831:1 #
0.00041598614715781731532295850684022 2:5 4:1 6:1 11:5 19:4 22:9 24:2 25:6 31:1 32:4 34:7 45:5 46:1 48:2 54:1 57:1 58:3 59:1 60:1 61:1 65:1 72:4 75:1 84:2 94:2 116:1 133:1 136:5 173:4 233:3 235:2 240:1 248:1 250:2 278:1 310:3 313:1 325:1 327:2 328:2 363:3 364:2 402:1 449:1 519:1 539:1 552:1 583:2 637:1 682:1 702:1 755:1 773:1 842:2 868:1 880:1 949:1 985:1 988:1 1032:1 1065:1 1132:1 1136:1 1285:1 1303:1 1320:2 1420:1 1494:1 1495:1 1496:1 1497:1 1498:1 1499:1 1500:1 1501:1 1502:1 1503:1 1504:1 1505:2 1506:2 1507:2 1508:1 1509:1 1510:1 1511:1 1512:1 1513:1 1514:1 1515:1 1516:1 1517:1 1518:1 1519:1 1520:1 1521:2 1522:1 1523:1 1524:1 1525:1 1526:1 1527:1 1528:1 1529:1 1530:1 1531:1 1532:1 1533:1 1534:1 1535:1 1536:1 1537:1 1538:1 1539:1 1540:1 1541:1 1542:1 1543:1 1544:1 1545:1 1546:1 1547:1 1548:1 1549:1 1550:1 1551:1 1552:1 #
0.00056841616803340031839619772568994 2:5 6:3 11:3 13:1 19:6 22:12 24:2 25:7 30:1 32:3 33:1 34:5 45:5 46:1 48:3 54:1 57:1 58:2 59:1 61:5 66:2 72:2 78:2 84:3 85:1 89:1 90:1 116:2 119:1 124:1 125:1 136:2 168:1 169:1 173:1 202:1 204:1 205:2 206:1 216:1 235:1 238:1 250:1 254:1 263:1 310:1 325:1 327:1 336:1 345:1 377:1 399:2 411:1 459:1 465:2 478:1 510:1 539:1 544:1 595:1 637:1 644:1 707:1 756:1 825:1 831:1 842:2 856:1 880:1 988:1 1100:1 1136:1 1161:1 1168:1 1179:1 1239:1 1257:1 1285:3 1334:1 1371:1 1384:1 1501:1 1529:1 1587:1 1609:1 1688:1 1747:1 1763:1 1773:1 1778:1 1812:1 1878:1 1937:1 1941:1 1956:1 1965:1 2147:1 2194:4 2246:1 2446:1 2591:1 2612:1 2639:1 2640:1 2916:1 2978:1 3490:1 3502:1 3591:1 3760:1 3987:1 3988:1 3989:2 3990:1 3991:1 3992:1 3993:1 3994:1 3995:1 3996:1 3997:1 3998:1 3999:1 4000:1 4001:1 4002:1 4003:1 4004:1 4005:1 4006:1 4007:1 4008:1 4009:1 4010:1 4011:1 4012:1 4013:1 4014:1 #
0.00014422617548949517992870617000278 2:9 6:6 11:7 13:1 14:4 15:1 19:1 22:14 23:1 24:5 25:6 26:3 27:1 28:2 32:1 34:11 39:1 45:4 47:3 54:2 57:1 58:2 59:3 61:1 62:1 67:1 68:1 77:1 78:1 81:1 85:1 89:2 92:1 114:1 124:4 136:4 168:1 169:1 173:1 187:1 222:1 248:3 249:1 250:1 251:1 258:1 310:1 317:1 326:2 327:1 353:1 363:3 373:1 381:2 411:1 473:1 474:1 478:1 517:1 519:1 544:1 553:1 556:1 583:1 595:1 614:1 637:2 650:1 655:1 661:4 682:6 698:1 702:1 705:2 773:1 792:1 798:1 804:1 833:1 842:1 856:1 866:1 875:3 880:1 943:1 954:1 988:1 1009:1 1018:1 1032:2 1059:1 1060:1 1078:1 1136:1 1149:1 1268:1 1371:1 1384:1 1498:1 1528:1 1529:2 1537:1 1558:1 1657:1 1658:1 1687:1 1703:1 1809:1 1828:1 1829:1 1848:1 1947:1 1977:1 2058:1 2116:1 2194:2 2254:1 2264:1 2369:1 2455:1 2500:1 2567:1 2653:1 2709:1 2731:1 3040:1 3073:1 3307:1 3359:1 3362:1 3428:1 3435:1 3456:2 4004:2 4138:1 4291:1 4353:5 4440:1 5186:1 5478:1 5515:1 5560:1 5561:1 5562:1 5563:4 5564:1 5565:1 5566:1 5567:1 5568:1 5569:1 5570:1 5571:1 5572:1 5573:1 5574:1 5575:3 5576:1 5577:1 5578:1 5579:1 5580:1 5581:1 5582:1 5583:1 5584:1 5585:1 5586:1 5587:1 5588:1 5589:1 5590:1 5591:1 5592:1 5593:1 5594:1 5595:1 5596:1 5597:1 5598:1 5599:1 5600:1 5601:1 5602:1 #
0.00043412357090229832662364728435023 2:1 6:4 11:3 13:1 14:3 15:2 19:2 22:10 24:6 25:9 27:2 32:1 34:7 36:1 45:6 46:1 47:4 51:1 58:4 59:3 61:1 65:2 66:4 72:2 84:3 109:1 114:1 116:1 124:1 128:1 136:2 176:1 206:1 237:1 239:1 249:1 292:1 310:2 317:1 363:4 364:3 381:1 402:1 406:1 459:1 465:1 544:1 552:2 560:1 568:1 589:2 595:1 619:1 621:1 638:4 649:1 687:1 760:1 762:1 770:1 797:1 798:1 892:1 949:2 989:1 1009:1 1036:3 1116:1 1272:2 1320:1 1321:3 1327:1 1339:1 1342:1 1347:1 1423:1 1447:1 1523:2 1619:1 1747:1 1773:1 1788:1 1809:1 1941:1 1956:1 1965:1 2006:1 2037:1 2085:1 2086:1 2087:1 2088:1 2089:1 2090:1 2091:1 2092:1 2093:1 2094:1 2095:1 2096:2 2097:1 2098:1 2099:1 2100:1 2101:1 2102:1 2103:1 2104:1 2105:1 2106:1 2107:1 2108:1 2109:1 2110:1 2111:1 2112:1 2113:1 2114:1 2115:1 2116:1 2117:1 2118:1 2119:1 2120:1 2121:1 2122:1 2123:1 2124:2 2125:1 2126:1 2127:1 2128:1 2129:1 2130:1 2131:2 2132:1 2133:1 2134:1 2135:1 2136:1 #
-0.0002576256106571728188812941962027 2:7 6:5 11:1 14:2 19:6 22:21 24:4 25:10 26:3 34:17 45:12 47:4 48:4 54:2 58:5 59:2 61:2 62:2 65:2 66:6 70:2 72:3 77:3 78:1 84:1 90:1 96:3 109:1 114:1 116:2 124:1 125:1 134:3 135:1 136:6 173:5 174:1 178:3 185:1 202:1 204:1 205:1 207:3 215:1 234:1 239:1 240:1 246:1 248:2 249:2 250:1 278:1 280:1 294:1 301:1 304:1 305:1 306:1 308:1 311:1 319:1 344:3 363:2 402:3 409:3 424:1 450:4 477:1 499:1 539:3 563:1 614:1 756:1 773:1 779:1 811:1 837:2 904:1 985:1 1035:1 1051:1 1063:2 1073:1 1207:1 1272:2 1327:1 1383:4 1420:1 1433:1 1451:1 1548:1 1587:1 1588:1 1646:1 1702:1 1733:1 1764:1 1765:1 1776:1 1778:1 1894:1 1911:1 2327:1 2333:10 2439:1 2492:1 2508:1 2544:1 2557:1 2558:1 2581:1 2781:1 2785:1 2787:6 2788:6 2796:3 2797:1 2798:1 2799:1 2803:8 2810:1 2811:1 2812:2 2829:1 2831:1 2839:1 2843:1 2844:1 3101:2 3269:1 3321:2 3391:1 3610:1 3611:1 3612:1 3613:1 3614:1 3615:1 3616:1 3617:1 3618:1 3619:1 3620:1 3621:1 3622:1 3623:1 3624:1 3625:1 3626:1 3627:2 3628:2 3629:2 3630:1 3631:1 3632:1 3633:1 3634:1 3635:1 3636:1 3637:1 3638:1 3639:1 3640:1 3641:1 3642:1 3643:1 3644:1 3645:1 3646:1 3647:1 3648:1 3649:1 3650:1 3651:1 3652:1 3653:1 3654:1 #
-0.00023142011586565949116112150818481 2:7 6:4 11:2 14:3 15:5 19:3 22:14 24:9 25:16 26:1 34:15 45:15 47:3 51:2 54:3 58:3 59:1 62:1 65:1 66:4 70:1 72:1 78:4 84:1 85:1 96:1 109:2 114:2 124:1 128:1 134:4 135:3 136:3 140:1 146:4 173:4 177:1 178:5 195:1 197:1 202:2 204:2 206:1 207:2 215:2 227:1 232:1 233:2 237:1 243:1 249:1 258:1 278:1 292:1 294:1 319:2 345:1 363:1 373:1 407:1 459:1 465:1 545:1 555:1 575:1 614:2 654:1 673:1 779:1 837:1 838:1 840:1 926:1 1005:1 1035:1 1051:1 1073:1 1091:1 1140:1 1168:1 1182:1 1207:1 1264:1 1272:1 1320:1 1336:1 1383:4 1431:1 1432:1 1475:1 1544:1 1694:1 1716:1 1721:5 1764:2 1765:2 1894:1 1962:1 1973:2 2021:1 2116:1 2268:1 2310:3 2405:1 2470:1 2492:1 2552:1 2553:1 2658:1 2774:1 2780:1 2781:1 2782:3 2783:9 2784:1 2785:1 2786:2 2787:4 2788:5 2789:1 2790:2 2791:2 2792:2 2793:1 2794:1 2795:1 2796:5 2797:1 2798:1 2799:1 2800:1 2801:1 2802:1 2803:3 2804:1 2805:1 2806:1 2807:1 2808:1 2809:1 2810:1 2811:1 2812:1 2813:1 2814:1 2815:1 2816:2 2817:1 2818:1 2819:1 2820:1 2821:1 2822:1 2823:1 2824:1 2825:1 2826:1 2827:1 2828:1 2829:1 2830:1 2831:1 2832:1 2833:1 2834:1 2835:1 2836:1 2837:2 2838:1 2839:1 2840:1 2841:1 2842:1 2843:1 2844:1 2845:1 2846:1 2847:1 2848:1 2849:1 2850:1 #
-2.7370933159472749066380356519623e-05 2:9 6:3 11:1 14:1 19:6 22:16 24:7 25:13 32:8 34:6 37:1 39:1 45:13 47:2 51:1 54:7 58:7 59:3 62:1 65:2 66:2 70:1 72:1 78:2 84:4 85:1 90:1 109:1 114:3 116:2 119:1 128:3 134:1 136:4 138:1 146:1 173:2 177:1 178:1 202:1 204:1 206:1 207:2 213:1 215:1 220:1 226:1 235:2 240:1 245:1 258:1 261:1 286:1 292:2 298:1 301:2 304:2 305:2 306:1 307:1 308:1 310:2 316:4 334:1 335:1 338:1 341:3 344:1 345:1 377:1 397:1 406:1 408:5 409:12 422:2 424:2 443:1 450:3 465:1 526:1 544:3 546:4 547:1 548:1 549:1 550:1 569:1 588:1 614:1 637:1 649:1 682:1 701:1 714:1 725:1 726:1 731:1 756:1 824:1 842:2 891:1 923:1 927:1 955:4 977:1 1012:1 1050:1 1051:1 1065:1 1151:1 1179:1 1215:1 1231:1 1232:1 1233:2 1234:1 1235:1 1236:1 1237:1 1238:1 1239:1 1240:1 1241:2 1242:1 1243:1 1244:2 1245:1 1246:1 1247:1 1248:1 1249:1 1250:1 1251:1 1252:2 1253:1 1254:1 1255:1 1256:1 1257:1 1258:1 1259:1 1260:1 1261:1 1262:1 1263:1 1264:1 1265:1 1266:1 1267:1 1268:1 1269:1 1270:1 1271:2 1272:1 1273:1 1274:1 1275:1 1276:1 1277:1 1278:1 1279:1 1280:1 1281:1 1282:1 1283:1 1284:1 1285:1 1286:1 1287:1 1288:1 1289:1 1290:1 1291:1 1292:1 1293:1 1294:1 1295:1 1296:1 1297:1 1298:1 1299:1 1300:1 1301:1 1302:2 1303:1 1304:1 1305:1 1306:1 1307:1 1308:1 1309:1 #
-0.00015028696715923523072495904262524 2:10 6:4 11:5 14:4 15:1 19:5 22:12 24:4 25:15 31:3 32:3 34:15 37:2 45:15 47:5 51:1 54:9 56:1 57:1 58:4 59:3 61:2 65:1 66:1 68:1 78:1 81:1 84:1 85:1 89:2 90:2 112:1 114:3 116:2 124:1 136:2 146:1 168:1 173:4 178:1 187:2 202:1 204:1 205:1 207:1 215:1 217:2 226:1 239:1 241:1 249:1 259:3 260:1 300:1 304:2 305:2 306:1 307:1 308:1 316:1 325:1 342:1 373:1 377:2 379:2 381:1 388:1 392:1 397:1 400:1 405:2 424:1 425:1 461:1 463:1 465:4 499:2 517:1 519:2 539:1 552:1 564:1 569:1 595:2 619:1 636:2 638:2 649:1 673:1 674:2 682:1 684:1 705:1 752:1 828:1 831:1 847:1 851:2 994:1 1044:2 1075:1 1118:1 1136:1 1140:1 1154:1 1205:1 1264:1 1266:1 1334:1 1371:2 1433:1 1447:1 1514:1 1528:2 1587:2 1656:1 1733:1 1937:1 1951:2 1977:1 2116:2 2174:1 2197:1 2237:1 2253:1 2264:1 2268:1 2286:1 2294:2 2295:1 2296:6 2393:1 2472:1 2509:1 2731:1 3230:1 3383:1 3393:2 3397:2 3461:1 3546:1 3837:1 3851:1 3916:2 4014:1 4041:1 4042:1 4066:1 4136:1 4412:2 4448:2 4451:1 4484:1 4554:1 4559:1 4613:2 4666:1 4742:1 4982:1 5004:1 5134:1 5241:1 5388:1 5572:1 5598:1 5968:1 6336:1 6343:1 6683:1 6954:1 8143:1 8144:4 8145:1 8146:1 8147:1 8148:1 8149:1 8150:2 8151:1 8152:1 8153:1 8154:1 8155:1 8156:1 8157:1 8158:1 #
0.0005043870926103592895739513579656 2:8 6:4 11:8 19:3 22:11 24:12 25:9 32:2 34:5 45:5 47:1 51:1 58:2 59:1 61:1 62:1 65:1 66:2 68:2 77:5 84:1 85:1 109:1 119:1 136:2 146:2 169:1 173:3 183:1 195:1 197:3 207:3 212:1 216:1 220:1 227:1 267:1 278:2 292:1 325:1 365:1 377:1 396:1 407:1 456:1 457:1 459:1 465:2 482:1 509:1 519:1 585:1 595:2 614:1 627:1 637:1 662:2 682:1 703:1 705:1 778:1 831:1 867:1 868:1 937:1 945:1 972:3 1013:2 1022:2 1040:1 1070:1 1112:1 1135:1 1280:1 1329:1 1447:3 1513:1 1523:1 1554:1 1572:1 1693:1 1747:1 1757:1 1861:1 1862:1 1869:1 1882:1 2286:1 2302:1 2462:1 2532:1 3094:2 3522:1 3546:1 3548:1 3760:1 3815:1 3892:1 3952:1 3953:1 4150:1 4212:1 4544:1 4562:1 4563:1 4564:1 4565:1 4566:1 4567:1 4568:5 4569:1 4570:1 4571:1 4572:1 4573:1 4574:1 4575:1 4576:1 4577:1 4578:2 4579:1 4580:2 4581:1 4582:1 4583:1 4584:1 4585:2 4586:1 4587:1 4588:1 4589:1 4590:1 4591:1 4592:1 4593:1 4594:1 4595:1 4596:1 4597:1 4598:1 4599:1 4600:1 4601:1 4602:1 4603:1 4604:1 4605:1 4606:1 4607:1 4608:1 4609:1 4610:1 #
0.00032809401391682355142442872875108 2:8 6:3 11:3 14:1 15:2 19:1 22:11 24:4 25:6 26:1 29:1 30:1 31:1 32:1 34:3 39:1 45:7 47:1 51:1 54:3 56:1 57:2 58:2 61:1 65:1 66:2 70:1 72:1 77:1 78:2 85:1 96:1 109:1 132:1 134:1 135:2 136:3 168:1 237:1 240:1 248:1 251:1 258:1 280:2 314:1 319:1 402:1 459:1 465:1 477:1 478:1 502:1 522:1 550:3 552:1 567:1 583:1 585:1 595:1 619:1 628:1 637:2 649:1 659:1 692:1 693:1 766:1 773:1 785:2 842:1 868:1 880:1 904:1 937:2 988:1 1044:1 1046:2 1048:1 1094:1 1118:1 1218:1 1268:1 1329:1 1348:1 1501:1 1598:1 1635:2 1641:1 1776:1 1830:1 1846:1 1915:1 2171:1 2536:1 2725:1 2870:1 2962:1 3184:1 3185:1 3186:1 3187:1 3188:1 3189:1 3190:1 3191:1 3192:2 3193:1 3194:1 3195:1 3196:1 3197:1 3198:1 3199:1 3200:1 3201:1 3202:1 3203:1 3204:1 3205:1 3206:1 3207:1 3208:1 3209:1 3210:1 3211:1 3212:1 3213:1 3214:1 3215:1 3216:1 3217:1 3218:1 3219:1 3220:1 3221:1 3222:1 3223:1 3224:1 3225:1 3226:1 3227:1 3228:1 3229:1 3230:1 3231:1 3232:1 3233:1 3234:1 3235:1 3236:1 #
0.00012732139233757674306492246874001 2:7 6:4 11:2 14:1 19:1 22:8 25:5 26:2 29:1 31:1 34:4 45:6 48:1 51:1 58:2 59:1 61:1 65:1 68:1 72:2 73:1 80:1 81:1 84:2 85:1 96:2 109:1 114:1 119:1 124:1 125:1 135:1 136:1 169:1 207:2 233:1 235:1 246:1 250:1 251:1 263:1 294:2 301:1 316:1 365:1 381:1 402:1 442:1 459:1 465:1 499:1 535:1 555:1 564:1 583:1 585:1 596:1 655:1 731:1 868:2 988:1 1063:1 1109:1 1161:1 1169:1 1182:1 1243:1 1268:1 1346:2 1365:1 1374:1 1509:1 1587:1 1669:1 1694:1 1773:1 1815:1 1832:1 1850:1 1862:1 1881:1 1882:1 1916:1 2096:1 2270:1 2405:1 2438:1 2491:1 2540:1 2548:1 2608:1 2763:1 3048:1 3334:1 3359:1 3652:1 3715:1 3857:1 4770:1 4843:1 4995:1 4996:1 4997:1 4998:3 4999:1 5000:1 5001:1 5002:3 5003:1 5004:1 5005:1 5006:1 5007:1 5008:1 5009:1 5010:1 5011:1 5012:1 5013:1 5014:1 5015:1 5016:1 5017:1 5018:1 5019:1 5020:1 5021:1 #
0.00018491636822295855636238970376439 2:1 4:1 6:4 11:6 14:3 19:3 22:8 24:7 25:13 26:2 32:5 34:4 40:1 45:5 47:4 51:1 54:2 57:1 58:3 59:1 61:1 66:4 77:1 78:1 81:1 85:1 89:2 90:1 96:2 109:1 114:2 133:1 134:1 135:2 136:4 168:1 173:1 205:1 207:1 213:3 226:2 227:1 248:1 258:2 292:1 309:2 314:2 339:1 365:1 459:1 478:1 544:1 569:1 583:1 585:1 597:1 602:1 638:1 647:1 660:1 678:1 692:1 693:1 710:1 744:1 770:1 773:1 787:1 842:1 850:1 880:1 904:1 913:1 921:4 949:1 954:1 980:1 988:1 989:1 1040:1 1041:1 1063:1 1138:1 1316:1 1488:1 1501:1 1513:1 1587:1 1597:1 1805:1 1831:2 1911:1 1965:1 2256:1 2374:1 2416:3 2459:1 2481:1 2518:1 2538:1 2639:1 2709:1 2728:1 2747:1 2748:1 2749:1 2750:1 2874:1 2879:1 2941:1 3681:3 4055:1 4180:1 4473:1 4484:1 4486:1 4523:1 4733:1 5294:4 5393:1 5697:1 5801:1 6049:1 6050:1 6051:1 6052:1 6053:1 6054:1 6055:3 6056:1 6057:1 6058:1 6059:1 6060:1 6061:1 6062:1 6063:1 6064:1 #
0.00010694452092905942178907574557911 2:4 6:4 11:2 14:2 15:1 19:3 20:1 22:6 24:5 25:15 29:1 30:1 34:7 42:1 45:4 46:1 47:2 51:1 52:1 54:2 56:1 57:1 58:2 59:1 60:1 61:2 62:1 72:1 76:1 90:1 109:1 119:1 124:2 128:1 136:2 167:1 168:1 173:1 191:1 205:1 234:1 235:1 239:1 245:1 249:1 311:1 327:3 381:2 405:1 406:5 407:2 430:1 459:1 465:2 478:1 486:1 539:1 550:1 569:1 583:2 591:1 595:2 603:1 620:3 673:1 682:2 692:1 693:1 778:1 830:1 855:3 994:1 995:1 1028:1 1030:1 1046:1 1063:1 1169:2 1218:1 1243:1 1245:1 1279:1 1287:1 1291:1 1329:1 1347:1 1553:1 1587:1 1589:1 1597:1 1722:1 1781:1 1841:1 1842:1 1843:2 1844:1 1845:1 1846:1 1847:1 1848:1 1849:1 1850:2 1851:1 1852:1 1853:1 1854:1 1855:1 1856:1 1857:1 1858:1 1859:1 1860:1 1861:1 1862:2 1863:1 1864:1 1865:1 1866:1 1867:1 1868:1 1869:1 1870:1 1871:1 1872:1 #
0.00019964756355825890514303633249682 6:4 11:3 14:2 19:5 22:11 24:1 25:5 26:1 32:5 34:4 45:5 46:1 47:1 54:1 56:2 58:3 59:1 62:1 65:1 66:4 72:4 77:2 96:1 136:2 173:2 205:1 207:3 213:1 216:1 239:2 246:1 249:1 250:1 251:1 254:1 319:1 333:1 336:1 344:1 354:1 363:1 364:1 381:1 403:1 407:1 430:1 465:1 478:1 505:1 539:2 552:2 555:1 567:1 584:1 603:1 614:1 637:2 654:1 683:1 731:2 792:1 842:2 977:1 1040:1 1059:1 1108:1 1147:1 1429:1 1447:1 1465:1 1529:3 1571:1 1589:1 1608:1 1857:1 1870:1 1902:1 1911:1 1914:1 2333:3 2595:1 2637:1 3210:1 3258:1 3262:1 3310:1 3571:1 3610:1 3611:1 3667:1 3708:1 3709:1 3710:1 3711:1 3712:1 3713:1 3714:1 3715:1 3716:1 3717:1 3718:1 3719:1 3720:1 3721:1 3722:1 3723:1 3724:1 3725:1 3726:1 3727:1 3728:1 3729:1 3730:1 3731:1 3732:1 3733:1 3734:1 3735:1 3736:1 3737:1 #
0.00011892886684978777557183948765385 2:5 6:5 11:3 14:3 15:1 19:3 22:10 24:7 25:6 32:4 34:6 39:1 45:5 46:2 47:1 57:1 58:2 59:1 60:1 61:1 62:2 66:1 72:1 77:1 78:4 80:2 84:2 98:1 109:1 116:1 134:1 136:4 141:2 173:1 187:1 191:1 197:1 233:1 250:2 259:2 301:1 334:1 338:1 366:1 403:1 424:3 426:1 429:1 459:1 463:1 539:1 550:4 583:1 584:1 595:1 614:1 638:1 658:1 662:1 682:1 692:1 693:1 725:1 731:1 756:1 868:2 880:1 899:1 926:1 977:2 988:1 1060:2 1075:1 1078:1 1128:1 1137:1 1150:1 1165:2 1171:1 1304:1 1370:1 1413:1 1447:1 1513:1 1553:1 1572:1 1598:1 1641:1 1643:1 1722:1 1862:1 1911:1 1959:1 1977:2 2147:2 2294:2 2295:1 2296:2 2311:1 2446:1 2463:1 2464:1 2533:2 2644:1 2651:1 2653:1 2973:1 3087:1 3261:1 3292:1 3371:1 3390:1 3471:1 3888:1 4457:1 4484:1 4772:1 4970:1 5467:1 5588:1 5603:1 5717:1 5859:1 5860:1 5861:1 5862:1 5863:1 5864:1 5865:1 5866:1 5867:1 5868:1 5869:1 5870:1 5871:1 5872:1 5873:1 5874:1 5875:1 5876:1 5877:1 5878:1 5879:1 5880:1 5881:1 5882:1 5883:1 5884:1 5885:1 5886:1 5887:1 5888:1 5889:1 5890:1 5891:1 5892:1 #
-2.0346734929239018632024516008983e-05 2:8 6:5 11:6 14:2 15:6 18:1 19:11 22:18 24:8 25:21 34:12 35:1 40:1 45:16 47:2 51:3 54:5 56:2 58:3 59:2 61:1 62:4 65:3 75:1 77:2 84:2 85:2 90:6 109:1 110:1 114:6 124:4 135:1 136:2 141:1 168:1 173:2 178:2 187:1 202:1 204:1 205:2 207:1 215:1 222:1 232:1 234:1 235:2 245:1 248:1 249:1 258:1 276:1 304:1 305:1 306:1 310:2 316:1 325:1 326:1 327:1 331:1 333:1 336:3 359:1 377:1 381:5 429:1 463:1 465:8 497:1 501:2 502:1 517:2 519:1 523:1 528:1 541:4 552:1 595:5 599:1 612:3 614:2 664:1 673:2 731:1 738:1 744:1 756:1 841:3 985:1 1013:4 1018:1 1032:1 1095:1 1151:1 1266:1 1291:1 1293:1 1296:1 1305:1 1347:1 1427:4 1433:1 1447:2 1533:1 1592:1 1667:1 1705:1 1837:1 1878:1 1898:4 1905:1 1965:1 1972:1 1993:1 2140:2 2197:1 2242:2 2270:1 2284:1 2540:1 2553:1 2639:1 2695:1 2758:1 2934:1 3013:1 3020:1 3040:3 3066:1 3104:1 3124:1 3285:1 3303:1 3375:1 3426:1 3442:2 3679:3 3682:1 3685:1 3760:1 3899:1 3908:1 3926:2 3927:1 3937:1 3943:1 3964:1 3975:1 3992:1 4082:1 4102:1 4185:1 4211:2 4212:1 4217:1 4247:1 4256:1 4524:1 5100:1 5189:5 5255:1 5283:1 5357:1 5471:1 5478:1 5599:1 5657:1 5893:1 5894:1 5895:4 5896:4 5897:5 5898:1 5899:1 5900:2 5901:1 5902:2 5903:1 5904:1 5905:2 5906:1 5907:1 5908:1 5909:1 5910:1 5911:2 5912:2 5913:1 5914:1 5915:1 5916:1 5917:1 5918:1 5919:1 5920:2 5921:1 5922:1 5923:1 5924:2 5925:2 5926:1 5927:1 5928:1 5929:1 5930:2 5931:1 5932:1 5933:1 5934:1 5935:1 5936:2 5937:1 5938:2 5939:1 5940:1 5941:1 5942:1 5943:2 5944:1 5945:1 5946:1 5947:1 5948:2 5949:1 #
-5.4728833664929036261978523292271e-05 2:9 6:13 11:5 13:1 14:5 15:7 19:11 22:18 24:4 25:16 31:1 34:10 45:15 46:1 47:1 48:1 51:1 54:3 58:7 59:1 62:1 65:1 68:1 71:1 72:4 77:1 78:3 84:4 85:2 89:1 90:1 116:5 119:1 124:3 125:3 128:1 130:1 133:1 136:4 168:1 173:4 178:1 202:1 204:1 207:1 215:1 227:1 235:1 240:2 245:1 249:3 250:2 259:1 277:1 278:1 286:1 294:7 301:2 304:2 305:2 306:1 309:1 311:1 316:1 338:1 344:1 364:2 381:1 403:1 407:1 408:3 409:12 426:1 438:1 439:1 442:1 450:1 459:1 461:1 465:2 478:1 505:1 517:1 526:1 532:1 533:1 595:3 614:2 626:1 662:1 673:1 701:1 721:1 770:2 797:1 923:1 942:1 944:1 949:1 985:1 1012:1 1014:1 1015:1 1037:1 1046:1 1050:1 1052:1 1059:1 1073:1 1099:1 1169:1 1214:1 1268:2 1284:1 1291:1 1305:1 1329:1 1334:1 1488:1 1513:1 1536:1 1676:1 1689:1 1715:1 1723:1 1763:1 1788:1 1876:1 1953:1 2006:1 2060:1 2147:1 2180:2 2197:1 2320:1 2327:1 2338:1 2351:1 2438:1 2494:1 2508:1 2518:1 2567:1 2581:2 2582:1 2609:1 2650:3 2658:1 2681:1 2726:1 2812:1 2930:1 2962:1 2992:1 3048:1 3120:1 3155:1 3200:1 3264:1 3276:2 3369:1 3370:1 3401:1 3402:1 3428:1 3522:1 3601:3 3642:1 3652:3 3653:6 3662:1 3974:1 4008:1 4128:2 4138:1 4269:1 4283:1 4307:1 4611:1 4612:1 4613:1 4614:1 4615:1 4616:1 4617:1 4618:1 4619:1 4620:1 4621:1 4622:1 4623:1 4624:1 4625:1 4626:1 4627:1 4628:1 4629:1 4630:1 4631:1 4632:1 4633:1 4634:1 4635:1 4636:1 4637:1 4638:1 4639:1 4640:1 4641:1 4642:1 4643:1 4644:1 4645:1 4646:1 4647:1 4648:1 4649:1 4650:1 4651:1 4652:1 4653:1 4654:1 4655:1 4656:1 #
9.837358967823138945069105787411e-05 2:3 4:3 5:2 6:8 11:4 14:2 15:3 22:12 24:11 25:14 26:1 34:11 40:3 45:6 47:3 58:2 59:1 61:1 62:2 70:1 75:1 77:2 78:1 85:1 89:1 95:1 109:1 124:1 136:3 168:3 173:1 187:1 202:1 204:1 205:2 207:1 233:1 248:1 278:1 280:1 312:1 318:1 338:1 340:1 351:1 405:1 407:1 451:1 465:3 477:1 516:1 520:1 539:1 544:1 569:2 575:1 583:1 584:1 585:2 595:2 606:1 619:1 637:1 638:1 650:2 673:1 684:1 702:1 773:3 797:1 810:1 899:1 937:1 949:1 1008:1 1021:1 1135:1 1136:1 1137:1 1142:1 1151:1 1168:1 1214:1 1218:1 1272:1 1316:2 1436:1 1495:1 1496:1 1501:2 1505:3 1509:1 1589:1 1635:1 1707:1 1776:1 1791:1 1819:2 1846:1 1887:1 1972:1 2016:1 2050:1 2122:1 2140:2 2159:2 2171:1 2255:1 2272:1 2273:1 2286:1 2439:1 2466:1 2479:1 2654:4 2666:1 2752:1 2916:1 2968:1 3124:1 3336:1 3404:1 3521:1 3534:1 3537:1 3550:1 3998:1 4175:1 4247:1 4769:1 4770:1 4897:1 5134:1 5187:2 5216:1 5454:1 5455:1 5456:1 5457:1 5458:1 5459:1 5460:1 5461:1 5462:1 5463:1 5464:1 5465:1 5466:1 5467:1 5468:1 5469:1 5470:1 5471:1 5472:1 5473:1 5474:1 5475:1 5476:1 5477:1 5478:1 5479:1 5480:1 5481:1 5482:1 5483:1 5484:1 5485:1 5486:1 5487:1 #
4.81369326776277849447294165941e-05 2:6 6:1 11:2 14:1 19:1 22:9 24:1 25:3 34:7 37:1 39:1 45:5 47:1 54:1 58:2 62:1 66:2 72:2 76:1 84:1 109:2 119:1 124:2 136:2 173:2 176:1 197:2 202:1 204:1 207:1 235:2 237:1 248:1 258:1 263:2 294:2 301:3 310:1 325:1 349:1 350:1 363:1 381:1 396:1 397:1 459:1 465:1 501:1 505:1 538:4 539:1 552:1 567:1 579:1 614:1 637:1 650:1 659:1 673:1 682:1 707:1 756:2 768:1 773:1 868:2 927:1 949:1 1065:3 1123:1 1149:2 1161:1 1169:2 1304:1 1309:2 1357:1 1500:1 1501:1 1685:1 1753:1 1880:1 1942:1 1979:2 2173:1 2410:1 2470:1 2471:3 2581:1 2752:1 2902:1 2918:1 2943:1 2982:1 3090:1 3200:1 3269:2 3700:1 3809:1 4599:1 5084:1 5341:1 5364:1 5420:1 5565:1 5631:1 6039:2 6501:1 6611:1 7249:1 7554:2 7968:1 7969:1 7970:1 7971:1 7972:1 7973:2 7974:1 7975:1 7976:1 7977:1 7978:1 7979:1 7980:1 7981:1 7982:1 7983:1 7984:1 7985:1 #
-1.2667657935452493732928283542982e-05 2:7 6:4 11:2 13:1 14:2 19:7 22:13 24:3 25:13 31:1 32:1 34:12 37:2 41:1 43:3 45:12 47:1 49:1 54:2 58:4 59:3 70:1 76:1 77:4 78:2 81:1 90:2 92:1 93:1 101:2 109:3 114:2 116:2 118:1 124:2 136:9 146:5 169:1 173:3 178:1 182:1 187:1 191:1 197:1 202:2 204:2 205:2 207:1 215:2 226:1 231:1 250:2 276:3 284:1 304:2 305:2 306:1 327:1 328:1 353:1 373:1 377:2 381:1 384:1 387:1 399:1 401:1 415:1 435:1 446:1 465:2 497:2 501:1 504:1 527:1 544:1 549:1 567:1 590:1 619:1 655:1 682:1 705:2 709:2 736:5 738:1 746:1 796:1 820:1 831:1 952:1 955:1 1030:1 1087:1 1094:1 1182:1 1245:1 1257:1 1367:1 1371:1 1488:1 1561:1 1637:1 1733:1 1867:1 1876:1 1886:2 1949:3 1967:1 2168:2 2254:1 2295:1 2499:1 2552:1 2553:1 2557:1 2740:1 2757:1 2785:1 2803:3 2851:6 2855:4 2856:2 2857:1 2858:7 2862:1 2863:1 2960:1 3231:1 3245:1 3367:1 3651:1 3658:1 3774:1 3790:1 3845:1 3867:1 3904:2 3923:1 3938:1 4164:1 4169:1 4323:1 4386:1 4507:1 4534:1 4653:1 4701:1 4762:1 5035:1 5081:1 5082:3 5083:1 5084:1 5085:1 5086:1 5087:1 5088:1 5089:1 5090:1 5091:1 5092:1 5093:1 5094:2 5095:1 5096:1 5097:1 5098:1 5099:1 5100:1 5101:1 5102:1 5103:1 5104:2 5105:1 5106:1 5107:1 5108:1 5109:1 5110:1 5111:1 #
6.6952540347674460675594931835519e-05 2:2 6:7 12:1 19:2 22:9 24:7 25:6 26:1 34:3 45:7 54:1 58:3 59:1 66:1 68:1 72:3 78:1 85:1 90:1 96:1 135:3 136:2 176:1 207:1 213:1 235:1 246:1 254:1 338:1 363:5 381:1 394:1 397:1 465:2 569:1 599:1 604:1 638:1 682:1 749:1 750:1 751:1 752:1 753:1 754:1 755:1 756:1 757:1 758:1 759:1 760:1 761:1 762:2 763:3 764:1 765:1 766:1 767:1 768:2 769:1 770:1 771:3 772:1 773:2 774:1 775:1 776:1 777:1 778:1 779:1 780:1 781:1 782:1 783:1 784:1 785:1 786:1 787:1 788:1 789:1 790:1 791:1 792:1 793:1 794:1 795:1 796:1 797:1 798:1 799:1 800:1 801:1 802:1 803:1 804:1 805:1 806:1 807:1 808:1 809:1 810:1 811:1 #
1.3741244241185091639278169350913e-05 2:7 6:2 11:3 13:1 14:2 19:3 22:6 24:7 25:9 27:1 34:4 36:1 39:2 40:1 45:5 47:1 54:1 56:1 58:2 59:2 62:1 65:2 66:1 76:1 77:1 81:2 85:3 109:1 116:2 128:1 136:3 141:1 168:1 173:1 188:1 213:1 227:1 235:2 245:1 258:1 295:1 310:1 311:1 329:1 363:2 377:1 389:1 422:1 430:1 459:1 465:3 544:1 552:2 585:1 614:1 637:1 674:1 687:1 692:1 693:1 699:1 703:1 731:1 733:1 762:2 798:1 830:2 874:1 949:1 954:1 977:2 1041:1 1062:3 1122:1 1149:1 1162:1 1179:1 1208:1 1285:1 1310:1 1311:1 1312:2 1313:1 1314:1 1315:2 1316:1 1317:1 1318:1 1319:1 1320:1 1321:2 1322:1 1323:1 1324:1 1325:1 1326:1 1327:1 1328:1 1329:1 1330:1 1331:1 1332:1 1333:3 1334:1 1335:1 1336:1 1337:1 1338:2 1339:1 1340:1 1341:1 1342:1 1343:1 1344:1 1345:1 1346:1 1347:2 1348:1 1349:1 1350:1 1351:1 1352:1 1353:1 1354:1 1355:1 1356:2 1357:1 1358:1 1359:1 1360:1 1361:1 1362:1 1363:1 1364:1 1365:1 1366:1 1367:1 1368:1 1369:1 1370:1 1371:1 1372:1 1373:1 1374:1 1375:1 1376:1 1377:1 1378:1 1379:1 1380:1 1381:1 1382:1 1383:1 1384:1 1385:1 1386:1 1387:1 1388:1 1389:1 1390:1 1391:1 #
