SVM-light Version V6.02
0 # kernel type
3 # kernel parameter -d 
1 # kernel parameter -g 
1 # kernel parameter -s 
1 # kernel parameter -r 
empty# kernel parameter -u 
3611 # highest feature index 
160 # number of training documents 
146 # number of support vectors plus 1 
0.14225866 # threshold b, each following line is a SV (starting with alpha*y)
-0.0051583567178696658472869529532545 1:1 2:1 3:1 4:1 5:1 6:3 7:1 8:1 9:1 10:5 11:3 12:1 13:1 14:4 15:1 16:2 17:1 18:1 19:5 20:1 21:1 22:1 23:1 24:1 25:1 26:1 27:1 28:1 29:1 30:1 31:1 32:1 33:3 34:1 35:3 36:1 37:1 38:2 39:2 40:1 41:1 42:1 43:1 44:1 45:1 46:1 47:1 48:1 49:1 50:1 51:1 52:2 53:1 54:1 55:1 56:1 57:2 58:1 59:2 60:1 61:1 62:1 63:1 #
-0.0051583567178696658472869529532545 6:1 10:2 11:6 12:2 14:1 16:1 19:1 20:1 21:1 22:4 23:2 24:2 28:1 33:1 36:1 40:1 53:1 57:4 64:1 65:1 66:1 67:1 68:1 69:1 70:1 71:1 72:1 73:1 74:1 75:1 76:1 77:1 78:1 79:1 80:1 81:1 82:2 83:1 84:1 85:1 86:1 87:1 88:1 89:1 90:1 91:1 92:1 93:1 94:1 95:1 96:1 97:2 98:1 99:1 100:1 101:1 102:1 103:1 104:1 105:1 106:1 107:1 108:1 109:1 110:1 #
-0.0044983595573887284399527963785204 6:1 10:1 14:4 19:4 23:1 24:1 28:2 35:1 36:3 52:1 57:1 59:1 87:1 88:1 95:1 99:2 169:2 176:1 180:1 181:1 182:1 183:1 184:1 185:1 186:3 187:1 188:1 189:2 190:1 191:1 192:2 193:2 194:2 195:1 196:1 197:1 198:1 199:1 200:1 201:1 202:1 203:1 204:1 205:1 206:1 207:1 208:1 209:1 210:1 211:1 212:1 213:1 214:1 215:1 216:1 #
-0.0051583567178696658472869529532545 5:1 6:4 10:5 11:4 12:1 14:2 16:6 19:7 23:2 27:1 28:4 35:2 36:6 42:1 52:1 53:1 55:3 57:2 59:1 63:1 66:1 71:2 73:2 80:2 82:1 88:2 92:1 104:2 115:1 116:3 139:1 150:3 166:1 168:1 169:1 176:1 182:1 185:2 193:1 194:1 236:3 238:1 254:1 278:1 289:1 296:1 310:1 357:1 394:1 401:1 409:1 416:1 417:1 418:2 419:2 420:1 421:1 422:1 423:1 424:1 425:1 426:1 427:1 428:1 429:1 430:1 431:1 432:1 433:1 434:1 435:1 436:1 437:1 438:1 439:1 440:1 441:1 442:1 443:1 444:1 445:1 446:1 447:1 448:1 449:1 450:1 451:1 452:1 453:1 454:1 #
-0.0051583567178696658472869529532545 6:4 10:7 11:2 14:7 16:1 17:1 19:1 21:1 22:1 23:2 27:1 28:1 31:1 33:1 36:1 57:1 63:1 64:1 65:1 71:1 80:4 82:1 88:1 97:1 100:2 104:1 111:2 115:1 116:1 136:1 141:1 205:2 207:1 225:1 231:1 238:1 242:2 263:1 343:1 400:1 410:1 415:1 470:1 509:1 539:1 540:1 541:1 542:1 543:1 544:1 545:1 546:1 547:1 548:1 549:1 550:1 551:1 552:1 553:1 554:1 555:1 556:1 557:1 558:1 559:1 560:1 561:1 562:1 563:1 564:1 565:1 566:1 567:1 #
0.0004187609692320820261625391456306 10:5 11:2 14:2 16:6 17:2 19:4 22:7 24:1 27:1 28:2 33:1 36:5 40:1 43:1 46:2 55:4 57:4 66:1 97:1 98:1 109:1 111:1 112:1 113:1 114:1 115:1 116:2 117:1 118:5 119:1 120:1 121:1 122:1 123:1 124:1 125:1 126:1 127:1 128:1 129:1 130:1 131:1 132:1 133:3 134:1 135:1 136:1 137:1 138:1 139:1 140:1 141:5 142:1 143:1 144:2 145:1 146:1 147:1 148:1 149:2 150:1 151:1 152:1 153:1 154:1 155:1 156:1 157:1 158:1 159:1 160:1 161:1 162:1 163:1 164:2 165:1 166:1 167:1 168:1 169:1 170:1 171:1 172:1 173:1 174:1 175:1 176:1 177:1 178:1 179:1 #
0.0028922450554841288954122102694555 6:5 10:5 14:6 16:1 17:2 19:2 21:1 24:1 27:1 28:2 36:3 43:1 52:1 57:3 59:1 71:1 87:2 88:1 98:2 99:1 104:1 106:1 111:1 113:1 176:1 179:1 180:1 181:1 186:1 205:1 213:1 217:1 218:1 219:1 220:1 221:1 222:1 223:1 224:2 225:2 226:1 227:1 228:1 229:2 230:1 231:2 232:1 233:1 234:1 235:1 236:2 237:1 238:3 239:1 240:1 241:1 242:2 243:1 244:1 245:1 246:1 247:1 248:1 249:1 250:1 251:1 252:1 253:1 254:1 255:1 256:1 257:1 258:1 259:1 260:1 261:1 262:1 263:1 264:1 265:1 266:1 267:1 268:1 269:1 270:1 271:1 272:1 273:1 274:1 275:1 276:1 277:1 278:1 279:1 280:1 281:1 282:1 283:1 284:1 #
0.0051583567178696658472869529532545 10:4 11:4 14:1 16:1 19:1 22:1 23:1 24:1 31:1 46:2 54:1 55:1 57:2 71:1 78:1 80:1 88:1 102:1 103:1 115:1 141:1 150:1 159:1 185:1 187:1 194:1 207:2 225:1 273:1 285:1 286:1 287:1 288:1 289:2 290:1 291:1 292:1 293:1 294:1 295:2 296:1 297:1 298:1 299:1 300:1 301:1 302:1 303:1 304:1 305:1 306:1 307:1 308:1 309:1 310:1 #
0.0051583567178696658472869529532545 1:1 6:1 10:3 11:3 14:2 16:3 19:4 20:1 21:2 28:1 36:1 55:1 57:1 98:1 149:1 161:1 171:1 173:1 238:1 263:1 291:1 293:1 295:1 311:1 312:1 313:1 314:1 315:1 316:1 317:1 318:1 319:1 320:1 321:1 322:1 323:1 324:1 325:1 326:1 327:1 328:1 329:1 330:1 331:1 #
0.0045015408781027919232764489265719 6:5 10:7 11:3 16:4 19:1 22:4 33:2 36:1 57:4 79:1 84:1 88:1 100:1 111:1 113:1 115:1 118:1 133:3 139:1 150:1 177:1 210:1 227:1 238:1 278:2 292:1 293:1 318:1 332:1 333:1 334:1 335:1 336:1 337:2 338:1 339:1 340:1 341:1 342:1 343:1 344:1 345:1 346:1 347:1 348:1 349:1 350:1 351:1 352:1 353:1 354:1 355:1 356:1 357:1 358:1 359:1 #
-0.0051583567178696658472869529532545 6:3 10:6 14:2 16:2 24:1 28:1 36:2 57:4 63:1 64:1 65:1 113:1 150:1 210:1 212:1 223:1 238:2 324:2 358:1 369:1 378:1 391:2 400:2 415:1 466:1 473:1 616:1 690:1 717:1 765:1 824:2 881:1 888:1 916:1 932:1 1160:1 1192:1 1225:1 1230:1 1341:1 1401:1 1493:1 1527:1 1543:1 1573:1 1580:1 1631:1 1703:1 1780:1 2018:2 2021:1 2121:1 2277:1 2340:1 3067:2 3068:3 3189:1 3416:1 3456:1 3457:1 3458:2 3459:1 3460:1 3461:1 3462:1 3463:1 3464:1 3465:1 3466:1 3467:1 3468:1 3469:1 3470:1 3471:1 3472:1 3473:1 3474:1 3475:1 3476:1 3477:1 3478:1 3479:1 3480:1 #
-0.0051583567178696658472869529532545 6:1 10:5 11:2 12:1 14:1 16:1 19:2 20:1 22:1 23:2 24:3 28:1 32:1 36:1 57:6 63:1 100:1 118:1 139:1 149:2 150:1 164:1 175:1 179:1 180:1 181:1 212:1 213:1 238:1 278:1 288:1 295:1 300:1 325:1 335:1 400:1 470:1 473:1 690:1 777:2 852:1 876:1 894:1 908:2 916:1 1065:1 1076:1 1180:1 2053:1 2514:1 3192:1 3193:1 3194:1 3195:1 3196:1 3197:1 3198:1 3199:1 3200:1 3201:1 3202:1 #
-0.0051583567178696658472869529532545 4:1 6:1 10:16 11:11 12:1 14:2 16:3 17:1 19:4 22:4 24:1 27:2 28:2 32:1 36:7 46:1 53:1 55:1 57:7 63:1 71:1 72:1 80:4 88:1 100:1 103:1 104:1 111:1 118:2 123:1 128:2 141:1 150:2 154:1 168:1 179:1 186:4 187:1 191:1 195:1 203:1 210:1 213:1 236:1 254:1 274:1 293:3 315:1 316:1 335:1 339:4 340:1 343:1 381:1 400:1 412:1 430:1 442:1 462:3 498:1 519:1 528:7 566:1 664:1 677:1 685:1 688:1 715:1 747:1 776:1 777:2 908:1 980:1 1161:1 1298:1 1378:1 1440:1 1604:1 1780:1 1971:1 1975:1 2138:1 2139:1 2226:1 2234:1 2284:1 2308:3 2309:1 2310:1 2311:1 2312:1 2313:1 2314:1 2315:1 2316:1 2317:1 2318:1 2319:2 2320:1 2321:1 2322:1 2323:1 2324:1 2325:1 2326:1 2327:1 2328:1 2329:1 2330:1 2331:1 2332:1 2333:1 2334:1 2335:1 2336:1 2337:1 2338:1 2339:1 2340:1 2341:1 2342:1 2343:1 2344:1 2345:1 2346:1 2347:1 #
-0.0051583567178696658472869529532545 4:1 10:4 14:2 16:6 19:3 36:1 55:2 57:2 63:1 71:1 80:3 88:1 116:1 123:3 170:1 179:1 182:1 194:2 227:1 238:2 242:3 263:2 278:2 317:2 321:1 429:1 438:1 466:1 473:1 483:1 496:1 788:1 874:2 876:1 888:1 998:1 1268:1 1325:1 1440:1 1442:1 1506:1 1659:1 1706:1 2018:1 2110:1 2160:1 2408:2 2671:1 3072:2 3073:1 3074:1 3075:2 3076:1 3077:1 3078:3 3079:3 3080:1 3081:1 3082:1 3083:1 3084:1 3085:1 3086:1 3087:1 3088:1 3089:1 #
-0.0051583567178696658472869529532545 10:4 14:3 16:4 17:1 19:4 28:1 57:3 71:1 109:1 132:1 150:1 157:1 159:2 161:1 168:1 169:1 191:1 193:1 194:1 231:2 236:1 238:1 240:1 242:1 306:2 317:1 343:1 400:2 445:1 475:1 531:1 536:1 663:1 757:1 759:1 910:1 977:1 1083:1 1224:1 1256:1 1341:1 1702:1 1833:1 1919:1 2482:2 2592:1 2855:1 2923:2 2924:1 2925:1 2926:1 2927:1 2928:1 2929:1 2930:1 2931:1 2932:1 2933:1 2934:1 2935:1 2936:1 2937:1 2938:1 2939:1 2940:1 2941:1 #
0.0036594370617276999677058846316413 6:6 10:7 11:9 14:3 16:2 19:6 20:1 28:1 31:1 32:1 35:1 36:2 57:2 78:2 82:2 88:2 115:2 150:2 159:2 168:1 181:1 186:1 191:1 205:1 222:1 305:1 306:1 322:1 351:1 379:1 394:1 412:1 418:1 440:1 444:1 509:1 531:1 536:1 567:1 616:1 633:1 661:1 717:2 720:1 847:1 850:1 871:1 882:1 936:1 1034:1 1203:1 1245:1 1252:1 1280:1 1368:1 1429:1 1501:2 1506:1 1507:1 1511:1 1580:1 1581:1 1582:1 1583:1 1584:1 1585:1 1586:1 1587:1 1588:1 1589:1 1590:1 1591:1 1592:1 1593:1 1594:1 1595:1 1596:1 1597:1 1598:1 1599:1 1600:1 1601:1 1602:1 1603:1 1604:1 1605:1 1606:1 1607:1 1608:1 1609:1 1610:1 1611:1 1612:1 #
0.0051583567178696658472869529532545 6:5 7:2 10:6 11:3 14:6 16:3 17:1 19:3 23:1 24:1 27:1 28:2 33:1 35:1 36:3 40:1 46:1 55:1 57:3 63:2 66:1 68:1 71:1 73:2 88:1 102:1 115:2 128:1 131:1 150:1 180:1 181:1 186:2 210:2 212:1 236:2 253:1 317:1 395:1 400:2 566:1 598:1 654:1 655:1 685:1 690:1 717:1 837:1 866:1 882:1 910:2 912:1 951:1 993:1 1141:1 1326:1 1408:2 1429:1 1467:1 1711:1 1813:1 2023:1 2050:1 2097:1 2181:1 2430:1 2431:1 2432:1 2433:2 2434:1 2435:1 2436:1 2437:1 2438:1 2439:1 2440:1 2441:1 2442:1 2443:1 2444:1 2445:1 2446:1 2447:1 2448:1 2449:1 2450:1 2451:1 2452:1 2453:1 2454:1 #
0.0051583567178696658472869529532545 6:3 10:5 11:3 14:5 19:3 22:2 24:1 25:1 28:2 35:1 36:3 46:1 57:2 71:1 80:2 82:1 88:2 104:1 115:1 139:1 159:1 176:1 186:1 205:1 206:1 254:1 343:1 357:1 457:1 615:1 661:1 664:1 725:1 763:1 797:1 891:1 1061:1 1203:1 1280:1 1349:1 1364:1 1367:1 1463:1 1599:1 1794:1 2353:1 2394:1 2442:1 2991:1 2992:1 2993:1 2994:1 2995:1 2996:1 2997:1 2998:1 2999:1 3000:1 3001:1 3002:1 3003:1 3004:1 3005:1 3006:1 3007:1 3008:1 3009:1 3010:1 3011:1 3012:1 3013:1 3014:1 3015:1 3016:1 #
0.0051583567178696658472869529532545 6:3 10:4 14:4 16:5 17:1 19:8 23:1 27:1 28:3 33:1 35:2 36:8 46:1 52:1 55:1 57:2 68:2 88:3 98:1 100:2 106:1 123:3 151:1 158:1 161:1 172:1 175:1 186:1 198:1 205:1 210:1 220:1 222:1 231:1 232:1 236:1 238:3 240:1 242:1 257:3 260:3 263:4 285:1 286:1 287:1 288:1 335:2 361:1 390:1 400:1 413:1 435:1 444:1 445:1 481:1 519:1 526:1 528:2 536:1 546:1 550:1 578:1 615:1 650:1 663:1 717:1 782:1 784:1 858:1 1092:1 1102:1 1142:1 1302:1 1317:1 1364:1 1365:1 1366:1 1367:1 1368:1 1369:1 1370:1 1371:1 1372:1 1373:1 1374:1 1375:1 1376:1 1377:1 1378:1 1379:1 1380:1 1381:2 1382:1 1383:1 1384:1 1385:1 1386:1 1387:1 1388:1 1389:1 1390:1 1391:1 1392:1 1393:1 1394:1 1395:1 1396:1 1397:1 1398:1 1399:1 1400:1 1401:1 1402:1 1403:1 1404:1 1405:1 #
0.0051583567178696658472869529532545 5:1 6:6 7:1 10:4 11:3 12:1 14:9 16:5 19:4 33:1 36:2 46:1 55:2 57:3 78:1 87:1 88:1 94:1 104:1 136:1 150:1 168:1 179:1 185:1 205:1 213:1 226:1 236:1 238:1 242:2 257:4 260:4 310:1 327:2 335:1 369:1 391:3 400:2 420:1 477:1 508:1 566:2 587:1 621:1 629:1 717:1 745:1 751:1 752:1 829:1 837:1 950:1 1015:1 1198:1 1249:1 1409:1 1612:1 1617:1 1622:1 1702:1 2214:1 2215:1 2216:1 2217:1 2218:1 2219:1 2220:1 2221:1 2222:1 2223:1 2224:1 2225:1 2226:2 2227:1 2228:1 2229:2 2230:1 2231:1 2232:1 2233:1 2234:1 2235:1 2236:1 2237:1 2238:1 2239:1 2240:1 2241:1 2242:1 2243:1 2244:1 2245:1 2246:1 2247:1 2248:1 2249:1 2250:1 2251:1 2252:1 2253:1 2254:1 2255:1 2256:1 2257:1 2258:1 #
-0.0039878496511385023992612985921369 6:11 7:1 10:11 11:2 14:14 16:6 17:3 19:9 21:1 22:9 27:4 28:2 33:1 35:1 36:3 52:3 53:4 55:2 57:10 68:1 74:1 79:1 80:4 88:3 98:1 100:1 111:2 115:1 118:4 123:3 139:2 145:1 149:1 150:1 159:5 163:1 176:1 185:1 191:1 210:1 227:1 233:1 236:2 240:1 263:1 278:6 295:1 317:3 321:1 327:1 332:1 334:1 343:1 355:1 356:1 400:3 444:1 468:2 470:3 477:1 478:3 492:3 493:1 499:1 509:1 514:3 523:1 532:1 562:1 584:1 610:1 632:1 633:1 637:3 651:1 664:1 685:1 694:1 700:1 717:1 725:1 751:1 752:1 760:1 835:1 843:1 884:1 892:1 945:1 963:1 988:2 1034:2 1120:1 1195:2 1243:1 1276:1 1315:1 1367:1 1401:1 1440:1 1605:1 1758:1 1788:1 1789:1 1790:1 1791:1 1792:2 1793:2 1794:1 1795:1 1796:1 1797:1 1798:1 1799:1 1800:1 1801:1 1802:1 1803:1 1804:1 1805:1 1806:1 1807:1 1808:1 1809:2 1810:1 1811:1 1812:1 1813:1 1814:1 1815:1 1816:1 1817:1 1818:1 1819:1 1820:1 1821:1 1822:1 1823:1 1824:1 1825:1 1826:1 1827:1 1828:1 #
0.0051583567178696658472869529532545 6:1 10:4 11:1 14:2 16:4 17:1 19:1 24:1 46:1 54:1 57:3 71:1 113:1 122:1 136:1 139:1 185:1 240:1 301:1 369:1 472:2 536:1 587:2 690:1 747:1 771:1 989:1 1065:1 1095:1 1295:1 1631:1 1973:1 2267:1 2291:1 2292:1 2293:1 2294:1 2295:1 2296:1 2297:2 2298:2 2299:1 2300:1 2301:1 2302:1 2303:1 2304:1 2305:1 2306:1 2307:1 #
-0.0050142614857373651524041768823281 6:8 10:4 11:4 12:1 14:5 16:5 17:2 19:3 20:1 22:1 28:2 35:1 36:4 55:1 57:5 68:2 73:2 74:1 79:1 80:2 88:5 100:1 102:1 115:1 123:1 124:2 149:1 150:3 154:1 236:1 238:3 289:2 306:2 307:1 317:2 335:2 343:1 354:1 356:1 378:1 391:1 400:1 412:2 428:1 440:1 444:2 466:1 478:1 581:1 594:1 621:1 624:1 633:1 656:1 717:1 751:1 752:1 777:2 810:1 850:1 908:2 954:1 961:2 965:1 1083:1 1127:1 1136:1 1195:1 1236:1 1371:1 1440:1 1451:1 1485:1 1554:1 1560:1 1605:1 1622:1 1790:1 1943:1 1944:1 1945:1 1946:2 1947:1 1948:1 1949:1 1950:1 1951:1 1952:1 1953:1 1954:1 1955:1 1956:1 1957:1 1958:1 1959:1 1960:1 1961:1 1962:1 1963:1 1964:1 1965:1 #
-0.001956865600551470872614512330756 6:3 10:6 11:8 14:9 16:5 17:2 19:6 22:1 28:3 32:2 33:1 36:2 40:1 55:4 57:5 66:3 73:1 74:2 80:4 87:1 88:1 100:3 103:1 104:1 105:1 111:3 115:2 123:2 128:1 150:2 161:1 176:1 185:1 186:1 196:1 200:1 203:1 205:4 213:1 231:3 238:1 240:1 252:1 273:1 278:1 293:2 295:3 300:1 301:1 313:2 319:1 327:1 373:2 400:1 402:2 410:1 444:1 454:1 464:1 465:1 466:1 471:1 519:1 526:2 562:2 566:1 656:1 701:1 745:1 759:1 771:1 830:1 993:1 1112:1 1128:1 1165:1 1195:1 1261:1 1374:1 1377:1 1506:1 1622:1 1629:1 1813:1 1871:1 1877:2 2050:1 2174:2 2251:1 2511:1 2921:2 3155:1 3248:1 3249:1 3250:1 3251:1 3252:1 3253:1 3254:1 3255:1 3256:1 3257:1 3258:1 3259:1 3260:1 3261:1 #
0.0040782713309585449240612931021133 7:1 10:8 14:3 16:2 18:1 19:2 21:1 28:3 32:3 35:3 36:1 39:2 42:2 53:1 57:2 80:2 88:1 104:3 123:1 150:1 154:1 161:1 175:2 176:1 185:1 210:2 213:1 238:1 240:1 263:2 343:1 361:1 369:2 395:1 400:1 412:1 444:1 472:1 533:1 578:1 820:1 872:1 886:1 911:1 927:1 961:1 1115:1 1116:1 1117:1 1118:1 1119:1 1120:1 1121:1 1122:1 1123:1 1124:1 1125:1 1126:1 1127:1 1128:1 1129:1 1130:1 1131:1 1132:1 1133:1 1134:1 1135:1 1136:1 1137:1 1138:1 1139:1 1140:1 1141:1 1142:1 1143:1 1144:1 #
0.0051583567178696658472869529532545 10:4 11:3 12:1 14:1 16:1 19:1 21:1 22:6 23:1 24:1 36:1 40:1 53:1 57:6 63:1 71:1 78:1 88:1 100:2 102:1 103:2 111:1 112:1 113:1 141:1 150:1 164:1 191:1 207:1 254:2 305:1 332:1 454:1 509:1 571:1 620:1 726:1 863:1 894:1 1034:3 1077:1 1087:1 1305:1 1325:1 1456:1 1701:1 2065:1 2204:2 2590:1 2927:1 3343:1 3344:1 3345:1 3346:1 3347:1 3348:1 3349:1 3350:1 3351:1 3352:1 #
0.0051583567178696658472869529532545 6:1 7:1 10:4 14:1 16:3 19:2 23:1 28:1 55:1 57:3 74:2 78:1 80:3 104:1 111:1 112:1 113:1 159:1 185:1 191:1 205:1 213:1 227:1 231:1 236:1 238:2 242:2 257:1 260:1 263:1 300:1 322:1 420:1 444:1 445:1 466:2 532:1 594:1 717:1 866:1 871:1 916:1 942:2 943:1 944:1 945:1 946:1 947:1 948:1 949:1 950:1 951:1 952:1 953:1 954:1 955:1 956:1 957:1 958:1 959:1 960:1 961:1 #
-0.0051583567178696658472869529532545 4:1 10:1 14:1 88:1 111:1 112:1 113:1 206:1 466:1 506:1 1596:1 1610:1 1879:1 1880:1 1881:1 1882:1 #
-0.0051583567178696658472869529532545 6:1 14:1 88:1 98:1 236:1 326:1 378:1 759:1 1327:1 1328:1 1329:1 1330:1 1331:1 1332:1 1333:1 #
-0.0051583567178696658472869529532545 57:1 80:1 185:1 1520:1 1540:1 2191:1 #
-0.0051583567178696658472869529532545 10:1 16:1 36:1 55:1 73:1 185:1 394:1 466:1 629:1 777:1 908:1 1467:1 1468:1 #
-0.0051583567178696658472869529532545 10:1 14:2 21:1 55:1 123:1 168:1 240:1 532:1 594:1 815:1 908:1 1083:1 1217:1 1307:1 1494:1 1771:1 1772:1 1773:1 1774:1 1775:1 1776:1 1777:1 1778:1 1779:1 1780:2 1781:2 1782:1 1783:1 1784:1 1785:1 1786:1 1787:1 #
0.0051583567178696658472869529532545 6:1 7:1 10:5 11:8 14:2 16:4 17:4 19:3 20:1 24:1 25:1 27:1 28:3 33:1 36:2 46:1 55:3 57:5 68:1 80:3 82:2 84:1 88:2 100:1 114:1 115:3 116:1 128:1 139:1 147:1 158:2 159:1 169:1 170:2 171:1 172:1 176:2 177:1 179:1 186:2 205:2 238:1 273:2 295:1 301:1 315:1 343:2 353:1 393:1 412:1 440:1 442:1 548:1 571:1 633:1 836:1 841:1 878:1 931:1 960:1 988:1 1076:1 1101:1 1214:1 1230:1 1447:1 1638:1 1717:1 2034:1 2173:1 2667:1 2668:1 2669:1 2670:1 2671:1 2672:1 2673:1 2674:2 2675:1 2676:1 2677:1 2678:1 2679:1 2680:1 2681:1 2682:1 2683:1 2684:1 2685:1 2686:1 2687:1 #
0.003256087274342671800814175142591 6:4 10:7 11:5 14:6 16:5 19:1 23:1 24:2 25:1 27:1 28:1 31:1 36:4 40:1 43:1 46:2 55:4 57:3 80:4 82:2 88:2 89:1 95:2 100:2 103:2 106:1 128:1 143:1 151:1 154:2 168:1 175:1 212:1 240:1 258:1 263:2 304:1 332:1 335:2 343:2 346:1 359:1 391:2 400:1 401:1 456:1 486:1 581:2 615:1 629:1 634:1 635:1 655:2 889:1 910:1 957:1 1019:1 1061:1 1120:1 1127:1 1160:1 1376:1 1485:1 1490:1 1506:1 1568:1 1736:1 2053:1 2185:1 2875:1 2876:1 2877:3 2878:1 2879:1 2880:1 2881:1 2882:1 2883:1 2884:1 2885:1 2886:1 2887:1 2888:1 2889:1 2890:1 2891:1 2892:1 2893:1 2894:1 2895:1 2896:1 2897:1 2898:1 2899:1 2900:1 #
0.0024528709965218496377725720947183 6:1 10:8 11:5 14:5 16:4 17:2 19:5 20:1 22:2 23:3 24:1 28:1 32:1 35:1 36:1 53:1 55:2 57:2 71:1 80:1 82:5 95:1 98:1 100:1 104:1 111:1 115:1 141:2 145:2 158:1 164:1 168:1 176:1 238:1 295:2 300:1 301:2 308:1 309:1 322:2 359:1 429:1 477:2 484:1 509:1 526:1 536:1 566:1 594:2 633:1 700:1 830:1 835:1 858:1 892:1 965:1 988:1 1039:1 1113:2 1128:1 1158:1 1281:1 1282:1 1283:1 1284:1 1285:1 1286:1 1287:1 1288:1 1289:1 1290:1 1291:1 1292:1 1293:1 1294:1 1295:2 1296:1 1297:1 1298:1 1299:1 1300:1 1301:1 1302:1 1303:1 1304:1 1305:1 1306:1 #
0.0051583567178696658472869529532545 6:1 10:5 11:4 14:3 16:1 19:4 22:2 23:2 24:2 27:2 28:2 32:1 35:1 36:2 49:1 53:1 55:2 57:3 66:1 80:2 88:2 99:1 103:3 104:2 115:1 116:3 124:1 128:1 142:1 150:2 154:6 168:1 174:1 176:1 186:1 191:1 222:1 224:1 231:3 246:1 254:1 263:1 273:1 292:1 337:1 343:1 359:1 395:1 400:1 508:1 514:1 568:1 587:1 591:1 629:1 782:1 829:1 1427:1 1574:1 1600:1 1644:1 2465:1 2466:1 2467:1 2468:1 2469:1 2470:1 2471:1 2472:1 2473:1 2474:1 2475:1 2476:1 2477:1 2478:1 2479:1 #
0.0051583567178696658472869529532545 6:6 10:6 11:1 14:5 16:1 17:1 19:3 24:1 27:1 28:2 33:1 57:2 71:1 80:3 88:2 100:1 149:1 161:1 180:1 181:1 183:1 184:1 210:1 213:1 236:1 289:1 317:1 323:1 334:1 335:2 343:1 356:1 357:1 369:1 402:1 455:1 456:1 457:1 458:1 459:1 460:2 461:2 462:1 463:1 464:1 465:1 466:1 467:1 468:1 469:1 470:1 471:2 472:1 473:1 474:1 475:1 476:1 477:1 478:1 479:1 480:1 481:1 482:1 483:1 484:1 485:1 486:1 487:1 488:1 489:1 490:1 491:1 492:1 493:1 494:1 495:1 496:1 497:1 498:1 499:1 #
-0.001089730399152272774868088767164 4:2 6:11 10:7 11:6 12:1 14:12 16:7 17:3 18:1 19:12 21:1 23:2 24:1 28:4 31:1 35:2 36:6 55:3 57:12 58:2 59:1 68:1 78:2 80:3 88:5 99:2 100:4 103:1 104:1 123:1 124:1 139:1 147:1 150:1 154:1 158:2 161:2 168:1 175:4 176:1 179:2 185:1 186:2 203:1 205:1 207:1 213:2 216:1 222:1 223:1 231:2 236:2 238:3 240:1 242:3 252:3 257:1 260:1 289:1 295:1 298:1 332:1 343:2 369:1 391:3 394:1 400:1 440:1 444:1 454:1 466:2 481:1 519:1 589:1 595:1 629:2 632:1 641:1 688:1 701:1 708:1 720:1 725:1 766:5 774:2 837:1 858:1 888:2 890:1 891:2 910:2 960:1 971:1 1039:1 1112:1 1125:1 1127:1 1146:1 1160:1 1211:1 1212:2 1219:1 1224:1 1234:1 1243:2 1244:1 1252:1 1286:1 1305:1 1331:1 1371:1 1387:1 1511:1 1682:1 1704:1 1866:2 1959:1 2006:1 2271:1 2272:1 2332:1 2442:1 2550:1 2551:1 2552:1 2553:1 2554:1 2555:1 2556:1 2557:1 2558:2 2559:1 2560:1 2561:1 2562:1 2563:1 2564:1 2565:1 2566:1 2567:1 2568:1 2569:1 2570:1 2571:1 2572:1 2573:1 2574:2 2575:1 2576:1 2577:1 2578:3 2579:1 2580:1 2581:2 2582:1 2583:1 2584:1 2585:1 2586:1 2587:1 2588:2 2589:2 2590:1 2591:1 2592:1 2593:1 #
-0.0051583567178696658472869529532545 6:6 10:15 11:6 14:5 16:3 17:3 19:1 22:4 23:2 24:1 28:4 31:3 36:3 40:2 46:1 55:4 57:4 63:1 66:1 71:1 79:1 80:2 88:1 95:1 97:2 100:2 104:1 111:2 139:1 141:2 150:3 168:2 185:1 186:1 205:2 210:1 213:1 222:3 231:2 236:3 242:1 273:1 295:2 317:1 322:1 327:3 343:1 400:3 428:2 446:1 464:1 465:1 466:1 478:3 498:1 509:1 526:1 562:2 566:1 634:3 685:2 688:3 707:1 715:1 841:1 843:1 890:1 954:1 988:2 1015:1 1080:1 1165:1 1190:1 1200:1 1316:1 1376:2 1573:1 1605:1 1622:1 1746:4 1747:1 1748:1 1749:1 1750:1 1751:1 1752:1 1753:2 1754:1 1755:1 1756:1 1757:1 1758:1 1759:1 1760:3 1761:1 1762:1 1763:1 1764:1 1765:1 1766:1 1767:1 1768:1 1769:1 1770:1 #
-0.0051583567178696658472869529532545 4:2 6:1 10:2 11:1 14:3 19:3 32:1 35:3 36:1 49:1 53:2 55:2 57:3 68:1 80:2 102:1 168:1 200:1 210:1 317:1 343:1 444:1 528:1 841:1 866:1 955:1 1006:1 1165:1 1219:1 1224:1 1243:1 1252:2 1425:1 1694:1 2558:1 2834:1 2869:1 2870:1 2871:1 2872:3 2873:1 2874:1 #
0.0051583567178696658472869529532545 16:2 19:2 24:2 27:1 32:2 35:1 36:3 53:1 55:1 57:2 88:2 100:1 118:1 123:1 190:1 210:2 263:1 310:1 326:1 339:2 369:1 400:1 466:1 470:1 472:1 496:1 514:1 725:1 924:1 942:1 961:1 1682:1 1999:1 2049:1 2445:1 3088:1 3325:1 3604:1 3605:1 3606:1 3607:1 3608:1 3609:1 3610:1 3611:1 #
0.0051583567178696658472869529532545 6:1 10:1 13:1 14:2 27:1 28:2 36:1 39:1 46:1 55:3 57:3 63:2 87:1 88:1 102:1 106:2 111:1 113:1 116:2 149:1 150:1 168:1 185:2 205:2 236:1 254:1 296:1 322:1 400:2 472:1 509:1 708:1 726:1 1506:1 1545:1 1659:1 1677:1 1819:1 1877:1 2619:2 2620:1 2621:1 2622:1 2623:1 2624:1 2625:1 2626:1 2627:1 2628:1 2629:1 2630:1 2631:1 2632:1 #
0.0051583567178696658472869529532545 6:2 11:1 14:2 16:3 19:2 22:1 57:2 85:1 88:1 98:1 100:2 150:1 212:2 213:1 238:1 240:1 278:1 315:1 317:1 369:1 689:1 695:1 914:1 1006:1 1017:1 1061:1 1409:1 1632:1 1633:1 1634:1 1635:1 1636:1 1637:1 1638:1 1639:1 1640:1 1641:1 1642:1 1643:1 1644:1 1645:1 1646:1 1647:1 1648:1 1649:1 #
0.0051583567178696658472869529532545 6:1 10:1 11:1 14:3 16:1 27:1 36:3 57:1 71:1 78:1 80:1 82:1 95:1 100:1 103:1 111:1 119:1 141:1 145:1 149:1 176:1 207:1 238:1 292:1 380:1 400:1 412:1 418:1 661:1 662:1 835:1 892:1 1463:1 2204:2 2205:1 2206:1 2207:1 2208:1 2209:1 2210:1 2211:1 2212:1 2213:1 #
-0.0051583567178696658472869529532545 16:1 19:2 35:2 80:1 181:1 238:1 444:2 633:1 685:1 770:1 1015:1 1086:1 2011:1 2092:1 2093:1 2094:1 2095:1 #
-0.0051583567178696658472869529532545 6:1 11:1 14:1 20:1 28:1 36:1 55:1 57:1 74:1 98:1 141:1 185:1 315:1 343:1 415:1 445:1 745:1 782:1 948:1 1280:1 1517:1 1599:1 2251:1 2267:1 3267:1 3446:1 3447:1 #
-0.0051583567178696658472869529532545 6:2 14:1 16:1 57:1 186:1 205:1 212:1 238:1 379:1 400:2 444:1 509:1 850:1 1214:1 1308:1 1310:1 1614:1 1748:1 2011:1 2348:1 2349:1 2350:1 2351:1 2352:1 2353:1 2354:1 2355:1 2356:1 2357:1 2358:1 2359:1 2360:1 2361:1 2362:1 2363:1 #
-0.0051583567178696658472869529532545 10:1 14:2 16:1 19:1 21:1 25:1 88:1 113:1 182:1 210:1 212:1 236:1 316:1 415:1 481:1 694:1 748:1 1129:1 1893:1 2277:1 2366:1 2383:1 3064:1 3065:1 3066:1 3067:1 3068:1 #
0.0051583567178696658472869529532545 6:6 10:6 14:6 16:3 17:1 19:3 21:2 28:2 32:2 35:1 36:3 43:1 55:1 57:2 88:3 97:1 104:1 123:1 150:2 159:1 168:1 191:1 205:1 212:1 231:1 233:1 252:1 279:1 306:2 327:1 331:1 394:1 418:1 466:2 504:1 526:1 566:1 579:1 677:1 838:1 904:1 926:1 934:1 945:2 1119:1 1125:1 1127:2 1132:1 1214:1 1387:1 1452:1 1527:1 1823:1 1829:1 1830:1 1831:1 1832:1 1833:1 1834:1 1835:1 1836:1 1837:1 1838:1 1839:1 1840:1 1841:2 1842:1 1843:1 1844:2 1845:2 1846:1 1847:1 1848:1 1849:1 1850:1 1851:1 1852:1 1853:1 1854:1 1855:1 1856:1 1857:1 1858:1 1859:1 #
0.0051583567178696658472869529532545 6:2 10:5 14:1 16:3 19:6 23:1 28:1 36:2 52:1 53:1 55:1 57:2 73:1 74:1 80:1 88:1 98:1 100:2 104:1 116:1 127:1 150:1 156:1 175:1 179:1 194:1 205:1 231:2 236:1 278:1 295:2 322:1 331:1 333:1 335:1 339:1 435:1 466:2 566:2 587:1 628:1 629:1 634:2 682:1 716:1 848:1 1141:1 1203:1 1622:1 1746:1 1835:1 1934:1 1966:1 1967:1 1968:1 1969:1 1970:1 1971:1 1972:1 1973:1 1974:1 1975:1 1976:1 1977:1 1978:1 #
0.0051583567178696658472869529532545 6:2 10:6 14:3 16:3 19:5 23:2 24:2 28:1 32:1 33:1 36:1 40:1 52:2 53:1 57:3 71:1 74:2 80:2 88:1 100:1 102:1 116:1 150:2 154:1 161:1 191:1 205:1 213:1 236:5 238:2 242:1 257:2 260:2 268:1 282:1 295:1 322:1 327:2 365:1 380:1 405:1 412:1 470:1 472:1 498:1 500:2 501:2 509:1 656:1 715:1 720:1 782:1 789:1 829:1 916:1 988:2 1192:1 1203:1 1280:1 1410:1 1568:1 1599:1 1636:1 1831:1 1905:1 1942:1 2141:1 2772:2 2835:1 2836:1 2837:1 2838:1 2839:1 2840:1 2841:1 2842:1 2843:1 2844:1 2845:1 2846:1 2847:1 2848:1 2849:1 2850:1 2851:1 2852:1 2853:1 2854:1 2855:1 2856:1 2857:1 2858:1 2859:1 2860:1 2861:1 2862:1 2863:1 2864:1 2865:1 2866:1 2867:1 2868:1 #
0.0039054505531468581593090849679584 10:5 14:5 16:9 19:3 23:1 24:2 25:1 36:5 40:1 46:1 49:1 56:1 57:1 71:1 80:3 88:3 98:1 103:1 123:1 141:2 154:1 159:1 169:1 172:1 176:1 179:2 223:1 236:1 238:3 321:1 326:1 343:2 365:3 391:3 400:3 466:2 471:1 477:1 478:1 568:1 577:1 581:6 598:1 651:1 696:1 717:1 807:1 820:1 829:1 866:1 891:1 916:1 924:1 928:1 1092:1 1125:1 1252:2 1317:1 1440:1 1497:1 1506:1 1631:1 1662:1 1825:1 2018:1 2019:1 2086:1 2573:1 2844:1 3030:1 3321:1 3322:1 3323:2 3324:1 3325:1 3326:1 3327:1 3328:1 3329:1 3330:1 3331:1 3332:1 3333:1 3334:1 3335:1 3336:1 3337:1 3338:1 3339:1 3340:2 3341:1 3342:1 #
0.0033399862074840669032282924888477 6:6 10:6 14:8 16:2 17:1 19:2 27:1 28:3 36:1 42:1 46:1 52:1 55:1 57:1 88:1 100:1 102:1 154:1 159:1 168:1 179:1 180:1 181:1 191:1 225:3 236:2 238:2 240:1 242:1 317:1 357:1 379:1 412:2 464:1 465:1 466:1 471:1 479:1 509:2 551:1 629:1 871:1 889:1 954:1 961:1 988:3 993:1 1039:1 1122:1 1180:2 1302:1 1316:1 1592:1 1616:1 1999:1 2096:1 2097:1 2098:1 2099:1 2463:1 2654:1 3157:1 3158:1 3159:1 3160:1 3161:1 3162:1 3163:1 3164:1 3165:1 3166:1 3167:1 3168:1 3169:1 3170:1 3171:1 3172:1 3173:1 3174:1 3175:1 3176:1 3177:1 3178:1 3179:1 #
-0.0016754846507379972126577927227231 6:2 7:1 10:7 11:1 12:1 13:1 14:10 16:8 19:2 21:3 24:1 27:1 28:5 32:1 35:1 36:6 37:1 46:3 55:4 57:3 63:1 71:2 80:6 88:6 89:1 96:1 106:1 111:2 113:5 123:1 136:1 142:1 150:1 158:1 159:1 185:1 205:1 210:2 231:1 236:1 238:4 240:1 242:1 289:2 296:1 300:1 326:1 343:1 358:1 400:3 410:1 415:2 445:1 455:1 456:1 466:3 468:1 471:1 473:2 479:1 533:1 587:1 629:2 663:1 717:1 766:2 767:1 782:1 810:1 819:1 822:1 871:2 876:1 888:1 891:1 910:2 927:1 948:1 961:1 1005:1 1071:1 1210:2 1225:1 1292:1 1450:2 1501:1 1508:1 1517:2 1518:1 1519:1 1520:5 1521:1 1522:1 1523:1 1524:1 1525:1 1526:1 1527:2 1528:1 1529:2 1530:1 1531:1 1532:1 1533:1 1534:1 1535:2 1536:2 1537:1 1538:2 1539:1 1540:6 1541:1 1542:1 1543:1 1544:1 1545:1 1546:1 1547:1 1548:1 1549:1 1550:1 1551:1 1552:1 1553:1 1554:2 1555:1 1556:1 1557:1 1558:1 1559:1 1560:1 1561:1 1562:1 1563:1 1564:1 1565:1 1566:1 1567:1 1568:1 1569:1 1570:1 1571:1 1572:1 1573:1 1574:1 1575:1 1576:1 1577:1 1578:1 1579:1 #
-0.0016922733624626005131952322102507 5:1 6:3 10:4 11:1 14:8 16:6 17:3 19:9 22:2 23:2 24:1 28:3 32:1 33:4 36:1 37:1 39:1 52:1 53:1 55:4 57:6 68:1 74:1 79:2 80:2 85:1 88:2 94:1 97:1 99:1 100:7 113:1 118:1 121:1 122:1 139:3 150:2 154:1 158:1 159:1 168:1 176:3 177:1 179:2 191:2 205:1 213:6 227:1 229:1 236:8 238:6 252:1 263:1 274:1 276:1 295:2 300:1 306:1 310:1 343:1 355:1 356:1 358:1 365:1 369:2 379:1 392:1 400:4 412:1 434:2 444:1 466:2 470:1 509:1 579:1 587:2 629:1 654:1 688:2 696:1 700:2 772:1 800:1 807:1 843:1 850:2 916:1 961:3 1015:1 1016:1 1092:2 1142:1 1180:1 1190:1 1194:1 1203:1 1246:1 1344:1 1357:1 1429:3 1451:1 1521:1 1560:1 1563:1 1636:1 1780:1 1790:1 1824:1 1961:1 1973:1 2018:1 2054:1 2057:1 2226:1 2234:1 2325:1 2598:1 3052:3 3081:1 3161:1 3214:2 3270:1 3271:1 3272:1 3273:1 3274:1 3275:3 3276:1 3277:1 3278:1 3279:1 3280:1 3281:1 3282:1 3283:1 3284:1 3285:2 3286:2 3287:1 3288:2 3289:1 3290:1 3291:1 3292:1 3293:1 3294:1 #
-0.0023204033920048309017070131687888 6:1 10:9 11:3 14:5 16:6 19:11 22:2 23:1 24:1 25:1 27:1 28:1 32:1 35:2 36:2 52:1 55:2 57:5 63:3 68:2 80:1 82:1 88:3 100:5 102:1 104:1 106:1 118:1 123:2 150:2 151:1 168:1 175:1 176:1 182:1 192:1 198:1 200:1 210:1 213:2 236:1 238:4 240:1 251:1 273:1 276:1 289:1 306:1 315:1 317:1 321:1 327:1 381:1 391:2 394:2 395:1 400:2 446:1 463:1 475:1 481:1 509:2 522:2 555:1 561:2 579:1 616:1 651:1 654:1 656:1 714:1 717:1 725:1 759:1 777:2 815:1 871:1 875:1 882:1 888:1 908:1 910:1 954:1 961:1 989:1 998:1 1031:1 1034:1 1070:1 1071:1 1072:1 1073:1 1074:1 1075:1 1076:1 1077:1 1078:1 1079:1 1080:1 1081:2 1082:1 1083:1 1084:1 1085:4 1203:1 1256:1 1298:1 1442:1 1499:1 1568:1 1603:1 1622:1 1748:1 1791:1 1973:1 2103:1 2125:1 2126:1 2127:1 2128:1 2129:1 2130:1 2131:1 2132:1 2133:1 2134:1 2135:1 2136:1 2137:1 2138:1 2139:1 2140:1 2141:1 2142:1 2143:1 2144:1 2145:1 2146:1 2147:1 2148:1 2149:1 2150:1 2151:1 #
0.0051583567178696658472869529532545 6:1 11:3 14:2 16:2 17:1 19:3 28:3 36:1 40:1 55:1 57:2 87:1 94:1 100:1 106:1 177:1 211:1 222:1 254:1 263:1 272:1 315:1 400:1 428:1 466:1 470:1 522:1 717:1 891:1 942:1 945:1 1075:1 1239:1 1426:1 1427:1 1428:1 1429:1 1430:1 1431:1 #
0.0051583567178696658472869529532545 6:2 10:2 11:2 14:1 17:1 19:1 20:1 22:3 23:1 27:1 28:1 32:1 35:3 57:3 80:2 88:1 103:3 118:1 123:1 159:2 176:2 185:1 252:1 258:1 263:1 306:1 315:1 329:1 356:1 369:2 380:1 478:1 531:1 579:1 615:1 624:1 634:1 635:1 1019:2 1061:1 1684:1 1685:1 1686:1 1687:1 1688:1 1689:1 1690:2 1691:1 1692:1 #
-0.0051583567178696658472869529532545 6:1 10:1 19:1 28:1 36:1 55:1 57:1 63:1 80:1 103:1 112:3 113:3 147:1 168:1 189:1 263:1 305:1 306:1 332:1 379:1 391:1 466:1 498:1 581:2 777:1 829:1 908:1 1350:1 1937:1 1939:1 2101:1 3069:1 3070:1 3071:1 #
-0.0051583567178696658472869529532545 6:1 10:1 11:1 19:1 52:1 57:2 111:1 318:1 1622:1 2207:1 2482:1 2534:2 3055:1 3056:1 3057:2 3058:1 3059:1 3060:1 3061:1 3062:1 3063:1 #
-0.0051583567178696658472869529532545 6:2 10:4 14:3 57:1 71:1 88:1 96:1 242:2 258:1 264:1 277:1 285:1 477:1 566:1 615:1 721:1 777:1 908:1 993:1 1307:1 1860:1 1861:1 1862:1 1863:1 1864:1 1865:1 1866:1 1867:1 1868:1 1869:1 1870:1 1871:1 1872:1 1873:1 1874:1 1875:1 1876:1 1877:1 1878:1 #
-0.0051583567178696658472869529532545 6:3 10:4 11:4 16:2 17:1 19:3 23:1 28:1 29:1 35:1 36:4 46:2 55:3 57:2 63:2 88:4 115:2 116:1 147:1 156:1 164:2 175:1 187:1 194:1 238:2 295:1 332:1 356:1 428:1 430:1 587:1 695:1 701:1 708:1 894:2 1112:1 1136:1 1286:1 1482:1 1511:1 1622:2 1693:2 1694:3 1702:1 2034:1 2104:1 2282:1 2283:1 2284:1 2285:1 2286:1 2287:1 2288:1 2289:2 2290:1 #
0.0051583567178696658472869529532545 10:3 11:3 14:5 16:2 19:3 24:1 28:1 32:2 33:1 35:2 36:2 46:1 55:1 57:4 58:2 78:1 88:1 98:1 100:1 102:1 106:2 107:1 111:1 113:1 115:1 150:2 151:1 159:1 175:1 179:1 186:2 189:1 200:1 213:2 225:1 240:1 241:1 254:1 263:1 276:1 293:1 333:1 335:1 359:1 400:1 418:1 470:1 656:1 725:1 843:1 961:1 1021:1 1053:1 1371:1 1506:2 1511:1 1517:1 1558:1 1630:1 1880:1 2104:1 2688:1 2689:1 2690:1 2691:1 2692:1 2693:1 2694:1 2695:1 2696:1 2697:1 2698:1 2699:1 #
0.0051583567178696658472869529532545 4:1 6:2 10:4 14:4 16:3 17:1 19:3 27:1 28:1 32:2 36:2 43:1 55:5 57:2 71:1 80:2 88:1 100:1 139:2 154:1 159:2 161:1 175:2 179:1 187:1 205:2 207:1 236:2 238:1 275:1 300:1 306:1 325:1 327:2 369:2 383:1 415:2 441:1 444:1 470:2 472:1 509:1 519:1 664:1 685:1 722:1 810:1 1120:1 1134:1 1136:1 1184:1 1506:1 1586:1 1613:1 1636:1 1706:1 1780:1 1900:1 1990:1 2053:2 2147:1 2269:1 2364:1 2365:1 2366:1 2367:1 2368:1 2369:1 2370:1 2371:2 2372:1 2373:1 2374:1 2375:1 2376:1 2377:1 2378:1 2379:1 2380:1 2381:1 2382:1 2383:1 2384:1 #
0.0051583567178696658472869529532545 6:1 10:4 11:2 14:7 16:3 17:1 19:5 21:1 33:1 35:1 36:1 55:1 57:3 58:1 71:1 82:1 95:1 98:1 139:1 168:1 175:1 185:1 205:1 212:1 238:1 242:1 254:1 257:1 260:1 272:1 278:1 322:1 400:1 432:1 440:1 468:2 531:1 536:1 568:1 673:1 715:1 720:1 838:1 848:1 866:1 891:1 923:1 983:1 1076:1 1398:1 1419:1 1429:1 1436:1 1506:1 1560:1 1592:1 1877:1 2190:1 2325:1 2682:1 2717:1 2836:1 3037:1 3159:1 3214:1 3225:1 3226:2 3227:1 3228:1 3229:1 3230:1 3231:1 3232:1 3233:1 3234:1 3235:1 3236:1 3237:1 3238:1 3239:1 3240:1 3241:1 3242:1 3243:1 #
0.0051583567178696658472869529532545 6:1 10:4 11:2 12:1 14:2 16:2 17:1 19:2 22:1 24:2 27:1 28:2 36:4 40:1 43:1 52:1 53:1 55:1 57:2 66:1 71:2 80:2 88:1 115:1 164:1 210:2 213:1 236:2 238:1 273:1 278:1 279:1 346:1 400:1 428:2 451:1 514:1 517:1 594:1 661:1 726:1 810:1 829:1 965:1 993:1 1009:1 1067:1 1112:1 1402:1 1455:1 1550:1 1831:1 1883:1 1884:1 1885:1 1886:1 1887:1 1888:1 1889:1 1890:1 1891:1 1892:1 1893:1 1894:1 1895:1 1896:1 1897:1 1898:1 1899:1 1900:1 #
0.0051583567178696658472869529532545 4:1 6:2 7:1 10:4 14:3 16:3 17:2 19:5 28:4 32:1 35:5 46:1 55:6 57:2 80:2 88:1 100:2 116:3 123:3 150:1 154:1 175:2 180:1 181:1 212:1 213:2 225:2 231:1 238:1 240:2 298:1 310:1 328:1 335:1 343:1 357:1 412:1 420:1 463:1 471:2 472:1 496:1 498:1 516:1 536:1 629:1 682:1 685:1 806:1 858:1 1003:1 1120:1 1125:1 1160:1 1429:1 1545:1 1754:1 1954:1 2114:1 2221:1 2465:1 2778:1 2779:1 2780:1 2781:1 2782:1 2783:1 2784:1 2785:1 2786:2 2787:1 2788:1 2789:1 2790:1 2791:1 2792:1 2793:1 2794:1 2795:1 2796:1 2797:1 2798:1 2799:1 2800:1 #
-0.0023003860688868265488293829434951 6:1 7:3 10:6 11:2 12:2 13:1 14:4 16:7 17:3 19:8 23:1 25:1 27:1 28:5 32:5 33:1 35:2 36:3 45:2 52:3 55:2 57:5 63:1 66:1 68:1 74:1 80:2 103:1 118:1 136:1 150:7 164:1 171:1 175:1 187:1 203:1 210:2 222:1 223:1 235:1 236:3 238:1 319:1 325:1 333:1 357:1 380:1 400:1 423:1 432:1 444:1 453:1 471:2 473:1 496:1 519:1 525:1 526:1 594:1 603:1 618:1 634:1 725:1 726:1 787:1 802:1 916:1 988:1 1134:1 1147:1 1211:1 1212:1 1230:1 1657:1 1739:1 1866:1 2174:1 2442:1 2450:2 2519:1 2638:1 2819:1 2901:1 2902:1 2903:1 2904:2 2905:1 2906:1 2907:2 2908:1 2909:1 2910:1 2911:1 2912:1 2913:1 2914:1 2915:1 2916:1 2917:1 2918:1 2919:1 2920:1 2921:1 2922:1 #
-0.00050678101604592629136902814934729 6:3 10:7 11:2 14:6 16:6 17:1 19:7 20:1 22:1 23:3 24:3 27:1 28:5 31:1 32:1 33:1 35:4 36:1 39:3 52:1 53:1 55:1 57:6 63:1 66:1 67:1 68:1 71:1 74:1 79:1 80:4 88:1 94:1 97:1 98:1 100:1 104:1 113:1 122:1 123:3 139:1 150:3 154:1 159:3 175:1 185:1 209:1 210:4 213:3 236:8 238:3 263:1 288:1 301:1 316:1 317:1 319:1 321:1 369:1 466:1 470:1 475:2 477:1 478:2 514:2 577:1 579:2 587:2 633:1 637:1 685:2 686:1 687:1 688:1 689:1 690:1 691:1 692:1 693:1 694:1 695:3 696:1 697:1 698:2 699:1 700:2 701:1 702:1 703:1 704:1 705:2 706:1 707:1 708:1 709:1 710:1 711:1 712:1 713:1 714:1 715:1 716:1 717:1 718:1 719:1 720:1 721:1 722:1 723:1 724:1 725:1 726:1 727:1 728:1 729:1 730:3 731:1 732:1 733:1 734:1 735:1 736:1 737:1 #
-0.0013012717857218249542516907979461 6:2 10:2 11:4 14:6 16:6 19:9 21:1 23:3 24:2 31:1 32:3 35:2 36:1 52:1 55:1 57:4 63:2 66:2 82:1 88:1 98:1 99:1 100:1 103:1 116:1 150:2 154:1 163:1 175:1 185:1 210:1 222:1 263:2 268:1 305:1 315:1 319:1 343:1 356:1 369:6 383:1 391:2 392:1 459:1 470:1 478:1 534:1 566:1 629:1 651:1 664:1 677:1 700:1 777:2 866:1 908:1 969:1 988:1 1037:1 1077:1 1089:1 1091:1 1194:2 1440:1 1793:1 1819:1 2033:1 2083:1 2546:1 2594:1 2595:2 2596:1 2597:1 2598:1 2599:1 2600:1 2601:1 2602:1 2603:1 2604:1 2605:1 2606:1 2607:1 2608:1 2609:1 2610:1 2611:1 2612:1 2613:1 2614:1 2615:1 2616:1 2617:1 2618:1 #
0.0051583567178696658472869529532545 10:4 11:4 20:1 21:1 22:1 24:1 25:1 57:3 88:1 98:1 111:1 115:2 118:1 133:1 145:1 164:1 207:2 251:1 254:1 295:2 343:1 477:1 651:1 688:1 690:1 717:1 835:1 875:1 892:1 893:1 894:1 895:1 896:1 897:1 898:1 899:1 900:1 901:1 902:1 903:1 904:1 #
0.0051583567178696658472869529532545 10:3 21:1 32:1 36:1 55:1 57:1 79:1 87:1 179:1 300:1 314:1 346:1 435:1 717:1 1050:1 1051:1 1052:1 1053:3 1054:1 1055:1 1056:1 1057:1 1058:1 1059:1 1060:1 #
0.0051583567178696658472869529532545 6:1 10:4 11:2 17:1 28:1 36:1 55:1 57:4 71:1 78:1 111:1 115:1 116:1 145:1 159:1 179:1 293:1 359:1 720:1 725:1 835:1 892:1 988:1 2548:1 2982:1 3205:1 3511:1 3512:1 3513:1 3514:1 3515:1 3516:1 3517:1 3518:1 3519:1 3520:1 #
-0.0051583567178696658472869529532545 7:2 10:6 11:5 14:1 16:1 19:1 21:2 23:2 24:1 28:1 33:1 35:2 36:1 55:6 57:3 71:2 88:1 104:1 115:1 128:1 141:3 179:1 180:1 181:1 205:1 273:1 343:1 391:2 531:1 571:1 581:2 646:1 673:1 725:1 960:1 989:1 998:2 1112:1 1267:1 1276:1 1292:1 1682:1 1973:1 2692:1 2820:1 2821:1 2822:1 2823:1 2824:1 2825:1 2826:1 2827:1 2828:1 2829:1 2830:1 2831:1 2832:1 2833:1 2834:1 #
0.0051583567178696658472869529532545 6:1 10:1 11:4 16:4 17:2 19:7 23:2 24:2 28:1 31:1 35:2 36:3 42:1 46:2 55:1 57:2 99:2 102:1 106:1 116:1 139:1 141:3 149:1 150:1 159:2 179:1 203:2 207:1 251:1 255:1 305:1 383:1 390:1 391:2 400:2 401:1 463:1 468:1 517:1 522:1 568:1 569:1 570:1 571:1 572:1 573:1 574:2 575:1 576:1 577:1 578:1 579:2 580:2 581:4 582:2 583:1 584:1 585:1 586:1 587:1 588:1 589:1 590:1 591:1 592:1 593:1 594:1 595:1 596:1 #
-0.0051583567178696658472869529532545 10:3 11:2 19:1 21:1 22:2 24:2 31:1 36:1 53:1 55:1 57:2 63:2 82:2 87:1 95:1 98:1 106:1 170:1 176:1 186:1 191:1 231:1 242:1 295:1 301:1 335:1 380:1 470:1 532:1 536:1 581:1 698:1 715:1 1034:1 1053:2 1079:1 1214:1 1613:1 1614:1 1615:1 1616:1 1617:1 1618:1 1619:1 1620:1 1621:1 1622:1 1623:1 1624:1 1625:1 1626:1 1627:1 1628:1 1629:1 1630:1 1631:1 #
0.0047693149793368964928230724353853 6:2 10:7 11:1 14:3 16:5 19:1 22:1 24:1 28:1 39:1 55:1 57:3 80:1 82:1 85:1 88:1 100:1 103:1 111:1 112:1 113:1 123:2 150:3 168:1 213:1 238:1 263:1 272:1 279:1 293:1 301:1 305:2 327:1 400:2 412:1 463:1 479:1 493:1 526:1 629:1 632:1 810:1 961:1 1247:1 1636:1 1706:1 1760:1 2112:1 2699:1 2755:1 2978:1 2979:1 2980:1 2981:1 2982:1 2983:1 2984:1 2985:1 2986:1 2987:1 2988:1 2989:1 2990:1 #
-0.0051583567178696658472869529532545 6:3 10:2 14:4 16:4 19:6 25:1 29:1 32:1 36:1 55:1 57:2 80:1 88:1 123:2 154:1 172:1 191:1 210:1 240:2 298:1 369:1 446:2 472:1 509:1 519:1 578:1 651:1 772:1 1180:1 1196:1 1203:1 1280:1 1334:1 1335:2 1336:1 1337:2 1338:1 1339:1 1340:1 1341:1 1342:1 1343:1 1344:1 1345:2 1346:1 1347:1 1348:1 1349:1 1350:1 1351:1 1352:1 1353:1 1354:1 1355:1 1356:1 1357:1 1358:1 1359:1 1360:1 1361:1 1362:1 1363:1 #
-0.0051583567178696658472869529532545 6:2 10:2 14:3 16:1 22:1 27:1 32:1 36:1 55:1 88:1 240:1 258:1 317:1 319:1 400:1 466:1 555:1 735:1 850:1 866:1 989:1 1083:1 1265:1 1307:1 1308:1 1309:1 1310:1 1311:1 1312:1 1313:1 1314:1 1315:1 1316:1 1317:1 1318:1 1319:1 1320:1 1321:1 1322:1 1323:1 1324:1 1325:1 1326:1 #
-0.0031478365940387797485000564989832 4:1 6:4 7:2 10:2 13:1 14:4 16:3 19:3 27:1 28:4 36:4 55:3 57:1 63:2 74:1 78:1 80:1 88:2 102:1 106:3 141:1 144:1 146:1 154:2 168:1 177:2 210:2 222:1 238:1 242:1 300:1 335:1 466:1 468:1 475:1 526:1 566:1 589:1 717:1 738:1 824:1 929:1 994:1 1115:1 1207:1 1208:1 1209:1 1210:2 1211:5 1212:5 1213:1 1214:1 1215:1 1216:1 1217:1 1218:1 1219:1 1220:1 1221:1 1222:1 1223:1 1224:3 1225:1 1226:1 1227:1 1228:1 1229:1 1230:1 1231:1 1232:1 1233:1 1234:1 1235:1 1236:1 1237:1 1238:1 1239:1 1240:1 1241:1 1242:1 1243:1 1244:1 1245:1 1246:1 1247:1 1248:1 1249:1 1250:1 1251:1 1252:1 1253:1 #
-0.0051583567178696658472869529532545 7:1 10:8 11:2 14:1 16:5 19:2 20:2 28:2 32:1 35:1 36:2 55:1 57:2 80:2 82:2 88:1 100:2 104:1 123:1 128:1 150:1 175:1 210:1 231:1 455:1 467:1 473:2 523:1 629:1 663:2 745:2 988:1 1128:1 1622:2 2026:1 2052:1 2057:1 2251:2 2352:1 2665:1 2671:2 2753:1 3083:1 3108:1 3109:1 3110:1 3111:1 3112:1 3113:1 3114:1 3115:1 3116:1 3117:1 3118:1 3119:1 3120:1 3121:1 3122:1 3123:1 3124:1 3125:1 3126:1 3127:1 3128:1 3129:1 3130:1 3131:1 3132:1 3133:1 3134:1 3135:1 #
-0.0051583567178696658472869529532545 6:2 10:2 14:2 16:2 19:2 28:1 36:3 55:1 57:1 80:1 103:1 123:1 175:1 210:2 263:1 327:1 343:2 391:1 400:1 466:1 472:1 473:1 581:1 700:1 777:1 855:1 884:2 936:1 1074:1 1077:1 1127:3 1307:1 1470:1 1527:1 1610:1 1732:1 1990:1 2002:1 2003:1 2004:1 2005:3 2006:1 2007:1 2008:1 2009:1 2010:1 2011:1 2012:1 2013:1 2014:1 2015:1 2016:1 2017:1 2018:1 2019:1 2020:1 2021:1 2022:1 #
0.0051583567178696658472869529532545 10:1 11:2 14:1 16:1 19:3 20:1 24:1 35:1 36:3 39:1 42:1 57:4 68:1 82:1 88:1 102:1 104:1 115:1 159:1 164:1 175:1 210:1 240:1 268:1 273:1 317:1 319:1 391:2 394:1 418:2 432:1 444:1 506:1 526:1 536:1 580:1 581:1 594:1 677:1 723:1 789:1 836:1 981:1 982:1 983:1 984:1 985:1 986:1 987:2 988:1 989:1 990:1 991:1 992:1 993:1 994:1 995:1 996:1 997:1 998:1 999:1 #
0.0051583567178696658472869529532545 4:1 6:2 10:3 14:2 16:2 19:5 24:1 28:1 32:1 34:1 35:2 36:1 57:2 80:2 88:1 100:1 103:1 123:1 174:1 176:1 191:1 210:1 238:1 239:1 281:1 321:1 394:1 478:1 519:1 577:1 634:1 720:1 871:1 931:1 945:1 949:1 1170:1 1192:2 1348:1 1373:1 1480:1 1617:1 1653:1 1852:1 1853:1 1979:1 1980:1 1981:1 1982:1 1983:1 1984:1 1985:1 1986:1 1987:1 1988:1 1989:1 1990:1 1991:1 1992:1 1993:1 1994:1 1995:1 1996:1 #
0.0051583567178696658472869529532545 6:4 7:1 10:2 11:1 14:3 19:1 23:1 27:1 28:1 35:1 36:1 37:1 55:2 57:3 68:1 78:1 88:2 95:1 98:2 100:2 111:1 113:1 123:1 141:1 149:1 150:1 154:1 169:1 212:1 227:1 231:4 273:1 305:1 321:1 339:1 412:1 444:1 464:1 465:1 579:1 708:1 731:1 913:1 931:1 937:1 954:1 1054:1 1158:1 1159:1 1203:1 1541:1 1657:1 1664:1 1679:1 1953:1 2034:1 2353:1 2717:1 2733:1 3152:1 3153:1 3154:1 3155:1 3156:1 #
0.0051583567178696658472869529532545 4:1 10:2 11:1 14:4 16:2 19:2 21:1 23:1 24:1 28:1 40:2 46:1 55:1 57:2 71:2 80:1 82:1 150:1 159:1 181:1 207:1 210:1 236:1 238:1 240:1 298:1 306:1 343:1 357:1 375:1 376:1 379:1 400:1 577:1 629:1 660:1 673:1 1073:1 1203:1 1295:1 1537:1 1580:1 1581:1 1582:1 1583:1 1586:1 1605:1 2104:1 2112:1 2442:1 2446:1 2811:1 2812:1 2813:1 2814:1 2815:1 2816:1 2817:1 2818:1 2819:1 #
0.0021713950859171553438298207794332 6:1 7:1 10:7 14:3 16:6 19:6 22:1 27:1 28:1 33:1 35:3 36:2 55:1 57:2 68:1 73:1 88:2 90:1 99:2 116:3 123:1 150:2 159:1 168:1 175:1 179:1 185:1 205:2 210:2 240:1 279:1 300:1 321:1 326:1 335:1 373:1 442:1 444:1 447:1 466:1 599:1 696:1 771:1 788:1 810:1 891:1 927:3 928:1 1125:1 1127:1 1170:1 1171:1 1172:1 1173:1 1174:1 1175:1 1176:1 1177:1 1178:1 1179:1 1180:1 1181:1 1182:1 1183:1 1184:1 1185:1 1186:1 1187:1 1188:1 1189:1 1190:1 1191:1 1192:1 1193:1 1194:1 1195:1 1196:1 1197:1 1198:1 1199:1 1200:1 1201:1 1202:1 1203:1 1204:1 1205:1 1206:1 #
-0.0051583567178696658472869529532545 6:1 11:2 14:1 17:1 19:2 57:2 80:1 100:2 288:1 300:1 526:1 688:1 748:1 876:1 1110:1 1189:1 1317:1 1371:1 1866:1 1977:1 3195:1 3244:1 3245:1 3246:1 3247:1 #
-0.0051583567178696658472869529532545 6:1 10:1 14:4 16:1 19:1 27:1 57:1 88:1 100:2 123:2 161:1 182:1 191:1 236:2 238:1 277:1 313:1 352:1 354:1 400:2 457:1 473:1 594:2 618:1 738:1 739:1 772:1 810:1 915:1 1110:1 1136:1 1223:2 1650:1 2034:1 2040:1 2112:1 3595:1 3596:1 3597:1 3598:1 3599:1 3600:1 3601:1 3602:1 3603:1 #
-0.0051583567178696658472869529532545 6:2 10:2 14:3 22:3 27:1 53:2 80:1 100:1 176:1 251:1 470:1 745:1 782:1 843:1 924:1 961:1 992:1 2173:2 2251:1 3052:1 3053:1 3054:1 #
-0.0051583567178696658472869529532545 6:1 14:1 16:2 21:1 28:1 36:1 43:1 52:1 57:1 63:1 100:2 106:2 185:1 227:1 634:1 989:1 1002:1 1313:1 1622:1 1746:1 1967:1 1997:1 1998:1 1999:1 2000:1 2001:1 #
-0.0051583567178696658472869529532545 6:1 10:4 11:1 14:4 16:1 19:1 21:1 36:2 52:1 55:2 57:2 63:1 78:1 80:2 97:1 100:1 111:1 113:1 128:1 154:2 159:1 176:1 186:1 191:2 231:1 238:6 263:1 272:1 298:2 301:1 400:1 521:1 528:1 685:1 700:1 717:2 720:1 1298:1 1371:2 1406:2 1407:1 1408:2 1409:1 1410:1 1411:1 1412:1 1413:1 1414:1 1415:1 1416:1 1417:1 1418:1 1419:1 1420:1 1421:1 1422:1 1423:1 1424:1 1425:1 #
0.00089999292162096613308802650621487 6:4 10:6 11:1 16:4 19:3 24:1 36:2 52:1 53:1 54:1 57:2 71:1 74:2 78:1 87:1 98:2 100:1 132:1 137:1 150:1 175:1 176:1 186:1 213:1 236:1 238:2 242:1 258:1 268:1 301:1 402:1 444:1 523:1 597:1 598:1 599:1 600:1 601:1 602:1 603:1 604:1 605:1 606:1 607:1 608:1 609:1 610:1 611:1 612:1 613:1 614:1 615:1 616:1 617:1 618:1 619:1 620:1 621:1 622:1 623:1 624:1 625:1 626:1 627:1 628:1 629:1 630:1 631:1 632:1 633:1 634:1 635:1 636:1 637:1 638:1 639:1 #
0.0051583567178696658472869529532545 6:2 10:4 11:1 12:1 14:3 16:1 17:1 19:1 22:1 27:1 36:2 46:1 55:1 57:2 80:1 100:1 128:1 129:1 151:1 186:1 236:2 238:1 278:1 295:1 305:1 380:1 394:1 418:1 629:1 776:1 782:1 861:1 875:1 960:1 1713:1 1714:1 1715:1 1716:1 1717:1 1718:1 1719:1 1720:1 1721:1 1722:1 1723:1 1724:1 1725:1 1726:1 1727:1 1728:1 #
0.0044369188474570504798766279463962 6:3 10:3 13:1 14:2 16:6 19:1 23:1 24:1 27:2 32:2 52:1 57:4 88:1 98:1 103:1 107:1 116:1 123:1 150:2 159:1 179:1 194:1 210:3 300:1 310:1 335:2 369:2 514:1 519:1 587:1 629:2 654:1 726:1 735:1 829:1 916:1 1160:2 1915:1 1916:1 1917:1 1918:1 1919:1 1920:1 1921:1 1922:1 1923:1 1924:1 1925:1 1926:1 1927:1 1928:1 1929:1 1930:1 1931:1 1932:1 1933:1 1934:1 1935:1 1936:1 1937:1 1938:1 1939:1 1940:1 1941:1 1942:1 #
-0.0051583567178696658472869529532545 4:1 10:9 11:5 14:4 16:5 17:3 19:2 21:1 23:1 24:1 28:2 32:2 35:3 36:3 39:1 40:1 45:1 57:5 63:1 71:1 77:1 78:1 79:1 80:2 82:1 86:1 87:2 88:6 100:2 103:1 106:1 123:3 128:1 142:1 150:2 159:2 185:1 186:1 191:1 207:1 210:1 236:4 238:2 301:1 306:2 315:1 331:1 343:4 357:1 383:1 415:1 428:2 466:1 498:1 514:2 519:1 578:1 595:1 629:1 689:1 695:1 701:1 704:1 713:1 749:1 772:1 820:1 843:1 924:1 965:1 988:1 1019:1 1076:2 1112:1 1141:1 1180:1 1239:1 1259:1 1719:1 2014:1 2041:1 2042:1 2043:1 2044:1 2045:1 2046:1 2047:1 2048:1 2049:1 2050:2 2051:1 2052:1 2053:1 2054:1 2055:1 2056:1 2057:1 2058:1 2059:1 #
-0.0051583567178696658472869529532545 6:4 7:1 10:4 11:7 12:1 14:2 16:5 17:1 19:1 23:1 24:1 27:1 36:5 56:1 57:5 68:1 71:1 73:1 78:1 80:1 82:1 88:2 106:2 150:3 164:2 168:1 172:1 175:2 186:2 207:1 222:1 231:1 240:2 242:1 252:1 254:1 257:1 260:1 273:1 414:1 418:1 462:1 466:1 509:1 562:1 566:5 575:1 587:1 589:1 629:2 688:2 695:1 709:1 717:1 720:1 767:1 776:2 777:2 778:1 779:1 780:1 781:1 782:1 783:1 784:2 785:1 786:1 787:1 788:1 789:1 790:1 791:1 792:1 793:1 794:1 795:1 796:1 797:1 798:1 799:1 800:1 801:1 802:1 803:1 804:1 805:2 806:1 807:1 808:1 809:1 810:1 811:1 812:1 813:1 #
-0.0051583567178696658472869529532545 6:3 10:5 11:4 14:1 16:3 17:1 19:6 21:1 25:1 28:3 32:2 35:3 36:1 39:1 43:1 45:1 52:1 55:2 57:4 58:1 63:1 66:1 69:1 88:4 100:4 115:3 116:2 123:2 128:1 136:2 150:2 161:3 166:1 175:1 176:1 185:1 203:1 210:2 216:1 222:1 227:1 236:1 263:4 295:2 317:3 343:3 356:1 369:1 400:1 440:1 578:1 633:1 656:1 677:2 689:1 695:1 738:1 793:1 825:1 844:1 882:1 923:1 961:2 1231:2 1236:1 1367:1 1371:1 1408:1 1722:1 1866:1 1868:1 2194:1 2203:1 2442:1 2588:1 2633:1 2634:1 2635:1 2636:1 2637:2 2638:1 2639:1 2640:1 2641:1 2642:1 2643:1 2644:1 2645:1 2646:1 2647:1 #
0.0051583567178696658472869529532545 6:3 10:1 14:5 16:2 19:1 27:2 28:3 55:4 57:2 80:3 88:3 89:1 98:1 100:1 104:1 123:1 168:1 180:1 181:1 205:1 225:2 231:4 235:2 240:2 242:1 252:1 335:1 339:1 343:1 463:1 466:1 509:1 566:1 628:1 655:1 696:1 1034:1 1061:1 1259:1 1262:1 1295:1 1367:1 1371:1 1511:1 1514:1 1949:1 2096:1 2097:1 2098:1 2099:1 2100:1 2101:1 2102:1 2103:1 2104:1 2105:1 2106:2 2107:1 2108:2 2109:2 2110:1 2111:1 2112:1 2113:1 2114:1 2115:1 2116:1 2117:1 2118:1 2119:1 2120:1 2121:1 2122:1 2123:1 2124:1 #
-0.0051583567178696658472869529532545 6:1 14:2 16:2 19:4 20:1 36:1 57:1 80:2 88:2 159:1 185:1 238:2 295:1 525:1 626:1 1138:1 1187:1 1223:1 1394:1 1637:1 1650:1 1651:1 1652:1 1653:1 1654:1 1655:1 1656:1 1657:1 1658:1 1659:1 1660:1 1661:1 1662:1 1663:1 #
-0.0051583567178696658472869529532545 6:5 10:2 14:5 16:1 19:2 23:2 28:2 36:3 39:2 57:3 80:3 88:1 95:1 98:1 132:1 185:1 191:1 206:1 231:2 242:2 257:1 260:1 343:1 380:1 415:2 466:1 562:1 725:1 945:1 1072:1 1076:1 1214:1 1249:1 1254:1 1255:1 1256:1 1257:1 1258:1 1259:1 1260:1 1261:1 1262:1 1263:1 1264:1 1265:1 1266:2 1267:1 1268:1 1269:1 1270:1 1271:1 1272:2 1273:1 1274:1 1275:1 1276:1 1277:1 1278:1 1279:1 1280:1 #
-0.0040916432510147062590055710984416 6:1 10:3 14:5 16:5 17:1 19:4 27:2 35:2 36:5 46:2 55:2 57:3 63:1 71:1 80:4 88:3 99:1 106:1 134:1 150:1 151:1 166:1 182:1 205:1 222:1 236:1 238:1 240:2 263:1 289:1 343:1 394:1 395:1 397:1 400:1 466:3 468:1 475:1 562:1 629:1 633:1 677:1 741:1 829:1 846:1 994:1 1096:1 1112:1 1127:1 1261:1 1276:1 1442:1 1463:1 1506:1 1560:1 1609:1 1694:1 1899:1 2034:3 2163:1 2284:1 2385:1 2386:1 2387:1 2388:1 2389:2 2390:1 2391:1 2392:1 2393:3 2394:1 2395:1 2396:1 2397:1 2398:1 2399:1 2400:1 2401:1 2402:1 2403:1 2404:1 2405:1 2406:1 2407:1 2408:1 2409:1 2410:1 2411:1 2412:1 2413:1 2414:1 2415:3 2416:1 2417:1 2418:2 2419:1 2420:1 2421:1 2422:1 2423:1 2424:1 2425:1 2426:1 2427:1 2428:1 2429:1 #
-0.0047651074315723917357301431252381 6:1 10:1 14:3 17:1 19:3 28:1 36:1 43:2 52:1 53:1 55:2 57:3 59:1 80:2 88:2 97:1 132:1 136:1 168:2 236:2 240:1 257:1 260:1 268:1 293:2 317:1 319:1 428:1 435:1 440:1 470:1 498:1 514:1 537:1 701:1 945:1 1145:1 1146:1 1147:1 1148:1 1149:1 1150:1 1151:1 1152:1 1153:1 1154:1 1155:1 1156:1 1157:1 1158:1 1159:1 1160:1 1161:1 1162:1 1163:1 1164:1 1165:1 1166:1 1167:1 1168:1 1169:1 #
0.0030741368830075710243121545062195 6:1 7:1 10:7 11:7 14:4 16:5 19:1 21:1 23:1 28:1 35:1 36:2 46:1 52:1 53:1 54:1 55:1 57:2 66:1 71:1 82:1 88:1 100:1 104:1 107:1 115:1 123:1 128:1 141:2 175:1 203:1 210:1 216:1 238:1 240:1 258:1 259:1 261:1 262:1 263:1 293:1 310:1 315:1 327:1 344:1 423:1 442:1 571:1 710:1 720:1 942:1 950:1 957:1 961:1 988:1 1061:2 1076:1 1132:1 1302:1 1371:1 1398:1 2083:1 2747:1 2942:1 2943:1 2944:1 2945:1 2946:2 2947:1 2948:1 2949:1 2950:1 2951:1 2952:1 2953:1 2954:1 2955:1 2956:1 2957:1 2958:1 2959:1 2960:1 2961:1 2962:1 2963:1 #
0.0051583567178696658472869529532545 10:4 11:4 14:3 19:4 20:1 22:3 28:2 35:1 36:1 46:1 55:3 57:2 78:1 82:2 88:3 103:2 128:2 139:1 174:1 176:2 185:1 238:1 258:1 259:1 261:1 262:1 272:1 295:1 321:1 327:1 400:1 451:1 509:1 993:1 1009:1 1034:1 1203:1 1298:1 1619:1 1629:1 2023:1 2024:1 2025:1 2026:1 2027:1 2028:1 2029:1 2030:1 2031:1 2032:1 2033:1 2034:1 2035:1 2036:1 2037:1 2038:1 2039:1 2040:1 #
0.0051583567178696658472869529532545 6:3 10:3 11:4 14:3 16:3 17:2 19:2 28:1 36:4 42:1 46:1 55:2 57:1 66:1 71:1 73:1 88:2 98:1 111:1 112:1 113:1 116:1 128:1 150:1 171:1 191:1 207:1 212:1 222:1 233:1 236:1 238:1 289:1 295:1 317:1 418:2 428:1 466:1 468:1 509:1 551:1 664:1 697:1 842:1 910:1 1003:1 1203:2 1298:1 1604:1 1881:1 1983:1 2745:1 2964:1 2965:1 2966:1 2967:1 2968:1 2969:1 2970:1 2971:1 2972:1 2973:1 2974:1 2975:1 2976:1 2977:1 #
0.0051583567178696658472869529532545 6:2 10:7 11:2 14:3 16:2 17:2 19:2 24:1 32:1 35:2 36:3 46:1 53:1 55:2 57:2 68:1 71:1 82:3 88:3 95:1 100:2 106:1 127:1 150:2 185:1 222:1 289:1 293:1 295:1 343:1 381:1 415:1 454:1 472:1 506:1 525:1 567:1 579:1 829:1 1061:1 1092:1 1217:1 1286:1 1298:2 1506:1 1586:1 1609:1 1622:1 1732:1 1767:1 1782:1 1885:1 2200:1 2260:1 2304:1 2442:1 2535:1 2692:1 2720:1 3433:1 3434:1 3435:1 3436:1 3437:1 3438:1 3439:1 3440:1 3441:1 3442:1 3443:1 3444:1 3445:1 #
0.0026641721663898084229704643632886 6:1 10:8 11:5 12:1 14:3 16:2 17:3 19:4 20:1 24:1 27:1 36:1 55:1 57:3 82:1 88:2 98:2 100:1 104:1 115:2 116:1 150:1 186:1 238:2 240:1 263:1 339:1 343:2 346:1 394:1 400:2 412:1 463:1 509:1 526:1 629:1 632:1 641:1 654:1 677:1 708:1 784:1 810:1 1032:1 1033:1 1586:2 1619:1 1631:1 1704:1 1854:1 2237:1 2555:1 2812:1 2969:1 3134:1 3282:1 3353:1 3354:1 3355:1 3356:1 3357:1 3358:1 3359:1 3360:1 3361:1 3362:1 3363:1 3364:1 3365:1 3366:1 3367:1 3368:1 3369:1 3370:1 3371:1 3372:1 #
-0.0051583567178696658472869529532545 10:5 11:4 14:3 16:2 19:3 20:1 22:2 28:5 32:2 33:1 35:1 36:3 52:1 53:2 55:1 57:2 66:2 71:1 80:1 88:3 95:1 99:2 103:2 115:1 116:1 123:1 141:1 150:2 159:2 168:1 172:2 175:1 210:1 295:2 300:1 327:1 328:3 343:1 454:1 526:1 560:1 685:1 704:2 717:1 738:1 766:1 782:1 925:1 961:1 1069:1 1203:1 1866:1 1868:1 2018:1 2408:2 2460:2 3448:1 3449:2 3450:2 3451:2 3452:1 3453:1 3454:1 3455:1 #
-0.0051583567178696658472869529532545 6:3 10:9 11:5 12:1 14:7 16:4 19:6 22:1 24:1 35:1 36:2 42:1 43:1 52:2 55:1 57:1 71:1 77:1 78:1 79:1 80:3 87:1 88:3 100:3 111:1 113:2 115:1 136:1 139:1 150:3 154:1 175:1 186:3 205:1 210:2 213:2 227:1 254:2 263:1 268:1 295:1 317:1 322:1 343:2 380:1 391:1 423:1 435:1 463:2 464:1 465:1 478:1 479:1 685:1 700:1 717:1 725:1 777:1 789:1 802:1 843:1 954:1 988:1 1276:1 1408:1 1610:2 1622:1 1693:1 1694:1 1813:1 1974:1 2109:2 2136:1 2167:1 2168:1 2169:1 2170:1 2171:1 2172:1 2173:1 2174:2 2175:1 2176:1 2177:1 2178:1 2179:1 2180:1 2181:1 2182:1 2183:1 2184:1 2185:1 2186:1 2187:1 2188:1 2189:1 2190:1 #
0.0051583567178696658472869529532545 6:4 10:3 14:6 16:1 19:2 32:2 33:1 36:1 55:1 57:1 68:1 99:1 154:2 159:1 175:1 181:1 186:2 205:1 231:1 238:2 242:2 251:1 319:1 335:1 360:1 361:1 362:1 363:1 364:1 365:2 366:1 367:1 368:1 369:2 370:1 371:1 372:1 373:1 374:1 375:1 376:1 377:1 378:1 379:1 380:1 381:1 382:1 383:1 384:1 385:1 386:1 387:1 388:1 389:1 390:1 391:1 392:1 393:1 394:1 395:1 396:1 397:1 398:1 399:1 400:2 401:1 402:1 403:1 404:1 405:1 406:1 407:1 408:1 409:1 410:1 411:1 412:1 413:1 414:1 415:1 #
0.0051583567178696658472869529532545 6:1 10:4 14:3 16:3 17:1 19:2 27:1 36:1 43:1 57:2 80:2 88:3 100:1 123:1 154:1 227:1 231:2 242:1 252:1 257:1 260:1 327:1 400:1 522:1 633:1 784:1 1016:1 1113:1 1127:1 1137:1 1427:1 1514:1 1545:1 1590:1 1610:1 1704:1 1748:1 1768:1 1981:1 2579:1 3136:1 3137:1 3138:1 3139:1 3140:1 3141:1 3142:1 3143:1 3144:1 3145:1 3146:1 3147:1 3148:1 3149:1 3150:1 3151:1 #
0.0051583567178696658472869529532545 10:4 14:2 16:4 17:1 19:2 20:1 24:1 28:1 36:2 40:1 57:2 78:1 80:1 82:1 87:1 88:1 89:1 106:1 150:1 171:1 185:1 213:1 238:3 263:1 279:1 304:1 305:1 317:1 369:1 471:1 481:1 531:1 571:1 577:1 589:1 717:1 810:1 866:1 867:1 868:1 869:1 870:1 871:1 872:1 873:1 874:1 875:1 876:1 877:1 878:1 879:1 880:1 881:1 882:1 883:1 884:1 885:1 886:1 887:1 888:1 889:1 890:1 891:1 #
0.0051583567178696658472869529532545 6:3 10:4 11:1 16:3 17:1 19:3 23:1 25:1 28:2 35:2 36:3 39:1 43:2 57:2 68:2 88:1 100:1 104:1 123:1 128:1 139:3 141:1 161:1 165:1 168:1 172:1 175:1 212:1 213:1 236:2 268:1 325:1 394:1 444:2 445:1 466:1 471:1 500:1 501:1 502:1 503:1 504:1 505:1 506:1 507:1 508:1 509:2 510:1 511:1 512:1 513:1 514:1 515:1 516:1 517:1 518:1 519:1 520:1 521:1 522:1 523:1 524:1 525:1 526:1 527:1 528:1 529:1 530:1 531:1 532:1 533:1 534:1 535:1 536:1 537:1 538:1 #
0.0051583567178696658472869529532545 6:2 10:4 14:5 16:2 18:1 19:2 35:1 36:2 55:1 57:1 98:1 159:1 205:1 236:1 237:1 238:1 257:1 260:1 273:1 295:1 296:1 365:1 391:1 400:1 428:1 447:1 523:1 579:1 766:1 767:1 820:1 843:1 866:1 871:1 1030:1 1127:1 1170:1 1230:1 1295:1 1442:1 1508:1 1569:1 1582:1 1664:1 1665:1 1666:1 1667:1 1668:1 1669:1 1670:1 1671:1 1672:1 1673:1 1674:1 1675:1 1676:1 1677:1 1678:1 1679:1 1680:1 1681:1 1682:1 1683:1 #
-0.0051583567178696658472869529532545 6:1 10:2 11:2 12:1 14:1 16:1 17:2 19:6 20:2 22:2 23:1 27:1 33:1 35:1 36:2 55:3 57:3 66:1 80:1 82:3 106:1 111:1 115:1 116:1 238:1 263:1 272:1 286:1 287:1 288:1 343:1 509:1 772:2 776:3 777:1 880:1 1067:2 1078:1 1288:1 1432:1 1870:1 2044:1 2191:1 2458:1 2608:1 3309:1 3566:1 3567:1 3568:1 3569:1 3570:1 #
-0.0051583567178696658472869529532545 10:2 11:6 14:6 16:5 17:2 24:1 27:1 28:1 39:1 55:2 57:3 59:1 66:1 78:1 88:4 94:2 106:1 164:2 175:1 212:1 237:1 238:1 258:1 273:1 279:1 289:1 412:1 440:1 499:1 525:1 620:1 650:1 677:1 682:1 688:1 701:1 709:1 723:1 759:1 777:2 807:1 829:1 908:1 954:1 1142:1 1147:1 1302:1 1307:1 1440:1 1493:1 1494:1 1495:1 1496:1 1497:1 1498:1 1499:1 1500:1 1501:1 1502:1 1503:1 1504:1 1505:2 1506:1 1507:1 1508:1 1509:1 1510:1 1511:1 1512:1 1513:1 1514:1 1515:1 1516:1 #
-0.0051583567178696658472869529532545 6:2 10:2 11:1 14:1 19:2 35:1 52:1 57:2 63:1 100:1 111:2 123:1 180:1 181:1 192:1 238:1 240:1 242:1 258:1 318:1 562:1 566:1 709:1 772:1 1582:1 1622:1 1942:1 2172:1 2207:1 2482:1 2534:3 3055:1 3056:1 3057:2 3058:1 3059:1 3060:1 3061:1 3062:1 3063:1 3295:1 3296:1 3297:1 3298:1 3299:1 3300:1 3301:1 #
0.0051583567178696658472869529532545 6:3 10:6 11:1 14:5 16:4 17:2 20:1 24:1 27:1 33:1 36:2 39:1 57:2 80:1 88:3 100:1 106:2 123:1 161:1 173:1 176:2 210:2 213:1 222:1 236:1 279:2 280:1 301:1 305:1 317:1 440:1 528:1 533:1 568:1 620:1 663:1 700:1 884:1 1239:1 1243:1 1794:1 1795:1 1813:1 1872:1 2050:1 2060:1 2061:1 2062:1 2063:1 2064:1 2065:1 2066:1 2067:1 2068:1 2069:1 2070:1 2071:1 2072:1 2073:1 2074:1 2075:1 2076:1 2077:1 2078:1 2079:1 2080:1 2081:1 2082:1 2083:1 2084:1 #
-0.0051583567178696658472869529532545 6:2 10:6 11:1 14:4 16:5 19:7 24:1 28:3 36:3 55:1 57:3 63:1 64:1 65:1 71:1 74:1 80:3 82:1 97:1 107:1 147:1 172:1 175:1 187:1 191:1 212:1 213:1 238:2 242:4 254:1 272:1 400:1 442:1 445:1 466:1 470:1 471:1 473:1 522:2 530:1 633:1 639:1 663:1 717:1 769:1 783:1 820:1 844:1 875:1 888:1 910:1 932:1 936:1 1075:1 1076:1 1145:1 1236:1 1265:1 1286:1 1392:1 1853:1 2002:1 2008:1 2018:1 2277:1 2348:1 2612:1 3080:1 3296:1 3388:1 3389:1 3390:1 3391:2 3392:1 3393:2 3394:2 3395:1 3396:1 3397:1 3398:1 3399:1 3400:1 3401:1 3402:1 3403:1 3404:1 3405:1 3406:1 3407:1 3408:1 3409:1 3410:1 3411:1 3412:1 3413:1 3414:1 3415:1 3416:1 3417:1 3418:1 #
-0.0046607729085498816878896377602359 6:2 10:4 14:7 16:3 19:3 23:4 24:2 25:1 28:1 36:3 57:1 80:1 87:3 88:1 106:1 111:1 128:3 132:1 150:1 179:1 180:1 181:1 191:1 210:1 222:1 240:2 251:1 258:1 263:1 301:1 317:1 343:1 522:1 534:1 557:2 562:2 580:1 651:1 735:1 747:1 777:1 810:1 908:1 988:1 1034:1 1241:1 1371:1 1415:1 1456:2 1480:1 1574:1 1757:1 1814:1 2062:1 2104:1 2291:1 2463:1 3037:1 3038:1 3039:1 3040:1 3041:1 3042:1 3043:1 3044:1 3045:1 3046:1 3047:2 3048:1 3049:2 3050:1 3051:1 #
0.0051583567178696658472869529532545 7:1 10:3 11:2 16:1 19:1 20:2 27:2 32:1 36:1 46:1 55:2 57:4 71:2 82:2 87:1 98:1 102:1 115:1 128:1 139:1 159:2 179:1 185:1 210:1 231:1 238:2 242:1 252:1 257:1 260:1 295:1 326:1 343:1 428:1 454:2 509:1 578:1 688:1 701:1 772:1 776:1 810:1 920:1 965:1 1034:1 1214:1 1271:1 1454:1 1592:1 1622:2 1630:1 1671:1 1706:1 1760:1 2070:1 2122:1 2152:1 2153:1 2154:1 2155:1 2156:1 2157:1 2158:1 2159:1 2160:1 2161:1 2162:1 2163:1 2164:1 2165:1 2166:1 #
0.0051583567178696658472869529532545 10:5 11:7 14:2 19:3 20:1 21:1 22:2 23:2 24:2 27:1 28:1 35:4 39:2 55:2 57:2 71:1 82:1 102:1 103:2 104:1 115:1 132:1 141:2 150:1 154:2 159:1 176:3 179:1 185:1 203:1 207:1 231:2 273:1 277:1 307:1 327:1 343:1 454:1 531:1 633:1 836:1 889:1 988:1 1440:1 1777:1 2019:1 2471:1 2492:1 2757:1 2872:1 3180:1 3181:1 3182:1 3183:2 3184:2 3185:1 3186:1 3187:1 3188:1 3189:1 3190:1 3191:1 #
0.0051583567178696658472869529532545 6:3 10:4 11:3 12:1 14:2 16:2 17:2 19:2 35:1 36:1 42:2 46:1 57:1 66:1 71:1 100:2 118:1 128:1 141:3 142:1 145:1 157:1 164:1 176:1 207:2 213:1 236:1 300:1 400:1 426:1 440:2 472:1 498:1 523:1 633:1 654:1 677:2 707:1 1125:1 1908:1 2200:1 2267:1 3214:1 3521:1 3522:1 3523:1 3524:1 3525:1 3526:1 3527:1 3528:1 3529:1 3530:1 3531:1 3532:1 3533:1 3534:1 3535:1 3536:1 3537:1 3538:1 3539:1 3540:1 3541:1 3542:1 3543:1 3544:1 3545:1 3546:1 #
0.0041279956522661592419054521485577 6:2 10:4 11:2 14:2 16:2 17:3 19:2 20:1 21:1 24:2 28:2 43:1 46:1 57:1 80:3 88:2 102:2 141:2 150:1 154:1 159:1 207:1 238:1 245:4 246:3 263:1 295:1 305:1 369:1 379:1 432:1 571:1 632:4 651:1 858:1 878:1 942:1 1069:1 1127:1 1214:1 1371:1 1740:1 1777:1 1990:1 2381:1 2480:1 2643:1 2742:1 2743:1 2744:1 2745:1 2746:1 2747:1 2748:1 2749:1 2750:1 2751:1 2752:1 2753:1 2754:1 2755:1 2756:1 2757:1 #
0.0035786122100766818571182525943186 6:3 10:4 11:2 14:1 16:1 17:2 20:1 54:1 57:2 69:1 80:2 85:1 98:2 128:2 139:1 141:1 143:1 161:2 164:1 258:2 263:1 315:2 322:2 464:1 465:1 615:2 634:2 635:2 771:1 802:1 894:2 1053:3 1061:1 1062:2 1063:1 1064:1 1065:1 1066:1 1067:1 1068:1 1069:1 #
0.0051583567178696658472869529532545 6:4 10:2 14:2 16:1 22:2 28:1 36:3 46:1 55:1 57:2 73:2 88:2 99:1 106:1 116:1 118:1 141:2 149:3 150:2 154:1 176:1 179:2 191:1 205:1 222:1 238:1 258:1 322:1 428:1 429:1 444:1 615:1 629:2 634:1 635:1 656:1 871:1 876:1 883:1 928:1 930:1 985:1 1061:1 1129:1 1140:1 1298:1 1511:1 1592:1 1968:2 2200:1 2480:1 2481:1 2482:1 2483:1 2484:1 2485:1 2486:1 2487:1 2488:1 2489:1 2490:1 2491:1 2492:1 2493:1 2494:1 2495:1 2496:1 2497:1 2498:1 2499:1 2500:1 2501:1 2502:1 2503:1 2504:1 #
0.0043332248767423862598202610740827 10:5 11:2 16:1 19:3 22:1 33:1 35:1 36:5 46:1 52:1 55:2 57:2 139:1 150:1 154:1 176:1 181:1 191:1 203:1 238:1 263:2 278:1 279:1 295:1 322:1 400:2 418:2 428:2 509:1 573:1 629:1 673:1 715:1 766:1 820:1 1188:1 1203:3 1214:1 1271:1 1398:1 1444:1 1580:1 1581:1 1582:1 1583:1 1589:2 1800:1 1973:1 2383:1 2492:1 2505:2 2506:1 2507:1 2508:1 2509:1 2510:1 2511:1 2512:1 2513:1 2514:1 2515:1 2516:1 2517:1 2518:1 2519:1 2520:1 2521:1 #
0.0041886067373935569058129857467065 6:1 7:1 10:6 11:2 14:2 16:4 19:1 24:1 27:1 28:2 36:2 55:1 57:4 88:1 97:1 98:1 102:1 136:1 139:1 149:1 154:1 176:1 186:2 191:1 231:1 242:4 277:1 300:1 339:3 343:1 400:1 426:1 442:1 443:1 566:1 568:1 587:1 616:1 747:1 968:1 1021:1 1037:1 1618:1 2776:1 2988:1 3006:1 3344:1 3481:1 3482:1 3483:1 3484:1 3485:1 3486:1 3487:1 3488:1 3489:1 3490:1 3491:1 3492:1 3493:1 3494:1 3495:1 3496:1 3497:1 3498:1 3499:1 3500:1 3501:1 3502:1 3503:2 3504:1 3505:1 3506:1 3507:1 3508:1 3509:1 3510:1 #
-0.0051583567178696658472869529532545 6:1 7:1 10:4 11:5 12:1 13:1 14:2 16:1 17:1 23:2 24:2 36:1 57:3 63:3 66:2 80:1 82:3 88:1 123:1 128:1 136:1 150:2 154:1 205:1 209:1 213:1 236:1 301:1 304:2 327:1 331:1 335:1 343:2 391:2 400:1 401:1 517:1 531:1 581:1 663:1 802:1 820:1 910:1 939:2 998:1 1127:1 1371:1 1472:2 1622:1 1829:1 1830:1 1877:1 2207:1 2279:1 2801:1 2802:1 2803:2 2804:1 2805:1 2806:1 2807:1 2808:1 2809:1 2810:1 #
-0.0044177479765656682553220946374495 6:4 10:6 11:3 12:1 14:7 16:2 17:2 19:3 21:1 22:2 24:1 28:3 31:1 32:1 35:1 36:3 40:2 43:1 55:1 57:3 63:1 66:1 74:1 80:1 88:2 99:1 100:1 104:1 118:2 139:1 150:3 154:1 159:1 164:1 171:1 177:1 186:3 191:1 205:2 207:1 209:1 210:1 278:2 279:1 301:2 317:1 327:1 343:2 365:1 400:1 466:1 470:1 579:1 688:3 710:1 800:2 857:1 875:1 945:1 988:1 1145:1 1148:1 1231:2 1246:1 1408:2 1409:1 1429:1 1506:1 1622:1 1740:1 1788:1 1793:2 2119:1 2260:1 2635:1 2798:1 3373:1 3374:1 3375:1 3376:1 3377:1 3378:2 3379:1 3380:1 3381:1 3382:1 3383:1 3384:1 3385:1 3386:1 3387:1 #
-0.0026258242241917295438369261972866 10:2 11:5 12:4 14:1 16:2 17:1 19:7 23:1 24:2 28:3 32:1 35:3 55:1 57:3 74:1 78:1 80:1 82:1 87:1 98:1 150:2 154:1 172:2 175:1 176:1 185:1 186:3 213:1 227:1 238:1 263:1 317:1 340:1 353:1 380:1 394:1 400:1 412:1 440:1 443:1 502:1 503:1 536:1 587:1 654:2 751:1 752:1 783:1 850:1 875:1 878:1 961:1 1087:2 1198:2 1286:1 1295:1 1376:1 1442:1 1560:1 1622:1 1693:1 1694:1 1695:1 1696:2 1697:1 1698:1 1699:1 1700:2 1701:2 1702:1 1703:1 1704:1 1705:1 1706:1 1707:2 1708:1 1709:1 1710:1 1711:1 1712:1 #
-0.0051583567178696658472869529532545 6:3 14:3 16:2 19:3 27:1 33:1 35:1 36:1 52:1 53:1 55:1 57:3 63:1 100:2 123:1 189:1 205:1 210:1 213:1 222:1 236:1 251:1 279:1 322:1 395:1 402:1 466:1 522:1 566:1 629:1 749:1 767:1 888:2 910:1 1034:1 1086:1 1088:1 1210:1 1517:1 1520:2 1679:1 1866:2 1868:1 1982:1 2408:1 2455:1 2456:1 2457:1 2458:1 2459:1 2460:1 2461:1 2462:1 2463:1 2464:1 #
-0.0031846812259230189781633590939691 6:2 10:5 11:3 12:2 14:3 16:3 19:2 23:2 24:1 25:1 27:1 28:3 31:1 32:2 33:1 36:3 55:4 57:5 59:1 66:2 71:1 73:1 78:1 80:2 88:2 104:1 111:1 182:1 185:1 191:1 205:2 207:1 210:2 231:4 242:1 252:1 301:1 304:1 306:2 343:3 369:1 391:1 400:2 457:1 466:1 496:1 578:1 581:1 628:1 663:1 700:2 715:1 717:1 772:1 777:1 781:1 820:2 908:1 988:1 1031:1 1070:1 1071:1 1105:1 1127:1 1241:1 1350:1 1456:1 1560:1 1666:1 1814:1 1927:1 1982:1 2284:1 2692:1 2750:1 3047:1 3048:1 3049:2 3050:1 3051:1 3090:1 3091:1 3092:1 3093:1 3094:1 3095:1 3096:1 3097:1 3098:3 3099:1 3100:1 3101:1 3102:1 3103:1 3104:1 3105:1 3106:1 3107:1 #
-0.0019519554411129124826124181524278 6:1 7:1 10:3 11:2 14:7 16:2 19:3 20:1 22:1 28:3 36:6 46:1 52:1 55:2 57:4 63:3 77:2 80:1 82:1 87:1 88:4 98:1 104:1 123:1 128:2 145:2 151:1 176:2 231:1 240:1 254:2 293:1 295:1 317:1 329:1 343:1 400:2 423:2 430:1 470:1 531:2 533:1 744:2 802:1 833:1 834:1 835:3 836:1 837:1 838:2 839:1 840:3 841:1 842:3 843:1 844:1 845:2 846:1 847:1 848:1 849:1 850:1 851:1 852:1 853:1 854:1 855:1 856:1 857:1 858:1 859:1 860:1 861:1 862:1 863:1 864:1 865:1 #
-0.0032480882510870986989992559301754 6:1 10:1 11:3 14:2 16:2 19:5 25:1 28:4 35:2 36:3 40:1 53:1 55:1 57:1 63:1 80:1 111:1 112:1 113:1 116:3 117:1 128:1 139:1 150:1 154:1 175:1 210:2 212:1 236:1 238:1 246:1 293:2 306:1 315:1 317:1 343:1 346:1 365:1 415:1 451:1 463:1 533:1 725:1 759:1 814:1 815:1 816:1 817:1 818:1 819:1 820:1 821:1 822:1 823:1 824:1 825:1 826:1 827:1 828:1 829:1 830:1 831:1 832:1 #
-0.0013281491394343113588566440697036 1:1 4:2 6:5 10:3 11:3 12:1 14:2 16:1 17:2 19:8 23:2 24:4 25:1 27:4 28:4 29:1 35:1 36:3 39:1 55:1 57:4 63:1 66:3 77:3 80:1 88:1 100:3 150:2 164:1 170:1 177:1 179:1 186:1 191:1 197:1 210:1 225:1 231:3 236:3 238:3 252:1 263:1 295:1 300:1 321:2 322:1 327:1 343:1 438:1 440:1 472:1 496:1 632:2 677:1 707:3 717:1 751:1 752:1 766:1 820:1 876:1 921:1 923:1 945:1 949:1 950:1 1165:1 1214:1 1258:1 1276:1 1315:2 1371:1 1610:2 1646:1 1682:1 1739:1 1841:1 1975:1 2145:1 2373:2 2717:1 2772:1 3080:1 3253:1 3262:1 3263:1 3264:1 3265:1 3266:1 3267:1 3268:1 3269:1 #
0.0012741788527852466583051294080065 6:3 7:1 10:7 11:1 14:2 16:2 19:1 20:1 27:1 28:2 32:1 36:5 43:1 46:2 55:2 57:4 59:1 66:1 80:1 100:1 102:1 111:1 112:1 113:1 123:1 132:1 150:1 179:1 194:1 205:1 207:1 237:1 238:1 242:1 300:1 334:1 346:2 369:1 379:1 429:1 435:1 509:1 532:1 573:1 640:1 641:1 642:1 643:1 644:1 645:1 646:1 647:1 648:1 649:1 650:1 651:1 652:1 653:1 654:1 655:1 656:1 657:1 658:1 659:1 660:1 661:1 662:1 663:1 664:1 665:1 666:1 667:1 668:1 669:1 670:1 671:1 672:1 673:1 674:1 675:1 676:1 677:1 678:1 679:1 680:1 681:1 682:1 683:1 684:1 685:1 #
-0.0033037947517723909550413363689358 7:1 10:2 11:4 14:5 16:2 19:1 21:1 22:1 23:2 24:1 28:1 35:1 36:1 55:2 57:5 63:1 88:1 100:1 106:2 123:1 139:1 147:1 164:1 185:2 189:2 194:1 205:1 231:2 262:1 277:2 301:1 315:1 514:1 562:1 738:2 945:1 988:1 994:1 1005:1 1299:1 1746:1 1866:1 1868:2 1901:1 1902:1 1903:1 1904:1 1905:1 1906:1 1907:1 1908:1 1909:1 1910:1 1911:1 1912:1 1913:1 1914:1 #
-0.002891875823978902818045533251734 6:2 10:2 11:3 14:5 16:1 17:3 19:5 23:2 24:3 28:2 33:1 36:3 46:1 52:1 55:2 57:4 66:1 71:1 80:1 82:1 88:1 98:1 102:1 139:1 149:1 150:3 154:1 159:1 168:1 213:1 236:2 240:1 295:1 327:1 343:1 375:1 462:2 466:1 519:1 520:1 562:2 587:1 629:1 690:1 720:1 725:2 863:1 961:1 1083:1 1087:1 1203:1 1246:1 1268:1 1622:1 1693:1 1694:1 1705:1 1707:3 1709:1 1729:1 1730:1 1731:2 1732:1 1733:1 1734:1 1735:1 1736:1 1737:1 1738:1 1739:1 1740:1 1741:1 1742:1 1743:1 1744:1 1745:1 #
-0.0020606607148964269614344058112465 6:1 7:1 10:2 14:7 19:4 24:1 39:1 55:1 57:2 71:2 100:1 106:1 150:2 189:1 223:2 236:1 238:2 240:2 254:1 300:1 343:1 400:2 441:1 446:1 473:1 632:1 738:1 739:1 740:1 741:1 742:2 743:1 744:1 745:1 746:1 747:1 748:1 749:2 750:1 751:1 752:1 753:1 754:1 755:1 756:1 757:1 758:1 759:1 760:1 761:1 762:1 763:1 764:1 765:1 766:1 767:1 768:1 769:1 770:1 771:1 772:1 773:1 774:1 775:1 #
-0.00065038551266884472856766308268561 4:2 6:3 10:6 11:3 12:2 14:5 16:2 17:1 19:6 22:4 23:3 24:2 25:3 28:1 31:1 32:2 33:1 35:1 36:4 39:1 46:2 52:2 53:1 55:3 57:8 63:1 68:1 78:1 80:3 88:1 98:1 100:1 102:1 103:1 106:1 109:1 111:1 116:2 139:1 142:1 145:1 149:1 150:1 154:1 163:1 168:1 185:3 187:1 197:1 198:1 236:6 238:3 246:1 279:1 295:1 298:1 305:1 318:1 335:1 343:1 365:1 400:1 402:1 428:1 444:1 472:1 562:2 594:1 688:1 690:1 717:1 735:2 788:2 835:1 858:1 878:1 945:2 1083:1 1166:1 1203:1 1230:1 1286:1 1432:1 1433:2 1434:1 1435:1 1436:2 1437:1 1438:1 1439:1 1440:5 1441:1 1442:1 1443:1 1444:1 1445:1 1446:1 1447:1 1448:1 1449:1 1450:1 1451:1 1452:1 1453:1 1454:1 1455:1 1456:1 1457:1 1458:1 1459:1 1460:1 1461:1 1462:1 1463:1 1464:1 1465:1 1466:1 #
-0.0013814721412150538816521194718234 6:1 10:2 11:2 12:1 14:4 16:2 19:4 28:2 35:2 36:2 55:2 57:3 80:2 88:2 100:1 102:1 104:1 106:1 111:1 116:1 145:1 159:1 168:1 180:1 181:1 185:1 186:1 191:1 210:1 238:3 240:1 250:1 289:1 326:1 343:2 391:1 466:1 473:1 477:1 508:1 579:1 629:1 741:1 759:1 760:1 771:1 797:2 830:1 910:1 1125:1 1224:1 1307:1 1469:3 1470:1 1471:1 1472:2 1473:1 1474:1 1475:1 1476:2 1477:1 1478:1 1479:1 1480:1 1481:1 1482:1 1483:1 1484:1 1485:1 1486:1 1487:1 1488:1 1489:1 1490:1 1491:1 1492:1 #
0.00070768065441150873433329149264637 10:4 11:2 13:1 14:1 16:1 19:1 22:2 24:2 27:1 28:1 35:1 36:1 55:1 57:2 71:1 88:2 97:1 98:1 115:1 118:2 141:2 149:1 179:1 205:2 213:1 273:1 275:1 305:1 327:1 369:2 400:1 401:1 418:1 451:1 477:1 509:1 531:2 568:1 571:1 633:1 690:2 700:1 1457:1 1790:1 1934:1 1969:1 1990:1 2292:1 2381:1 2465:1 2485:1 2565:1 2628:1 2648:1 2649:1 2650:1 2651:1 2652:1 2653:1 2654:1 2655:1 2656:1 2657:1 2658:1 2659:1 2660:1 2661:1 2662:1 2663:1 2664:1 2665:1 2666:1 #
0.0001644254455751328869959893008712 6:2 10:6 14:2 16:1 17:2 19:4 22:3 23:1 24:2 28:1 32:2 35:1 36:1 40:1 42:1 46:1 53:1 55:2 57:2 71:3 80:1 88:1 104:1 124:1 150:1 161:1 175:1 200:1 205:2 206:1 232:1 237:1 238:1 240:1 280:1 300:1 305:2 327:1 335:3 359:1 369:2 400:1 401:1 454:1 470:1 472:1 519:1 533:1 568:1 690:1 793:2 882:1 929:1 949:1 1027:1 1034:1 1087:1 1160:1 1165:1 1396:2 1429:1 1444:1 1604:1 1790:1 2148:1 2927:1 3017:1 3018:1 3019:1 3020:1 3021:1 3022:1 3023:1 3024:1 3025:1 3026:1 3027:1 3028:1 3029:1 3030:1 3031:1 3032:1 3033:1 3034:1 3035:1 3036:1 #
