SVM-light Version V6.02
0 # kernel type
3 # kernel parameter -d 
1 # kernel parameter -g 
1 # kernel parameter -s 
1 # kernel parameter -r 
empty# kernel parameter -u 
50 # highest feature index 
40 # number of training documents 
38 # number of support vectors plus 1 
-0.76639803 # threshold b, each following line is a SV (starting with alpha*y)
-0.50766055823700850790913818855188 1:0.32189301 2:0.66361099 3:0.0136994 4:0.0221963 5:0.253957 6:0.0048710299 7:0.098572001 8:-0.435303 9:-0.091331802 10:-0.01943 11:-0.163725 12:-0.16383 13:-0.349235 14:-0.085672297 15:0.083632998 16:0.062939599 17:0.0218572 18:0.296242 19:0.00282967 20:-0.119309 21:-0.14922599 22:0.440909 23:0.26174 24:-0.062626198 25:-0.032421701 26:0.101926 27:-0.19756401 28:-0.30611899 29:-0.43853801 30:0.18927801 31:-0.161957 32:0.180766 33:0.0166208 34:0.181162 35:0.078539103 36:-0.0171763 37:-0.12593 38:0.33467501 39:0.271348 40:-0.104808 41:0.0022378799 42:-0.0862059 43:-0.192624 44:-0.11302 45:-0.14793199 46:-0.0513626 47:0.095588498 48:-0.14345001 49:0.23200101 50:0.32420301 #
-0.1777097232123447945184580021305 1:0.182868 2:0.470514 3:-0.061075602 4:0.059285 5:0.52850503 6:0.41710201 7:0.14416701 8:-0.65822101 9:0.024065901 10:-0.50509399 11:-0.37428001 12:0.016390201 13:-0.27636901 14:-0.294754 15:-0.063976198 16:0.230967 17:0.17195199 18:-0.079751097 19:0.181408 20:-0.043812901 21:-0.29645699 22:0.296372 23:-0.12798101 24:-0.022724099 25:-0.206883 26:-0.112807 27:-0.079017699 28:0.33017001 29:-0.29560101 30:-0.151106 31:-0.0539435 32:0.30227301 33:0.100153 34:0.047792599 35:0.0269305 36:0.207138 37:0.00695252 38:0.27987 39:0.64244902 40:-0.0380756 41:0.074069202 42:-0.00248035 43:-0.175383 44:-0.0125111 45:-0.290759 46:0.081386 47:0.46079499 48:-0.055855099 49:0.45185101 50:-0.16475201 #
-0.50766055823700850790913818855188 1:0.23186199 2:0.37782699 3:-0.109012 4:0.0581556 5:0.21880201 6:0.098984003 7:0.24805 8:-0.212181 9:0.00492104 10:0.127021 11:-0.259148 12:-0.0071214698 13:-0.23177101 14:0.00509708 15:0.063960098 16:-0.033360898 17:-0.284796 18:-0.068351001 19:-0.141836 20:-0.093482599 21:-0.138345 22:0.13167 23:0.086015902 24:0.20684101 25:-0.165659 26:0.0089925304 27:-0.062075701 28:-0.13826799 29:-0.121579 30:-0.066206597 31:0.148582 32:0.204864 33:-0.0369462 34:0.037774701 35:0.079315297 36:-0.029232699 37:-0.077087201 38:0.085000098 39:0.32089999 40:-0.0073417099 41:0.051462401 42:0.0046924301 43:0.072382897 44:-0.140626 45:0.0566875 46:-0.177853 47:0.36213899 48:-0.302549 49:0.28134701 50:0.126508 #
-0.38850423134556100190906136049307 1:0.133022 2:0.52267998 3:0.345213 4:0.0180155 5:0.19179399 6:0.039162099 7:0.083468199 8:-0.39797199 9:0.27337301 10:-0.0728947 11:-0.416495 12:-0.154594 13:0.028077699 14:-0.49009201 15:0.161305 16:0.204668 17:-0.053748898 18:0.187676 19:-0.119078 20:-0.241951 21:-0.27935201 22:0.24280401 23:0.34864599 24:-0.186666 25:-0.150297 26:0.128325 27:-0.27273199 28:0.17871299 29:-0.29831299 30:0.142876 31:-0.24207699 32:0.460783 33:-0.22146 34:0.275695 35:0.39527899 36:0.097499199 37:0.068638101 38:0.446798 39:0.67130798 40:-0.16416 41:0.021488801 42:-0.34492499 43:0.19149099 44:-0.026642799 45:0.369241 46:0.075740002 47:0.19599999 48:0.058393601 49:0.52701998 50:0.33108199 #
-0.50766055823700850790913818855188 1:0.0088909296 2:0.084401801 3:-0.071695 4:-0.083021902 5:0.067361802 6:0.16937201 7:0.19056401 8:-0.117595 9:-0.092816897 10:-0.224563 11:-0.151034 12:0.067098103 13:-0.025683699 14:-0.111161 15:0.139823 16:-0.0169218 17:-0.273853 18:0.28056699 19:0.0462704 20:-0.18109401 21:-0.374935 22:0.198645 23:0.00182774 24:0.133772 25:0.148808 26:0.034877699 27:-0.123146 28:0.224015 29:-0.303469 30:0.0039584702 31:-0.166564 32:0.377148 33:0.209297 34:0.186039 35:0.126985 36:0.096735403 37:-0.069966398 38:0.26886901 39:0.40440199 40:-0.095485702 41:0.22847 42:-0.076200701 43:0.148987 44:-0.0043058698 45:-0.14472701 46:-0.347936 47:-0.0029340601 48:-0.069291197 49:0.123574 50:-0.062382001 #
0.50766055823700850790913818855188 1:0.059602499 2:0.29420301 3:-0.18124001 4:-0.063644499 5:0.18004499 6:0.110209 7:0.128208 8:-0.31037399 9:0.067804903 10:-0.0350888 11:-0.097563297 12:-0.016150801 13:-0.101335 14:-0.229986 15:0.25181299 16:0.087367602 17:-0.188444 18:0.105718 19:-0.133389 20:0.121619 21:-0.182657 22:0.23908199 23:0.085657299 24:0.079123102 25:0.025977001 26:-0.094542198 27:-0.107183 28:0.018246399 29:-0.14494599 30:0.021953 31:-0.27638701 32:0.43787801 33:-0.30667701 34:-0.050989602 35:0.033599801 36:0.159225 37:-0.0120688 38:0.120869 39:0.45394599 40:-0.29610801 41:0.427526 42:-0.13267399 43:0.078710102 44:0.0080959704 45:-0.0086169597 46:0.100438 47:0.22568201 48:0.062832102 49:0.35831201 50:0.072563097 #
0.50766055823700850790913818855188 1:0.053216401 2:0.26844499 3:-0.106009 4:-0.14088 5:0.310368 6:0.27909401 7:0.024826899 8:-0.36746299 9:-0.0197301 10:0.031389002 11:-0.28542599 12:-0.051187199 13:-0.32711101 14:-0.056868002 15:0.058580998 16:-0.054160699 17:-0.223795 18:0.052924301 19:-0.0560323 20:0.0261217 21:0.034768298 22:0.26996201 23:0.343685 24:0.036673602 25:-0.0996764 26:0.21276499 27:-0.27570701 28:-0.129729 29:-0.084439203 30:0.146484 31:-0.112138 32:0.17237499 33:0.022431901 34:0.0222327 35:0.0044502602 36:0.0091296602 37:-0.173959 38:0.133908 39:0.424281 40:0.0300697 41:0.26815999 42:-0.090105101 43:-0.0936497 44:0.0083857505 45:-0.42052099 46:-0.262887 47:0.26396301 48:-0.060095798 49:0.2947 50:0.046203598 #
0.50766055823700850790913818855188 1:0.206343 2:0.13335 3:-0.0110315 4:-0.239888 5:0.30892599 6:0.085218102 7:0.295158 8:-0.32453999 9:0.31961101 10:-0.28227201 11:-0.206772 12:0.0059670298 13:-0.187324 14:-0.121017 15:-0.091302902 16:0.062698103 17:-0.144154 18:-0.0210573 19:-0.043937601 20:-0.179875 21:-0.32949799 22:0.42317101 23:0.122209 24:0.13986 25:-0.145418 26:-0.117903 27:-0.154626 28:-0.0678076 29:0.067123003 30:0.0422941 31:-0.214957 32:0.308936 33:0.18866301 34:0.0408202 35:0.141829 36:0.0378398 37:0.31596601 38:0.13718 39:0.22543301 40:-0.270401 41:-0.0054325201 42:-0.142031 43:0.26768401 44:-0.30000401 45:-0.186505 46:-0.147127 47:0.050939001 48:0.118289 49:0.37826699 50:0.114495 #
0.24839184710403455769167635480699 1:0.164625 2:0.17641699 3:-0.136923 4:-0.190997 5:0.20915399 6:0.199026 7:-0.026394701 8:-0.38633901 9:0.0836946 10:-0.032085501 11:-0.079736799 12:0.094193399 13:-0.387003 14:-0.199616 15:0.066162899 16:0.0827398 17:-0.21450301 18:-0.078607596 19:0.0254716 20:0.11547 21:-0.00542648 22:0.26380599 23:0.100076 24:0.14069501 25:-0.111888 26:0.082323603 27:-0.27526599 28:0.202319 29:0.0838558 30:0.015805099 31:-0.145326 32:0.104642 33:-0.182125 34:-0.33251199 35:0.0292014 36:0.0090560997 37:-0.095054798 38:-0.057279501 39:0.210595 40:-0.0304703 41:0.42173201 42:-0.150015 43:-0.056780498 44:-0.13058899 45:-0.33710399 46:-0.28554699 47:0.0037122599 48:0.18757001 49:0.327786 50:-0.0191392 #
0.50766055823700850790913818855188 1:-0.048288502 2:0.041223101 3:0.0023161101 4:-0.0111062 5:0.25031599 6:0.095905699 7:-0.019223901 8:-0.103171 9:0.14700601 10:-0.34056601 11:-0.37261099 12:0.0032132999 13:0.080023602 14:-0.0108089 15:0.162377 16:0.121549 17:-0.33289099 18:-0.066279903 19:0.13691799 20:-0.28025401 21:0.200748 22:0.226703 23:0.226569 24:0.161889 25:-0.0253285 26:-0.084149301 27:-0.34234101 28:0.30545899 29:-0.25926 30:-0.069990501 31:-0.22622199 32:0.20096201 33:0.21867099 34:0.0499858 35:0.0747464 36:-0.069431603 37:-0.057298101 38:0.22428399 39:0.29146799 40:-0.078208402 41:0.30556399 42:-0.041441198 43:-0.056604501 44:-0.107296 45:-0.38473299 46:-0.38923001 47:0.21954399 48:-0.0068255002 49:0.44103399 50:-0.34958899 #
-0.50766055823700850790913818855188 1:0.00653863 2:0.28689 3:-0.018323701 4:-0.125476 5:0.20615201 6:0.30024999 7:0.0555331 8:-0.33751601 9:0.141201 10:-0.141096 11:-0.30259499 12:0.093808196 13:-0.089248799 14:-0.241953 15:0.050952598 16:-0.106992 17:-0.14957701 18:0.088456601 19:0.0051091602 20:-0.22673699 21:-0.23162501 22:0.00382102 23:0.225826 24:0.228818 25:-0.069559097 26:-0.047552899 27:-0.316737 28:0.134923 29:-0.128673 30:0.108054 31:-0.084277697 32:0.248594 33:0.068949401 34:-0.0053905402 35:0.121667 36:0.27241701 37:-0.0134261 38:0.109964 39:0.57323402 40:-0.229357 41:0.39057699 42:0.091241702 43:0.043793201 44:0.0152608 45:-0.416594 46:0.000904224 47:0.286369 48:0.249487 49:0.375193 50:-0.197515 #
-0.50766055823700850790913818855188 1:0.05621 2:0.230396 3:0.116605 4:-0.321343 5:0.227364 6:0.255766 7:0.21616399 8:-0.084165499 9:0.26501 10:0.219512 11:-0.168332 12:-0.0309863 13:-0.043419302 14:-0.345065 15:-0.150325 16:0.17568099 17:-0.083360396 18:-0.181704 19:-0.0254265 20:-0.202471 21:-0.16347601 22:0.158787 23:0.092433803 24:0.053530902 25:0.0971466 26:-0.120689 27:-0.22151899 28:0.22409099 29:-0.17734 30:-0.030634001 31:-0.156955 32:0.302405 33:-0.13558801 34:0.070318997 35:0.059382599 36:-0.180415 37:-0.16731299 38:0.070880003 39:0.132011 40:-0.14405701 41:0.28366801 42:-0.101438 43:0.000206458 44:0.058719002 45:-0.290595 46:-0.229904 47:0.17403699 48:0.0460581 49:0.60984701 50:0.28081599 #
-0.50766055823700850790913818855188 1:0.168824 2:0.0602974 3:-0.19668999 4:0.106202 5:0.046069201 6:0.26254901 7:0.162751 8:-0.47752401 9:0.277116 10:-0.197487 11:-0.21478599 12:0.12728199 13:-0.105555 14:-0.289619 15:0.075329602 16:0.29255801 17:-0.28049201 18:0.071983904 19:0.182225 20:-0.17592999 21:-0.503833 22:0.207048 23:-0.065685801 24:0.00309062 25:-0.0085420003 26:0.042638302 27:-0.27239701 28:0.45612201 29:-0.14476401 30:-0.14383601 31:-0.159711 32:0.43487 33:0.13346501 34:0.049168602 35:0.19605801 36:0.25820699 37:0.190236 38:0.345431 39:0.54963499 40:-0.083042599 41:0.21776301 42:-0.0442749 43:0.109104 44:-0.166339 45:-0.291922 46:0.104182 47:-0.156721 48:0.0259005 49:0.209186 50:-0.290086 #
-0.50766055823700850790913818855188 1:0.106985 2:0.315258 3:0.19485199 4:-0.20789599 5:0.102682 6:0.165507 7:0.25188801 8:-0.063177697 9:0.070186101 10:-0.190631 11:-0.17719901 12:-0.111668 13:-0.287067 14:-0.25502199 15:-0.26743901 16:-0.0099509396 17:-0.21092001 18:0.077390097 19:-0.060729299 20:-0.086950503 21:-0.288427 22:0.35644299 23:0.113123 24:0.21276601 25:-0.090507798 26:0.0360565 27:-0.28093499 28:-0.014703 29:-0.182638 30:0.13412499 31:-0.076564901 32:0.162237 33:0.165611 34:0.0028255701 35:0.225016 36:-0.168175 37:-0.186116 38:0.28365499 39:0.26717001 40:0.0253444 41:0.40210399 42:-0.019365501 43:-0.030249501 44:0.0572346 45:-0.41374499 46:-0.25985301 47:0.0385563 48:0.18566801 49:0.48318899 50:0.126527 #
-0.50766055823700850790913818855188 1:0.073259398 2:0.37101999 3:-0.073916398 4:0.0095268004 5:0.210438 6:0.089267597 7:0.116327 8:-0.103328 9:0.094723903 10:-0.036359102 11:-0.165233 12:0.098215997 13:0.0209866 14:-0.30301601 15:0.179341 16:0.430379 17:-0.064965397 18:0.0756291 19:-0.112996 20:-0.18914101 21:-0.30880201 22:0.33446199 23:-0.080899097 24:0.25628701 25:-0.019465599 26:-0.032900199 27:-0.032682098 28:0.0271823 29:-0.25454199 30:-0.29079801 31:-0.0152343 32:0.44031799 33:0.0394933 34:-0.204464 35:0.094077699 36:0.29449201 37:0.17486601 38:0.123338 39:0.32750499 40:-0.222607 41:0.154368 42:-0.17643701 43:0.31532699 44:-0.046477199 45:0.119779 46:0.0072028101 47:0.13738 48:0.092470497 49:0.41254801 50:-0.13657001 #
0.50766055823700850790913818855188 1:0.39832699 2:0.38794601 3:-0.00303439 4:-0.094938599 5:-0.0284936 6:-0.0191612 7:0.117489 8:0.051622801 9:0.150995 10:-0.104809 11:-0.235652 12:-0.199707 13:-0.44922501 14:-0.19973899 15:-0.0069486899 16:0.060676999 17:-0.44191599 18:0.14253099 19:-0.052559201 20:-0.102931 21:0.0422174 22:0.235374 23:0.13251001 24:-0.083913997 25:-0.087958999 26:-0.0650841 27:-0.206826 28:4.1981698e-06 29:-0.29373601 30:0.145946 31:-0.108117 32:0.212486 33:0.132002 34:0.059011199 35:0.179149 36:-0.066562198 37:-0.29911599 38:0.27967501 39:0.39207101 40:0.0517659 41:0.018990001 42:0.012685 43:-0.147577 44:-0.118172 45:0.0123696 46:-0.22775599 47:0.163863 48:0.066978201 49:0.42357999 50:0.0512136 #
0.50766055823700850790913818855188 1:0.099945597 2:0.24540301 3:-0.14228 4:0.064018898 5:0.128159 6:0.14388099 7:-0.0131139 8:-0.221508 9:0.054923199 10:-0.144945 11:-0.32526401 12:-0.33340499 13:-0.41777101 14:0.119746 15:-0.069372699 16:-0.210611 17:-0.35140499 18:0.171561 19:-0.079466097 20:-0.107691 21:-0.12127 22:0.25102201 23:-0.0599663 24:0.039913099 25:-0.15252499 26:0.19465201 27:-0.25141099 28:-0.26689401 29:-0.31004599 30:0.224767 31:-0.21943399 32:0.075622797 33:0.131916 34:0.0837029 35:0.092339702 36:-0.0299171 37:-0.116257 38:0.35717401 39:0.28177401 40:-0.107585 41:0.040941902 42:0.183947 43:-0.068701297 44:-0.14624 45:-0.43093899 46:-0.231069 47:0.110688 48:-0.127775 49:0.31584701 50:0.309322 #
0.50766055823700850790913818855188 1:0.20734499 2:0.69218397 3:-0.057245199 4:-0.258389 5:0.041357901 6:0.059227601 7:0.167096 8:-0.0271703 9:0.046492301 10:-0.25274399 11:-0.183406 12:-0.23784 13:-0.28569901 14:-0.108688 15:0.070574202 16:0.079289697 17:-0.17671099 18:0.20609 19:-0.069937699 20:-0.0070063202 21:-0.110429 22:0.27900901 23:-0.0025369299 24:0.044355899 25:-0.051327702 26:-0.103164 27:-0.121761 28:-0.173346 29:-0.26930901 30:0.20770299 31:-0.000192348 32:0.25083899 33:-0.14348701 34:0.0252386 35:-0.099504903 36:0.17133 37:-0.0337798 38:0.140922 39:0.399643 40:0.040858999 41:0.091044597 42:-0.201995 43:-0.0432222 44:0.101968 45:-0.121414 46:-0.114429 47:0.096517898 48:0.23839 49:0.186029 50:0.126514 #
0.50766055823700850790913818855188 1:0.144611 2:0.23260599 3:-0.016015099 4:0.070249297 5:-0.0063479501 6:0.114666 7:0.166246 8:-0.033230599 9:0.0024932099 10:0.078206599 11:-0.205255 12:0.0099650295 13:-0.27687201 14:-0.066653498 15:0.135683 16:-0.0309978 17:0.025638901 18:-0.030129001 19:0.032301601 20:-0.161042 21:-0.178037 22:0.17435101 23:-0.037959501 24:0.061143499 25:0.196788 26:-0.0405805 27:0.0086446404 28:-0.039082199 29:-0.38172299 30:-0.0105264 31:-0.17572901 32:0.360782 33:-0.0145305 34:0.163059 35:0.103571 36:-0.0168928 37:0.030621201 38:0.088039897 39:0.430076 40:-0.210811 41:0.089706503 42:-0.068455502 43:0.053794201 44:-0.024594 45:-0.0777281 46:-0.0268084 47:-0.015729001 48:0.0833565 49:0.43093601 50:0.0100038 #
0.50766055823700850790913818855188 1:0.29747999 2:0.31905001 3:0.0061419099 4:-0.117726 5:0.30991399 6:0.087683402 7:0.30451199 8:-0.0204609 9:-0.084117897 10:-0.0041308198 11:0.020569 12:-0.123278 13:-0.307078 14:-0.142415 15:0.12681501 16:0.18417899 17:-0.26639301 18:0.166512 19:-0.26367399 20:-0.30846599 21:-0.221973 22:0.188665 23:0.059309199 24:0.351394 25:-0.042210702 26:0.088894799 27:-0.15941299 28:-0.0612856 29:-0.336144 30:0.030324901 31:-0.138552 32:0.26763701 33:-0.071749903 34:-0.063524202 35:0.238875 36:-0.133518 37:-0.086148299 38:0.105144 39:0.38001999 40:-0.072921701 41:0.22671799 42:0.025417101 43:-0.31674901 44:-0.11611 45:-0.31046599 46:-0.35751599 47:0.108873 48:-0.0263298 49:0.34824201 50:0.091721497 #
-0.50766055823700850790913818855188 1:0.0624796 2:0.246691 3:-0.10684 4:-0.0103401 5:0.264584 6:0.0078214398 7:0.224158 8:-0.50503999 9:0.059935302 10:-0.260928 11:-0.19963901 12:-0.089746803 13:-0.117559 14:0.0134315 15:0.094001196 16:-0.26435801 17:0.017648101 18:0.0522912 19:0.0041107102 20:-0.054580599 21:-0.21772 22:0.358982 23:0.19287699 24:0.056353401 25:-0.0769087 26:0.067498498 27:-0.078464501 28:-0.20821799 29:-0.054969199 30:0.28053799 31:-0.303094 32:0.082960397 33:0.158208 34:0.166775 35:0.020566801 36:-0.121309 37:0.085339397 38:0.22146501 39:0.27288899 40:-0.076408997 41:0.031170599 42:-0.14681999 43:-0.014799 44:-0.052248299 45:-0.29196101 46:-0.249828 47:-0.099665403 48:-0.019670101 49:0.30111301 50:0.25016701 #
-0.50766055823700850790913818855188 1:0.155387 2:0.103635 3:-0.0334902 4:-0.065595001 5:0.111744 6:0.048597801 7:0.153621 8:-0.0987662 9:-0.037302598 10:-0.065157399 11:-0.10102 12:-0.0907069 13:-0.113296 14:-0.078772098 15:-0.073588103 16:0.116764 17:-0.28124699 18:0.30293101 19:-0.065358199 20:-0.19231001 21:-0.119522 22:0.37172499 23:0.214717 24:-0.0568485 25:-0.134533 26:0.17483801 27:-0.40503901 28:-0.026023 29:-0.34438199 30:0.0084979199 31:-0.133792 32:0.19392499 33:-0.040312398 34:0.038708899 35:0.140534 36:0.0154226 37:-0.0696337 38:0.126571 39:0.319374 40:-0.15772501 41:0.105931 42:0.107632 43:0.057838999 44:-0.35965499 45:-0.46081001 46:0.00287977 47:0.086716503 48:0.111729 49:0.34298801 50:0.26818401 #
-0.50766055823700850790913818855188 1:0.178526 2:0.25009999 3:0.016175799 4:-0.036789399 5:0.085553803 6:0.0226172 7:0.133203 8:-0.195801 9:0.0032681799 10:-0.056295902 11:-0.191717 12:0.000908655 13:-0.028133299 14:-0.025156399 15:0.0140186 16:-0.103049 17:-0.110544 18:0.104547 19:0.0260463 20:0.047117401 21:-0.089109197 22:0.231811 23:0.139726 24:0.0053040502 25:0.062743001 26:0.015496 27:-0.197198 28:-0.0693525 29:-0.013856 30:-0.057166401 31:-0.063229702 32:0.080139197 33:0.200716 34:0.096444897 35:0.16362 36:-0.136861 37:0.0236092 38:0.057255499 39:0.178113 40:-0.075824998 41:0.091738902 42:-0.110694 43:0.088009298 44:-0.109949 45:0.041428301 46:-0.165142 47:0.00226557 48:-0.0186703 49:0.092798904 50:-0.066 #
-0.50766055823700850790913818855188 1:0.22269499 2:0.266601 3:0.106784 4:0.081720501 5:0.175557 6:0.217118 7:0.19867601 8:-0.30296901 9:-0.091812298 10:-0.077362299 11:-0.157957 12:0.104829 13:-0.44003001 14:-0.063026696 15:0.24168199 16:0.103619 17:0.066827498 18:0.24384201 19:0.081243098 20:-0.218381 21:-0.114758 22:0.185681 23:0.041595601 24:-0.121553 25:-0.33353901 26:-0.026061 27:-0.0711862 28:-0.15696999 29:-0.36796501 30:0.0120521 31:0.179435 32:0.14146601 33:0.0283581 34:0.26809001 35:0.0151088 36:0.234593 37:-0.23864201 38:0.065919198 39:0.43274501 40:-0.096858397 41:0.024270499 42:0.079332903 43:-0.042737801 44:-0.042893 45:-0.47081399 46:-0.266904 47:0.211404 48:0.0552711 49:0.330713 50:0.0259855 #
-0.50766055823700850790913818855188 1:0.219703 2:0.231923 3:-0.26687199 4:0.231444 5:0.23208 6:-0.113079 7:0.0620008 8:-0.28564101 9:-0.084295496 10:-0.343831 11:-0.329945 12:-0.025402199 13:0.15632001 14:-0.064776398 15:0.195361 16:0.040644299 17:-0.101849 18:0.215781 19:-0.00091042498 20:-0.085184403 21:0.020471901 22:0.29212499 23:-0.034620501 24:0.109233 25:-0.174703 26:-0.073929504 27:-0.28751501 28:0.123711 29:-0.0605876 30:0.143637 31:0.051636498 32:0.088283002 33:-0.055423401 34:-0.022727501 35:0.0097689796 36:0.0123932 37:0.19464201 38:0.27468601 39:0.30175599 40:-0.090626203 41:0.019574201 42:0.056900401 43:0.173723 44:-0.115518 45:-0.089135699 46:-0.0019054801 47:0.26901901 48:-0.110186 49:0.49332699 50:0.088009201 #
0.50766055823700850790913818855188 1:0.0634799 2:0.277614 3:0.218375 4:-0.095398799 5:0.050995901 6:0.22303399 7:0.176502 8:-0.26319301 9:0.115612 10:0.22738799 11:-0.134306 12:-0.00845592 13:-0.048285201 14:-0.32191399 15:0.108313 16:0.33107999 17:-0.00064007402 18:-0.082070202 19:-0.088398904 20:-0.218053 21:-0.162752 22:0.14574 23:0.1788 24:-0.0076461299 25:0.14421 26:-0.203363 27:-0.16226301 28:0.101277 29:-0.39105701 30:-0.0469613 31:-0.16072001 32:0.68301398 33:-0.0522645 34:0.023765501 35:0.21883801 36:0.170513 37:0.024119999 38:0.0177304 39:0.27073401 40:-0.31968299 41:0.21645001 42:-0.192656 43:0.192295 44:0.024076199 45:0.0727375 46:0.203223 47:0.108897 48:0.103746 49:0.26113299 50:-0.17367101 #
0.20578265304472403984803463572462 1:-0.118176 2:0.40074 3:0.0719136 4:-0.26532301 5:0.029704699 6:0.187148 7:0.31778401 8:-0.036506001 9:0.432762 10:0.0067567402 11:-0.109577 12:-0.208564 13:0.25383899 14:-0.27525201 15:0.294294 16:0.21056999 17:-0.0438134 18:-0.067867003 19:-0.0064222198 20:-0.44525301 21:-0.370186 22:-0.059649099 23:0.081780098 24:0.38284099 25:0.158252 26:0.100452 27:-0.225592 28:0.213156 29:-0.235898 30:0.35277399 31:-0.18774401 32:0.20621499 33:-0.15070599 34:0.079455398 35:0.10525 36:0.201766 37:0.0443849 38:0.063772298 39:0.27039099 40:-0.067375198 41:-0.028422499 42:-0.049938899 43:0.114281 44:0.173612 45:-0.117498 46:-0.166815 47:0.161764 48:-0.083486602 49:0.381497 50:-0.258338 #
0.50766055823700850790913818855188 1:0.169438 2:0.13398799 3:-0.021091601 4:-0.178334 5:0.205751 6:-0.0139936 7:0.137725 8:0.078412801 9:0.167731 10:0.110222 11:-0.0304874 12:0.13774 13:-0.0126877 14:-0.20790599 15:0.33819801 16:0.30270901 17:0.036831599 18:-0.065190896 19:-0.0272121 20:-0.26064599 21:-0.29946399 22:0.037317399 23:0.22496299 24:0.19459599 25:-0.0123868 26:0.15894701 27:-0.315925 28:0.062387899 29:-0.0121703 30:0.060208902 31:-0.244473 32:0.42248499 33:-0.095947303 34:0.078822501 35:0.01114 36:0.157216 37:-0.0515512 38:0.20201699 39:0.332948 40:-0.0515889 41:0.239121 42:-0.19809701 43:0.33342201 44:-0.028596301 45:-0.337235 46:-0.20203701 47:0.14408299 48:-0.0382866 49:0.47490799 50:-0.094089396 #
0.50766055823700850790913818855188 1:0.34710199 2:0.249011 3:0.0392575 4:-0.109595 5:0.217107 6:0.0106393 7:0.16104101 8:-0.081278697 9:0.016348001 10:-0.081977002 11:-0.20957699 12:-0.064179301 13:-0.31356901 14:-0.0104193 15:-0.0326414 16:-0.0127257 17:-0.18896601 18:0.179252 19:-0.057565499 20:-0.079631403 21:-0.35098499 22:0.29393801 23:0.117469 24:0.087483302 25:-0.143838 26:0.0553292 27:-0.38664699 28:0.18636499 29:-0.059375901 30:0.037170701 31:-0.097999297 32:0.35459501 33:0.075317003 34:0.110181 35:0.126395 36:0.00093975599 37:0.01394 38:0.43809399 39:0.34090701 40:0.0508404 41:0.257245 42:0.170009 43:0.25751099 44:-0.167888 45:-0.23999099 46:-0.093087398 47:0.14165001 48:0.040954798 49:0.40707201 50:0.00191296 #
0.50766055823700850790913818855188 1:0.18748 2:0.14107201 3:-0.082350403 4:-0.039703298 5:-0.106825 6:0.23346899 7:0.25743499 8:-0.3213 9:0.046576299 10:-0.0562254 11:-0.436277 12:-0.170238 13:-0.384864 14:-0.222119 15:0.0041867602 16:0.102992 17:-0.12945899 18:-0.160069 19:0.106652 20:-0.066052303 21:-0.0199081 22:0.064981602 23:0.0045710499 24:0.139915 25:-0.0059673502 26:0.0054186601 27:-0.48315701 28:0.117747 29:-0.28346601 30:-0.0012397401 31:-0.187051 32:0.31770599 33:0.0474253 34:0.133885 35:0.0204578 36:0.051548399 37:-0.138955 38:0.30349401 39:0.42522201 40:-0.0055249301 41:0.26860601 42:-0.138381 43:-0.074243002 44:0.104037 45:-0.36737001 46:-0.124737 47:0.072392702 48:-0.095494501 49:0.46957001 50:0.17361601 #
-0.50766055823700850790913818855188 1:0.239188 2:0.28554699 3:0.040064599 4:0.101591 5:0.13730299 6:0.104928 7:0.029833199 8:-0.099694602 9:0.099724598 10:0.0250079 11:-0.272443 12:0.31998101 13:-0.215042 14:-0.21299601 15:-0.168667 16:0.106581 17:-0.220118 18:0.27561799 19:0.077751599 20:-0.37228599 21:-0.00093686598 22:0.415077 23:0.191043 24:0.207543 25:0.13835 26:0.117253 27:-0.085701801 28:0.123477 29:-0.17753799 30:-0.094921201 31:-0.46584201 32:0.508753 33:0.099405199 34:0.0347999 35:0.187152 36:-0.164607 37:-0.407682 38:0.0239444 39:0.54854 40:0.048249401 41:0.084592402 42:-0.193517 43:0.15315901 44:0.15247799 45:-0.33116499 46:-0.36546499 47:0.155169 48:0.131019 49:0.72229999 50:0.055132098 #
-0.50766055823700850790913818855188 1:0.224773 2:0.52195102 3:0.28489599 4:-0.148412 5:0.380494 6:0.035718001 7:0.46822801 8:-0.44730601 9:0.16831601 10:-0.066724099 11:-0.106401 12:-0.19005799 13:-0.35385501 14:-0.54451299 15:-0.038636599 16:-0.201557 17:-0.1119 18:-0.094288602 19:-0.159144 20:-0.186332 21:-0.0136031 22:0.241156 23:0.42215401 24:0.179243 25:-0.222261 26:-0.0413239 27:-0.31913501 28:-0.022904901 29:0.094041303 30:0.23874 31:0.257321 32:0.461086 33:0.165659 34:-0.119086 35:-0.050732199 36:-0.193662 37:0.205148 38:0.148449 39:0.489582 40:-0.150112 41:0.188756 42:-0.16903 43:-0.045814101 44:0.129704 45:-0.103965 46:-0.199221 47:-0.055206101 48:0.019453101 49:0.25032201 50:-0.018750999 #
-0.50766055823700850790913818855188 1:0.146106 2:0.106457 3:0.199259 4:0.054068699 5:0.17720699 6:0.072846599 7:0.198727 8:-0.22082099 9:0.128107 10:-0.0877795 11:-0.36356199 12:0.0559595 13:-0.20784201 14:-0.092899002 15:0.099905998 16:0.32159099 17:0.12876 18:0.219824 19:-0.036770601 20:-0.31709099 21:-0.21856999 22:0.32224101 23:0.107903 24:-0.0701195 25:0.097812101 26:-0.064305097 27:-0.094521999 28:0.0073829698 29:-0.067392603 30:-0.077685498 31:-0.331036 32:0.293493 33:0.22020499 34:0.119496 35:0.33678499 36:0.062337998 37:0.082557701 38:0.20274401 39:0.54605001 40:-0.193736 41:-0.0123318 42:0.0144048 43:0.0310643 44:-0.057082999 45:-0.34334499 46:0.0062552099 47:0.106749 48:-0.067372397 49:0.43658 50:-0.0291164 #
0.37783216882658954283158436737722 1:0.28215301 2:0.164878 3:-0.044327501 4:0.0066966 5:0.079160899 6:0.0058629601 7:0.223992 8:-0.191268 9:0.0048569599 10:0.089438602 11:-0.30518901 12:-0.14246701 13:-0.317359 14:-0.201727 15:0.22307201 16:-0.055892698 17:-0.052368399 18:0.0215667 19:-0.041320901 20:-0.112517 21:-0.088369101 22:-0.089338303 23:-0.062740803 24:0.078366503 25:-0.16643099 26:-0.0156407 27:-0.088356197 28:-0.034802102 29:0.069846302 30:0.156573 31:0.0495423 32:0.32073501 33:-0.102805 34:-0.19788601 35:0.0247436 36:0.062070899 37:0.17003299 38:-0.00029941701 39:0.35337099 40:-0.192665 41:0.050369501 42:0.171103 43:-0.00162594 44:0.015853001 45:0.0039961901 46:-0.074648403 47:0.119498 48:-0.15940499 49:0.24732301 50:0.155385 #
0.50766055823700850790913818855188 1:0.144438 2:0.42877501 3:-0.12770499 4:0.0033164001 5:0.114928 6:0.25724599 7:0.123874 8:-0.32285401 9:0.100321 10:-0.17229 11:-0.315413 12:0.0051576602 13:-0.226932 14:-0.202794 15:0.417326 16:0.176994 17:-0.231868 18:0.0589361 19:-0.00453192 20:-0.25725901 21:-0.091353998 22:0.214626 23:0.130502 24:0.0180951 25:0.060341299 26:-0.0523552 27:-0.056374401 28:0.037225101 29:-0.11911 30:0.252323 31:-0.213214 32:0.43965 33:-0.114698 34:0.080609404 35:0.21110199 36:0.103332 37:0.182476 38:0.068992898 39:0.436418 40:-0.315952 41:0.228844 42:-0.034120802 43:-0.36519799 44:-0.0253901 45:-0.084675901 46:0.0047600102 47:0.22861999 48:-0.044797499 49:0.042561501 50:-0.15789901 #
0.24187499073636603563741687139554 1:0.0819977 2:0.29857299 3:-0.086926803 4:-0.123266 5:0.385959 6:-0.065172203 7:0.112917 8:-0.20608801 9:0.238812 10:-0.167036 11:-0.27077001 12:-0.178624 13:-0.22944701 14:0.084551699 15:0.065126799 16:-0.0090333298 17:-0.15493999 18:0.00131399 19:-0.190293 20:-0.324799 21:-0.018565999 22:0.29035801 23:0.0289071 24:0.00346709 25:-0.12966999 26:-0.106391 27:-0.080683596 28:-0.137678 29:-0.187281 30:0.191259 31:-0.202695 32:0.25308299 33:0.142462 34:0.0140518 35:-0.115549 36:0.17569 37:0.0121197 38:0.052148201 39:0.27317199 40:0.039659798 41:0.161726 42:0.0085601397 43:-0.178921 44:0.047599901 45:0.0101738 46:-0.171802 47:0.32484001 48:-0.190865 49:0.65686297 50:0.080210596 #
0.50766055823700850790913818855188 1:0.14209101 2:0.152366 3:0.084221996 4:-0.0073116701 5:0.078697897 6:-0.0034355801 7:0.378144 8:0.0120817 9:0.186731 10:0.0269804 11:-0.132145 12:-0.13536599 13:-0.087472498 14:-0.064634196 15:-0.12701701 16:0.0583141 17:-0.039367899 18:-0.087685198 19:-0.0079520904 20:-0.192303 21:0.041066501 22:0.27385801 23:0.018693799 24:0.069431901 25:0.0297422 26:-0.053747099 27:-0.216098 28:-0.115657 29:-0.21662 30:0.057042498 31:-0.060761601 32:0.271117 33:0.051547401 34:0.0114446 35:0.00156514 36:-0.058585301 37:-0.0539786 38:-0.0047527002 39:0.31303 40:-0.12560999 41:0.158262 42:-0.131421 43:0.0102794 44:0.081422403 45:-0.28936401 46:-0.038667399 47:-0.025618499 48:-0.0058632102 49:0.37274599 50:-0.0263064 #
