SVM-light Version V6.02
0 # kernel type
3 # kernel parameter -d 
1 # kernel parameter -g 
1 # kernel parameter -s 
1 # kernel parameter -r 
empty# kernel parameter -u 
50 # highest feature index 
160 # number of training documents 
138 # number of support vectors plus 1 
0.38103809 # threshold b, each following line is a SV (starting with alpha*y)
-0.51450604548972855845079266146058 1:0.14738099 2:0.44038099 3:-0.0066370098 4:0.0418333 5:0.206389 6:0.23989099 7:-0.028525 8:-0.242006 9:0.208296 10:-0.0134053 11:-0.0109684 12:0.03923 13:-0.25105101 14:-0.152224 15:0.0047125602 16:0.189244 17:-0.42498499 18:-0.0267282 19:-0.120126 20:0.047549699 21:-0.33745301 22:0.30033901 23:0.25018099 24:-0.0270749 25:-0.0071862098 26:0.19692799 27:-0.088767096 28:-0.093377598 29:-0.32807299 30:0.074964598 31:-0.080002099 32:0.226493 33:0.101808 34:0.223887 35:0.170654 36:0.188794 37:-0.086232401 38:0.174961 39:0.30971399 40:-0.29093599 41:0.35014999 42:-0.056970701 43:0.175597 44:0.069686599 45:-0.16064499 46:-0.111432 47:0.121522 48:0.13468499 49:0.65210998 50:0.31326601 #
-0.51450604548972855845079266146058 1:0.20780399 2:0.399104 3:0.110906 4:-0.130916 5:0.20224001 6:0.034250598 7:-0.158893 8:-0.106807 9:-0.080297299 10:0.046420202 11:-0.12422 12:-0.0122653 13:-0.34487 14:-0.040867899 15:0.25915399 16:0.0387857 17:-0.22871301 18:0.23804 19:-0.066875301 20:0.052966699 21:-0.0071637998 22:0.27740401 23:0.0179056 24:-0.070318498 25:0.022186 26:0.068037502 27:0.024821 28:0.133469 29:-0.39881799 30:-0.0043383399 31:0.037384499 32:0.214487 33:-0.17191499 34:0.14387301 35:0.134644 36:-0.18719099 37:-0.18080001 38:0.057894301 39:0.281726 40:0.026962001 41:0.13076299 42:0.065610804 43:0.043746699 44:-0.0126008 45:0.17480201 46:-0.232859 47:0.120015 48:-0.123191 49:0.222462 50:0.038669601 #
-0.51450604548972855845079266146058 1:0.26679701 2:0.43446499 3:-0.130365 4:-0.241762 5:0.336045 6:0.28341499 7:0.46772 8:-0.280103 9:-0.073102303 10:0.0617483 11:-0.243714 12:-0.017490299 13:-0.40160799 14:-0.237395 15:0.217914 16:0.165222 17:-0.157873 18:0.37152299 19:-0.094056398 20:-0.043780699 21:-0.31625301 22:0.19905201 23:0.056067001 24:0.18622001 25:-0.44469699 26:0.124521 27:-0.43906999 28:0.23655701 29:0.0073588002 30:0.31943601 31:0.139953 32:0.467489 33:-0.44527501 34:0.016093301 35:-0.090212502 36:-0.080027401 37:-0.27637199 38:0.12883399 39:0.41921201 40:0.12813 41:0.299317 42:0.077583 43:-0.036102101 44:-0.16424499 45:-0.27443901 46:-0.46136901 47:0.344439 48:0.0098176897 49:0.111542 50:-0.033694699 #
-0.45175143428919434240853547635197 1:0.377404 2:0.40528801 3:0.074261203 4:-0.181927 5:0.0109143 6:0.037287399 7:-0.145714 8:0.14021599 9:-0.202259 10:-0.13507099 11:-0.050513402 12:-0.037143901 13:-0.25039399 14:-0.169844 15:0.242696 16:0.16809601 17:0.0370318 18:0.36321399 19:-0.285586 20:-0.131907 21:-0.22900499 22:0.19056401 23:0.00185507 24:-0.180694 25:-0.0409359 26:0.038571 27:-0.343876 28:0.069609702 29:-0.222674 30:0.124039 31:-0.197014 32:0.42921999 33:0.32543701 34:-0.158142 35:0.108387 36:0.22017699 37:-0.106997 38:0.099587001 39:0.46249101 40:-0.0095468601 41:0.021634599 42:0.199875 43:-0.036056701 44:0.019256599 45:-0.387903 46:-0.124192 47:0.040343899 48:0.22032399 49:0.538647 50:-0.0066214502 #
-0.45770380527072440646207951431279 1:0.39805001 2:0.117938 3:0.278108 4:-0.0284939 5:-0.129998 6:0.111598 7:0.068794601 8:-0.41309899 9:0.22853801 10:-0.38858101 11:-0.45632699 12:-0.155405 13:-0.094094202 14:-0.36774999 15:0.220276 16:0.37155801 17:-0.22914 18:0.32046899 19:-0.066225 20:-0.41977501 21:-0.34121299 22:0.49018899 23:-0.180298 24:0.36739501 25:0.210438 26:0.113165 27:-0.43624499 28:0.327117 29:-0.27558801 30:-0.0077811 31:-0.076089002 32:0.52805799 33:-0.169751 34:0.043612201 35:0.461328 36:0.19898 37:0.070480198 38:0.091737203 39:0.54660302 40:-0.26350701 41:0.20767701 42:0.208454 43:0.223847 44:0.093862697 45:0.040564898 46:0.12947799 47:0.058239099 48:-0.100687 49:0.526649 50:-0.114887 #
0.51450604548972855845079266146058 1:0.33455399 2:0.21443599 3:0.21446501 4:-0.074918002 5:0.26053801 6:-0.0166249 7:0.21135101 8:-0.29490399 9:-0.183314 10:-0.13375901 11:-0.31827 12:-0.083750702 13:-0.57519299 14:-0.118477 15:0.066853099 16:-0.016836699 17:-0.19112501 18:-0.0351214 19:-0.0216059 20:-0.029346099 21:0.032487601 22:0.420717 23:0.34428799 24:-0.045357801 25:-0.084661402 26:-0.082260899 27:-0.16001099 28:-0.15325999 29:-0.17023 30:0.24262901 31:-0.0142024 32:0.38105401 33:-0.00065663102 34:0.079119101 35:0.238057 36:0.0676772 37:-0.071670502 38:0.149021 39:0.352891 40:-0.21658 41:0.26007801 42:0.0289065 43:-0.0229876 44:0.0044510998 45:-0.21087199 46:-0.17924599 47:0.138676 48:0.171874 49:0.25889501 50:0.0015712701 #
0.51450604548972855845079266146058 1:0.153732 2:0.202343 3:-0.096071802 4:-0.0165227 5:0.048414402 6:0.0152847 7:0.141607 8:0.0251214 9:0.143839 10:0.056685202 11:-0.108565 12:-0.099558197 13:-0.333029 14:0.00113318 15:0.0106781 16:-0.10593 17:-0.173601 18:0.059979402 19:0.038829699 20:-0.0533957 21:-0.014388 22:0.217877 23:0.070478901 24:-0.063461803 25:-0.110023 26:0.029278399 27:-0.122208 28:-0.24378 29:-0.13111401 30:0.068462104 31:-0.239264 32:0.19373401 33:-0.024395701 34:0.118419 35:0.0432918 36:-0.127205 37:-0.069987804 38:0.194848 39:0.132771 40:0.024745399 41:0.14009 42:0.021341201 43:-0.0990436 44:-0.1978 45:-0.142122 46:-0.27330199 47:0.117784 48:-0.050767399 49:0.317332 50:0.25371 #
0.51450604548972855845079266146058 1:0.0808817 2:0.48102 3:0.020143701 4:-0.134679 5:0.19505499 6:0.097803801 7:0.371719 8:-0.292914 9:0.36945799 10:0.0016206499 11:-0.131768 12:-0.052772898 13:-0.31800899 14:-0.084393904 15:0.065803699 16:0.17694899 17:-0.22923 18:0.0246379 19:-0.0102501 20:-0.27273199 21:-0.25506201 22:0.36338601 23:0.069242597 24:0.32237601 25:-0.186102 26:0.0777696 27:-0.307412 28:-0.213094 29:-0.258843 30:0.163765 31:-0.111461 32:0.43489701 33:-0.070533201 34:0.25544801 35:0.205036 36:-0.093599297 37:0.0560809 38:0.21698 39:0.368848 40:-0.0856838 41:-0.0163856 42:-0.41875601 43:0.089838997 44:0.0111666 45:-0.196748 46:-0.152152 47:0.109084 48:-0.039639901 49:0.367852 50:0.37935001 #
0.51450604548972855845079266146058 1:0.229164 2:0.26617801 3:-0.221044 4:-0.14680301 5:0.0980995 6:0.043729302 7:0.064597599 8:-0.0757754 9:0.0118897 10:0.071165301 11:-0.236516 12:-0.112147 13:-0.559901 14:-0.105483 15:0.123296 16:-0.154515 17:-0.30470499 18:0.27575499 19:-0.0094373096 20:-0.17821801 21:-0.27511299 22:0.227019 23:0.086159103 24:0.23312201 25:-0.075555898 26:-0.152908 27:-0.16103201 28:0.209342 29:-0.19887 30:0.176083 31:-0.0043677399 32:0.14214601 33:0.139816 34:0.053873401 35:0.13185801 36:0.072724096 37:-0.26776201 38:0.30625501 39:0.39048499 40:-0.0081849098 41:0.051798198 42:0.152573 43:-0.055608701 44:-0.160988 45:0.105487 46:-0.14087699 47:0.376174 48:-0.087331198 49:0.41965199 50:0.268796 #
0.51450604548972855845079266146058 1:0.29312 2:0.26876801 3:-0.132415 4:-0.067181602 5:-0.027708599 6:0.190162 7:0.256522 8:-0.188245 9:0.236297 10:-0.202191 11:-0.44390199 12:-0.110341 13:-0.34644699 14:-0.024482099 15:0.068087697 16:0.16268399 17:-0.229348 18:0.0195913 19:0.089262202 20:0.135548 21:-0.204914 22:0.29209399 23:-0.19052701 24:0.14620399 25:-0.218669 26:0.023386501 27:-0.30474299 28:0.068358101 29:-0.245124 30:0.092878498 31:-0.0051696799 32:0.219699 33:0.0396218 34:0.086351298 35:-0.124178 36:-0.0073306202 37:-0.174647 38:0.088445902 39:0.18239801 40:-0.13296001 41:0.15297399 42:0.047293901 43:0.0688181 44:0.074079998 45:-0.247862 46:-0.097032398 47:0.103705 48:-0.113579 49:0.31334099 50:-0.19579799 #
-0.51450604548972855845079266146058 1:0.51618701 2:0.232842 3:-0.0011202 4:-0.10098 5:0.139459 6:0.17325599 7:0.50777602 8:-0.244441 9:0.045296598 10:-0.046170902 11:-0.174299 12:-0.182469 13:-0.28093499 14:0.043221802 15:-0.218999 16:-0.27057201 17:-0.20414799 18:-0.051727399 19:0.071450703 20:-0.118935 21:-0.215739 22:0.524665 23:0.21797401 24:-0.024362 25:-0.102705 26:-0.191365 27:-0.19907799 28:-0.22395501 29:-0.222129 30:0.0303178 31:-0.17645399 32:0.175942 33:0.31573701 34:0.31314099 35:0.12668701 36:-0.34368101 37:-0.058395401 38:0.28991199 39:0.20603099 40:-0.16489001 41:0.166293 42:-0.068361297 43:0.206433 44:-0.122466 45:-0.139918 46:-0.207785 47:0.152171 48:-0.030665301 49:0.288923 50:0.35688001 #
-0.51450604548972855845079266146058 1:0.306218 2:0.33332399 3:-0.160017 4:0.049631901 5:0.48346499 6:0.0250907 7:0.286277 8:-0.048471 9:0.0127109 10:0.0539671 11:-0.120187 12:0.108931 13:-0.39017701 14:0.222442 15:0.220861 16:0.20159 17:-0.333619 18:-0.086296402 19:0.057702702 20:-0.31105199 21:0.051509801 22:0.38397801 23:0.118077 24:0.14629 25:-0.206774 26:-0.019649999 27:-0.242055 28:-0.311546 29:-0.37465301 30:0.0970705 31:0.169881 32:0.27403301 33:0.17103501 34:0.31784701 35:0.38565299 36:-0.43741101 37:-0.122544 38:0.36394399 39:0.26720899 40:-0.045699 41:0.149316 42:-0.0824719 43:0.0125082 44:-0.226252 45:-0.18240499 46:-0.38661599 47:0.14595599 48:-0.33766299 49:0.28535199 50:0.111636 #
-0.51450604548972855845079266146058 1:0.180802 2:0.32422799 3:-0.158209 4:-0.0504307 5:0.230193 6:-0.097430602 7:0.30931401 8:-0.105203 9:0.032206599 10:-0.0387205 11:-0.22150099 12:-0.30742499 13:-0.0126386 14:0.095749199 15:0.111165 16:-0.13958199 17:-0.19327299 18:-0.0069514699 19:-0.093879901 20:0.0076688598 21:-0.00130518 22:0.39583799 23:0.0121478 24:0.195178 25:-0.18601599 26:0.051663 27:-0.132256 28:-0.300641 29:-0.231213 30:0.105711 31:-0.0376282 32:0.085248098 33:-0.111707 34:0.077766202 35:-0.083738603 36:-0.156268 37:-0.109709 38:0.160612 39:0.179618 40:-0.101312 41:0.088718198 42:-0.171967 43:0.045800801 44:-0.161781 45:0.0247803 46:-0.162916 47:0.19567899 48:-0.1327 49:0.30834401 50:0.133292 #
-0.51450604548972855845079266146058 1:0.0624796 2:0.246691 3:-0.10684 4:-0.0103401 5:0.264584 6:0.0078214398 7:0.224158 8:-0.50503999 9:0.059935302 10:-0.260928 11:-0.19963901 12:-0.089746803 13:-0.117559 14:0.0134315 15:0.094001196 16:-0.26435801 17:0.017648101 18:0.0522912 19:0.0041107102 20:-0.054580599 21:-0.21772 22:0.358982 23:0.19287699 24:0.056353401 25:-0.0769087 26:0.067498498 27:-0.078464501 28:-0.20821799 29:-0.054969199 30:0.28053799 31:-0.303094 32:0.082960397 33:0.158208 34:0.166775 35:0.020566801 36:-0.121309 37:0.085339397 38:0.22146501 39:0.27288899 40:-0.076408997 41:0.031170599 42:-0.14681999 43:-0.014799 44:-0.052248299 45:-0.29196101 46:-0.249828 47:-0.099665403 48:-0.019670101 49:0.30111301 50:0.25016701 #
-0.51450604548972855845079266146058 1:-0.0160702 2:0.093437597 3:0.00717862 4:-0.139705 5:0.0129957 6:0.088001996 7:0.10303 8:0.030398 9:0.025552301 10:0.034763601 11:-0.25723001 12:-0.13325 13:-0.26980701 14:-0.125884 15:0.084775403 16:-0.1823 17:-0.209574 18:-0.038122401 19:0.0036895899 20:-0.12663101 21:0.0046429201 22:0.154679 23:0.14781301 24:0.00678663 25:-0.187481 26:0.200359 27:-0.164682 28:-0.098948501 29:0.0316553 30:0.198826 31:-0.0131161 32:-0.022883501 33:0.0048294398 34:-0.0103669 35:0.00027592 36:-0.22877499 37:-0.094864503 38:0.110394 39:0.27577901 40:-0.069182798 41:0.25714901 42:0.116828 43:-0.0029071299 44:-0.205358 45:-0.28037399 46:-0.25690401 47:0.169221 48:-0.032179601 49:0.30880901 50:0.118822 #
0.51450604548972855845079266146058 1:0.044361498 2:0.28855801 3:-0.043401401 4:-0.109964 5:0.24189401 6:0.038063101 7:-0.117077 8:-0.046050999 9:0.028966 10:-0.074733801 11:-0.022653 12:0.15585101 13:0.0146323 14:-0.11961 15:0.28123999 16:0.0172546 17:-0.34078401 18:0.27204001 19:-0.14737 20:-0.29146299 21:-0.19558699 22:-0.072061099 23:0.18747699 24:0.14734399 25:0.046097402 26:-0.091505699 27:-0.143668 28:0.10297 29:-0.131947 30:-0.021971401 31:0.00320421 32:0.415016 33:-0.21917599 34:-0.065278403 35:-0.0043253498 36:0.012498 37:0.061266799 38:0.143971 39:0.37139001 40:-0.0205594 41:0.196343 42:-0.069794402 43:0.24517301 44:0.092319697 45:-0.333222 46:-0.18145999 47:0.344053 48:0.070779398 49:0.58299899 50:0.108661 #
0.51450604548972855845079266146058 1:0.100622 2:0.47016099 3:0.039463598 4:0.031714302 5:0.2113 6:0.041783899 7:0.0085853199 8:-0.043770101 9:0.0155997 10:-0.0191806 11:-0.257397 12:-0.079237498 13:-0.090213999 14:-0.238637 15:0.27853701 16:0.102461 17:-0.174311 18:0.0895686 19:-0.160099 20:-0.25481501 21:-0.22660001 22:0.15224899 23:0.042558901 24:-0.017426001 25:-0.022412499 26:0.068391196 27:-0.20891599 28:-0.0294018 29:-0.25820199 30:0.14516599 31:-0.091137402 32:0.477981 33:-0.080127403 34:0.045932401 35:0.054244898 36:0.126818 37:0.032817598 38:0.175238 39:0.51447898 40:-0.0298186 41:0.0444258 42:0.059157401 43:0.033994202 44:-0.064071402 45:-0.067765802 46:0.0237261 47:0.117034 48:-0.00153738 49:0.427062 50:-0.14117201 #
0.51450604548972855845079266146058 1:0.32745701 2:0.66721201 3:0.17045 4:-0.048324998 5:-0.204787 6:0.295479 7:-0.024503499 8:-0.120062 9:0.24391501 10:-0.084942304 11:-0.220349 12:-0.0573138 13:-0.371508 14:-0.23275501 15:0.16745 16:0.086355902 17:-0.00038211801 18:-0.029560201 19:-0.090916 20:-0.043779299 21:-0.31578299 22:0.041868798 23:0.0069753299 24:0.046185099 25:0.040306699 26:0.244646 27:0.078640901 28:0.132945 29:-0.395998 30:-0.074077502 31:-0.20079599 32:0.233881 33:0.138606 34:-0.0118671 35:0.063691303 36:0.18807 37:0.177284 38:-0.083277799 39:0.37486601 40:-0.086957403 41:0.040877301 42:-0.133147 43:0.074687503 44:0.054727599 45:-0.14690299 46:-0.058472499 47:0.055173099 48:-0.064846799 49:0.50609702 50:-0.331101 #
0.51450604548972855845079266146058 1:0.0634799 2:0.277614 3:0.218375 4:-0.095398799 5:0.050995901 6:0.22303399 7:0.176502 8:-0.26319301 9:0.115612 10:0.22738799 11:-0.134306 12:-0.00845592 13:-0.048285201 14:-0.32191399 15:0.108313 16:0.33107999 17:-0.00064007402 18:-0.082070202 19:-0.088398904 20:-0.218053 21:-0.162752 22:0.14574 23:0.1788 24:-0.0076461299 25:0.14421 26:-0.203363 27:-0.16226301 28:0.101277 29:-0.39105701 30:-0.0469613 31:-0.16072001 32:0.68301398 33:-0.0522645 34:0.023765501 35:0.21883801 36:0.170513 37:0.024119999 38:0.0177304 39:0.27073401 40:-0.31968299 41:0.21645001 42:-0.192656 43:0.192295 44:0.024076199 45:0.0727375 46:0.203223 47:0.108897 48:0.103746 49:0.26113299 50:-0.17367101 #
0.51450604548972855845079266146058 1:0.12918 2:0.37426701 3:-0.059162401 4:-0.090208597 5:0.19294199 6:0.119239 7:0.0977166 8:-0.23568401 9:0.122171 10:0.147985 11:-0.16148099 12:0.060143501 13:-0.23879901 14:-0.423154 15:-0.0077319001 16:0.30403501 17:-0.104734 18:-0.034325399 19:-0.070427202 20:-0.222808 21:-0.125416 22:0.212815 23:0.066038899 24:-0.0169797 25:-0.136609 26:0.051128998 27:-0.22308201 28:0.0829219 29:0.02564 30:0.162852 31:0.0129143 32:0.38440099 33:-0.217568 34:-0.31538001 35:0.0588376 36:0.141564 37:-0.070658803 38:0.12778801 39:0.47046301 40:-0.126297 41:0.29322699 42:-0.044027701 43:0.0126378 44:-0.088839099 45:-0.333406 46:-0.068614803 47:0.225099 48:0.166548 49:0.550879 50:0.060616001 #
-0.51450604548972855845079266146058 1:0.070827097 2:0.22406299 3:0.0222334 4:-0.107192 5:-0.075210802 6:0.197704 7:-0.0084723998 8:-0.153578 9:0.17954201 10:-0.0037169401 11:-0.38460901 12:-0.083100498 13:-0.19995201 14:-0.314944 15:0.178454 16:0.231939 17:0.16380399 18:-7.9582001e-05 19:0.134196 20:-0.13228001 21:-0.075763799 22:0.077970304 23:0.092643298 24:-0.177871 25:-0.033059798 26:0.246039 27:-0.29677701 28:0.20599701 29:-0.136484 30:0.14665601 31:-0.16318899 32:0.203549 33:-0.107248 34:-0.072806999 35:0.13967501 36:0.243077 37:0.053463899 38:-0.024343301 39:0.729325 40:-0.086704001 41:0.16354699 42:-0.075335801 43:-0.14398301 44:-0.040916901 45:-0.28864199 46:0.100401 47:0.126488 48:0.13745999 49:0.64766401 50:-0.0810633 #
-0.51450604548972855845079266146058 1:0.183018 2:0.32140601 3:0.23978101 4:-0.135984 5:0.065393202 6:0.062265702 7:0.090232402 8:-0.25749999 9:0.29454899 10:-0.096395701 11:-0.19247501 12:-0.069182001 13:0.077375002 14:-0.161727 15:0.31282601 16:0.365183 17:-0.22812299 18:0.117033 19:-0.156996 20:-0.344208 21:-0.16920701 22:0.214918 23:-0.29189101 24:0.251755 25:0.391527 26:-0.43372399 27:-0.30883199 28:0.33844301 29:-0.185966 30:0.0137288 31:-0.35857201 32:0.57811099 33:-0.379711 34:-0.137547 35:0.18669 36:0.21819 37:-0.25461099 38:0.228429 39:0.406762 40:0.0542925 41:0.41223499 42:0.122818 43:0.018505299 44:0.304802 45:-0.0271456 46:0.20002399 47:0.29951501 48:-0.28465301 49:0.417555 50:0.0567565 #
-0.51450604548972855845079266146058 1:0.073259398 2:0.37101999 3:-0.073916398 4:0.0095268004 5:0.210438 6:0.089267597 7:0.116327 8:-0.103328 9:0.094723903 10:-0.036359102 11:-0.165233 12:0.098215997 13:0.0209866 14:-0.30301601 15:0.179341 16:0.430379 17:-0.064965397 18:0.0756291 19:-0.112996 20:-0.18914101 21:-0.30880201 22:0.33446199 23:-0.080899097 24:0.25628701 25:-0.019465599 26:-0.032900199 27:-0.032682098 28:0.0271823 29:-0.25454199 30:-0.29079801 31:-0.0152343 32:0.44031799 33:0.0394933 34:-0.204464 35:0.094077699 36:0.29449201 37:0.17486601 38:0.123338 39:0.32750499 40:-0.222607 41:0.154368 42:-0.17643701 43:0.31532699 44:-0.046477199 45:0.119779 46:0.0072028101 47:0.13738 48:0.092470497 49:0.41254801 50:-0.13657001 #
-0.39248920652084973159645642226678 1:0.154485 2:0.48875001 3:0.184753 4:-0.045637298 5:0.110571 6:0.29374799 7:-0.134407 8:-0.768399 9:-0.0806899 10:-0.42267901 11:-0.309488 12:0.169036 13:-0.089845702 14:-0.24125899 15:0.19934 16:0.0460396 17:0.023822799 18:0.059443399 19:-0.13346601 20:-0.25077 21:-0.42598 22:0.0406252 23:0.242585 24:0.087054998 25:0.026086399 26:-0.026704 27:-0.26686901 28:0.15037601 29:-0.11017 30:0.026895599 31:-0.25534901 32:0.50339502 33:0.19230001 34:0.137878 35:0.115389 36:0.41251299 37:-0.0155949 38:0.20683201 39:0.617836 40:-0.074263602 41:0.29642701 42:-0.172048 43:0.275709 44:0.24221499 45:-0.26916301 46:0.0346567 47:0.203705 48:-0.0128388 49:0.49451599 50:-0.21812101 #
-0.51450604548972855845079266146058 1:0.353894 2:0.518242 3:0.122272 4:-0.090914302 5:0.26335901 6:0.15725601 7:0.0070836302 8:-0.32860601 9:0.181613 10:-0.104047 11:-0.245069 12:-0.106368 13:-0.235457 14:-0.43214601 15:-0.0611334 16:0.220256 17:0.060695902 18:0.17059 19:-0.0162463 20:-0.16641 21:-0.343411 22:0.32510599 23:0.16875499 24:-0.133204 25:0.17263401 26:0.080357701 27:-0.0020547099 28:0.16757099 29:-0.278878 30:-0.079899602 31:-0.216462 32:0.236136 33:0.015938601 34:-0.0349335 35:0.111349 36:0.150809 37:0.0459386 38:0.14978001 39:0.68096 40:-0.0368203 41:-0.074842297 42:-0.213871 43:-0.024487499 44:0.111383 45:-0.332082 46:0.156855 47:-0.085735999 48:0.25022599 49:0.52537698 50:-0.025426799 #
0.51450604548972855845079266146058 1:0.099945597 2:0.24540301 3:-0.14228 4:0.064018898 5:0.128159 6:0.14388099 7:-0.0131139 8:-0.221508 9:0.054923199 10:-0.144945 11:-0.32526401 12:-0.33340499 13:-0.41777101 14:0.119746 15:-0.069372699 16:-0.210611 17:-0.35140499 18:0.171561 19:-0.079466097 20:-0.107691 21:-0.12127 22:0.25102201 23:-0.0599663 24:0.039913099 25:-0.15252499 26:0.19465201 27:-0.25141099 28:-0.26689401 29:-0.31004599 30:0.224767 31:-0.21943399 32:0.075622797 33:0.131916 34:0.0837029 35:0.092339702 36:-0.0299171 37:-0.116257 38:0.35717401 39:0.28177401 40:-0.107585 41:0.040941902 42:0.183947 43:-0.068701297 44:-0.14624 45:-0.43093899 46:-0.231069 47:0.110688 48:-0.127775 49:0.31584701 50:0.309322 #
0.51450604548972855845079266146058 1:0.22554401 2:0.39161101 3:0.030857 4:-0.16457801 5:0.26698601 6:0.257092 7:0.117334 8:-0.359301 9:-0.052168202 10:-0.36103201 11:-0.20181599 12:-0.098316804 13:-0.2001 14:0.0223295 15:0.0162051 16:-0.012201 17:-0.34217501 18:0.47120401 19:-0.0635112 20:-0.134306 21:0.0172399 22:0.247518 23:0.177569 24:-0.116935 25:0.0028357301 26:-0.104743 27:-0.26957899 28:-0.098240003 29:-0.52981299 30:0.29397601 31:-0.16209701 32:0.28264701 33:-0.139149 34:0.28849801 35:0.176256 36:-0.055325702 37:-0.26101899 38:0.060157102 39:0.27870101 40:-0.28168499 41:0.27125701 42:-0.035434999 43:-0.094853699 44:-0.037666399 45:-0.43001801 46:-0.30952999 47:0.084740996 48:0.31338701 49:0.202033 50:0.166502 #
0.51450604548972855845079266146058 1:0.31986099 2:0.331705 3:-0.30886099 4:-0.072154902 5:0.204606 6:-0.088728599 7:0.039616201 8:-0.28083599 9:0.087368697 10:-0.114826 11:-0.27370799 12:-0.131914 13:0.044279501 14:-0.40258399 15:0.0666776 16:-0.152925 17:-0.169466 18:0.204979 19:-0.216096 20:0.144036 21:-0.35509899 22:0.30414599 23:0.111961 24:0.116748 25:-0.17907301 26:0.077149898 27:-0.195559 28:-0.0026854801 29:-0.022851201 30:0.208582 31:-0.33952701 32:0.20327701 33:-0.11494 34:0.065127201 35:-0.0236689 36:-0.017611001 37:-0.077350698 38:0.087300502 39:0.27139699 40:-0.238291 41:0.23431 42:-0.039039999 43:0.0125227 44:-0.214444 45:-0.021146299 46:-0.53503501 47:0.115245 48:0.033119299 49:0.58563399 50:0.237077 #
0.0044177737288467744392050917667802 1:0.235514 2:0.216994 3:-0.062793799 4:0.116065 5:-0.159036 6:0.041995302 7:0.113775 8:-0.00330818 9:0.29238701 10:0.0485982 11:-0.23891599 12:-0.0555076 13:-0.162429 14:0.0559191 15:-0.00298708 16:0.115725 17:-0.243266 18:-0.0126244 19:-0.052951001 20:-0.118861 21:0.128139 22:0.13220599 23:-0.018665001 24:0.239052 25:-0.011687 26:0.0281727 27:-0.32379401 28:-0.17298301 29:-0.24308699 30:-0.28182399 31:0.0078664003 32:0.332362 33:0.15657701 34:0.051194899 35:0.143185 36:0.0304802 37:0.072567098 38:-0.0090334304 39:0.26398501 40:-0.259516 41:-0.00045260799 42:-0.22670101 43:0.207828 44:-0.039008699 45:-0.0888891 46:-0.062736601 47:0.0582399 48:0.0592006 49:0.33090401 50:0.20588399 #
0.51450604548972855845079266146058 1:0.24362899 2:0.31734601 3:0.072125196 4:-0.0403428 5:0.32756299 6:0.023280799 7:0.348681 8:-0.263807 9:0.15350001 10:-0.156919 11:-0.19385201 12:-0.066033497 13:-0.34460399 14:-0.101099 15:0.071126498 16:0.075420402 17:-0.038127601 18:0.20095199 19:0.081097402 20:-0.35661301 21:-0.209879 22:0.40279999 23:0.226197 24:-0.202915 25:-0.199526 26:-0.11973 27:-0.26466501 28:-0.00193643 29:-0.32705599 30:0.26427099 31:-0.096957304 32:0.316102 33:0.20358001 34:0.084451899 35:0.033310302 36:-0.045828 37:-0.026503099 38:0.43019199 39:0.265836 40:-0.059601601 41:0.463211 42:0.091550998 43:-0.124896 44:-0.117698 45:-0.217237 46:-0.108673 47:-0.0066204802 48:0.0154049 49:0.192004 50:-0.090041801 #
-0.51450604548972855845079266146058 1:0.117512 2:0.51056999 3:0.080586903 4:-0.24199601 5:0.42464599 6:-0.062592499 7:0.263596 8:-0.163908 9:0.20105299 10:-0.28650701 11:-0.280711 12:-0.135029 13:-0.238529 14:-0.091712996 15:0.15125901 16:0.187003 17:-0.29662099 18:0.234385 19:0.134361 20:-0.190277 21:-0.028570199 22:0.38108599 23:0.28898501 24:0.126433 25:-0.230361 26:0.246768 27:-0.47671199 28:-0.15299401 29:-0.10673 30:0.14776 31:0.12823001 32:0.051555 33:0.024488701 34:0.225076 35:0.055523202 36:-0.142406 37:-0.0163192 38:0.322276 39:0.089194603 40:-0.284742 41:0.158582 42:-0.14361 43:0.028383 44:-0.192674 45:-0.24083801 46:-0.37286401 47:0.17044701 48:0.168754 49:0.21449301 50:0.165996 #
-0.51450604548972855845079266146058 1:0.150235 2:0.32333601 3:-0.072855301 4:0.047578398 5:0.076756097 6:-0.020246601 7:0.0260344 8:-0.302717 9:0.24430101 10:-0.102846 11:-0.24208499 12:-0.037152801 13:-0.152279 14:0.0055725998 15:-0.050292902 16:-0.080087498 17:-0.25956699 18:0.23580299 19:0.116874 20:-0.113132 21:-0.14049301 22:0.33004501 23:0.18944301 24:-0.105081 25:-0.103184 26:0.18614399 27:-0.247446 28:-0.118976 29:-0.0591686 30:0.27988401 31:-0.168064 32:0.23421399 33:-0.059117701 34:0.076766603 35:-0.075572103 36:-0.097598501 37:0.053660799 38:0.108418 39:0.171361 40:-0.13016701 41:0.108338 42:0.027341601 43:0.099455297 44:-0.158575 45:-0.16356 46:-0.10754 47:0.062629104 48:0.057598799 49:0.25313401 50:0.188596 #
-0.23439716419019615556429414482409 1:-0.0018783699 2:0.29615399 3:0.0258609 4:-0.023564501 5:0.538661 6:0.190386 7:0.129686 8:-0.52403599 9:-0.100238 10:-0.73835301 11:-0.222651 12:-0.27507901 13:-0.27554101 14:0.0232406 15:-0.163165 16:0.0302423 17:-0.336685 18:0.194903 19:0.0184086 20:0.082600601 21:-0.29114199 22:0.237867 23:0.18628 24:0.198624 25:-0.30298901 26:0.225325 27:-0.45332301 28:0.304914 29:-0.75674802 30:0.26275599 31:-0.58276802 32:0.316636 33:0.115847 34:0.207697 35:0.0045045102 36:0.072037198 37:-0.232535 38:0.112533 39:0.264402 40:-0.086509399 41:0.109217 42:-0.219134 43:-0.0252568 44:-0.34311199 45:-0.41783899 46:-0.16231699 47:0.101216 48:-0.0057799998 49:0.51008898 50:-0.220413 #
0.51450604548972855845079266146058 1:-0.048839498 2:0.111061 3:0.35007101 4:-0.100998 5:-0.114498 6:0.063882701 7:0.42142701 8:-0.167155 9:0.179978 10:-0.104866 11:-0.29149601 12:-0.0142058 13:0.047577299 14:-0.314971 15:-0.082127802 16:0.061638601 17:-0.088464104 18:0.089485303 19:-0.206558 20:-0.25466701 21:-0.069103897 22:0.068361901 23:-0.0504952 24:0.061262801 25:0.077476501 26:-0.091727503 27:-0.114482 28:0.041932099 29:0.035231799 30:-0.0258731 31:-0.026704701 32:0.38313699 33:0.16095901 34:-0.136943 35:0.252913 36:0.107746 37:0.131311 38:-0.267093 39:0.51803201 40:-0.093990698 41:0.071716003 42:-0.24433801 43:0.096640401 44:0.190437 45:-0.0295281 46:0.0087422198 47:-0.0409793 48:-0.104167 49:0.334176 50:-0.019303899 #
0.51450604548972855845079266146058 1:-0.0117625 2:0.22882999 3:0.25976199 4:-0.16167299 5:-0.096733302 6:0.27981699 7:0.119611 8:-0.238028 9:0.108689 10:-0.028104899 11:-0.26533201 12:-0.0102307 13:-0.15317599 14:-0.28221101 15:0.163233 16:0.16305199 17:-0.029221 18:0.15876099 19:0.023260901 20:0.024483399 21:-0.168883 22:0.0462825 23:0.063869998 24:0.099937797 25:0.056587402 26:0.0407749 27:-0.16891301 28:-0.022426 29:-0.166315 30:-0.17986099 31:-0.108522 32:0.620583 33:0.059476599 34:0.040702101 35:0.29530999 36:0.0682441 37:0.177394 38:-0.139074 39:0.39769199 40:-0.29924899 41:0.16835 42:-0.33661601 43:0.118559 44:0.124029 45:-0.18344399 46:0.0103144 47:0.031970199 48:0.023596801 49:0.31308699 50:-0.0563992 #
0.51450604548972855845079266146058 1:0.100742 2:0.214966 3:0.0720203 4:-0.15258799 5:0.0614665 6:0.113135 7:0.088112898 8:-0.06831 9:0.092675298 10:-0.25759599 11:-0.36656699 12:-0.137732 13:-0.200563 14:-0.177145 15:0.103125 16:-0.0120774 17:0.093791902 18:-0.0818481 19:0.0307495 20:0.057954799 21:-0.305646 22:0.135533 23:-0.161933 24:0.195399 25:0.078430198 26:-0.032315198 27:-0.0895781 28:0.120054 29:-0.140728 30:-0.101098 31:-0.0754354 32:0.23195601 33:0.199939 34:0.13471401 35:0.076461703 36:-0.0501743 37:0.22884101 38:0.154825 39:0.21710899 40:-0.018920399 41:0.13976 42:-0.029917801 43:-0.054255001 44:0.068517499 45:0.020348299 46:0.041997898 47:0.116884 48:-0.0073782299 49:0.403254 50:-0.251142 #
0.22100625266773557542343553450337 1:-0.118176 2:0.40074 3:0.0719136 4:-0.26532301 5:0.029704699 6:0.187148 7:0.31778401 8:-0.036506001 9:0.432762 10:0.0067567402 11:-0.109577 12:-0.208564 13:0.25383899 14:-0.27525201 15:0.294294 16:0.21056999 17:-0.0438134 18:-0.067867003 19:-0.0064222198 20:-0.44525301 21:-0.370186 22:-0.059649099 23:0.081780098 24:0.38284099 25:0.158252 26:0.100452 27:-0.225592 28:0.213156 29:-0.235898 30:0.35277399 31:-0.18774401 32:0.20621499 33:-0.15070599 34:0.079455398 35:0.10525 36:0.201766 37:0.0443849 38:0.063772298 39:0.27039099 40:-0.067375198 41:-0.028422499 42:-0.049938899 43:0.114281 44:0.173612 45:-0.117498 46:-0.166815 47:0.161764 48:-0.083486602 49:0.381497 50:-0.258338 #
-0.51450604548972855845079266146058 1:-0.0334231 2:0.27856299 3:0.0234903 4:-0.12544 5:0.127794 6:0.042093199 7:0.087337703 8:-0.107499 9:0.0421491 10:0.077144101 11:0.0068254001 12:-0.14000601 13:-0.081554703 14:-0.120316 15:0.035631601 16:-0.0394089 17:-0.16632301 18:0.098472103 19:-0.0858128 20:0.12550899 21:-0.127914 22:0.103199 23:0.034278899 24:0.047824301 25:0.00162315 26:-0.029557601 27:0.104547 28:-0.053093798 29:-0.087815098 30:0.075168803 31:0.076093003 32:0.103917 33:-0.173492 34:-0.0148735 35:-0.0622846 36:0.023849299 37:-0.033314899 38:-0.025315501 39:0.181852 40:-0.055183001 41:0.0149021 42:-0.056463301 43:-0.063186303 44:0.0528997 45:0.0076559801 46:-0.076378196 47:0.129308 48:-0.050760198 49:0.057061002 50:0.092068397 #
-0.51450604548972855845079266146058 1:0.118822 2:0.23634601 3:0.330089 4:-0.0205903 5:-0.0748059 6:-0.0046854601 7:0.181061 8:-0.102117 9:0.110572 10:0.020869199 11:-0.063699499 12:-0.051467001 13:-0.193477 14:-0.28702 15:-0.057771798 16:0.122522 17:0.0145712 18:0.173141 19:-0.049950302 20:-0.048161 21:-0.178339 22:0.16944 23:0.062303599 24:0.177526 25:0.077977799 26:0.193858 27:-0.25411701 28:0.0419681 29:-0.215046 30:0.028273501 31:-0.23663899 32:0.64183998 33:0.0819012 34:0.023509899 35:0.21855301 36:0.00195584 37:0.083318397 38:-0.025869301 39:0.42017099 40:-0.017611001 41:0.144995 42:-0.255238 43:-0.127634 44:0.0253997 45:0.0348294 46:-0.0242265 47:-0.139515 48:-0.17906 49:0.20467 50:-0.0209125 #
-0.51450604548972855845079266146058 1:0.0833432 2:0.37683201 3:0.061898801 4:-0.115358 5:0.0362566 6:0.081114501 7:0.243295 8:-0.095258102 9:0.162072 10:0.16322 11:-0.090063103 12:-0.0621536 13:-0.023525599 14:-0.27890801 15:-0.16621099 16:-0.0255624 17:0.00105146 18:-0.055358101 19:-0.25142699 20:-0.078296401 21:-0.135276 22:0.36122301 23:0.166177 24:-0.164286 25:0.037190799 26:-0.078757897 27:-0.17475501 28:0.205469 29:-0.24903899 30:-0.0027872899 31:-0.35554299 32:0.54712898 33:0.072191097 34:0.038143702 35:0.19665299 36:0.23842999 37:-0.070441402 38:0.19311699 39:0.39673999 40:-0.167043 41:0.46043199 42:-0.32055801 43:-0.0549445 44:0.0727892 45:0.056108002 46:-0.033193 47:-0.00361912 48:0.269943 49:0.75098801 50:0.174248 #
-0.51450604548972855845079266146058 1:0.039918799 2:0.24438199 3:0.066321999 4:-0.101346 5:0.172654 6:0.152429 7:0.138313 8:0.028914699 9:0.16874599 10:0.0825556 11:-0.22819801 12:-0.102545 13:-0.097561397 14:-0.35791001 15:-0.35966599 16:-0.186125 17:-0.18663099 18:0.0161769 19:-0.122116 20:-0.061374199 21:-0.207454 22:0.37686899 23:-0.16455799 24:-0.21131 25:0.164974 26:-0.248869 27:0.20205 28:0.0513178 29:-0.36672401 30:-0.034841198 31:-0.142912 32:0.29035801 33:0.0569718 34:0.083277099 35:-0.0388816 36:0.0040492499 37:-0.337401 38:0.18556701 39:0.50565201 40:0.115419 41:0.071125001 42:-0.065883502 43:-0.092893198 44:0.0117896 45:-0.318703 46:-0.17380001 47:0.075187497 48:0.098370597 49:0.61365098 50:0.125618 #
0.51450604548972855845079266146058 1:0.18183801 2:0.30322701 3:0.0211231 4:-0.106564 5:0.80797797 6:0.086728998 7:0.201323 8:-0.350557 9:0.237158 10:0.10718 11:-0.221699 12:-0.172824 13:-0.258735 14:0.0129211 15:0.171648 16:0.100366 17:0.106655 18:-0.0032913201 19:0.067442998 20:-0.14308 21:-0.467058 22:0.30892199 23:0.13148201 24:0.075367004 25:-0.31408 26:-0.047694601 27:-0.25277299 28:0.106394 29:-0.206957 30:-0.0208089 31:-0.0111736 32:0.304663 33:-0.066688098 34:0.20782501 35:-0.0137032 36:0.0296771 37:0.099337503 38:0.35357901 39:0.0326747 40:0.074791797 41:0.209093 42:0.016638801 43:0.077876799 44:-0.102053 45:-0.249514 46:-0.13157099 47:0.32706001 48:-0.221324 49:0.60846198 50:0.12887 #
0.51450604548972855845079266146058 1:0.34710199 2:0.249011 3:0.0392575 4:-0.109595 5:0.217107 6:0.0106393 7:0.16104101 8:-0.081278697 9:0.016348001 10:-0.081977002 11:-0.20957699 12:-0.064179301 13:-0.31356901 14:-0.0104193 15:-0.0326414 16:-0.0127257 17:-0.18896601 18:0.179252 19:-0.057565499 20:-0.079631403 21:-0.35098499 22:0.29393801 23:0.117469 24:0.087483302 25:-0.143838 26:0.0553292 27:-0.38664699 28:0.18636499 29:-0.059375901 30:0.037170701 31:-0.097999297 32:0.35459501 33:0.075317003 34:0.110181 35:0.126395 36:0.00093975599 37:0.01394 38:0.43809399 39:0.34090701 40:0.0508404 41:0.257245 42:0.170009 43:0.25751099 44:-0.167888 45:-0.23999099 46:-0.093087398 47:0.14165001 48:0.040954798 49:0.40707201 50:0.00191296 #
0.51450604548972855845079266146058 1:0.333496 2:0.40178099 3:-0.0285828 4:-0.078385502 5:0.126699 6:0.15035699 7:0.37806001 8:-0.35512799 9:0.284558 10:0.0513684 11:-0.290315 12:-0.216159 13:-0.0993772 14:-4.3746801e-05 15:0.15004499 16:0.078493498 17:-0.155947 18:-0.066878103 19:0.0322656 20:-0.20995601 21:-0.35173601 22:0.39170301 23:-0.0853521 24:0.25443399 25:-0.0186869 26:0.081986502 27:-0.41991699 28:-0.157251 29:-0.096740901 30:-0.059545901 31:-0.238582 32:0.130943 33:0.114525 34:0.18686099 35:-0.0060740798 36:0.038919002 37:-0.0022926901 38:0.47077799 39:0.26051801 40:-0.159159 41:0.052144401 42:-0.27918601 43:0.321758 44:-0.137742 45:-0.0132385 46:-0.218816 47:0.28483501 48:-0.293841 49:0.32843101 50:0.12074 #
0.51450604548972855845079266146058 1:0.083240896 2:0.35016501 3:0.214341 4:-0.094296403 5:0.074201502 6:0.18717401 7:0.055431399 8:-0.131519 9:0.169908 10:-0.040583599 11:-0.28897399 12:-0.110392 13:0.024575399 14:-0.145932 15:0.0857016 16:-0.076992497 17:-0.161816 18:0.27796301 19:0.226344 20:-0.375108 21:-0.16441201 22:0.35214001 23:0.244829 24:0.043942899 25:0.160097 26:0.0718797 27:-0.36745301 28:0.147127 29:-0.32693601 30:0.068693601 31:-0.22541399 32:0.219973 33:-0.126772 34:0.127819 35:0.133974 36:-0.189328 37:-0.129225 38:0.253746 39:0.42952499 40:-0.026220201 41:0.239971 42:0.090104297 43:0.020710601 44:-0.168841 45:-0.21310601 46:-0.085282698 47:0.060574401 48:0.0055140601 49:0.356365 50:0.0931881 #
-0.51450604548972855845079266146058 1:0.65637201 2:0.33875701 3:-0.0147152 4:0.017311599 5:-0.041266199 6:0.34068999 7:0.22992399 8:-0.58764398 9:0.218099 10:-0.38099599 11:-0.70615202 12:-0.0990417 13:-0.30272201 14:-0.085882097 15:0.070382103 16:0.32784101 17:-0.0119658 18:-0.0215977 19:0.108581 20:-0.066932604 21:-0.691661 22:-0.043421902 23:-0.054089699 24:0.293284 25:0.051868301 26:-0.040674198 27:-0.41694599 28:0.36079499 29:0.058112402 30:0.049921699 31:-0.59898603 32:0.230002 33:-0.063158996 34:0.296381 35:0.054048698 36:0.178232 37:0.14581101 38:0.42838699 39:0.508973 40:0.200982 41:-0.059444599 42:0.15481 43:0.32934001 44:0.023851199 45:-0.24095 46:-0.175161 47:0.57598197 48:-0.347646 49:0.78234702 50:-0.25757599 #
-0.51450604548972855845079266146058 1:0.195255 2:0.38870201 3:0.086900502 4:-0.177598 5:-0.0144399 6:-0.1718 7:0.122755 8:0.284951 9:-0.211812 10:0.071634397 11:-0.16912401 12:-0.0091275601 13:-0.22814301 14:-0.00155467 15:0.440357 16:-0.049252301 17:-0.20444 18:0.28353 19:-0.21014699 20:-0.340693 21:0.079812102 22:0.159081 23:0.20350499 24:0.43992499 25:-0.051113699 26:0.277192 27:-0.45501399 28:-0.17792 29:-0.242778 30:0.136566 31:-0.14289799 32:0.471396 33:-0.0467593 34:-0.169485 35:0.088257 36:-0.105496 37:-0.13111401 38:-0.107726 39:0.22136299 40:-0.145322 41:0.250864 42:-0.182567 43:0.120542 44:0.0177474 45:-0.25325999 46:-0.44511199 47:0.19585 48:-0.00317302 49:0.416188 50:0.12541699 #
-0.51450604548972855845079266146058 1:0.085000798 2:0.487831 3:0.286708 4:-0.233676 5:0.29381701 6:0.110663 7:0.412561 8:-0.11247 9:0.17906199 10:-0.022389401 11:-0.0822118 12:-0.078720897 13:-0.194897 14:0.026516199 15:0.200326 16:0.020787301 17:-0.069352597 18:0.132318 19:-0.129435 20:-0.209114 21:-0.328024 22:0.191421 23:-0.0073144701 24:0.54238701 25:-0.0037948999 26:-0.146588 27:-0.0861945 28:-0.111113 29:-0.32146999 30:-0.10673 31:-0.087194704 32:0.47239101 33:0.140769 34:0.39236799 35:0.16766401 36:-0.089329697 37:0.0524402 38:0.412361 39:0.20526101 40:0.0974975 41:0.16492701 42:-0.31212899 43:0.37789199 44:0.217821 45:0.0232273 46:-0.143998 47:-0.074008599 48:0.097236201 49:0.107257 50:0.072421603 #
-0.51450604548972855845079266146058 1:0.224773 2:0.52195102 3:0.28489599 4:-0.148412 5:0.380494 6:0.035718001 7:0.46822801 8:-0.44730601 9:0.16831601 10:-0.066724099 11:-0.106401 12:-0.19005799 13:-0.35385501 14:-0.54451299 15:-0.038636599 16:-0.201557 17:-0.1119 18:-0.094288602 19:-0.159144 20:-0.186332 21:-0.0136031 22:0.241156 23:0.42215401 24:0.179243 25:-0.222261 26:-0.0413239 27:-0.31913501 28:-0.022904901 29:0.094041303 30:0.23874 31:0.257321 32:0.461086 33:0.165659 34:-0.119086 35:-0.050732199 36:-0.193662 37:0.205148 38:0.148449 39:0.489582 40:-0.150112 41:0.188756 42:-0.16903 43:-0.045814101 44:0.129704 45:-0.103965 46:-0.199221 47:-0.055206101 48:0.019453101 49:0.25032201 50:-0.018750999 #
-0.51450604548972855845079266146058 1:0.23186199 2:0.37782699 3:-0.109012 4:0.0581556 5:0.21880201 6:0.098984003 7:0.24805 8:-0.212181 9:0.00492104 10:0.127021 11:-0.259148 12:-0.0071214698 13:-0.23177101 14:0.00509708 15:0.063960098 16:-0.033360898 17:-0.284796 18:-0.068351001 19:-0.141836 20:-0.093482599 21:-0.138345 22:0.13167 23:0.086015902 24:0.20684101 25:-0.165659 26:0.0089925304 27:-0.062075701 28:-0.13826799 29:-0.121579 30:-0.066206597 31:0.148582 32:0.204864 33:-0.0369462 34:0.037774701 35:0.079315297 36:-0.029232699 37:-0.077087201 38:0.085000098 39:0.32089999 40:-0.0073417099 41:0.051462401 42:0.0046924301 43:0.072382897 44:-0.140626 45:0.0566875 46:-0.177853 47:0.36213899 48:-0.302549 49:0.28134701 50:0.126508 #
-0.51450604548972855845079266146058 1:0.31674501 2:0.333942 3:0.21321601 4:-0.11848 5:0.019419299 6:-0.0390887 7:0.0808983 8:-0.138629 9:-0.069051303 10:-0.0042479201 11:-0.20421401 12:-0.051415302 13:-0.18372899 14:-0.167264 15:0.243919 16:0.0311324 17:0.125075 18:-0.00404895 19:0.109234 20:-0.184745 21:-0.12846699 22:-0.10017 23:0.270762 24:-0.039925601 25:0.122586 26:0.0022485901 27:-0.199544 28:-0.130243 29:-0.160688 30:0.200892 31:-0.19168399 32:0.049364001 33:-0.0421414 34:0.00092416798 35:-0.0475398 36:-0.14444301 37:-0.073011301 38:-0.038021401 39:0.041843299 40:-0.114689 41:0.248758 42:0.044084001 43:0.060772099 44:0.273592 45:-0.133766 46:-0.14839201 47:0.085124202 48:0.0065867598 49:0.29849699 50:-0.0290289 #
0.51450604548972855845079266146058 1:0.059602499 2:0.29420301 3:-0.18124001 4:-0.063644499 5:0.18004499 6:0.110209 7:0.128208 8:-0.31037399 9:0.067804903 10:-0.0350888 11:-0.097563297 12:-0.016150801 13:-0.101335 14:-0.229986 15:0.25181299 16:0.087367602 17:-0.188444 18:0.105718 19:-0.133389 20:0.121619 21:-0.182657 22:0.23908199 23:0.085657299 24:0.079123102 25:0.025977001 26:-0.094542198 27:-0.107183 28:0.018246399 29:-0.14494599 30:0.021953 31:-0.27638701 32:0.43787801 33:-0.30667701 34:-0.050989602 35:0.033599801 36:0.159225 37:-0.0120688 38:0.120869 39:0.45394599 40:-0.29610801 41:0.427526 42:-0.13267399 43:0.078710102 44:0.0080959704 45:-0.0086169597 46:0.100438 47:0.22568201 48:0.062832102 49:0.35831201 50:0.072563097 #
0.51450604548972855845079266146058 1:0.25644299 2:0.52418202 3:-0.064491197 4:-0.121343 5:0.23856699 6:0.039512198 7:0.29080799 8:-0.107845 9:0.140379 10:0.069074601 11:-0.119095 12:-0.220706 13:-0.19878601 14:-0.35457399 15:0.033160999 16:0.12775899 17:-0.107939 18:0.0055227401 19:-0.0068370402 20:-0.102773 21:-0.184395 22:0.314215 23:0.036470201 24:0.14690199 25:0.14117999 26:-0.0127384 27:-0.016845699 28:-0.16542301 29:-0.105216 30:0.17428599 31:0.031701501 32:0.41241199 33:-0.28873199 34:-0.088289298 35:-0.018728999 36:-0.052975599 37:-0.094936699 38:0.049874 39:0.489274 40:-0.068414398 41:0.158454 42:-0.212789 43:0.123668 44:0.149427 45:0.0427799 46:-0.145704 47:-0.0147215 48:0.15993699 49:0.51778299 50:0.174133 #
0.51450604548972855845079266146058 1:0.164625 2:0.17641699 3:-0.136923 4:-0.190997 5:0.20915399 6:0.199026 7:-0.026394701 8:-0.38633901 9:0.0836946 10:-0.032085501 11:-0.079736799 12:0.094193399 13:-0.387003 14:-0.199616 15:0.066162899 16:0.0827398 17:-0.21450301 18:-0.078607596 19:0.0254716 20:0.11547 21:-0.00542648 22:0.26380599 23:0.100076 24:0.14069501 25:-0.111888 26:0.082323603 27:-0.27526599 28:0.202319 29:0.0838558 30:0.015805099 31:-0.145326 32:0.104642 33:-0.182125 34:-0.33251199 35:0.0292014 36:0.0090560997 37:-0.095054798 38:-0.057279501 39:0.210595 40:-0.0304703 41:0.42173201 42:-0.150015 43:-0.056780498 44:-0.13058899 45:-0.33710399 46:-0.28554699 47:0.0037122599 48:0.18757001 49:0.327786 50:-0.0191392 #
0.51450604548972855845079266146058 1:0.21931601 2:0.224859 3:0.060249299 4:0.067734599 5:0.246448 6:0.0266151 7:0.41739899 8:-0.142483 9:0.0544095 10:0.062080901 11:-0.082507104 12:-0.035578299 13:-0.0053467001 14:-0.147396 15:-0.0152898 16:0.0127863 17:-0.30457699 18:0.0322547 19:-0.28825799 20:0.017897001 21:-0.143595 22:0.30894601 23:0.135353 24:0.032824699 25:-0.32009801 26:-0.166145 27:-0.079387397 28:0.0126943 29:-0.175612 30:0.117793 31:-0.27994001 32:0.56312001 33:-0.138542 34:-0.090111203 35:0.054582398 36:-0.0112834 37:-0.047409602 38:0.17005999 39:0.41648701 40:-0.070015803 41:0.27447501 42:-0.131575 43:0.062371202 44:-0.155178 45:-0.052379299 46:-0.152228 47:0.192523 48:0.029282 49:0.31921101 50:0.054893602 #
0.51450604548972855845079266146058 1:0.032698099 2:0.0849929 3:-0.191245 4:0.095339797 5:0.15424301 6:0.35238001 7:0.12518001 8:-0.29277799 9:-0.156128 10:0.065652899 11:-0.38994101 12:0.060894899 13:-0.265719 14:0.090568699 15:0.050386298 16:-0.150802 17:-0.091935501 18:0.045578402 19:-0.0303727 20:0.065848798 21:-0.217499 22:0.22064701 23:0.107956 24:-0.065387197 25:-0.053631 26:-0.1759 27:-0.121353 28:-0.091939598 29:0.00096895499 30:-0.23027 31:-0.068184502 32:0.282116 33:0.35558701 34:0.25572601 35:0.109246 36:0.170123 37:-0.192761 38:0.332838 39:0.40958199 40:-0.065791003 41:0.224557 42:-0.068246201 43:0.33226401 44:-0.0117956 45:-0.0576878 46:-0.130418 47:0.049767401 48:0.137628 49:0.43003699 50:0.23397601 #
-0.51450604548972855845079266146058 1:-0.0737238 2:0.14551 3:-0.23604 4:-0.12166 5:0.25332099 6:0.26532799 7:0.062579297 8:-0.379154 9:0.097921401 10:-0.281977 11:-0.16984101 12:-0.082314998 13:-0.262869 14:0.191918 15:0.00168497 16:-0.15536401 17:-0.35602301 18:-0.085378699 19:0.063804701 20:0.0264006 21:-0.145827 22:0.30285999 23:0.0039227102 24:0.178 25:-0.073751703 26:-0.128463 27:-0.27298799 28:-0.0111643 29:0.033043101 30:0.159454 31:0.019192699 32:0.24913999 33:-0.041267101 34:-0.0052533401 35:0.056581799 36:-0.0054884502 37:-0.0091546103 38:0.35509101 39:0.225153 40:0.155027 41:0.445153 42:0.069154203 43:-0.0297629 44:-0.0409851 45:-0.0140981 46:0.30572999 47:0.123218 48:0.089015901 49:0.214314 50:0.061164599 #
-0.47975794494281598367990682163509 1:0.168824 2:0.0602974 3:-0.19668999 4:0.106202 5:0.046069201 6:0.26254901 7:0.162751 8:-0.47752401 9:0.277116 10:-0.197487 11:-0.21478599 12:0.12728199 13:-0.105555 14:-0.289619 15:0.075329602 16:0.29255801 17:-0.28049201 18:0.071983904 19:0.182225 20:-0.17592999 21:-0.503833 22:0.207048 23:-0.065685801 24:0.00309062 25:-0.0085420003 26:0.042638302 27:-0.27239701 28:0.45612201 29:-0.14476401 30:-0.14383601 31:-0.159711 32:0.43487 33:0.13346501 34:0.049168602 35:0.19605801 36:0.25820699 37:0.190236 38:0.345431 39:0.54963499 40:-0.083042599 41:0.21776301 42:-0.0442749 43:0.109104 44:-0.166339 45:-0.291922 46:0.104182 47:-0.156721 48:0.0259005 49:0.209186 50:-0.290086 #
-0.51450604548972855845079266146058 1:0.00653863 2:0.28689 3:-0.018323701 4:-0.125476 5:0.20615201 6:0.30024999 7:0.0555331 8:-0.33751601 9:0.141201 10:-0.141096 11:-0.30259499 12:0.093808196 13:-0.089248799 14:-0.241953 15:0.050952598 16:-0.106992 17:-0.14957701 18:0.088456601 19:0.0051091602 20:-0.22673699 21:-0.23162501 22:0.00382102 23:0.225826 24:0.228818 25:-0.069559097 26:-0.047552899 27:-0.316737 28:0.134923 29:-0.128673 30:0.108054 31:-0.084277697 32:0.248594 33:0.068949401 34:-0.0053905402 35:0.121667 36:0.27241701 37:-0.0134261 38:0.109964 39:0.57323402 40:-0.229357 41:0.39057699 42:0.091241702 43:0.043793201 44:0.0152608 45:-0.416594 46:0.000904224 47:0.286369 48:0.249487 49:0.375193 50:-0.197515 #
-0.51450604548972855845079266146058 1:0.018147999 2:0.116903 3:-0.052974299 4:-0.0389167 5:0.23715401 6:0.070510201 7:0.082706399 8:-0.170809 9:-0.045527998 10:0.0614332 11:-0.0167432 12:-0.067947596 13:-0.0380072 14:0.0049707298 15:0.0546492 16:-0.160484 17:-0.15981001 18:0.218701 19:-0.0055661802 20:-0.033414599 21:-0.22403701 22:0.218576 23:0.024565199 24:0.0182641 25:-0.117197 26:0.122003 27:-0.064349398 28:-0.24279 29:0.023577699 30:0.14040101 31:-0.099129297 32:0.331536 33:-0.066842496 34:0.026572401 35:0.0229408 36:0.079885602 37:-0.0356455 38:0.114613 39:0.035294302 40:-0.111938 41:0.13050599 42:-0.00151972 43:0.088297203 44:-0.174592 45:-0.0041260398 46:-0.0127159 47:0.067468002 48:-0.120336 49:-0.054926299 50:0.158512 #
-0.51450604548972855845079266146058 1:0.05621 2:0.230396 3:0.116605 4:-0.321343 5:0.227364 6:0.255766 7:0.21616399 8:-0.084165499 9:0.26501 10:0.219512 11:-0.168332 12:-0.0309863 13:-0.043419302 14:-0.345065 15:-0.150325 16:0.17568099 17:-0.083360396 18:-0.181704 19:-0.0254265 20:-0.202471 21:-0.16347601 22:0.158787 23:0.092433803 24:0.053530902 25:0.0971466 26:-0.120689 27:-0.22151899 28:0.22409099 29:-0.17734 30:-0.030634001 31:-0.156955 32:0.302405 33:-0.13558801 34:0.070318997 35:0.059382599 36:-0.180415 37:-0.16731299 38:0.070880003 39:0.132011 40:-0.14405701 41:0.28366801 42:-0.101438 43:0.000206458 44:0.058719002 45:-0.290595 46:-0.229904 47:0.17403699 48:0.0460581 49:0.60984701 50:0.28081599 #
0.51450604548972855845079266146058 1:0.21351799 2:0.45494401 3:0.131506 4:-0.119955 5:0.34195101 6:-0.12609001 7:0.0217782 8:-0.210292 9:0.274196 10:-0.111089 11:-0.11528 12:-0.049616899 13:0.16461 14:-0.0099664303 15:0.18444 16:0.23420499 17:-0.16665401 18:0.27543101 19:-0.14421999 20:-0.37929401 21:-0.067085102 22:0.26019901 23:0.13569 24:0.056581199 25:0.070602901 26:0.067816399 27:-0.227258 28:-0.148412 29:-0.050884198 30:-0.0108161 31:-0.25233999 32:0.31332201 33:-0.041055702 34:-0.095210098 35:0.049054399 36:-0.037429702 37:0.111865 38:0.060260698 39:0.116187 40:-0.023411701 41:0.140359 42:-0.23802599 43:-0.099903002 44:0.0181478 45:0.0708033 46:-0.32443199 47:0.0213822 48:-0.13327 49:0.16234601 50:0.134895 #
0.51450604548972855845079266146058 1:0.119667 2:0.48595101 3:0.250195 4:-0.026476 5:0.129329 6:-0.049250498 7:0.23857901 8:-0.112624 9:0.14436901 10:-0.0304059 11:-0.24725001 12:-0.14137 13:-0.105572 14:-0.115075 15:0.28044799 16:0.0109121 17:-0.237115 18:0.0141059 19:-0.122912 20:-0.196926 21:-0.20914 22:0.29144201 23:0.25869301 24:0.17633 25:-0.085554302 26:0.078375697 27:-0.100839 28:-0.114572 29:-0.120015 30:0.0088902703 31:-0.037747499 32:0.26103899 33:0.18264601 34:0.024397399 35:0.20377 36:-0.098510496 37:0.0493837 38:0.187795 39:0.353625 40:-0.171811 41:0.018700499 42:-0.187186 43:0.142499 44:-0.0049466402 45:-0.063731097 46:-0.019994101 47:0.0239041 48:-0.092386901 49:0.179976 50:0.121442 #
0.51450604548972855845079266146058 1:0.25159299 2:0.48357901 3:0.098809697 4:-0.0058032302 5:0.37718001 6:0.070932098 7:0.145877 8:-0.29221699 9:0.232079 10:-0.30381 11:-0.283739 12:-0.097963803 13:-0.211641 14:-0.106429 15:-0.062819302 16:0.0380507 17:-0.202701 18:0.13915101 19:-0.0095265703 20:-0.281766 21:-0.094659001 22:0.34115601 23:0.100391 24:-0.00500768 25:-0.107959 26:-0.017590201 27:-0.14542501 28:-0.019828301 29:-0.16637699 30:-0.11017 31:0.097079702 32:0.24763501 33:0.42070499 34:0.026132699 35:0.043270599 36:-0.024565101 37:0.150823 38:0.155412 39:0.21754199 40:-0.039012302 41:-0.061571501 42:-0.058081198 43:0.098183103 44:-0.125668 45:0.161654 46:-0.169597 47:0.137775 48:-0.13857099 49:0.300946 50:-0.082142398 #
0.51450604548972855845079266146058 1:0.224641 2:0.28711799 3:0.097909398 4:-0.17689399 5:0.042181201 6:0.047854599 7:0.15142 8:-0.42344999 9:0.202611 10:-0.290369 11:-0.204523 12:-0.037563801 13:-0.15366299 14:-0.140613 15:-0.036650602 16:0.103824 17:0.0483336 18:0.18269099 19:-0.0415904 20:-0.190981 21:-0.090507999 22:0.103949 23:0.21085601 24:-0.047146901 25:0.102573 26:0.025348 27:-0.208221 28:0.080749698 29:-0.0091158198 30:0.18187299 31:-0.150105 32:0.038613401 33:-0.025200401 34:-0.059901901 35:-0.0020045401 36:0.077507302 37:0.095458299 38:-0.139488 39:0.25903901 40:0.0088665597 41:0.0219071 42:-0.056627899 43:0.0140994 44:0.13012899 45:-0.118563 46:-0.116637 47:0.170491 48:-0.021077201 49:0.27590701 50:0.061225101 #
0.51450604548972855845079266146058 1:0.29747999 2:0.31905001 3:0.0061419099 4:-0.117726 5:0.30991399 6:0.087683402 7:0.30451199 8:-0.0204609 9:-0.084117897 10:-0.0041308198 11:0.020569 12:-0.123278 13:-0.307078 14:-0.142415 15:0.12681501 16:0.18417899 17:-0.26639301 18:0.166512 19:-0.26367399 20:-0.30846599 21:-0.221973 22:0.188665 23:0.059309199 24:0.351394 25:-0.042210702 26:0.088894799 27:-0.15941299 28:-0.0612856 29:-0.336144 30:0.030324901 31:-0.138552 32:0.26763701 33:-0.071749903 34:-0.063524202 35:0.238875 36:-0.133518 37:-0.086148299 38:0.105144 39:0.38001999 40:-0.072921701 41:0.22671799 42:0.025417101 43:-0.31674901 44:-0.11611 45:-0.31046599 46:-0.35751599 47:0.108873 48:-0.0263298 49:0.34824201 50:0.091721497 #
-0.51450604548972855845079266146058 1:0.083490498 2:0.54083699 3:-0.075136803 4:0.0247079 5:0.42495501 6:-0.0520196 7:0.249181 8:-0.33494601 9:-0.120305 10:0.057628401 11:-0.0014430101 12:0.185964 13:-0.0613584 14:-0.095906898 15:0.15741199 16:0.0109592 17:-0.24109399 18:0.35071599 19:-0.23091599 20:-0.27482 21:-0.32214001 22:0.326327 23:0.274932 24:0.095976204 25:-0.16111501 26:-0.0579996 27:0.0212794 28:-0.20234101 29:-0.38618299 30:0.102214 31:-0.030343801 32:0.57638502 33:-0.213737 34:-0.085316397 35:-0.122029 36:0.1278 37:0.128957 38:-0.20906299 39:0.55695599 40:-0.27461201 41:0.16203099 42:-0.0035959701 43:-0.053242799 44:-0.075761698 45:-0.086606897 46:-0.27514499 47:0.36803901 48:-0.095855303 49:0.33855 50:0.059783299 #
-0.51450604548972855845079266146058 1:0.0796538 2:0.20332099 3:-0.00075956399 4:0.14970399 5:0.00290162 6:-0.087889202 7:0.089812502 8:-0.373175 9:0.26209599 10:-0.037570398 11:-0.27057499 12:0.011245 13:-0.0187246 14:0.207461 15:0.300347 16:0.0125026 17:-0.23527899 18:-0.0098091103 19:-0.108241 20:-0.19935 21:-0.0061717299 22:0.217888 23:0.0019743301 24:-0.074888401 25:-0.121899 26:0.0583838 27:-0.174477 28:-0.28079501 29:-0.0553509 30:-0.042163301 31:-0.27683899 32:0.39795101 33:0.117277 34:-0.14857399 35:0.091132 36:0.053924099 37:0.21482 38:0.049817398 39:0.41683799 40:-0.277594 41:0.085564099 42:-0.202691 43:0.22804099 44:0.092832297 45:-0.15437201 46:-0.0111485 47:-0.127987 48:-0.062179301 49:0.464389 50:0.36832699 #
-0.51450604548972855845079266146058 1:0.219703 2:0.51157397 3:0.0113522 4:-0.191056 5:0.0177419 6:-0.0272568 7:-0.035997901 8:-0.13234501 9:0.083789602 10:-0.30515099 11:-0.077736802 12:-0.12805299 13:-0.198737 14:-0.166232 15:0.47499299 16:-0.021477301 17:-0.20562901 18:0.163183 19:0.050811499 20:0.00525008 21:-0.103367 22:0.113403 23:0.13703001 24:0.118731 25:-0.0142761 26:0.0904973 27:-0.073526002 28:0.0151624 29:-0.152346 30:0.041233599 31:-0.14080501 32:0.333543 33:-0.101406 34:0.033924699 35:-0.26809001 36:-0.210878 37:-0.034093399 38:0.16465101 39:0.236306 40:-0.132016 41:0.207756 42:-0.26374701 43:0.16021501 44:-0.025461599 45:-0.082615003 46:-0.31166899 47:0.063535199 48:-0.028153701 49:0.37659499 50:0.153317 #
-0.51450604548972855845079266146058 1:0.24593399 2:0.301424 3:-0.032657601 4:-0.21122199 5:0.50528401 6:-0.099954799 7:0.16881201 8:0.0097766202 9:0.0580872 10:-0.0707087 11:0.016015001 12:-0.037250001 13:0.0060817101 14:-0.057091799 15:-0.081208996 16:-0.097971603 17:-0.034921501 18:0.15074 19:-0.120437 20:-0.227374 21:-0.209204 22:0.440431 23:0.0858877 24:0.13959999 25:0.054615501 26:0.018406 27:-0.258237 28:-0.111482 29:0.0218582 30:-0.050897099 31:-0.174096 32:0.336694 33:0.068212703 34:-0.050629102 35:0.108446 36:-0.161171 37:0.053445801 38:0.202824 39:0.20081601 40:-0.0230233 41:0.168387 42:-0.108567 43:0.0279043 44:-0.23613501 45:-0.00574185 46:-0.186066 47:0.00113817 48:0.057326399 49:0.350492 50:0.13629501 #
-0.51450604548972855845079266146058 1:0.16248199 2:0.40695399 3:0.26538101 4:0.0267989 5:-0.0176709 6:0.047755599 7:0.132101 8:-0.224712 9:0.24056201 10:-0.060023401 11:-0.34440801 12:-0.12352 13:-0.097436897 14:-0.113051 15:0.200647 16:0.157931 17:-0.27817601 18:0.0282152 19:-0.22476199 20:-0.162282 21:-0.075484201 22:0.272358 23:-0.124119 24:0.057583701 25:-0.00322176 26:0.0083611896 27:-0.14274099 28:-0.051483501 29:-0.319473 30:-0.189245 31:-0.234271 32:0.42541701 33:-0.00105963 34:-0.045835901 35:0.136797 36:-0.019839 37:0.14767 38:0.162459 39:0.67537898 40:-0.254491 41:0.174072 42:-0.28948501 43:0.098278902 44:0.133238 45:-0.142974 46:-0.097837098 47:0.0105588 48:-0.067911804 49:0.58332902 50:0.207689 #
0.51450604548972855845079266146058 1:0.18748 2:0.14107201 3:-0.082350403 4:-0.039703298 5:-0.106825 6:0.23346899 7:0.25743499 8:-0.3213 9:0.046576299 10:-0.0562254 11:-0.436277 12:-0.170238 13:-0.384864 14:-0.222119 15:0.0041867602 16:0.102992 17:-0.12945899 18:-0.160069 19:0.106652 20:-0.066052303 21:-0.0199081 22:0.064981602 23:0.0045710499 24:0.139915 25:-0.0059673502 26:0.0054186601 27:-0.48315701 28:0.117747 29:-0.28346601 30:-0.0012397401 31:-0.187051 32:0.31770599 33:0.0474253 34:0.133885 35:0.0204578 36:0.051548399 37:-0.138955 38:0.30349401 39:0.42522201 40:-0.0055249301 41:0.26860601 42:-0.138381 43:-0.074243002 44:0.104037 45:-0.36737001 46:-0.124737 47:0.072392702 48:-0.095494501 49:0.46957001 50:0.17361601 #
0.51450604548972855845079266146058 1:-0.0573873 2:-0.0210326 3:-0.088714302 4:-0.037636802 5:-0.108891 6:0.105386 7:0.271063 8:-0.045276601 9:0.173659 10:-0.031990401 11:-0.086966299 12:-0.024676301 13:-0.0170522 14:0.159814 15:0.051193099 16:0.15513501 17:-0.27562201 18:-0.265167 19:-0.061973099 20:-0.070859201 21:-0.170035 22:0.28525701 23:-0.191598 24:0.33384201 25:-0.0069617601 26:-0.059430301 27:-0.169193 28:0.038198799 29:-0.29400399 30:-0.15514401 31:-0.114471 32:0.38301799 33:-0.0050254199 34:-0.0160408 35:-0.0093436502 36:0.14314599 37:0.067756698 38:0.187722 39:0.189942 40:-0.122062 41:0.394012 42:-0.200996 43:0.195977 44:0.087584503 45:-0.076279603 46:0.134716 47:0.00342537 48:0.052712899 49:0.28944001 50:0.044125501 #
0.51450604548972855845079266146058 1:0.23500399 2:0.17963199 3:0.154478 4:-0.14164899 5:0.15106501 6:0.088865899 7:0.0214804 8:-0.188371 9:0.080823399 10:0.060173798 11:-0.088479601 12:0.0998547 13:-0.37701699 14:-0.306301 15:-0.27457601 16:0.14108101 17:-0.103864 18:0.0191261 19:0.075390801 20:-0.17641699 21:-0.19544899 22:0.23024601 23:0.204143 24:0.30145499 25:0.0276853 26:0.057153299 27:-0.17985199 28:0.074853703 29:-0.119967 30:0.01847 31:-0.251578 32:0.36655 33:-0.120844 34:0.12674899 35:0.231711 36:0.0375145 37:-0.113608 38:0.053716902 39:0.25946301 40:-0.0046989201 41:0.166697 42:-0.074496597 43:-0.00063041598 44:0.043471701 45:-0.135021 46:-0.14000501 47:0.209975 48:0.16338 49:0.265782 50:0.152198 #
0.51450604548972855845079266146058 1:-0.163158 2:0.498548 3:0.20545299 4:-0.284435 5:0.156719 6:0.28216901 7:0.18695199 8:-0.0260335 9:0.167026 10:0.00500269 11:0.025578201 12:-0.073943697 13:-0.083395101 14:-0.189007 15:-0.033950798 16:0.31900299 17:-0.25466001 18:0.14981601 19:-0.080598101 20:0.0084714796 21:-0.196917 22:0.356269 23:0.087069303 24:0.142499 25:0.0305351 26:-0.112213 27:-0.162297 28:-0.044833299 29:-0.201215 30:0.042182099 31:0.22927099 32:0.272809 33:-0.0649487 34:0.054965001 35:0.106522 36:-0.105823 37:-0.18288399 38:0.230987 39:0.047656 40:-0.097925499 41:0.118742 42:-0.206273 43:-0.053558901 44:0.180678 45:-0.46993801 46:-0.15561 47:0.12872501 48:0.27381 49:0.22829799 50:0.0053980201 #
0.51450604548972855845079266146058 1:0.123391 2:0.287494 3:0.0261377 4:-0.0406988 5:-0.0146362 6:0.287516 7:-0.22049101 8:-0.00745267 9:-0.033298001 10:0.071547396 11:0.064636096 12:0.203155 13:-0.22134501 14:-0.020422701 15:0.051683702 16:0.0112626 17:-0.122591 18:-0.126027 19:-0.060742799 20:-0.198047 21:-0.344338 22:-0.109259 23:0.23478 24:0.167431 25:0.0145142 26:0.1367 27:-0.016489999 28:-0.0157598 29:-0.243635 30:-0.15699901 31:-0.30853701 32:0.464553 33:0.133926 34:0.090825297 35:0.24130601 36:-0.0729248 37:-0.044512801 38:0.108717 39:0.272057 40:0.15191001 41:0.044413898 42:-0.131017 43:0.054809701 44:-0.076825999 45:-0.191938 46:-0.14797799 47:0.22712401 48:-0.161685 49:0.40103599 50:0.0323653 #
-0.51450604548972855845079266146058 1:0.057090901 2:-0.0054260199 3:0.14332999 4:-0.00739623 5:0.100793 6:0.13177299 7:0.19484299 8:-0.108827 9:0.083414003 10:0.094787098 11:-0.217829 12:-0.073937103 13:-0.133111 14:-0.154773 15:-0.0233612 16:0.085251696 17:0.025706699 18:-0.119233 19:0.015985999 20:-0.214342 21:-0.091679499 22:0.27447999 23:-0.15209401 24:0.23379301 25:-0.15468401 26:0.138661 27:-0.195611 28:0.049174901 29:-0.078533702 30:-0.063113101 31:-0.069347501 32:0.188733 33:-0.0180448 34:-0.0295336 35:0.18863399 36:-0.0247213 37:0.063676201 38:0.182437 39:0.17310999 40:-0.071161799 41:0.143938 42:-0.063821599 43:0.119346 44:-0.033059198 45:-0.14648201 46:-0.094504297 47:-0.005591 48:-0.15782399 49:0.202262 50:0.170802 #
-0.51450604548972855845079266146058 1:0.106985 2:0.315258 3:0.19485199 4:-0.20789599 5:0.102682 6:0.165507 7:0.25188801 8:-0.063177697 9:0.070186101 10:-0.190631 11:-0.17719901 12:-0.111668 13:-0.287067 14:-0.25502199 15:-0.26743901 16:-0.0099509396 17:-0.21092001 18:0.077390097 19:-0.060729299 20:-0.086950503 21:-0.288427 22:0.35644299 23:0.113123 24:0.21276601 25:-0.090507798 26:0.0360565 27:-0.28093499 28:-0.014703 29:-0.182638 30:0.13412499 31:-0.076564901 32:0.162237 33:0.165611 34:0.0028255701 35:0.225016 36:-0.168175 37:-0.186116 38:0.28365499 39:0.26717001 40:0.0253444 41:0.40210399 42:-0.019365501 43:-0.030249501 44:0.0572346 45:-0.41374499 46:-0.25985301 47:0.0385563 48:0.18566801 49:0.48318899 50:0.126527 #
-0.51450604548972855845079266146058 1:0.282042 2:0.13996699 3:0.124648 4:-0.138174 5:0.36239201 6:-0.095024399 7:0.241162 8:0.0401446 9:0.184003 10:0.198226 11:-0.052491099 12:-0.106068 13:-0.14107101 14:-0.037227198 15:-0.088636197 16:0.0249296 17:-0.178294 18:0.0035278001 19:-0.015947299 20:-0.138522 21:-0.0565149 22:0.369201 23:0.0176857 24:-0.0222863 25:-0.053518102 26:-0.057432801 27:-0.16379701 28:0.00118025 29:-0.19990601 30:-0.153743 31:0.073515303 32:0.298069 33:-0.0051954002 34:0.075847402 35:0.075697497 36:-0.259096 37:-0.133699 38:0.13960101 39:0.123459 40:0.0162967 41:0.145055 42:-0.070010103 43:-0.049096301 44:-0.164519 45:0.083880797 46:-0.122119 47:-0.016345801 48:-0.054267 49:0.239409 50:0.148894 #
-0.51450604548972855845079266146058 1:0.16502699 2:0.053876501 3:-0.091400199 4:-0.00607689 5:0.148809 6:0.0489932 7:0.111692 8:-0.0147321 9:-0.112762 10:0.151913 11:-0.092237599 12:-0.064734399 13:-0.082627401 14:-0.10136 15:-0.121302 16:-0.039953001 17:-9.8635399e-05 18:0.063308202 19:0.028734 20:0.0740778 21:-0.044391301 22:0.21093599 23:0.017672 24:-0.0620008 25:-0.071125597 26:-0.047841601 27:-0.127368 28:-0.0349029 29:-0.065719098 30:-0.0253279 31:0.0274032 32:0.108668 33:-0.14188699 34:0.0270913 35:0.0198729 36:-0.15006401 37:-0.200757 38:0.0122056 39:0.097762696 40:-0.103505 41:0.16331901 42:0.105798 43:-0.024417199 44:-0.190761 45:-0.0293043 46:-0.053283099 47:0.090163201 48:-0.0112041 49:0.16886701 50:0.107392 #
0.51450604548972855845079266146058 1:0.30990699 2:0.19293299 3:0.15098301 4:-0.174079 5:0.330275 6:-0.0057511101 7:0.25117999 8:-0.086089499 9:-0.074384503 10:-0.141352 11:-0.244008 12:-0.068354703 13:-0.22543301 14:-0.106311 15:0.18369 16:0.0034713901 17:0.194242 18:0.049840901 19:-0.066973403 20:-0.22965699 21:-0.041302498 22:0.207923 23:0.22099 24:0.094386101 25:-0.0404476 26:-0.090425201 27:-0.28920999 28:-0.14857 29:-0.0067630298 30:0.048767801 31:-0.017051701 32:0.35208699 33:0.105215 34:0.0559307 35:0.178992 36:-0.049267001 37:0.20047501 38:0.0154882 39:0.51206398 40:-0.30522299 41:0.076474801 42:0.171884 43:0.14443199 44:-0.0586362 45:-0.14212801 46:0.18018501 47:0.195594 48:0.00878477 49:0.519503 50:0.135491 #
0.51450604548972855845079266146058 1:0.099633701 2:0.504462 3:-0.077463299 4:-0.0690322 5:0.37111899 6:0.11664 7:0.38637599 8:-0.00265984 9:-0.103389 10:0.163939 11:-0.14309201 12:-0.069750004 13:0.162368 14:-0.027623599 15:0.0140665 16:-0.0174846 17:0.017829699 18:0.054741699 19:-0.052228998 20:-0.26789999 21:-0.064779103 22:0.16807 23:0.185785 24:0.00125675 25:0.20438799 26:-0.336151 27:-0.151767 28:-0.074362397 29:-0.34448901 30:-0.119547 31:0.0053171399 32:0.642048 33:-0.048263099 34:0.083409399 35:-0.10209 36:-0.0240459 37:-0.071223304 38:0.13479 39:0.42688099 40:-0.16996799 41:0.0423382 42:-0.19708 43:0.30992001 44:0.041306801 45:-0.068829902 46:0.056437999 47:0.238095 48:0.080973603 49:0.46882299 50:0.12621699 #
0.51450604548972855845079266146058 1:0.16832601 2:0.337753 3:-0.079810202 4:-0.092148498 5:0.150813 6:0.021123501 7:0.069984302 8:-0.26221901 9:0.108757 10:-0.13625599 11:-0.113171 12:-0.089376003 13:-0.17648301 14:-0.0119693 15:0.23562101 16:0.095822901 17:-0.21280301 18:0.231622 19:-0.085118003 20:-0.092961498 21:-0.38380399 22:0.132973 23:0.153732 24:-0.0077785798 25:0.0040713502 26:0.12522499 27:-0.0344733 28:-0.109722 29:-0.17713 30:0.222121 31:-0.230878 32:0.20292599 33:0.083292402 34:0.088422298 35:0.0279647 36:0.114012 37:-0.012073 38:0.20248 39:0.390394 40:-0.0472694 41:-0.042314101 42:0.0619848 43:0.25289601 44:-0.0368568 45:-0.146309 46:-0.154073 47:0.026009699 48:-0.0094101997 49:0.35317701 50:0.050673999 #
0.51450604548972855845079266146058 1:0.0558662 2:0.201663 3:0.169741 4:0.0131523 5:0.112503 6:0.16297901 7:0.38056299 8:-0.48965999 9:0.17723601 10:-0.0623325 11:-0.251239 12:-0.14544199 13:-0.21746901 14:-0.171891 15:0.153433 16:0.187958 17:-0.096000701 18:0.20935901 19:0.32949799 20:-0.17980801 21:-0.086878598 22:0.272625 23:0.136549 24:0.052992899 25:-0.120288 26:0.21134099 27:-0.28103399 28:0.0823633 29:-0.19871899 30:0.17450701 31:0.0121778 32:0.30723101 33:0.060249899 34:-0.042151801 35:0.0179123 36:0.179646 37:-0.085205503 38:-0.093610398 39:0.40510601 40:-0.332629 41:0.088029899 42:0.00454392 43:0.145845 44:0.090245202 45:-0.041813899 46:-0.099518999 47:-0.0185492 48:-0.063086897 49:0.32533601 50:0.067509398 #
0.51450604548972855845079266146058 1:0.072731502 2:0.532529 3:0.123099 4:-0.063521899 5:0.16555201 6:0.21381199 7:0.058857299 8:-0.051870599 9:0.144071 10:-0.38187999 11:-0.083246201 12:-0.195053 13:0.0064621498 14:-0.172178 15:0.29671901 16:-0.0144474 17:-0.21425 18:0.159015 19:-0.166677 20:-0.039692301 21:-0.165001 22:0.14878 23:-0.073465697 24:0.0279781 25:0.0141126 26:-0.086810499 27:0.000107354 28:-0.086268596 29:-0.12854899 30:0.20398 31:-0.13408101 32:0.276306 33:0.070881799 34:-0.057185601 35:0.052273698 36:0.0084402496 37:0.140598 38:0.27450901 39:0.177348 40:-0.133185 41:0.34894499 42:0.067067102 43:-0.118096 44:0.24731401 45:-0.045692801 46:0.114974 47:0.025756899 48:0.0683937 49:0.157774 50:0.052687801 #
-0.51450604548972855845079266146058 1:-0.125771 2:0.42549399 3:-0.104299 4:-0.14714999 5:0.055843499 6:0.151447 7:-0.0510232 8:-0.348656 9:0.00188094 10:-0.21100999 11:-0.25509501 12:0.077769198 13:-0.29625899 14:-0.066592202 15:0.258766 16:-0.0436619 17:-0.28004101 18:-0.058651201 19:0.153964 20:-0.197943 21:0.082009301 22:0.26298699 23:0.208141 24:0.15544701 25:-0.068286397 26:0.104994 27:-0.32120299 28:-0.0199605 29:-0.37991601 30:0.248184 31:0.176819 32:0.39647201 33:0.185427 34:-0.0601895 35:-0.061025798 36:0.16039699 37:0.097247399 38:0.165232 39:0.47446701 40:-0.226362 41:0.21761499 42:-0.174309 43:0.0083232401 44:0.057466201 45:-0.304313 46:-0.0034449999 47:0.281077 48:0.0210998 49:0.42252401 50:0.075800501 #
-0.51450604548972855845079266146058 1:0.069890499 2:0.282002 3:0.00330396 4:-0.152504 5:0.35996699 6:0.108279 7:0.232344 8:-0.22273 9:0.074929498 10:-0.14822499 11:-0.132745 12:-0.14144599 13:-0.29974499 14:-0.41326201 15:-0.089562804 16:-0.066911802 17:-0.12887099 18:0.133246 19:-0.052485999 20:-0.25955299 21:0.083716698 22:0.116496 23:0.210042 24:-0.090676598 25:-0.069927499 26:-0.098928303 27:-0.123494 28:0.115668 29:-0.056691799 30:0.242494 31:0.065889403 32:0.204151 33:0.0075852699 34:-0.25288001 35:0.069912702 36:0.239856 37:-0.0296345 38:-0.074961901 39:0.53929102 40:0.0077031702 41:0.070031203 42:0.0182324 43:-0.183732 44:-0.104147 45:-0.082422704 46:0.114878 47:0.124713 48:0.13734899 49:0.27462199 50:-0.069097601 #
-0.51450604548972855845079266146058 1:0.27827099 2:0.451837 3:0.0542401 4:0.0025420301 5:-0.217748 6:-0.059383798 7:0.040143199 8:0.0221129 9:0.024847699 10:-0.21867099 11:-0.165704 12:0.0021654901 13:-0.18238699 14:0.0243202 15:0.25788 16:0.27082399 17:-0.105886 18:-0.188757 19:-0.23021001 20:-0.25989601 21:-0.040753201 22:0.248253 23:0.096522696 24:0.356159 25:-0.141536 26:0.116341 27:-0.361945 28:0.17896301 29:-0.46945101 30:-0.14865699 31:-0.084597804 32:0.14706001 33:0.18342 34:-0.024680199 35:-0.047791898 36:0.23721801 37:0.180576 38:0.23587701 39:0.38869801 40:-0.115392 41:0.30388799 42:-0.064548098 43:0.074322298 44:0.054658201 45:-0.096685901 46:-0.148001 47:0.23616301 48:0.072774902 49:0.445851 50:-0.250496 #
-0.51450604548972855845079266146058 1:0.146106 2:0.106457 3:0.199259 4:0.054068699 5:0.17720699 6:0.072846599 7:0.198727 8:-0.22082099 9:0.128107 10:-0.0877795 11:-0.36356199 12:0.0559595 13:-0.20784201 14:-0.092899002 15:0.099905998 16:0.32159099 17:0.12876 18:0.219824 19:-0.036770601 20:-0.31709099 21:-0.21856999 22:0.32224101 23:0.107903 24:-0.0701195 25:0.097812101 26:-0.064305097 27:-0.094521999 28:0.0073829698 29:-0.067392603 30:-0.077685498 31:-0.331036 32:0.293493 33:0.22020499 34:0.119496 35:0.33678499 36:0.062337998 37:0.082557701 38:0.20274401 39:0.54605001 40:-0.193736 41:-0.0123318 42:0.0144048 43:0.0310643 44:-0.057082999 45:-0.34334499 46:0.0062552099 47:0.106749 48:-0.067372397 49:0.43658 50:-0.0291164 #
0.51450604548972855845079266146058 1:0.170304 2:0.43615699 3:0.025518499 4:-0.0744517 5:0.28422701 6:0.12624 7:0.105374 8:-0.25015101 9:-0.066531204 10:-0.13071901 11:-0.202916 12:-0.133513 13:-0.32552499 14:-0.208419 15:0.0114724 16:-0.23789699 17:-0.149077 18:0.207891 19:0.0108138 20:-0.31435099 21:-0.0247827 22:0.223162 23:-0.105269 24:0.079138502 25:-0.148064 26:-0.0468941 27:-0.170835 28:0.13923299 29:-0.223268 30:0.191707 31:-0.076082297 32:0.1682 33:0.032251999 34:-0.14562599 35:0.00759173 36:0.0153458 37:-0.034842499 38:0.196795 39:0.32475799 40:0.00040673101 41:0.25571299 42:0.128879 43:-0.164655 44:0.18475799 45:-0.156569 46:-0.41136101 47:0.231455 48:0.0244973 49:0.53959101 50:0.219203 #
0.51450604548972855845079266146058 1:-0.0074235499 2:0.46494401 3:0.186037 4:-0.113951 5:0.43770701 6:0.051246099 7:0.15368401 8:-0.000194484 9:0.251849 10:0.109828 11:0.040511299 12:-0.276575 13:-0.20867699 14:-0.19038799 15:0.13155299 16:-0.081399798 17:-0.018801101 18:0.162765 19:-0.218089 20:-0.314459 21:-0.282058 22:0.22209001 23:0.122868 24:-0.084421203 25:-0.38879901 26:0.31402299 27:-0.121355 28:-0.188024 29:-0.29008299 30:0.168092 31:0.16333599 32:0.299391 33:-0.0328237 34:-0.0070002298 35:-0.072547697 36:-0.0422353 37:0.056217901 38:0.148601 39:0.207129 40:-0.081473403 41:0.26639801 42:-0.044597302 43:-0.0838705 44:-0.067607097 45:-0.133983 46:-0.22182199 47:-0.11481 48:0.14979701 49:0.386987 50:-0.0025605599 #
0.51450604548972855845079266146058 1:0.36320499 2:0.39239401 3:0.0462704 4:-0.0831258 5:-0.068664297 6:0.164579 7:0.038646601 8:-0.285335 9:0.080345497 10:-0.0249843 11:-0.25094199 12:0.017028499 13:0.0284766 14:-0.124266 15:0.10423 16:-0.104655 17:-0.171204 18:0.064642303 19:-0.0651218 20:-0.20202699 21:0.050227199 22:0.046358898 23:0.25989601 24:-0.107656 25:0.047212999 26:0.061544102 27:-0.22691201 28:0.0096413502 29:-0.127253 30:0.14323001 31:-0.040192202 32:0.33555701 33:-0.0100088 34:0.044438101 35:0.217893 36:-0.198503 37:-0.13818599 38:0.043184198 39:0.327494 40:-0.26870099 41:0.30798301 42:-0.142821 43:0.121439 44:0.107632 45:-0.0602662 46:-0.34336701 47:0.29725301 48:-0.0425984 49:0.61072397 50:0.084364802 #
0.51450604548972855845079266146058 1:0.207753 2:0.46581 3:-0.23734701 4:0.0250561 5:0.245106 6:-0.011358 7:0.042947602 8:-0.23634601 9:0.053766102 10:-0.139241 11:-0.219265 12:0.0085485801 13:-0.30165699 14:-0.070317701 15:0.26835099 16:-0.150235 17:-0.24279501 18:0.092898399 19:-0.095186397 20:-0.067291804 21:-0.28509 22:0.33148399 23:0.151357 24:0.177398 25:-0.180628 26:-0.0092385598 27:-0.027011501 28:-0.078106701 29:-0.047594201 30:0.221527 31:-0.225179 32:0.39309099 33:0.036715999 34:-0.036553599 35:0.083280303 36:-0.15895 37:0.0138931 38:0.224145 39:0.25883499 40:0.0130026 41:0.091320299 42:0.034855202 43:0.041691799 44:-0.19504701 45:0.052012399 46:-0.037247099 47:0.145276 48:0.0346426 49:0.34923601 50:0.15543801 #
0.51450604548972855845079266146058 1:0.31445101 2:0.41444901 3:0.0285958 4:-0.25645199 5:0.30199301 6:-0.0444264 7:-0.215543 8:-0.210155 9:0.0665178 10:-0.182477 11:-0.180084 12:-0.18783399 13:-0.32535899 14:0.109414 15:0.0283057 16:-0.081450999 17:-0.33572 18:0.0144176 19:-0.0698146 20:-0.093510501 21:-0.128692 22:0.197837 23:0.123434 24:0.19737101 25:0.121409 26:0.0079856599 27:-0.157033 28:-0.116718 29:-0.017365901 30:0.141433 31:-0.180392 32:0.42249399 33:-0.099922702 34:0.102275 35:0.080050498 36:-0.0452177 37:-0.207608 38:0.36766201 39:0.34762001 40:0.219115 41:0.14764 42:0.034015901 43:-0.138956 44:0.0082125496 45:0.066855699 46:0.165488 47:0.27122101 48:0.11362 49:0.40332499 50:0.323149 #
0.51450604548972855845079266146058 1:0.170205 2:0.38471001 3:-0.098577298 4:-0.119945 5:0.28154701 6:0.16958199 7:0.245014 8:-0.167138 9:-0.0045320801 10:0.0212944 11:-0.215518 12:-0.14269599 13:-0.36207801 14:-0.060682099 15:0.030292301 16:-0.048656501 17:-0.126498 18:-0.062269598 19:0.058250099 20:-0.16668899 21:-0.142364 22:0.190696 23:0.046685599 24:0.086145401 25:0.075429201 26:-0.12659299 27:-0.047459699 28:-0.17308301 29:-0.241445 30:0.105275 31:0.0214935 32:0.31375101 33:0.0144869 34:0.179244 35:-0.030166499 36:-0.207211 37:-0.130023 38:0.085790202 39:0.229398 40:-0.170876 41:-0.023978701 42:0.141376 43:0.0433346 44:-0.107983 45:-0.13459399 46:-0.14361 47:0.36217201 48:-0.28654999 49:0.31997699 50:0.21877 #
-0.51450604548972855845079266146058 1:0.32189301 2:0.66361099 3:0.0136994 4:0.0221963 5:0.253957 6:0.0048710299 7:0.098572001 8:-0.435303 9:-0.091331802 10:-0.01943 11:-0.163725 12:-0.16383 13:-0.349235 14:-0.085672297 15:0.083632998 16:0.062939599 17:0.0218572 18:0.296242 19:0.00282967 20:-0.119309 21:-0.14922599 22:0.440909 23:0.26174 24:-0.062626198 25:-0.032421701 26:0.101926 27:-0.19756401 28:-0.30611899 29:-0.43853801 30:0.18927801 31:-0.161957 32:0.180766 33:0.0166208 34:0.181162 35:0.078539103 36:-0.0171763 37:-0.12593 38:0.33467501 39:0.271348 40:-0.104808 41:0.0022378799 42:-0.0862059 43:-0.192624 44:-0.11302 45:-0.14793199 46:-0.0513626 47:0.095588498 48:-0.14345001 49:0.23200101 50:0.32420301 #
-0.51450604548972855845079266146058 1:0.34135801 2:0.44414899 3:-0.132906 4:-0.0142881 5:0.27702501 6:-0.0184492 7:0.122834 8:-0.222994 9:-0.204651 10:-0.077636398 11:-0.051996101 12:-0.027166501 13:-0.19373401 14:0.129565 15:0.069781803 16:-0.083433896 17:-0.13235299 18:0.222441 19:-0.0041575702 20:0.032311801 21:-0.10926 22:0.33750901 23:0.28086501 24:0.129115 25:-0.031910501 26:0.117035 27:-0.25695699 28:-0.162487 29:-0.22108801 30:0.176272 31:-0.25301 32:0.39206401 33:0.025660399 34:0.0418256 35:-0.065908901 36:-0.104576 37:-0.149957 38:0.070864499 39:0.094886497 40:0.022759801 41:-0.0668974 42:-0.00307109 43:0.00530132 44:-0.28306499 45:0.029318299 46:-0.14622 47:0.15952399 48:-0.115057 49:0.11646 50:0.0123692 #
-0.51450604548972855845079266146058 1:0.155867 2:0.57673502 3:0.0242819 4:-0.18603399 5:0.078758404 6:-0.00631611 7:0.19042 8:-0.114199 9:-0.034140501 10:-0.114881 11:-0.38745201 12:-0.050370499 13:-0.163348 14:-0.108799 15:0.072638303 16:0.19211499 17:-0.0384509 18:0.00123377 19:-0.122178 20:-0.115851 21:-0.33129799 22:0.169625 23:0.154954 24:-0.085217699 25:0.180318 26:-0.249727 27:-0.17049401 28:0.080651797 29:-0.113903 30:-0.0193532 31:-0.27223399 32:0.49724799 33:0.0473896 34:-0.019224601 35:-0.27022001 36:0.0301631 37:-0.118093 38:0.37295499 39:0.39995599 40:0.24686 41:0.31476799 42:-0.135024 43:0.159262 44:0.283654 45:0.0784714 46:0.109565 47:0.24874599 48:0.142175 49:0.56949598 50:0.14926501 #
-0.51450604548972855845079266146058 1:0.22269499 2:0.266601 3:0.106784 4:0.081720501 5:0.175557 6:0.217118 7:0.19867601 8:-0.30296901 9:-0.091812298 10:-0.077362299 11:-0.157957 12:0.104829 13:-0.44003001 14:-0.063026696 15:0.24168199 16:0.103619 17:0.066827498 18:0.24384201 19:0.081243098 20:-0.218381 21:-0.114758 22:0.185681 23:0.041595601 24:-0.121553 25:-0.33353901 26:-0.026061 27:-0.0711862 28:-0.15696999 29:-0.36796501 30:0.0120521 31:0.179435 32:0.14146601 33:0.0283581 34:0.26809001 35:0.0151088 36:0.234593 37:-0.23864201 38:0.065919198 39:0.43274501 40:-0.096858397 41:0.024270499 42:0.079332903 43:-0.042737801 44:-0.042893 45:-0.47081399 46:-0.266904 47:0.211404 48:0.0552711 49:0.330713 50:0.0259855 #
0.51450604548972855845079266146058 1:-0.048288502 2:0.041223101 3:0.0023161101 4:-0.0111062 5:0.25031599 6:0.095905699 7:-0.019223901 8:-0.103171 9:0.14700601 10:-0.34056601 11:-0.37261099 12:0.0032132999 13:0.080023602 14:-0.0108089 15:0.162377 16:0.121549 17:-0.33289099 18:-0.066279903 19:0.13691799 20:-0.28025401 21:0.200748 22:0.226703 23:0.226569 24:0.161889 25:-0.0253285 26:-0.084149301 27:-0.34234101 28:0.30545899 29:-0.25926 30:-0.069990501 31:-0.22622199 32:0.20096201 33:0.21867099 34:0.0499858 35:0.0747464 36:-0.069431603 37:-0.057298101 38:0.22428399 39:0.29146799 40:-0.078208402 41:0.30556399 42:-0.041441198 43:-0.056604501 44:-0.107296 45:-0.38473299 46:-0.38923001 47:0.21954399 48:-0.0068255002 49:0.44103399 50:-0.34958899 #
0.51450604548972855845079266146058 1:0.14209101 2:0.152366 3:0.084221996 4:-0.0073116701 5:0.078697897 6:-0.0034355801 7:0.378144 8:0.0120817 9:0.186731 10:0.0269804 11:-0.132145 12:-0.13536599 13:-0.087472498 14:-0.064634196 15:-0.12701701 16:0.0583141 17:-0.039367899 18:-0.087685198 19:-0.0079520904 20:-0.192303 21:0.041066501 22:0.27385801 23:0.018693799 24:0.069431901 25:0.0297422 26:-0.053747099 27:-0.216098 28:-0.115657 29:-0.21662 30:0.057042498 31:-0.060761601 32:0.271117 33:0.051547401 34:0.0114446 35:0.00156514 36:-0.058585301 37:-0.0539786 38:-0.0047527002 39:0.31303 40:-0.12560999 41:0.158262 42:-0.131421 43:0.0102794 44:0.081422403 45:-0.28936401 46:-0.038667399 47:-0.025618499 48:-0.0058632102 49:0.37274599 50:-0.0263064 #
0.44506528225306624113599696102028 1:0.13784 2:0.16265 3:0.100961 4:0.15568601 5:0.38817799 6:0.071015298 7:-0.031163299 8:-0.180685 9:0.207792 10:0.108333 11:-0.27241701 12:-0.143167 13:-0.26770899 14:0.0289951 15:0.090431601 16:-0.26049399 17:-0.051940899 18:-0.024666401 19:0.052609101 20:-0.121341 21:0.124383 22:0.33430299 23:0.0401535 24:-0.13468499 25:-0.185513 26:0.0454817 27:-0.33789501 28:-0.131541 29:-0.068504602 30:0.119845 31:-0.24465699 32:0.45622599 33:0.16432799 34:0.024296399 35:0.21596301 36:0.21687301 37:0.046596501 38:0.0897943 39:0.40991801 40:-0.134801 41:0.327645 42:0.0324088 43:0.105088 44:-0.085599303 45:-0.136142 46:0.122158 47:-0.0126646 48:-0.046918198 49:0.40202299 50:-0.18219601 #
0.51450604548972855845079266146058 1:0.161309 2:0.332847 3:-0.106594 4:-0.0099753896 5:-0.062572204 6:0.153014 7:0.250824 8:-0.424707 9:0.20939501 10:-0.25670001 11:-0.29298699 12:-0.049608901 13:-0.084129199 14:-0.27190599 15:-0.015861601 16:0.050218102 17:-0.19630501 18:0.076074898 19:-0.070293501 20:-0.0748806 21:-0.168146 22:0.0172772 23:0.24521101 24:0.096857801 25:-0.068885401 26:0.120219 27:-0.42676601 28:0.091982603 29:0.082715802 30:0.049698699 31:-0.031630799 32:0.23298 33:0.119058 34:-0.112561 35:0.067363098 36:-0.019973701 37:0.180048 38:0.16600101 39:0.41505 40:-0.00186202 41:0.098444499 42:-0.229313 43:0.138822 44:-0.0986761 45:-0.155573 46:-0.26866001 47:-0.024692601 48:-0.030929999 49:0.293167 50:0.0224842 #
-0.51450604548972855845079266146058 1:0.231048 2:0.33464301 3:0.067896403 4:-0.178959 5:-0.015742101 6:0.038045101 7:0.12667 8:-0.020727299 9:0.143297 10:-0.13796 11:-0.113485 12:-0.0186294 13:0.102413 14:-0.189026 15:-0.117489 16:0.12760399 17:-0.148541 18:0.184825 19:-0.218822 20:-0.132732 21:-0.20214701 22:0.029665999 23:0.113074 24:0.0134631 25:0.111409 26:0.0100016 27:-0.099042401 28:0.14096899 29:-0.13936301 30:-0.075747199 31:-0.17347801 32:0.153271 33:0.028027 34:-0.098975703 35:0.043749399 36:-0.093095303 37:-0.0098371701 38:-0.053777002 39:0.184696 40:0.089266799 41:0.086046301 42:-0.149252 43:0.051424399 44:-0.047325902 45:-0.033219799 46:-0.30614001 47:0.042037699 48:0.036565602 49:0.28010201 50:-0.0475276 #
-0.51450604548972855845079266146058 1:0.0370057 2:0.174192 3:0.037364502 4:-0.125971 5:0.154871 6:0.0332704 7:0.089417703 8:0.0702032 9:-0.0297524 10:-0.151384 11:-0.0192219 12:-0.026424799 13:0.082239702 14:-0.068870097 15:0.239253 16:-0.0492846 17:-0.24968199 18:0.140911 19:-0.160411 20:-0.095481403 21:-0.124384 22:0.243596 23:-0.037315398 24:0.29019701 25:0.0041465601 26:-0.020364501 27:-0.17090701 28:0.035285201 29:-0.076189198 30:-0.0315702 31:-0.0145308 32:0.23783199 33:0.070593297 34:-0.033715501 35:0.15082499 36:0.0080842301 37:-0.0069923298 38:0.30136099 39:0.094225399 40:-0.024992401 41:0.40637699 42:-0.11342 43:0.0090799602 44:0.0247552 45:-0.060642101 46:-0.123537 47:-0.028616499 48:0.0433769 49:0.045332201 50:0.039327201 #
-0.51450604548972855845079266146058 1:0.102815 2:0.192884 3:-0.0127411 4:-0.108531 5:0.47767901 6:-0.035892401 7:0.13854399 8:0.0210934 9:0.106423 10:0.073225901 11:0.0546683 12:-0.0060982802 13:0.049492098 14:0.052913599 15:-0.020568 16:-0.092490599 17:-0.0076195002 18:0.051418699 19:-0.096261501 20:-0.195513 21:-0.164657 22:0.35229999 23:0.0462511 24:0.16688301 25:-0.049213499 26:0.078623801 27:-0.187989 28:-0.150803 29:-0.035775598 30:-0.0391251 31:-0.073038302 32:0.14938501 33:0.113797 34:0.00062552898 35:0.158811 36:-0.076552697 37:0.091880903 38:0.179189 39:0.143866 40:0.0042993198 41:0.170394 42:-0.078897499 43:0.15456299 44:-0.130033 45:-0.075672098 46:-0.107051 47:-0.040714301 48:0.0157841 49:0.30686 50:-0.0026887001 #
-0.51450604548972855845079266146058 1:0.33212 2:0.253149 3:0.042894099 4:-0.166043 5:0.22958 6:0.23917501 7:0.061956 8:-0.27588001 9:0.0094271703 10:-0.417182 11:-0.176798 12:0.123223 13:-0.118119 14:-0.191872 15:0.202057 16:-0.18135799 17:-0.276355 18:0.094281301 19:0.136966 20:-0.0696593 21:-0.41498601 22:0.078828096 23:0.0097955 24:0.203878 25:0.0277905 26:-0.051767599 27:-0.23067901 28:0.27758899 29:-0.057996601 30:-0.00139287 31:0.00106129 32:0.43819201 33:-0.0233343 34:0.0138087 35:-0.018576801 36:0.151464 37:0.17669301 38:0.074873298 39:0.44143301 40:-0.093236499 41:0.374394 42:-0.065638103 43:0.056207001 44:0.052596401 45:-0.232446 46:-0.089198098 47:0.24484999 48:-0.048074301 49:0.42222399 50:-0.0280408 #
0.51450604548972855845079266146058 1:0.20734499 2:0.69218397 3:-0.057245199 4:-0.258389 5:0.041357901 6:0.059227601 7:0.167096 8:-0.0271703 9:0.046492301 10:-0.25274399 11:-0.183406 12:-0.23784 13:-0.28569901 14:-0.108688 15:0.070574202 16:0.079289697 17:-0.17671099 18:0.20609 19:-0.069937699 20:-0.0070063202 21:-0.110429 22:0.27900901 23:-0.0025369299 24:0.044355899 25:-0.051327702 26:-0.103164 27:-0.121761 28:-0.173346 29:-0.26930901 30:0.20770299 31:-0.000192348 32:0.25083899 33:-0.14348701 34:0.0252386 35:-0.099504903 36:0.17133 37:-0.0337798 38:0.140922 39:0.399643 40:0.040858999 41:0.091044597 42:-0.201995 43:-0.0432222 44:0.101968 45:-0.121414 46:-0.114429 47:0.096517898 48:0.23839 49:0.186029 50:0.126514 #
0.51450604548972855845079266146058 1:0.33259201 2:0.43182501 3:0.124293 4:-0.0278956 5:0.034589101 6:0.059660401 7:0.0139057 8:-0.091482997 9:0.151724 10:-0.0190053 11:-0.067081198 12:-0.227495 13:-0.094286501 14:0.041183401 15:0.066338003 16:0.219981 17:-0.30676299 18:-0.12579501 19:-0.13039701 20:-0.219409 21:-0.13721301 22:0.264584 23:0.102328 24:0.057534099 25:-0.135507 26:0.0541742 27:-0.18533801 28:-0.42471501 29:-0.43080801 30:-0.053016301 31:-0.096837804 32:0.381273 33:-0.091362 34:0.100658 35:0.090978302 36:-0.0368906 37:0.045853 38:0.172552 39:0.384305 40:-0.128041 41:0.138107 42:-0.095401503 43:0.094771802 44:0.048093099 45:-0.176071 46:0.055584598 47:0.036109101 48:0.0945559 49:0.375469 50:0.34057 #
-0.51450604548972855845079266146058 1:0.133022 2:0.52267998 3:0.345213 4:0.0180155 5:0.19179399 6:0.039162099 7:0.083468199 8:-0.39797199 9:0.27337301 10:-0.0728947 11:-0.416495 12:-0.154594 13:0.028077699 14:-0.49009201 15:0.161305 16:0.204668 17:-0.053748898 18:0.187676 19:-0.119078 20:-0.241951 21:-0.27935201 22:0.24280401 23:0.34864599 24:-0.186666 25:-0.150297 26:0.128325 27:-0.27273199 28:0.17871299 29:-0.29831299 30:0.142876 31:-0.24207699 32:0.460783 33:-0.22146 34:0.275695 35:0.39527899 36:0.097499199 37:0.068638101 38:0.446798 39:0.67130798 40:-0.16416 41:0.021488801 42:-0.34492499 43:0.19149099 44:-0.026642799 45:0.369241 46:0.075740002 47:0.19599999 48:0.058393601 49:0.52701998 50:0.33108199 #
-0.51450604548972855845079266146058 1:0.173158 2:0.447117 3:0.154275 4:-0.11629 5:0.038888399 6:0.100362 7:-0.126578 8:-0.26377001 9:0.063457198 10:-0.065954298 11:-0.113233 12:-0.12137 13:-0.24496301 14:0.096233197 15:0.132585 16:-0.081192203 17:-0.311542 18:0.0231151 19:-0.097271703 20:-0.071777098 21:-0.19764 22:0.321805 23:0.306234 24:-0.095950603 25:-0.14196301 26:0.18937001 27:-0.236856 28:-0.062430698 29:-0.58953702 30:0.024177101 31:-0.18439899 32:0.34592199 33:0.130266 34:0.083264902 35:0.141178 36:-0.177223 37:-0.24381299 38:0.162223 39:0.184808 40:-0.0550831 41:0.320252 42:-0.137325 43:-0.229048 44:-0.0553676 45:-0.205577 46:0.063950203 47:-0.105747 48:0.118817 49:0.221228 50:0.37911299 #
-0.51450604548972855845079266146058 1:0.078651398 2:0.33326501 3:-0.15167201 4:-0.023807 5:-0.16470601 6:0.133341 7:0.23981901 8:-0.13185 9:-0.039198101 10:-0.27339599 11:-0.319906 12:-0.100738 13:-0.073747501 14:-0.24723101 15:0.144224 16:0.467381 17:-0.085369401 18:-0.0917046 19:-0.051798999 20:-0.17165101 21:-0.202535 22:0.301893 23:-0.0018077299 24:0.18612 25:0.038569301 26:0.045303199 27:-0.222663 28:-0.00655668 29:-0.167105 30:-0.047220901 31:-0.39793399 32:0.42257199 33:-0.070539102 34:0.071373403 35:-0.0024136601 36:0.263035 37:0.0388969 38:0.41673899 39:0.481038 40:0.073865697 41:0.1373 42:-0.254866 43:0.16582499 44:-0.133305 45:-0.316241 46:0.039906301 47:0.161439 48:-0.111916 49:0.627509 50:0.116203 #
-0.51450604548972855845079266146058 1:-0.071213797 2:0.42183599 3:-0.020344499 4:-0.029052701 5:0.065574102 6:0.090929396 7:0.199393 8:-0.247319 9:0.105596 10:-0.042523202 11:-0.25133699 12:-0.0095660696 13:0.0468463 14:0.0253307 15:0.14844599 16:-0.0646905 17:-0.282882 18:-0.089055099 19:-0.114281 20:-0.127194 21:-0.480948 22:0.25277001 23:0.042585898 24:0.25213999 25:-0.27087501 26:0.121729 27:-0.175679 28:-0.16740499 29:-0.44263899 30:0.15081801 31:0.044298299 32:0.0021538399 33:0.112765 34:0.181614 35:0.200801 36:-0.19503599 37:0.13978 38:0.38507399 39:0.49105701 40:0.070626199 41:0.21618 42:-0.25311199 43:-0.050391398 44:0.036953501 45:-0.27224499 46:-0.228392 47:0.136336 48:0.0302031 49:0.26667401 50:0.140862 #
-0.51450604548972855845079266146058 1:0.239188 2:0.28554699 3:0.040064599 4:0.101591 5:0.13730299 6:0.104928 7:0.029833199 8:-0.099694602 9:0.099724598 10:0.0250079 11:-0.272443 12:0.31998101 13:-0.215042 14:-0.21299601 15:-0.168667 16:0.106581 17:-0.220118 18:0.27561799 19:0.077751599 20:-0.37228599 21:-0.00093686598 22:0.415077 23:0.191043 24:0.207543 25:0.13835 26:0.117253 27:-0.085701801 28:0.123477 29:-0.17753799 30:-0.094921201 31:-0.46584201 32:0.508753 33:0.099405199 34:0.0347999 35:0.187152 36:-0.164607 37:-0.407682 38:0.0239444 39:0.54854 40:0.048249401 41:0.084592402 42:-0.193517 43:0.15315901 44:0.15247799 45:-0.33116499 46:-0.36546499 47:0.155169 48:0.131019 49:0.72229999 50:0.055132098 #
0.51450604548972855845079266146058 1:0.169438 2:0.13398799 3:-0.021091601 4:-0.178334 5:0.205751 6:-0.0139936 7:0.137725 8:0.078412801 9:0.167731 10:0.110222 11:-0.0304874 12:0.13774 13:-0.0126877 14:-0.20790599 15:0.33819801 16:0.30270901 17:0.036831599 18:-0.065190896 19:-0.0272121 20:-0.26064599 21:-0.29946399 22:0.037317399 23:0.22496299 24:0.19459599 25:-0.0123868 26:0.15894701 27:-0.315925 28:0.062387899 29:-0.0121703 30:0.060208902 31:-0.244473 32:0.42248499 33:-0.095947303 34:0.078822501 35:0.01114 36:0.157216 37:-0.0515512 38:0.20201699 39:0.332948 40:-0.0515889 41:0.239121 42:-0.19809701 43:0.33342201 44:-0.028596301 45:-0.337235 46:-0.20203701 47:0.14408299 48:-0.0382866 49:0.47490799 50:-0.094089396 #
0.51450604548972855845079266146058 1:0.144611 2:0.23260599 3:-0.016015099 4:0.070249297 5:-0.0063479501 6:0.114666 7:0.166246 8:-0.033230599 9:0.0024932099 10:0.078206599 11:-0.205255 12:0.0099650295 13:-0.27687201 14:-0.066653498 15:0.135683 16:-0.0309978 17:0.025638901 18:-0.030129001 19:0.032301601 20:-0.161042 21:-0.178037 22:0.17435101 23:-0.037959501 24:0.061143499 25:0.196788 26:-0.0405805 27:0.0086446404 28:-0.039082199 29:-0.38172299 30:-0.0105264 31:-0.17572901 32:0.360782 33:-0.0145305 34:0.163059 35:0.103571 36:-0.0168928 37:0.030621201 38:0.088039897 39:0.430076 40:-0.210811 41:0.089706503 42:-0.068455502 43:0.053794201 44:-0.024594 45:-0.0777281 46:-0.0268084 47:-0.015729001 48:0.0833565 49:0.43093601 50:0.0100038 #
0.51450604548972855845079266146058 1:0.053216401 2:0.26844499 3:-0.106009 4:-0.14088 5:0.310368 6:0.27909401 7:0.024826899 8:-0.36746299 9:-0.0197301 10:0.031389002 11:-0.28542599 12:-0.051187199 13:-0.32711101 14:-0.056868002 15:0.058580998 16:-0.054160699 17:-0.223795 18:0.052924301 19:-0.0560323 20:0.0261217 21:0.034768298 22:0.26996201 23:0.343685 24:0.036673602 25:-0.0996764 26:0.21276499 27:-0.27570701 28:-0.129729 29:-0.084439203 30:0.146484 31:-0.112138 32:0.17237499 33:0.022431901 34:0.0222327 35:0.0044502602 36:0.0091296602 37:-0.173959 38:0.133908 39:0.424281 40:0.0300697 41:0.26815999 42:-0.090105101 43:-0.0936497 44:0.0083857505 45:-0.42052099 46:-0.262887 47:0.26396301 48:-0.060095798 49:0.2947 50:0.046203598 #
0.51450604548972855845079266146058 1:0.12912799 2:0.223609 3:-0.046365101 4:-0.095912203 5:0.160835 6:0.044923302 7:0.154512 8:0.098288402 9:0.181557 10:-0.118352 11:-0.0079214498 12:-0.0150883 13:-0.229644 14:-0.0058450098 15:0.143216 16:0.082840502 17:-0.31530899 18:0.017916599 19:-0.032497 20:-0.20466501 21:-0.184055 22:0.167724 23:0.0926295 24:0.23667 25:0.037176099 26:-0.00155348 27:-0.115121 28:0.036839999 29:-0.33396399 30:-0.028516101 31:-0.222091 32:0.280108 33:-0.0203688 34:0.043244999 35:0.080313496 36:-0.052151799 37:-0.032646701 38:0.248684 39:0.12955301 40:0.064379103 41:0.230358 42:-0.170828 43:0.163296 44:-0.0010018901 45:-0.142838 46:0.0908207 47:-0.0080137197 48:0.020214099 49:0.24782 50:0.036057599 #
-0.51450604548972855845079266146058 1:-0.043147299 2:0.037426099 3:-0.0201503 4:-0.14635301 5:0.085514002 6:0.105057 7:-0.058436401 8:-0.0420353 9:-0.12567 10:-0.22736301 11:-0.098657802 12:0.0378814 13:0.028030699 14:-0.14703 15:0.216723 16:0.0150412 17:-0.0632663 18:0.133067 19:0.050331201 20:-0.0200595 21:0.0073327599 22:0.0265001 23:0.141785 24:0.00302422 25:0.0058194101 26:-0.056944702 27:-0.12811001 28:0.109182 29:-0.035620298 30:0.0465484 31:0.030392 32:-0.0182143 33:0.040779602 34:-0.034589101 35:0.033311199 36:0.058758799 37:-0.113323 38:-0.020199001 39:0.183772 40:-0.0465311 41:0.120499 42:0.0083859004 43:-0.179735 44:-0.131796 45:-0.154084 46:-0.0237434 47:0.116486 48:0.0906507 49:0.071170598 50:-0.16030499 #
-0.51450604548972855845079266146058 1:0.178526 2:0.25009999 3:0.016175799 4:-0.036789399 5:0.085553803 6:0.0226172 7:0.133203 8:-0.195801 9:0.0032681799 10:-0.056295902 11:-0.191717 12:0.000908655 13:-0.028133299 14:-0.025156399 15:0.0140186 16:-0.103049 17:-0.110544 18:0.104547 19:0.0260463 20:0.047117401 21:-0.089109197 22:0.231811 23:0.139726 24:0.0053040502 25:0.062743001 26:0.015496 27:-0.197198 28:-0.0693525 29:-0.013856 30:-0.057166401 31:-0.063229702 32:0.080139197 33:0.200716 34:0.096444897 35:0.16362 36:-0.136861 37:0.0236092 38:0.057255499 39:0.178113 40:-0.075824998 41:0.091738902 42:-0.110694 43:0.088009298 44:-0.109949 45:0.041428301 46:-0.165142 47:0.00226557 48:-0.0186703 49:0.092798904 50:-0.066 #
0.51450604548972855845079266146058 1:0.15782 2:0.28095201 3:-0.16232 4:-0.017277099 5:0.187895 6:0.20107 7:0.49162501 8:-0.279387 9:0.016432101 10:-0.098622702 11:-0.095462598 12:0.035763498 13:-0.53441501 14:0.077895001 15:-0.19954699 16:-0.031499598 17:-0.206623 18:0.023604101 19:-0.037268698 20:-0.030371601 21:-0.182164 22:0.25727901 23:0.22395401 24:0.072406404 25:-0.16069999 26:-0.079587303 27:-0.13646901 28:-0.144611 29:-0.0880327 30:0.382806 31:-0.102303 32:0.25771701 33:0.38861799 34:0.0716675 35:0.138531 36:0.0038002401 37:-0.0293475 38:0.23958901 39:0.39322999 40:0.20428599 41:0.096780501 42:-0.081100099 43:-0.048147101 44:0.0017222 45:-0.19941001 46:-0.159585 47:-0.00117123 48:0.089361601 49:0.26617399 50:-0.170092 #
0.51450604548972855845079266146058 1:0.206343 2:0.13335 3:-0.0110315 4:-0.239888 5:0.30892599 6:0.085218102 7:0.295158 8:-0.32453999 9:0.31961101 10:-0.28227201 11:-0.206772 12:0.0059670298 13:-0.187324 14:-0.121017 15:-0.091302902 16:0.062698103 17:-0.144154 18:-0.0210573 19:-0.043937601 20:-0.179875 21:-0.32949799 22:0.42317101 23:0.122209 24:0.13986 25:-0.145418 26:-0.117903 27:-0.154626 28:-0.0678076 29:0.067123003 30:0.0422941 31:-0.214957 32:0.308936 33:0.18866301 34:0.0408202 35:0.141829 36:0.0378398 37:0.31596601 38:0.13718 39:0.22543301 40:-0.270401 41:-0.0054325201 42:-0.142031 43:0.26768401 44:-0.30000401 45:-0.186505 46:-0.147127 47:0.050939001 48:0.118289 49:0.37826699 50:0.114495 #
0.51450604548972855845079266146058 1:0.39832699 2:0.38794601 3:-0.00303439 4:-0.094938599 5:-0.0284936 6:-0.0191612 7:0.117489 8:0.051622801 9:0.150995 10:-0.104809 11:-0.235652 12:-0.199707 13:-0.44922501 14:-0.19973899 15:-0.0069486899 16:0.060676999 17:-0.44191599 18:0.14253099 19:-0.052559201 20:-0.102931 21:0.0422174 22:0.235374 23:0.13251001 24:-0.083913997 25:-0.087958999 26:-0.0650841 27:-0.206826 28:4.1981698e-06 29:-0.29373601 30:0.145946 31:-0.108117 32:0.212486 33:0.132002 34:0.059011199 35:0.179149 36:-0.066562198 37:-0.29911599 38:0.27967501 39:0.39207101 40:0.0517659 41:0.018990001 42:0.012685 43:-0.147577 44:-0.118172 45:0.0123696 46:-0.22775599 47:0.163863 48:0.066978201 49:0.42357999 50:0.0512136 #
0.23268167723772570365525780289317 1:0.423471 2:0.37762499 3:0.023086 4:0.0259683 5:0.092412896 6:-0.0240604 7:0.164627 8:-0.285925 9:0.128598 10:-0.149009 11:-0.42383599 12:-0.150259 13:-0.182367 14:-0.348306 15:-0.026723299 16:-0.0130361 17:-0.107418 18:-0.143866 19:-0.39998001 20:-0.0250162 21:-0.122947 22:0.120378 23:-0.0157247 24:0.183551 25:-0.197633 26:-0.211077 27:-0.154076 28:0.037843999 29:-0.299346 30:0.066373497 31:-0.237166 32:0.32467699 33:-0.219227 34:0.063641697 35:0.0248417 36:0.0920709 37:0.16132601 38:0.243839 39:0.472801 40:-0.26316401 41:0.499832 42:-0.038721301 43:0.0991496 44:0.037176199 45:0.0272309 46:-0.028583201 47:0.39857399 48:0.117184 49:0.64604801 50:-0.0292184 #
-0.51450604548972855845079266146058 1:0.373759 2:0.55681401 3:0.0236066 4:-0.040526599 5:0.021563999 6:0.071001098 7:0.14514901 8:-0.381295 9:-0.0109173 10:-0.216453 11:-0.22567201 12:-0.020881001 13:-0.27363601 14:-0.13819499 15:0.038706999 16:0.27180499 17:-0.017629201 18:0.215932 19:0.104749 20:-0.181173 21:-0.085609898 22:0.26424301 23:0.206264 24:-0.066499002 25:0.28078201 26:-0.124727 27:-0.22485 28:0.12871499 29:-0.380256 30:0.157373 31:-0.202158 32:0.225876 33:-0.115807 34:0.113985 35:-0.069651403 36:0.059588801 37:0.075766101 38:0.22953001 39:0.50829399 40:-0.060576402 41:0.120376 42:-0.215141 43:0.137191 44:0.16353001 45:-0.516608 46:-0.164487 47:0.143583 48:0.036645699 49:0.45773599 50:0.0014166801 #
-0.51450604548972855845079266146058 1:0.25634599 2:0.61169797 3:0.000110565 4:-0.101796 5:0.39184499 6:0.31544501 7:0.36049399 8:-0.27317101 9:0.045129299 10:-0.28516001 11:-0.0362739 12:0.0019826801 13:-0.25881401 14:-0.24963699 15:0.19028001 16:0.0587819 17:-0.034492798 18:0.080390602 19:0.042424999 20:0.043966301 21:-0.18392199 22:0.46097499 23:0.032089401 24:0.072791301 25:-0.22355901 26:-0.15102901 27:-0.144575 28:-0.018898601 29:-0.52491498 30:-0.100604 31:0.148587 32:0.285478 33:-0.050965399 34:0.181739 35:-0.154138 36:0.161373 37:-0.085081398 38:0.044481002 39:0.368415 40:-0.104821 41:0.068230301 42:-0.111099 43:0.181872 44:-0.216474 45:-0.28703099 46:-0.12691399 47:0.32427001 48:-0.187636 49:0.42839599 50:0.099121302 #
-0.044888012853578962424450082835392 1:0.155387 2:0.103635 3:-0.0334902 4:-0.065595001 5:0.111744 6:0.048597801 7:0.153621 8:-0.0987662 9:-0.037302598 10:-0.065157399 11:-0.10102 12:-0.0907069 13:-0.113296 14:-0.078772098 15:-0.073588103 16:0.116764 17:-0.28124699 18:0.30293101 19:-0.065358199 20:-0.19231001 21:-0.119522 22:0.37172499 23:0.214717 24:-0.0568485 25:-0.134533 26:0.17483801 27:-0.40503901 28:-0.026023 29:-0.34438199 30:0.0084979199 31:-0.133792 32:0.19392499 33:-0.040312398 34:0.038708899 35:0.140534 36:0.0154226 37:-0.0696337 38:0.126571 39:0.319374 40:-0.15772501 41:0.105931 42:0.107632 43:0.057838999 44:-0.35965499 45:-0.46081001 46:0.00287977 47:0.086716503 48:0.111729 49:0.34298801 50:0.26818401 #
0.51450604548972855845079266146058 1:0.201984 2:0.18572401 3:0.0226958 4:-0.26823899 5:0.27457899 6:0.183125 7:0.29531899 8:-0.33439901 9:0.0382961 10:-0.265302 11:-0.151072 12:-0.140976 13:0.017341699 14:-0.080592498 15:0.31696501 16:-0.057416301 17:-0.067022398 18:0.093512297 19:-0.129007 20:-0.065706 21:-0.28018799 22:0.15782 23:0.155755 24:0.37223801 25:0.153375 26:-0.122463 27:-0.199965 28:-0.151264 29:0.0428004 30:0.079372697 31:-0.078182504 32:0.486105 33:0.028173 34:-0.069707602 35:0.056269001 36:-0.170149 37:0.209613 38:0.0445017 39:0.10691 40:-0.24596401 41:0.44343099 42:-0.100926 43:0.0096741403 44:0.241552 45:-0.052756999 46:-0.031200999 47:0.083852097 48:-0.083914198 49:0.111552 50:0.039177801 #
0.38493060528119055208051690897264 1:-0.018656399 2:0.61768502 3:0.032917202 4:-0.346699 5:0.028229101 6:0.169698 7:0.0211027 8:0.0183133 9:0.024425101 10:0.041021999 11:-0.085756101 12:-0.102882 13:-0.061482001 14:-0.098819703 15:0.186058 16:-0.151264 17:-0.36544001 18:0.13803899 19:-0.10648 20:-0.240413 21:-0.23004299 22:0.126256 23:0.273911 24:0.023976 25:0.27848199 26:-0.025807001 27:-0.050233401 28:-0.16878501 29:-0.19654 30:-0.067133799 31:-0.199 32:0.596937 33:-0.101037 34:0.000488171 35:0.0119393 36:-0.050654799 37:-0.19856501 38:0.30965701 39:0.37680799 40:-0.108941 41:0.122853 42:-0.388033 43:0.415463 44:-0.103182 45:0.12669501 46:-0.036462501 47:0.204547 48:0.160622 49:0.35698301 50:0.220402 #
0.51450604548972855845079266146058 1:0.095377102 2:0.62756503 3:0.0456095 4:0.190924 5:0.23854899 6:0.25208601 7:-0.046204198 8:-0.42447999 9:0.26495099 10:0.00472948 11:-0.37901601 12:-0.161534 13:-0.091503397 14:-0.18520799 15:0.098185502 16:-0.069458596 17:-0.237029 18:0.188144 19:0.0654172 20:0.0169114 21:0.146054 22:0.103785 23:0.16695 24:0.064198896 25:0.123577 26:-0.113198 27:-0.46873599 28:0.0419361 29:-0.092996798 30:0.075616002 31:-0.111356 32:0.15284701 33:-0.113097 34:0.197211 35:0.21715 36:-0.18289401 37:0.0135711 38:0.293551 39:0.46373001 40:-0.248316 41:0.28982401 42:0.048374102 43:0.059270099 44:-0.033209901 45:-0.0413647 46:-0.141459 47:0.33346701 48:0.038555801 49:0.299281 50:-0.00618297 #
0.20965781790338733348022515201592 1:0.153955 2:0.17902499 3:-0.0292578 4:-0.198946 5:0.055756502 6:0.099708103 7:0.39901 8:0.0079463804 9:0.0295403 10:-0.086821496 11:-0.112719 12:-0.0117214 13:-0.078543998 14:-0.211826 15:-0.23248 16:0.218843 17:0.043646101 18:-0.25871301 19:-0.20837501 20:-0.37063199 21:-0.035264999 22:0.251041 23:-0.064357497 24:0.281201 25:0.071600601 26:-0.219182 27:-0.051951598 28:-0.0622194 29:0.14695001 30:0.0139278 31:-0.183685 32:0.347078 33:0.0059695099 34:-0.43221 35:0.00117307 36:0.00652814 37:-0.0686832 38:-0.086080998 39:0.181077 40:0.043062601 41:0.28595999 42:-0.13791101 43:-0.14309201 44:0.067523703 45:-0.0140046 46:-0.097357303 47:0.115541 48:0.084906399 49:0.364548 50:-0.143402 #
-0.51450604548972855845079266146058 1:0.173002 2:0.13542899 3:-0.0223983 4:-0.0328492 5:0.0155401 6:-0.053297698 7:0.086316399 8:-0.033001501 9:-0.048529699 10:-0.34757301 11:-0.114632 12:0.042325798 13:-0.12357 14:-0.107551 15:0.28967899 16:-0.087401703 17:-0.25821301 18:0.174806 19:-0.056954999 20:-0.034574099 21:-0.108664 22:0.35894501 23:0.044359799 24:0.025049999 25:-0.022855099 26:-0.057301302 27:-0.28588399 28:0.091033697 29:-0.18549199 30:0.22994199 31:-0.114084 32:0.170514 33:0.164515 34:0.0512174 35:0.057282601 36:0.050322 37:-0.0505949 38:0.34538299 39:0.102211 40:-0.16949099 41:0.35370299 42:0.043931998 43:0.159262 44:-0.040854 45:-0.097199298 46:-0.078940198 47:-0.0186386 48:0.00147337 49:0.086857997 50:0.102275 #
-0.45145789785862489029710786780925 1:0.12516101 2:0.245665 3:0.153734 4:-0.102937 5:0.180389 6:0.0173572 7:0.059993099 8:-0.148086 9:0.0044380599 10:-0.042385899 11:-0.199368 12:-0.032795399 13:0.0116585 14:-0.25164399 15:0.091314599 16:0.079907902 17:0.020401601 18:0.30433699 19:-0.0315139 20:-0.33845201 21:-0.076145001 22:0.030654499 23:0.098963201 24:0.0020560201 25:0.080127798 26:0.078316003 27:-0.338348 28:0.0752175 29:-0.030508701 30:0.00032342999 31:0.024203399 32:0.305583 33:0.077906199 34:-0.031946398 35:0.062289499 36:-0.0301822 37:0.028994801 38:0.150746 39:0.365026 40:0.028306199 41:0.13844401 42:-0.064062603 43:0.0022148199 44:0.0098829595 45:-0.0440428 46:-0.129605 47:0.0212777 48:-0.146258 49:0.25634 50:-0.0263317 #
-0.38510997174029870659950347544509 1:0.25104201 2:0.106943 3:-0.163965 4:-0.118623 5:0.35376599 6:0.165497 7:0.126193 8:-0.23423199 9:-0.241613 10:0.0147626 11:-0.146698 12:0.072020099 13:-0.20614401 14:-0.017206799 15:0.138356 16:0.130962 17:-0.0549867 18:0.078902498 19:-0.016505601 20:0.0267499 21:-0.37439701 22:0.245483 23:0.166567 24:0.022713499 25:-0.14962 26:0.121759 27:-0.173549 28:-0.039036401 29:-0.0200743 30:0.067232199 31:-0.088980198 32:0.161165 33:-0.32984701 34:0.110276 35:0.211639 36:-0.14559001 37:-0.130464 38:0.28675899 39:0.242777 40:0.028457399 41:0.34455201 42:0.21889199 43:0.071089998 44:-0.227475 45:-0.13763 46:-0.103 47:0.13495199 48:-0.023361299 49:0.38323799 50:0.154065 #
-0.26396882314123354396073750649521 1:0.25263301 2:0.364553 3:0.092971601 4:-0.033464801 5:0.16295999 6:0.0454746 7:0.251849 8:-0.226659 9:0.19498301 10:-0.16635001 11:-0.069395199 12:0.016124301 13:-0.0073540201 14:-0.146678 15:-0.0256611 16:0.16164801 17:-0.123022 18:0.249668 19:-0.0234509 20:-0.270695 21:-0.31624299 22:0.38808301 23:0.016289201 24:-0.055209599 25:-0.054265998 26:0.0041237301 27:-0.13481601 28:0.085757598 29:-0.16822299 30:0.050550099 31:0.021096701 32:0.314271 33:0.145758 34:0.043642901 35:0.0331746 36:-0.0243368 37:0.17092501 38:0.110184 39:0.15414999 40:-0.0124421 41:0.114942 42:0.118449 43:-0.0376007 44:-0.0309703 45:0.141904 46:-0.116494 47:0.057193 48:-0.20688701 49:0.14529 50:-0.144109 #
0.28901903659670463708764032162435 1:-0.049493499 2:0.45552 3:0.139653 4:-0.084239997 5:-0.0099473298 6:-0.106159 7:-0.062763698 8:-0.19335499 9:0.24601901 10:-0.097867899 11:-0.179474 12:-0.193424 13:-0.104502 14:0.18811101 15:0.48939699 16:-0.050424501 17:-0.34468901 18:0.058610301 19:-0.036781602 20:-0.0722109 21:-0.0330391 22:0.114102 23:0.169184 24:0.123014 25:-0.108686 26:0.100965 27:-0.099725001 28:-0.120765 29:-0.33947399 30:0.117448 31:-0.17888699 32:0.30550501 33:-0.088462502 34:0.067870997 35:0.031631999 36:0.103355 37:0.18334401 38:0.102893 39:0.303837 40:-0.196077 41:-0.075228699 42:-0.23952299 43:0.199774 44:0.127324 45:-0.076969199 46:0.12976 47:0.093966097 48:0.1035 49:0.25261301 50:0.30704999 #
0.34573372415940295532266191003146 1:0.144438 2:0.42877501 3:-0.12770499 4:0.0033164001 5:0.114928 6:0.25724599 7:0.123874 8:-0.32285401 9:0.100321 10:-0.17229 11:-0.315413 12:0.0051576602 13:-0.226932 14:-0.202794 15:0.417326 16:0.176994 17:-0.231868 18:0.0589361 19:-0.00453192 20:-0.25725901 21:-0.091353998 22:0.214626 23:0.130502 24:0.0180951 25:0.060341299 26:-0.0523552 27:-0.056374401 28:0.037225101 29:-0.11911 30:0.252323 31:-0.213214 32:0.43965 33:-0.114698 34:0.080609404 35:0.21110199 36:0.103332 37:0.182476 38:0.068992898 39:0.436418 40:-0.315952 41:0.228844 42:-0.034120802 43:-0.36519799 44:-0.0253901 45:-0.084675901 46:0.0047600102 47:0.22861999 48:-0.044797499 49:0.042561501 50:-0.15789901 #
