SVM-light Version V6.02
0 # kernel type
3 # kernel parameter -d 
1 # kernel parameter -g 
1 # kernel parameter -s 
1 # kernel parameter -r 
empty# kernel parameter -u 
34623 # highest feature index 
2638 # number of training documents 
583 # number of support vectors plus 1 
1.0125983 # threshold b, each following line is a SV (starting with alpha*y)
-0.0021290716265698686471274925224861 9:1 17:1 21:1 34:1 39:1 42:1 49:1 51:1 52:1 60:1 75:1 77:1 86:1 91:1 110:1 119:1 123:1 173:1 193:1 202:1 258:1 267:1 297:1 298:1 300:1 352:1 354:1 355:1 412:1 462:1 483:1 518:1 560:1 607:1 632:1 638:1 714:1 716:1 774:1 802:1 852:1 978:1 986:1 994:1 1103:1 1192:1 1213:1 1459:1 1690:1 2076:1 2168:1 2807:1 3563:1 3906:1 4083:1 4137:1 4606:1 4977:1 5023:1 5027:1 5275:1 5472:1 5641:1 5745:1 5837:1 6784:1 8237:1 10137:1 13488:1 15462:1 21293:1 23954:1 24756:1 26031:1 26357:1 29268:1 29269:1 29270:1 29271:1 29272:1 29273:1 29274:1 #
-0.00029606838226158748101149442710778 11:1 25:1 56:1 111:1 131:1 150:1 170:1 182:1 186:1 204:1 208:1 209:1 322:1 487:1 564:1 577:1 581:1 603:1 632:1 817:1 871:1 888:1 959:1 1030:1 1056:1 1069:1 1264:1 1302:1 1523:1 1778:1 1779:1 1854:1 2105:1 2557:1 2654:1 2672:1 2850:1 3659:1 3705:1 4197:1 4216:1 4314:1 4453:1 4563:1 4790:1 5785:1 6024:1 6148:1 6617:1 6825:1 6978:1 6985:1 7031:1 7893:1 8001:1 8222:1 8235:1 8301:1 8516:1 8723:1 8961:1 9024:1 9142:1 9165:1 9802:1 9807:1 10333:1 10711:1 10783:1 11523:1 12415:1 12564:1 12692:1 12784:1 12797:1 12939:1 13912:1 13913:1 13914:1 13915:1 13916:1 13917:1 13918:1 13919:1 13920:1 13921:1 13922:1 13923:1 13924:1 13925:1 13926:1 13927:1 13928:1 13929:1 13930:1 13931:1 13932:1 13933:1 13934:1 13935:1 13936:1 13937:1 13938:1 13939:1 13940:1 13941:1 13942:1 13943:1 13944:1 13945:1 13946:1 13947:1 13948:1 13949:1 13950:1 13951:1 13952:1 13953:1 13954:1 13955:1 13956:1 13957:1 13958:1 13959:1 13960:1 13961:1 13962:1 13963:1 13964:1 13965:1 13966:1 13967:1 13968:1 13969:1 13970:1 13971:1 13972:1 13973:1 13974:1 13975:1 13976:1 13977:1 13978:1 13979:1 13980:1 13981:1 13982:1 13983:1 13984:1 13985:1 13986:1 13987:1 13988:1 13989:1 13990:1 13991:1 13992:1 13993:1 13994:1 13995:1 13996:1 13997:1 13998:1 13999:1 14000:1 14001:1 14002:1 14003:1 14004:1 14005:1 14006:1 14007:1 14008:1 14009:1 14010:1 14011:1 14012:1 14013:1 14014:1 14015:1 14016:1 14017:1 14018:1 14019:1 14020:1 14021:1 14022:1 14023:1 14024:1 14025:1 14026:1 14027:1 14028:1 14029:1 14030:1 14031:1 14032:1 14033:1 14034:1 14035:1 14036:1 14037:1 14038:1 14039:1 14040:1 14041:1 14042:1 14043:1 14044:1 14045:1 14046:1 14047:1 14048:1 14049:1 14050:1 14051:1 14052:1 14053:1 14054:1 14055:1 14056:1 14057:1 14058:1 14059:1 14060:1 14061:1 14062:1 14063:1 14064:1 14065:1 14066:1 14067:1 #
-0.002329896292961630352436053215115 2:1 6:1 9:1 11:1 15:1 17:1 34:1 39:1 42:1 46:1 48:1 49:1 60:1 70:1 72:1 86:1 95:1 98:1 110:1 111:1 113:1 123:1 131:1 133:1 193:1 195:1 213:1 215:1 216:1 219:1 220:1 267:1 285:1 394:1 395:1 446:1 453:1 533:1 553:1 576:1 596:1 637:1 703:1 714:1 719:1 754:1 755:1 848:1 892:1 981:1 987:1 1027:1 1046:1 1069:1 1105:1 1149:1 1187:1 1229:1 1253:1 1334:1 1461:1 1562:1 1626:1 1666:1 2088:1 2143:1 2292:1 2807:1 3238:1 3315:1 3398:1 3406:1 3683:1 3759:1 4338:1 4421:1 5041:1 5073:1 5253:1 5502:1 6485:1 6814:1 8808:1 8864:1 9348:1 9406:1 9480:1 9582:1 10055:1 11758:1 13841:1 18081:1 21042:1 22842:1 22843:1 22844:1 22845:1 #
-0.0020892048353625021495094671308834 6:1 7:1 9:1 11:1 15:1 34:1 41:1 42:1 51:1 60:1 77:1 86:1 98:1 123:1 127:1 129:1 151:1 185:1 194:1 201:1 236:1 251:1 267:1 294:1 341:1 386:1 444:1 512:1 548:1 550:1 577:1 607:1 609:1 641:1 670:1 678:1 871:1 1242:1 1357:1 1482:1 1753:1 1842:1 1848:1 1851:1 1857:1 1881:1 1886:1 1887:1 2097:1 2292:1 2295:1 2546:1 2980:1 3305:1 3391:1 3446:1 4049:1 4531:1 4599:1 6113:1 6136:1 6887:1 7453:1 7830:1 10566:1 10567:1 12502:1 12516:1 12566:1 12906:1 12907:1 12908:1 12909:1 12910:1 #
-0.0013529471454244140077305402769525 4:1 6:1 7:1 9:1 11:1 14:1 15:1 17:1 20:1 34:1 39:1 40:1 41:1 42:1 46:1 49:1 50:1 51:1 53:1 60:1 62:1 67:1 72:1 73:1 77:1 86:1 87:1 91:1 97:1 98:1 110:1 111:1 115:1 118:1 121:1 123:1 125:1 129:1 131:1 138:1 143:1 149:1 168:1 188:1 190:1 191:1 193:1 204:1 215:1 242:1 251:1 256:1 259:1 267:1 285:1 297:1 298:1 300:1 303:1 305:1 309:1 318:1 319:1 328:1 347:1 352:1 353:1 354:1 368:1 372:1 382:1 394:1 404:1 406:1 408:1 426:1 444:1 445:1 446:1 462:1 471:1 479:1 480:1 486:1 496:1 501:1 533:1 534:1 560:1 571:1 607:1 638:1 639:1 643:1 659:1 663:1 673:1 714:1 716:1 763:1 802:1 807:1 814:1 850:1 878:1 892:1 897:1 944:1 945:1 946:1 963:1 977:1 986:1 988:1 1014:1 1032:1 1054:1 1059:1 1069:1 1070:1 1071:1 1096:1 1097:1 1101:1 1103:1 1105:1 1106:1 1110:1 1127:1 1129:1 1146:1 1153:1 1163:1 1169:1 1186:1 1187:1 1191:1 1199:1 1211:1 1230:1 1239:1 1246:1 1249:1 1250:1 1282:1 1283:1 1284:1 1346:1 1347:1 1374:1 1389:1 1393:1 1402:1 1429:1 1437:1 1445:1 1455:1 1522:1 1545:1 1627:1 1634:1 1640:1 1674:1 1678:1 1680:1 1720:1 1830:1 1837:1 1936:1 1946:1 1983:1 1997:1 2035:1 2040:1 2051:1 2060:1 2093:1 2118:1 2196:1 2235:1 2250:1 2286:1 2362:1 2406:1 2502:1 2541:1 2603:1 2617:1 2789:1 2845:1 2932:1 3058:1 3078:1 3207:1 3346:1 3352:1 3373:1 3395:1 3561:1 3563:1 3624:1 3861:1 3878:1 4137:1 4147:1 4159:1 4197:1 4251:1 4396:1 4454:1 4565:1 4591:1 4638:1 4639:1 4663:1 4681:1 4682:1 4698:1 4813:1 4957:1 5071:1 5177:1 5232:1 5592:1 5668:1 5706:1 5860:1 5952:1 5974:1 6063:1 6360:1 6388:1 6496:1 6538:1 6750:1 7130:1 7149:1 7161:1 7172:1 7748:1 7893:1 7963:1 7975:1 7995:1 8011:1 8032:1 8995:1 9393:1 10026:1 10621:1 10655:1 11267:1 11318:1 11573:1 11930:1 13673:1 14211:1 14424:1 14450:1 14817:1 14855:1 14914:1 15597:1 15662:1 15873:1 16339:1 16535:1 16611:1 16683:1 16697:1 16700:1 16986:1 17582:1 18098:1 18960:1 19806:1 19867:1 20076:1 20541:1 21115:1 21185:1 21194:1 21347:1 21357:1 23146:1 23159:1 23169:1 23250:1 25547:1 25548:1 25549:1 25550:1 25551:1 25552:1 25553:1 25554:1 25555:1 25556:1 25557:1 25558:1 25559:1 25560:1 25561:1 25562:1 25563:1 25564:1 25565:1 25566:1 25567:1 25568:1 25569:1 25570:1 25571:1 25572:1 #
0.0038112049077861777195141979035498 4:1 6:1 9:1 11:1 15:1 17:1 29:1 33:1 34:1 39:1 40:1 41:1 42:1 46:1 60:1 62:1 70:1 77:1 86:1 91:1 98:1 104:1 110:1 111:1 123:1 127:1 143:1 157:1 212:1 243:1 267:1 271:1 294:1 298:1 300:1 301:1 309:1 316:1 352:1 357:1 382:1 402:1 501:1 560:1 596:1 599:1 643:1 768:1 802:1 818:1 879:1 896:1 921:1 925:1 945:1 947:1 1052:1 1056:1 1105:1 1106:1 1123:1 1174:1 1199:1 1226:1 1236:1 1464:1 1516:1 1517:1 1518:1 1519:1 1520:1 1521:1 1522:1 1523:1 1524:1 1525:1 1526:1 1527:1 1528:1 1529:1 1530:1 1531:1 1532:1 1533:1 1534:1 1535:1 1536:1 1537:1 1538:1 1539:1 1540:1 1541:1 1542:1 1543:1 1544:1 1545:1 1546:1 1547:1 1548:1 1549:1 1550:1 1551:1 1552:1 1553:1 1554:1 1555:1 1556:1 1557:1 1558:1 1559:1 1560:1 1561:1 1562:1 1563:1 1564:1 1565:1 1566:1 1567:1 1568:1 1569:1 1570:1 1571:1 1572:1 1573:1 1574:1 1575:1 1576:1 1577:1 1578:1 1579:1 1580:1 1581:1 1582:1 1583:1 1584:1 1585:1 1586:1 1587:1 1588:1 1589:1 1590:1 1591:1 1592:1 1593:1 1594:1 1595:1 1596:1 1597:1 1598:1 1599:1 1600:1 1601:1 1602:1 1603:1 1604:1 1605:1 1606:1 1607:1 1608:1 1609:1 1610:1 1611:1 1612:1 1613:1 1614:1 1615:1 1616:1 1617:1 1618:1 1619:1 1620:1 1621:1 1622:1 1623:1 1624:1 1625:1 1626:1 1627:1 1628:1 1629:1 1630:1 1631:1 1632:1 1633:1 1634:1 1635:1 #
0.0017310488803396408170887088573409 3:1 4:1 6:1 7:1 8:1 9:1 11:1 15:1 17:1 20:1 23:1 31:1 34:1 39:1 41:1 42:1 46:1 49:1 51:1 60:1 62:1 72:1 73:1 77:1 86:1 87:1 91:1 93:1 98:1 110:1 111:1 113:1 115:1 117:1 118:1 123:1 125:1 127:1 131:1 134:1 143:1 148:1 163:1 186:1 188:1 190:1 193:1 199:1 201:1 202:1 204:1 213:1 215:1 242:1 243:1 244:1 248:1 251:1 255:1 256:1 258:1 267:1 291:1 297:1 298:1 300:1 303:1 305:1 309:1 313:1 317:1 319:1 337:1 345:1 349:1 352:1 354:1 369:1 373:1 382:1 385:1 404:1 405:1 406:1 427:1 438:1 440:1 444:1 446:1 449:1 453:1 462:1 476:1 479:1 483:1 485:1 501:1 506:1 515:1 518:1 519:1 545:1 548:1 553:1 557:1 581:1 599:1 607:1 615:1 637:1 638:1 645:1 653:1 695:1 700:1 703:1 712:1 714:1 765:1 773:1 786:1 791:1 802:1 807:1 821:1 827:1 833:1 845:1 850:1 859:1 862:1 865:1 875:1 886:1 892:1 908:1 917:1 942:1 952:1 959:1 985:1 1015:1 1019:1 1030:1 1036:1 1056:1 1059:1 1073:1 1075:1 1080:1 1083:1 1092:1 1096:1 1126:1 1187:1 1192:1 1194:1 1195:1 1203:1 1213:1 1230:1 1233:1 1239:1 1253:1 1304:1 1350:1 1385:1 1388:1 1407:1 1447:1 1455:1 1459:1 1510:1 1531:1 1601:1 1605:1 1606:1 1616:1 1621:1 1624:1 1634:1 1678:1 1687:1 1695:1 1710:1 1711:1 1742:1 1762:1 1851:1 1897:1 1983:1 2010:1 2044:1 2063:1 2071:1 2104:1 2136:1 2137:1 2150:1 2193:1 2255:1 2304:1 2342:1 2343:1 2344:1 2345:1 2346:1 2347:1 2348:1 2349:1 2350:1 2351:1 2352:1 2353:1 2354:1 2355:1 2356:1 2357:1 2358:1 2359:1 2360:1 2361:1 2362:1 2363:1 2364:1 2365:1 2366:1 2367:1 2368:1 2369:1 2370:1 2371:1 2372:1 2373:1 2374:1 2375:1 2376:1 2377:1 2378:1 2379:1 2380:1 2381:1 2382:1 2383:1 2384:1 2385:1 2386:1 2387:1 2388:1 2389:1 2390:1 2391:1 2392:1 2393:1 2394:1 2395:1 2396:1 2397:1 2398:1 2399:1 2400:1 2401:1 2402:1 2403:1 2404:1 2405:1 2406:1 2407:1 2408:1 2409:1 2410:1 2411:1 2412:1 2413:1 2414:1 2415:1 2416:1 2417:1 2418:1 2419:1 2420:1 2421:1 2422:1 2423:1 2424:1 2425:1 2426:1 2427:1 2428:1 2429:1 2430:1 2431:1 2432:1 2433:1 2434:1 2435:1 2436:1 2437:1 2438:1 2439:1 2440:1 2441:1 2442:1 2443:1 2444:1 2445:1 2446:1 2447:1 2448:1 2449:1 2450:1 2451:1 2452:1 2453:1 2454:1 2455:1 2456:1 2457:1 2458:1 2459:1 2460:1 2461:1 2462:1 2463:1 2464:1 2465:1 2466:1 2467:1 2468:1 2469:1 2470:1 2471:1 2472:1 2473:1 2474:1 2475:1 2476:1 2477:1 2478:1 2479:1 2480:1 2481:1 2482:1 2483:1 2484:1 2485:1 2486:1 2487:1 2488:1 2489:1 2490:1 2491:1 2492:1 2493:1 2494:1 2495:1 2496:1 2497:1 2498:1 2499:1 2500:1 2501:1 2502:1 2503:1 2504:1 2505:1 2506:1 2507:1 2508:1 2509:1 2510:1 2511:1 2512:1 2513:1 2514:1 2515:1 2516:1 2517:1 2518:1 2519:1 2520:1 2521:1 2522:1 2523:1 2524:1 2525:1 2526:1 2527:1 2528:1 2529:1 2530:1 2531:1 2532:1 2533:1 2534:1 2535:1 2536:1 2537:1 2538:1 2539:1 2540:1 2541:1 2542:1 2543:1 2544:1 2545:1 2546:1 2547:1 2548:1 2549:1 2550:1 2551:1 2552:1 2553:1 2554:1 2555:1 2556:1 2557:1 2558:1 2559:1 2560:1 2561:1 2562:1 2563:1 2564:1 2565:1 2566:1 2567:1 2568:1 2569:1 2570:1 2571:1 2572:1 2573:1 2574:1 2575:1 2576:1 2577:1 #
0.0071620198084525396597932456188573 4:1 6:1 9:1 11:1 15:1 34:1 39:1 41:1 42:1 49:1 51:1 60:1 72:1 86:1 91:1 96:1 98:1 101:1 110:1 111:1 115:1 117:1 119:1 121:1 123:1 127:1 129:1 131:1 143:1 148:1 149:1 152:1 157:1 185:1 188:1 213:1 242:1 267:1 268:1 298:1 300:1 303:1 305:1 309:1 319:1 341:1 345:1 346:1 357:1 382:1 446:1 453:1 457:1 479:1 496:1 534:1 550:1 552:1 557:1 590:1 607:1 638:1 651:1 679:1 683:1 684:1 699:1 768:1 769:1 772:1 773:1 802:1 811:1 857:1 878:1 887:1 891:1 902:1 972:1 984:1 1012:1 1069:1 1083:1 1105:1 1124:1 1187:1 1195:1 1215:1 1253:1 1255:1 1402:1 1407:1 1409:1 1415:1 1419:1 1431:1 1483:1 1530:1 1567:1 1614:1 1686:1 1710:1 1927:1 1961:1 1997:1 2036:1 2069:1 2127:1 2137:1 2282:1 2283:1 2304:1 2379:1 2482:1 2571:1 2689:1 2765:1 2796:1 2853:1 2873:1 2975:1 2978:1 2979:1 3011:1 3276:1 3277:1 3278:1 3279:1 3280:1 3281:1 3282:1 3283:1 3284:1 3285:1 3286:1 3287:1 3288:1 3289:1 3290:1 3291:1 3292:1 3293:1 3294:1 3295:1 3296:1 3297:1 3298:1 3299:1 3300:1 3301:1 3302:1 3303:1 3304:1 3305:1 3306:1 3307:1 3308:1 3309:1 3310:1 3311:1 3312:1 3313:1 3314:1 3315:1 3316:1 3317:1 3318:1 3319:1 3320:1 3321:1 3322:1 3323:1 3324:1 3325:1 3326:1 3327:1 3328:1 3329:1 3330:1 3331:1 3332:1 3333:1 3334:1 3335:1 3336:1 3337:1 3338:1 3339:1 3340:1 3341:1 3342:1 3343:1 3344:1 3345:1 3346:1 3347:1 3348:1 3349:1 3350:1 3351:1 3352:1 3353:1 3354:1 3355:1 3356:1 3357:1 3358:1 3359:1 3360:1 3361:1 3362:1 3363:1 3364:1 3365:1 3366:1 3367:1 3368:1 3369:1 3370:1 3371:1 3372:1 #
0.0076917947464453448325194528933935 4:1 6:1 9:1 15:1 34:1 41:1 42:1 51:1 57:1 60:1 73:1 98:1 110:1 111:1 119:1 122:1 123:1 125:1 127:1 148:1 157:1 188:1 229:1 256:1 264:1 267:1 299:1 309:1 352:1 377:1 416:1 453:1 483:1 533:1 534:1 553:1 557:1 585:1 714:1 717:1 829:1 878:1 914:1 917:1 1033:1 1056:1 1069:1 1103:1 1105:1 1107:1 1187:1 1230:1 1380:1 1459:1 1544:1 1562:1 1609:1 1678:1 1852:1 2039:1 2202:1 2225:1 2255:1 2344:1 2410:1 2571:1 2645:1 2805:1 3311:1 3361:1 3563:1 3575:1 3717:1 3758:1 3759:1 3760:1 3761:1 3762:1 3763:1 3764:1 3765:1 3766:1 3767:1 3768:1 3769:1 3770:1 3771:1 3772:1 3773:1 3774:1 3775:1 3776:1 3777:1 #
0.0076917947464453448325194528933935 4:1 6:1 7:1 9:1 11:1 15:1 17:1 18:1 34:1 39:1 42:1 46:1 49:1 51:1 60:1 64:1 72:1 73:1 122:1 123:1 129:1 138:1 188:1 256:1 267:1 298:1 402:1 496:1 542:1 550:1 599:1 714:1 716:1 850:1 897:1 939:1 944:1 986:1 1049:1 1051:1 1069:1 1084:1 1122:1 1185:1 1372:1 1394:1 1429:1 1434:1 1485:1 1990:1 2036:1 2112:1 2501:1 2900:1 2912:1 3028:1 3352:1 4062:1 4388:1 4681:1 4688:1 4751:1 4752:1 4753:1 4754:1 4755:1 4756:1 4757:1 4758:1 4759:1 4760:1 4761:1 4762:1 4763:1 4764:1 4765:1 4766:1 4767:1 4768:1 4769:1 4770:1 4771:1 4772:1 4773:1 4774:1 4775:1 #
-0.0043850280786258358928231260165376 4:1 6:1 7:1 9:1 11:1 15:1 17:1 34:1 41:1 42:1 46:1 49:1 51:1 60:1 62:1 69:1 72:1 73:1 77:1 81:1 86:1 91:1 98:1 110:1 111:1 115:1 118:1 119:1 121:1 123:1 125:1 127:1 131:1 133:1 134:1 138:1 143:1 144:1 147:1 148:1 149:1 153:1 163:1 188:1 204:1 210:1 213:1 217:1 218:1 229:1 236:1 243:1 244:1 256:1 257:1 262:1 264:1 267:1 297:1 298:1 300:1 305:1 309:1 319:1 323:1 333:1 352:1 353:1 354:1 356:1 357:1 380:1 382:1 394:1 402:1 405:1 412:1 416:1 436:1 453:1 462:1 471:1 479:1 480:1 483:1 487:1 517:1 521:1 527:1 532:1 533:1 534:1 557:1 564:1 569:1 607:1 608:1 638:1 651:1 679:1 684:1 714:1 746:1 754:1 763:1 768:1 774:1 791:1 792:1 802:1 806:1 813:1 828:1 843:1 844:1 859:1 862:1 867:1 871:1 878:1 886:1 896:1 902:1 904:1 905:1 906:1 925:1 927:1 964:1 984:1 1027:1 1036:1 1046:1 1056:1 1069:1 1080:1 1094:1 1096:1 1099:1 1104:1 1105:1 1110:1 1121:1 1130:1 1149:1 1158:1 1161:1 1162:1 1167:1 1180:1 1182:1 1187:1 1188:1 1193:1 1203:1 1250:1 1253:1 1255:1 1269:1 1271:1 1356:1 1357:1 1371:1 1399:1 1402:1 1411:1 1429:1 1439:1 1442:1 1485:1 1497:1 1517:1 1614:1 1628:1 1640:1 1678:1 1681:1 1710:1 1711:1 1754:1 1772:1 1832:1 1886:1 1998:1 2010:1 2012:1 2036:1 2094:1 2107:1 2146:1 2161:1 2181:1 2319:1 2344:1 2412:1 2427:1 2454:1 2506:1 2512:1 2566:1 2571:1 2606:1 2644:1 2698:1 2758:1 2820:1 2926:1 2943:1 3010:1 3055:1 3102:1 3322:1 3352:1 3383:1 3391:1 3394:1 3403:1 3426:1 3428:1 3454:1 3477:1 3480:1 3504:1 3563:1 3568:1 3619:1 3683:1 3737:1 3902:1 3904:1 3922:1 3942:1 3986:1 3995:1 4042:1 4060:1 4096:1 4124:1 4139:1 4263:1 4308:1 4319:1 4345:1 4361:1 4390:1 4455:1 4490:1 4558:1 4566:1 4579:1 4726:1 4734:1 4765:1 4799:1 4809:1 4857:1 4862:1 4880:1 4937:1 5074:1 5077:1 5104:1 5118:1 5171:1 5190:1 5370:1 5393:1 5400:1 5516:1 5631:1 5633:1 5733:1 5737:1 5828:1 5835:1 5844:1 5907:1 5989:1 6148:1 6184:1 6186:1 6216:1 6246:1 6298:1 6320:1 6342:1 6365:1 6368:1 6457:1 6546:1 6572:1 6593:1 6594:1 6728:1 6785:1 6854:1 6866:1 7095:1 7211:1 7227:1 7244:1 7284:1 7308:1 7343:1 7344:1 7400:1 7439:1 7539:1 7658:1 7660:1 7732:1 7977:1 7986:1 8001:1 8025:1 8270:1 8274:1 8275:1 8290:1 8397:1 8445:1 9130:1 9561:1 9831:1 10224:1 10402:1 10490:1 10758:1 10838:1 10900:1 10993:1 11284:1 11323:1 11569:1 11856:1 11934:1 11978:1 12092:1 12106:1 12212:1 12372:1 12396:1 12746:1 12823:1 12846:1 13324:1 13710:1 13856:1 14233:1 14396:1 14404:1 14432:1 14654:1 14888:1 15167:1 15175:1 15276:1 15675:1 15772:1 16314:1 16588:1 16641:1 17264:1 17904:1 18660:1 18946:1 19050:1 19171:1 19381:1 19845:1 21375:1 21376:1 21377:1 21378:1 21379:1 21380:1 21381:1 21382:1 21383:1 21384:1 21385:1 21386:1 21387:1 21388:1 21389:1 21390:1 21391:1 21392:1 21393:1 21394:1 21395:1 21396:1 21397:1 21398:1 21399:1 21400:1 21401:1 21402:1 21403:1 21404:1 21405:1 21406:1 21407:1 21408:1 21409:1 21410:1 21411:1 21412:1 21413:1 21414:1 21415:1 21416:1 21417:1 21418:1 21419:1 21420:1 21421:1 21422:1 21423:1 21424:1 21425:1 21426:1 21427:1 21428:1 21429:1 21430:1 21431:1 21432:1 21433:1 21434:1 21435:1 21436:1 21437:1 21438:1 #
-0.00055063624811770451455972263943295 2:1 3:1 4:1 6:1 7:1 8:1 9:1 11:1 15:1 17:1 20:1 21:1 24:1 33:1 34:1 39:1 41:1 42:1 46:1 49:1 51:1 60:1 62:1 64:1 67:1 70:1 72:1 73:1 76:1 77:1 82:1 86:1 87:1 91:1 93:1 95:1 97:1 98:1 102:1 107:1 110:1 112:1 115:1 117:1 119:1 121:1 123:1 125:1 127:1 129:1 131:1 133:1 141:1 143:1 148:1 149:1 157:1 163:1 168:1 169:1 188:1 190:1 199:1 212:1 215:1 216:1 220:1 229:1 239:1 241:1 243:1 244:1 250:1 251:1 255:1 256:1 258:1 259:1 264:1 267:1 287:1 297:1 298:1 300:1 304:1 305:1 309:1 318:1 319:1 337:1 343:1 347:1 351:1 352:1 353:1 354:1 356:1 365:1 369:1 373:1 377:1 382:1 387:1 393:1 394:1 396:1 398:1 404:1 423:1 426:1 430:1 438:1 440:1 444:1 446:1 453:1 462:1 471:1 479:1 480:1 482:1 483:1 485:1 490:1 495:1 496:1 502:1 521:1 532:1 533:1 553:1 557:1 560:1 563:1 569:1 588:1 599:1 607:1 618:1 633:1 637:1 638:1 651:1 675:1 679:1 714:1 716:1 717:1 721:1 746:1 759:1 773:1 774:1 775:1 779:1 786:1 787:1 789:1 801:1 802:1 814:1 834:1 843:1 848:1 850:1 855:1 862:1 864:1 878:1 879:1 885:1 886:1 890:1 892:1 896:1 897:1 902:1 914:1 917:1 919:1 925:1 952:1 963:1 964:1 968:1 972:1 982:1 986:1 988:1 1034:1 1036:1 1048:1 1059:1 1067:1 1070:1 1071:1 1085:1 1094:1 1098:1 1104:1 1105:1 1118:1 1122:1 1126:1 1155:1 1161:1 1174:1 1185:1 1186:1 1187:1 1194:1 1199:1 1202:1 1203:1 1207:1 1214:1 1215:1 1230:1 1236:1 1237:1 1244:1 1249:1 1255:1 1282:1 1375:1 1381:1 1385:1 1392:1 1400:1 1402:1 1407:1 1429:1 1434:1 1442:1 1447:1 1455:1 1459:1 1471:1 1482:1 1483:1 1484:1 1486:1 1499:1 1517:1 1530:1 1541:1 1581:1 1609:1 1614:1 1622:1 1627:1 1628:1 1634:1 1648:1 1702:1 1705:1 1731:1 1756:1 1806:1 1825:1 1831:1 1832:1 1833:1 1859:1 1922:1 2010:1 2012:1 2021:1 2028:1 2034:1 2036:1 2086:1 2163:1 2168:1 2223:1 2227:1 2294:1 2317:1 2318:1 2337:1 2355:1 2362:1 2379:1 2391:1 2406:1 2408:1 2440:1 2461:1 2474:1 2498:1 2501:1 2512:1 2522:1 2525:1 2542:1 2547:1 2566:1 2567:1 2630:1 2658:1 2681:1 2690:1 2702:1 2792:1 2820:1 2856:1 2862:1 2903:1 2908:1 2926:1 2949:1 3001:1 3043:1 3066:1 3068:1 3071:1 3086:1 3089:1 3104:1 3240:1 3250:1 3255:1 3275:1 3302:1 3322:1 3341:1 3355:1 3387:1 3393:1 3454:1 3456:1 3475:1 3480:1 3484:1 3517:1 3552:1 3561:1 3563:1 3568:1 3572:1 3607:1 3676:1 3680:1 3687:1 3717:1 3724:1 3729:1 3887:1 3919:1 3956:1 3988:1 4021:1 4083:1 4147:1 4160:1 4179:1 4322:1 4513:1 4560:1 4586:1 4714:1 4734:1 4752:1 4768:1 4796:1 4809:1 4833:1 4857:1 4930:1 5014:1 5051:1 5075:1 5079:1 5145:1 5158:1 5160:1 5161:1 5167:1 5168:1 5171:1 5187:1 5223:1 5229:1 5256:1 5463:1 5508:1 5522:1 5548:1 5590:1 5596:1 5642:1 5738:1 5759:1 5768:1 5781:1 5791:1 5796:1 5832:1 5856:1 5930:1 5953:1 5999:1 6002:1 6101:1 6104:1 6148:1 6169:1 6176:1 6238:1 6419:1 6420:1 6546:1 6633:1 6643:1 6685:1 6704:1 6785:1 6857:1 6879:1 6930:1 6935:1 6970:1 7058:1 7088:1 7176:1 7201:1 7211:1 7228:1 7343:1 7494:1 7564:1 7578:1 7758:1 7849:1 7874:1 7894:1 7997:1 8053:1 8136:1 8220:1 8236:1 8271:1 8403:1 8406:1 8408:1 8411:1 8412:1 8418:1 8487:1 8617:1 8696:1 8701:1 8741:1 8744:1 8842:1 8987:1 9001:1 9258:1 9335:1 9366:1 9375:1 9460:1 9898:1 10145:1 10238:1 10241:1 10427:1 10623:1 10747:1 10806:1 10845:1 10875:1 10936:1 10971:1 10990:1 11097:1 11235:1 11318:1 11324:1 11338:1 11346:1 11711:1 11735:1 11737:1 11791:1 11891:1 11942:1 11975:1 12064:1 12115:1 12223:1 12227:1 12297:1 12470:1 12542:1 12773:1 12881:1 13107:1 13610:1 13631:1 14409:1 14473:1 14639:1 14800:1 14940:1 15029:1 15123:1 15256:1 15387:1 15643:1 15875:1 16130:1 16485:1 18633:1 18637:1 18796:1 18897:1 19352:1 19635:1 19701:1 20997:1 21411:1 21905:1 22269:1 22671:1 23783:1 24586:1 25333:1 25341:1 25466:1 26358:1 27173:1 27240:1 28906:1 28941:1 29308:1 29675:1 29688:1 30052:1 30214:1 30236:1 31205:1 31373:1 31385:1 32443:1 32467:1 33312:1 33649:1 33904:1 33905:1 33906:1 33907:1 33908:1 33909:1 33910:1 33911:1 33912:1 33913:1 33914:1 33915:1 33916:1 33917:1 33918:1 33919:1 33920:1 33921:1 33922:1 33923:1 33924:1 33925:1 33926:1 33927:1 33928:1 33929:1 33930:1 33931:1 33932:1 33933:1 33934:1 33935:1 33936:1 33937:1 33938:1 33939:1 33940:1 33941:1 33942:1 33943:1 #
-0.0052500871529701318568550405530004 4:1 6:1 9:1 11:1 15:1 17:1 20:1 34:1 36:1 40:1 41:1 42:1 46:1 48:1 49:1 51:1 62:1 67:1 72:1 73:1 77:1 86:1 91:1 93:1 95:1 96:1 98:1 110:1 111:1 115:1 119:1 121:1 122:1 123:1 125:1 127:1 129:1 131:1 133:1 134:1 143:1 149:1 157:1 163:1 188:1 204:1 219:1 229:1 251:1 256:1 258:1 267:1 297:1 298:1 300:1 301:1 303:1 305:1 309:1 318:1 319:1 320:1 328:1 344:1 348:1 354:1 382:1 394:1 399:1 402:1 404:1 412:1 423:1 430:1 434:1 438:1 453:1 476:1 479:1 480:1 483:1 485:1 493:1 496:1 501:1 513:1 517:1 519:1 532:1 533:1 534:1 557:1 564:1 569:1 571:1 573:1 607:1 626:1 638:1 650:1 663:1 679:1 707:1 716:1 763:1 768:1 784:1 800:1 807:1 818:1 845:1 862:1 885:1 886:1 933:1 936:1 951:1 963:1 970:1 986:1 1048:1 1069:1 1080:1 1096:1 1104:1 1105:1 1106:1 1146:1 1149:1 1178:1 1180:1 1187:1 1199:1 1207:1 1226:1 1230:1 1249:1 1250:1 1358:1 1359:1 1392:1 1428:1 1455:1 1459:1 1485:1 1497:1 1513:1 1531:1 1590:1 1624:1 1627:1 1680:1 1733:1 1792:1 1815:1 1826:1 1830:1 1936:1 1945:1 1972:1 2069:1 2093:1 2109:1 2113:1 2225:1 2344:1 2348:1 2362:1 2363:1 2395:1 2427:1 2440:1 2496:1 2512:1 2671:1 2689:1 2690:1 2901:1 2904:1 2906:1 2917:1 2988:1 3012:1 3274:1 3286:1 3292:1 3311:1 3336:1 3352:1 3362:1 3383:1 3389:1 3475:1 3480:1 3517:1 3531:1 3563:1 3592:1 3619:1 3906:1 3909:1 3989:1 4083:1 4128:1 4211:1 4392:1 4394:1 4455:1 4509:1 4556:1 4557:1 4567:1 4720:1 4726:1 4734:1 4764:1 4997:1 5021:1 5029:1 5153:1 5155:1 5167:1 5172:1 5177:1 5256:1 5294:1 5400:1 5539:1 5557:1 5569:1 5606:1 5733:1 5906:1 5997:1 6080:1 6539:1 6572:1 6631:1 6653:1 6669:1 6673:1 6744:1 6872:1 7170:1 7444:1 7522:1 7554:1 7773:1 7792:1 7905:1 7985:1 8261:1 8270:1 8723:1 8878:1 9303:1 9735:1 9993:1 10359:1 10391:1 10403:1 10600:1 10615:1 10665:1 10669:1 10822:1 11018:1 11211:1 11261:1 12528:1 13556:1 13687:1 14351:1 14446:1 14552:1 14893:1 15159:1 15495:1 16427:1 17451:1 17454:1 17517:1 18532:1 19381:1 20847:1 21319:1 21434:1 21815:1 22158:1 23365:1 25336:1 26461:1 26809:1 26862:1 27555:1 30208:1 30869:1 30897:1 30930:1 31666:1 31667:1 31668:1 31669:1 31670:1 31671:1 31672:1 31673:1 31674:1 31675:1 31676:1 31677:1 31678:1 31679:1 31680:1 31681:1 31682:1 31683:1 31684:1 31685:1 31686:1 #
-0.00099423084670116905654790873114734 4:1 6:1 7:1 9:1 11:1 15:1 17:1 33:1 34:1 39:1 41:1 42:1 46:1 49:1 51:1 60:1 62:1 67:1 72:1 73:1 75:1 77:1 86:1 91:1 95:1 96:1 98:1 110:1 111:1 115:1 117:1 121:1 123:1 125:1 126:1 127:1 129:1 131:1 134:1 138:1 143:1 144:1 146:1 157:1 188:1 204:1 208:1 213:1 229:1 251:1 256:1 267:1 294:1 297:1 298:1 300:1 305:1 309:1 319:1 326:1 341:1 345:1 347:1 352:1 368:1 373:1 377:1 394:1 404:1 412:1 426:1 446:1 453:1 462:1 473:1 476:1 479:1 480:1 485:1 496:1 501:1 512:1 533:1 534:1 536:1 539:1 548:1 568:1 569:1 589:1 591:1 599:1 607:1 614:1 618:1 621:1 624:1 625:1 647:1 679:1 716:1 717:1 738:1 741:1 747:1 748:1 755:1 763:1 768:1 769:1 774:1 792:1 795:1 823:1 840:1 841:1 845:1 859:1 865:1 870:1 871:1 878:1 879:1 917:1 921:1 943:1 945:1 947:1 969:1 970:1 982:1 986:1 1013:1 1016:1 1041:1 1046:1 1056:1 1071:1 1104:1 1161:1 1182:1 1187:1 1197:1 1226:1 1349:1 1353:1 1384:1 1392:1 1409:1 1420:1 1459:1 1538:1 1542:1 1567:1 1605:1 1613:1 1614:1 1634:1 1645:1 1654:1 1678:1 1695:1 1711:1 1730:1 1767:1 1806:1 1820:1 1830:1 1851:1 1898:1 2010:1 2012:1 2014:1 2022:1 2028:1 2069:1 2089:1 2127:1 2135:1 2137:1 2145:1 2153:1 2181:1 2233:1 2251:1 2263:1 2304:1 2346:1 2357:1 2391:1 2401:1 2406:1 2410:1 2433:1 2470:1 2566:1 2603:1 2605:1 2638:1 2646:1 2651:1 2663:1 2692:1 2731:1 2789:1 2796:1 2807:1 2863:1 2900:1 2947:1 2949:1 2991:1 3010:1 3040:1 3077:1 3079:1 3104:1 3118:1 3122:1 3284:1 3302:1 3322:1 3324:1 3346:1 3347:1 3399:1 3454:1 3455:1 3477:1 3624:1 3705:1 3729:1 3940:1 3956:1 3957:1 4007:1 4025:1 4042:1 4071:1 4103:1 4248:1 4448:1 4455:1 4480:1 4483:1 4549:1 4565:1 4705:1 4726:1 4792:1 4808:1 4875:1 5088:1 5104:1 5108:1 5109:1 5145:1 5164:1 5309:1 5393:1 5420:1 5458:1 5487:1 5609:1 5633:1 5768:1 5790:1 5896:1 5958:1 6040:1 6073:1 6148:1 6157:1 6198:1 6466:1 6719:1 6797:1 6859:1 7014:1 7226:1 7238:1 7244:1 7337:1 7382:1 7548:1 7590:1 7649:1 7758:1 7859:1 7942:1 7944:1 8025:1 8037:1 8246:1 8744:1 8971:1 9087:1 9141:1 9416:1 9715:1 9883:1 9889:1 9955:1 9970:1 10145:1 10592:1 10610:1 10988:1 11097:1 11143:1 11512:1 11644:1 12042:1 12191:1 12967:1 13308:1 13350:1 13369:1 13582:1 14396:1 14550:1 14888:1 14896:1 15054:1 15114:1 16377:1 16603:1 17818:1 18490:1 18959:1 18970:1 19327:1 19468:1 19529:1 19596:1 20190:1 20264:1 20284:1 20550:1 20626:1 20677:1 20678:1 20679:1 20680:1 20681:1 20682:1 20683:1 20684:1 20685:1 20686:1 20687:1 20688:1 20689:1 20690:1 20691:1 20692:1 20693:1 20694:1 20695:1 20696:1 20697:1 20698:1 20699:1 20700:1 20701:1 20702:1 20703:1 20704:1 20705:1 20706:1 20707:1 20708:1 20709:1 20710:1 20711:1 20712:1 20713:1 20714:1 20715:1 20716:1 20717:1 #
-0.0015367435327384613378415290085854 3:1 4:1 6:1 9:1 11:1 13:1 15:1 17:1 34:1 39:1 42:1 46:1 49:1 60:1 62:1 70:1 72:1 73:1 75:1 86:1 91:1 98:1 110:1 115:1 117:1 118:1 121:1 123:1 127:1 131:1 138:1 154:1 157:1 158:1 204:1 209:1 213:1 217:1 241:1 267:1 275:1 297:1 298:1 300:1 322:1 333:1 352:1 402:1 413:1 453:1 496:1 598:1 605:1 641:1 679:1 684:1 700:1 716:1 725:1 748:1 787:1 801:1 802:1 814:1 818:1 862:1 871:1 896:1 921:1 961:1 964:1 978:1 994:1 1007:1 1008:1 1027:1 1041:1 1069:1 1150:1 1200:1 1250:1 1255:1 1333:1 1334:1 1357:1 1411:1 1435:1 1464:1 1478:1 1488:1 1495:1 1545:1 1662:1 1676:1 1694:1 1767:1 1812:1 1911:1 1950:1 2161:1 2181:1 2357:1 2567:1 2813:1 2856:1 2878:1 2924:1 2940:1 2943:1 3086:1 3119:1 3362:1 3383:1 3424:1 3454:1 3786:1 4941:1 5527:1 5569:1 5724:1 6057:1 6138:1 6814:1 7235:1 7551:1 8542:1 8944:1 8972:1 9069:1 9293:1 12069:1 12445:1 15007:1 16125:1 20190:1 23349:1 24904:1 25363:1 25364:1 25365:1 25366:1 25367:1 25368:1 25369:1 #
0.0076917947464453448325194528933935 4:1 6:1 9:1 11:1 15:1 17:1 22:1 31:1 34:1 42:1 49:1 51:1 62:1 72:1 73:1 77:1 86:1 98:1 110:1 111:1 112:1 119:1 123:1 143:1 148:1 149:1 154:1 169:1 188:1 201:1 212:1 219:1 220:1 249:1 298:1 300:1 324:1 325:1 330:1 331:1 334:1 341:1 368:1 381:1 385:1 394:1 472:1 485:1 543:1 560:1 598:1 607:1 638:1 750:1 843:1 844:1 850:1 862:1 904:1 907:1 985:1 988:1 1019:1 1027:1 1059:1 1126:1 1160:1 1169:1 1178:1 1226:1 1357:1 1421:1 1434:1 1528:1 1653:1 1974:1 2163:1 2174:1 2183:1 2470:1 2575:1 2755:1 2768:1 2940:1 2965:1 2998:1 3246:1 3274:1 3480:1 3548:1 3561:1 3579:1 3633:1 3737:1 3840:1 3925:1 4287:1 4565:1 4739:1 4875:1 4977:1 5164:1 5181:1 5236:1 5251:1 5394:1 6896:1 7358:1 7483:1 7635:1 7728:1 7905:1 10732:1 11510:1 12281:1 14250:1 16619:1 18107:1 18587:1 19458:1 21507:1 25050:1 26641:1 31587:1 34319:1 34320:1 34321:1 34322:1 #
0.0076917947464453448325194528933935 4:1 9:1 11:1 12:1 15:1 34:1 39:1 42:1 49:1 51:1 121:1 123:1 129:1 148:1 183:1 190:1 204:1 209:1 213:1 217:1 236:1 239:1 309:1 341:1 394:1 412:1 413:1 446:1 462:1 493:1 494:1 700:1 754:1 755:1 768:1 802:1 867:1 964:1 1022:1 1158:1 1200:1 1333:1 1334:1 1394:1 1464:1 1510:1 1665:1 1712:1 2433:1 2516:1 2813:1 2826:1 3026:1 3086:1 3128:1 3240:1 5127:1 5319:1 5856:1 5935:1 6006:1 7596:1 8140:1 8193:1 8944:1 9069:1 9686:1 9832:1 11564:1 12513:1 12746:1 13565:1 14704:1 14858:1 15166:1 15584:1 15755:1 16056:1 16501:1 17737:1 19486:1 19487:1 19488:1 19489:1 19490:1 19491:1 19492:1 19493:1 19494:1 19495:1 #
0.0076917947464453448325194528933935 11:1 15:1 17:1 23:1 42:1 51:1 204:1 237:1 267:1 480:1 501:1 607:1 679:1 870:1 888:1 968:1 1085:1 1702:1 1714:1 1898:1 1957:1 2132:1 2576:1 3563:1 4116:1 4932:1 5129:1 5372:1 5487:1 6199:1 6497:1 6874:1 7176:1 7218:1 7263:1 7351:1 8754:1 9889:1 10272:1 11261:1 11891:1 12477:1 12552:1 13673:1 14437:1 15809:1 17300:1 17305:1 21066:1 27084:1 27085:1 27086:1 27087:1 27088:1 27089:1 27090:1 27091:1 27092:1 27093:1 27094:1 #
0.0076917947464453448325194528933935 4:1 6:1 9:1 11:1 15:1 17:1 33:1 34:1 41:1 42:1 44:1 60:1 62:1 75:1 81:1 91:1 93:1 110:1 121:1 123:1 131:1 143:1 169:1 188:1 204:1 209:1 212:1 229:1 236:1 249:1 255:1 267:1 287:1 394:1 471:1 560:1 581:1 607:1 613:1 615:1 616:1 684:1 862:1 988:1 1056:1 1071:1 1132:1 1139:1 1211:1 1246:1 1372:1 1387:1 1409:1 1447:1 1557:1 1624:1 1678:1 1748:1 1863:1 1891:1 1908:1 1987:1 2282:1 2496:1 2523:1 2600:1 2647:1 2659:1 2751:1 2785:1 3044:1 3086:1 3271:1 3327:1 3477:1 3589:1 3728:1 3731:1 4017:1 4231:1 4345:1 4875:1 5097:1 5284:1 5561:1 5952:1 5974:1 6354:1 6521:1 6540:1 6719:1 7338:1 7658:1 7779:1 7865:1 8140:1 9083:1 9546:1 10520:1 10545:1 10704:1 13186:1 13413:1 13613:1 13617:1 14095:1 16531:1 16540:1 16684:1 16811:1 17245:1 19030:1 19323:1 19701:1 23190:1 23194:1 25009:1 27808:1 27809:1 27810:1 27811:1 27812:1 27813:1 27814:1 27815:1 27816:1 27817:1 27818:1 27819:1 27820:1 #
0.0076917947464453448325194528933935 4:1 9:1 11:1 17:1 42:1 117:1 123:1 129:1 267:1 279:1 314:1 479:1 517:1 1019:1 1065:1 1238:1 1434:1 1755:1 1756:1 2768:1 3088:1 3835:1 3946:1 4323:1 5026:1 5413:1 7025:1 8987:1 8988:1 8989:1 8990:1 8991:1 #
-0.0026750940303600064321121188015695 9:1 11:1 60:1 180:1 193:1 204:1 632:1 2300:1 3477:1 4163:1 4597:1 4598:1 4599:1 8380:1 #
-0.00041743164017174038803864588587089 2:1 4:1 6:1 7:1 9:1 11:1 15:1 17:1 34:1 42:1 49:1 51:1 60:1 62:1 70:1 86:1 91:1 112:1 117:1 123:1 129:1 143:1 144:1 158:1 186:1 193:1 215:1 241:1 242:1 251:1 267:1 297:1 298:1 319:1 347:1 374:1 394:1 421:1 439:1 444:1 446:1 486:1 560:1 585:1 673:1 679:1 749:1 773:1 798:1 807:1 848:1 862:1 871:1 890:1 914:1 943:1 979:1 1011:1 1088:1 1103:1 1105:1 1156:1 1163:1 1192:1 1264:1 1265:1 1283:1 1284:1 1359:1 1380:1 1466:1 1479:1 1494:1 1624:1 1640:1 1648:1 1806:1 1863:1 1908:1 1909:1 1915:1 1936:1 1946:1 1951:1 1998:1 2148:1 2220:1 2345:1 2470:1 2520:1 2607:1 2684:1 2714:1 2909:1 2947:1 3143:1 3224:1 3322:1 3531:1 3830:1 4079:1 4083:1 4144:1 4150:1 4507:1 4566:1 4591:1 4824:1 4826:1 4828:1 4860:1 5020:1 5041:1 5319:1 5433:1 5697:1 5972:1 6404:1 6411:1 6412:1 6413:1 6491:1 6531:1 7411:1 7780:1 8166:1 8267:1 8307:1 8462:1 8552:1 8933:1 9124:1 9134:1 9337:1 10008:1 10009:1 10010:1 10046:1 10055:1 10343:1 10715:1 10792:1 11456:1 11549:1 11652:1 11675:1 12112:1 12598:1 12642:1 13699:1 13909:1 14610:1 14636:1 15855:1 18697:1 27673:1 27966:1 27967:1 27968:1 27969:1 27970:1 27971:1 27972:1 27973:1 27974:1 27975:1 27976:1 27977:1 27978:1 27979:1 #
-0.00082125625910350733872855588657558 4:1 6:1 9:1 11:1 15:1 33:1 34:1 39:1 42:1 45:1 46:1 48:1 49:1 54:1 60:1 62:1 70:1 72:1 75:1 77:1 86:1 87:1 91:1 97:1 102:1 107:1 110:1 115:1 121:1 122:1 123:1 129:1 131:1 143:1 148:1 149:1 164:1 168:1 169:1 188:1 190:1 199:1 229:1 243:1 256:1 258:1 267:1 297:1 298:1 305:1 319:1 347:1 352:1 391:1 412:1 438:1 446:1 453:1 480:1 481:1 496:1 500:1 517:1 533:1 550:1 557:1 560:1 570:1 595:1 599:1 687:1 703:1 714:1 768:1 773:1 774:1 802:1 856:1 862:1 878:1 885:1 902:1 944:1 964:1 984:1 1025:1 1027:1 1040:1 1084:1 1134:1 1146:1 1155:1 1171:1 1174:1 1207:1 1211:1 1232:1 1253:1 1257:1 1375:1 1378:1 1380:1 1385:1 1402:1 1421:1 1471:1 1482:1 1499:1 1510:1 1693:1 1806:1 1983:1 2069:1 2223:1 2379:1 2408:1 2501:1 2613:1 2630:1 2765:1 2791:1 2822:1 2893:1 3001:1 3101:1 3224:1 3255:1 3314:1 3322:1 3628:1 3837:1 3975:1 4287:1 4431:1 4434:1 4586:1 4826:1 5002:1 5086:1 5097:1 5158:1 5298:1 5576:1 5627:1 5759:1 5903:1 5960:1 6035:1 6073:1 6279:1 6333:1 6484:1 6519:1 6830:1 7211:1 7358:1 7372:1 7599:1 7982:1 8007:1 8125:1 8180:1 8318:1 8400:1 8401:1 8402:1 8403:1 8404:1 8405:1 8406:1 8407:1 8408:1 8409:1 8410:1 8411:1 8412:1 8413:1 8414:1 8415:1 8416:1 8417:1 8418:1 8419:1 8420:1 8421:1 8422:1 8423:1 8424:1 8425:1 8426:1 8427:1 8428:1 8429:1 8430:1 8431:1 8432:1 8433:1 8434:1 8435:1 8436:1 8437:1 8438:1 8439:1 8440:1 8441:1 8442:1 8443:1 8444:1 8445:1 8446:1 8447:1 8448:1 8449:1 8450:1 8451:1 8452:1 8453:1 8454:1 8455:1 8456:1 8457:1 8458:1 8459:1 8460:1 8461:1 8462:1 #
-0.00047162755366896702688070397435638 6:1 7:1 9:1 11:1 15:1 34:1 39:1 41:1 42:1 49:1 51:1 60:1 62:1 72:1 77:1 86:1 94:1 98:1 123:1 143:1 163:1 168:1 204:1 213:1 229:1 240:1 251:1 255:1 275:1 280:1 297:1 300:1 313:1 341:1 413:1 445:1 479:1 520:1 534:1 607:1 637:1 714:1 774:1 842:1 853:1 858:1 888:1 954:1 1084:1 1087:1 1249:1 1271:1 1294:1 1302:1 1451:1 1652:1 1678:1 1936:1 2071:1 2072:1 2104:1 2214:1 2675:1 3058:1 3834:1 4785:1 4865:1 5004:1 5262:1 5660:1 6302:1 7553:1 7571:1 7584:1 7682:1 8724:1 9101:1 10071:1 11244:1 11645:1 13448:1 15324:1 15944:1 18796:1 19944:1 20627:1 20628:1 20629:1 20630:1 20631:1 20632:1 20633:1 20634:1 20635:1 20636:1 20637:1 20638:1 #
-0.00047003382451670118859568536784366 6:1 7:1 9:1 11:1 15:1 17:1 18:1 33:1 34:1 39:1 41:1 42:1 46:1 48:1 49:1 51:1 60:1 75:1 77:1 86:1 91:1 110:1 115:1 116:1 117:1 118:1 120:1 121:1 123:1 125:1 126:1 127:1 131:1 143:1 144:1 146:1 148:1 149:1 160:1 163:1 190:1 191:1 204:1 205:1 213:1 229:1 241:1 248:1 251:1 258:1 267:1 279:1 300:1 319:1 337:1 382:1 394:1 409:1 424:1 444:1 446:1 476:1 496:1 511:1 527:1 533:1 560:1 567:1 598:1 607:1 643:1 647:1 652:1 684:1 727:1 785:1 802:1 830:1 850:1 852:1 858:1 886:1 888:1 896:1 897:1 1021:1 1027:1 1046:1 1096:1 1101:1 1103:1 1110:1 1187:1 1192:1 1207:1 1255:1 1262:1 1269:1 1347:1 1405:1 1441:1 1522:1 1689:1 1809:1 1845:1 1902:1 1976:1 2256:1 2258:1 2287:1 2497:1 2498:1 2693:1 2820:1 2855:1 3012:1 3086:1 3135:1 3136:1 3236:1 3339:1 3515:1 3600:1 3626:1 3693:1 3703:1 3894:1 4086:1 4144:1 4326:1 4334:1 4338:1 4656:1 4659:1 4721:1 4726:1 4927:1 4957:1 5116:1 5145:1 5171:1 5187:1 5197:1 5238:1 5340:1 5434:1 5625:1 5657:1 6208:1 6484:1 7011:1 7550:1 7688:1 7701:1 7907:1 8244:1 8332:1 9856:1 10185:1 10671:1 11388:1 13210:1 13585:1 14136:1 15376:1 17473:1 18056:1 21490:1 22348:1 25346:1 33578:1 33579:1 33580:1 #
-0.001532813853756054625621096931809 2:1 4:1 6:1 7:1 9:1 11:1 14:1 15:1 17:1 25:1 27:1 34:1 36:1 37:1 39:1 41:1 42:1 44:1 46:1 48:1 49:1 51:1 60:1 62:1 69:1 70:1 72:1 73:1 75:1 77:1 79:1 81:1 86:1 87:1 91:1 95:1 98:1 103:1 110:1 111:1 112:1 115:1 117:1 119:1 121:1 123:1 126:1 127:1 128:1 129:1 131:1 133:1 134:1 136:1 140:1 142:1 143:1 147:1 148:1 157:1 166:1 188:1 193:1 194:1 200:1 202:1 204:1 212:1 213:1 215:1 217:1 241:1 242:1 243:1 244:1 248:1 251:1 258:1 262:1 264:1 267:1 297:1 298:1 300:1 303:1 305:1 309:1 318:1 319:1 327:1 335:1 337:1 347:1 349:1 352:1 353:1 356:1 359:1 362:1 363:1 364:1 372:1 373:1 382:1 387:1 394:1 402:1 412:1 413:1 428:1 431:1 440:1 444:1 446:1 453:1 454:1 462:1 466:1 467:1 468:1 471:1 476:1 479:1 480:1 481:1 485:1 490:1 499:1 517:1 519:1 521:1 528:1 534:1 537:1 545:1 553:1 557:1 560:1 563:1 564:1 568:1 569:1 607:1 616:1 618:1 624:1 638:1 643:1 652:1 662:1 675:1 679:1 716:1 741:1 774:1 784:1 785:1 786:1 792:1 843:1 845:1 850:1 862:1 867:1 870:1 879:1 885:1 890:1 892:1 902:1 914:1 944:1 945:1 947:1 949:1 999:1 1014:1 1016:1 1027:1 1048:1 1056:1 1059:1 1071:1 1075:1 1080:1 1085:1 1103:1 1104:1 1105:1 1120:1 1126:1 1129:1 1145:1 1156:1 1178:1 1195:1 1213:1 1216:1 1226:1 1255:1 1257:1 1359:1 1361:1 1399:1 1402:1 1407:1 1484:1 1495:1 1545:1 1547:1 1613:1 1614:1 1628:1 1632:1 1634:1 1640:1 1674:1 1678:1 1710:1 1722:1 1750:1 1751:1 1754:1 1788:1 1800:1 1863:1 1910:1 1983:1 2000:1 2007:1 2012:1 2039:1 2088:1 2102:1 2107:1 2127:1 2137:1 2222:1 2308:1 2313:1 2362:1 2363:1 2387:1 2391:1 2412:1 2413:1 2421:1 2446:1 2490:1 2496:1 2663:1 2671:1 2795:1 2807:1 2826:1 2851:1 2860:1 2863:1 2909:1 2964:1 2965:1 2968:1 2988:1 3011:1 3019:1 3027:1 3077:1 3086:1 3090:1 3133:1 3236:1 3238:1 3270:1 3273:1 3307:1 3327:1 3350:1 3385:1 3486:1 3541:1 3548:1 3604:1 3628:1 3687:1 3716:1 3747:1 3760:1 4062:1 4208:1 4216:1 4346:1 4406:1 4418:1 4485:1 4558:1 4574:1 4609:1 4610:1 4618:1 4682:1 4707:1 4719:1 4808:1 4877:1 4940:1 4994:1 5042:1 5295:1 5309:1 5319:1 5352:1 5374:1 5458:1 5508:1 5609:1 5637:1 5733:1 5745:1 5768:1 5789:1 5792:1 5814:1 5844:1 5903:1 5974:1 5991:1 6113:1 6148:1 6157:1 6298:1 6463:1 6483:1 6565:1 6572:1 6573:1 6628:1 6685:1 6744:1 6814:1 6899:1 6981:1 6992:1 7022:1 7284:1 7393:1 7461:1 7515:1 7519:1 7622:1 7623:1 7920:1 7943:1 7956:1 7979:1 7982:1 8021:1 8164:1 8274:1 8419:1 8527:1 8911:1 9088:1 9369:1 10167:1 10187:1 10391:1 10570:1 10584:1 10592:1 10612:1 10699:1 10739:1 10853:1 11466:1 11816:1 11886:1 11930:1 12191:1 12206:1 12254:1 12575:1 13264:1 13274:1 13299:1 13306:1 13358:1 13416:1 13647:1 13888:1 14130:1 14285:1 14410:1 14763:1 14798:1 14818:1 15072:1 15133:1 15182:1 15662:1 16289:1 16359:1 16502:1 16736:1 17028:1 17066:1 17281:1 17707:1 18715:1 18860:1 18881:1 19238:1 19239:1 19596:1 19939:1 20250:1 20255:1 20493:1 20789:1 21066:1 21394:1 21692:1 21900:1 23693:1 24318:1 24844:1 24924:1 26172:1 27175:1 27943:1 28083:1 28084:1 28085:1 28086:1 28087:1 28088:1 28089:1 28090:1 28091:1 28092:1 28093:1 28094:1 28095:1 28096:1 28097:1 28098:1 28099:1 28100:1 28101:1 28102:1 28103:1 28104:1 28105:1 28106:1 28107:1 28108:1 28109:1 28110:1 28111:1 28112:1 28113:1 28114:1 #
8.0848471584227135731254287875913e-05 3:1 4:1 6:1 8:1 9:1 10:1 11:1 15:1 17:1 19:1 20:1 22:1 31:1 34:1 35:1 39:1 40:1 41:1 42:1 44:1 45:1 46:1 49:1 51:1 60:1 67:1 69:1 70:1 72:1 73:1 75:1 76:1 77:1 84:1 86:1 91:1 93:1 95:1 97:1 98:1 110:1 111:1 112:1 115:1 117:1 118:1 119:1 121:1 122:1 123:1 125:1 126:1 127:1 129:1 131:1 134:1 138:1 143:1 144:1 146:1 148:1 149:1 157:1 164:1 168:1 169:1 173:1 188:1 190:1 191:1 193:1 199:1 204:1 212:1 213:1 217:1 218:1 219:1 220:1 237:1 241:1 243:1 244:1 251:1 255:1 256:1 264:1 267:1 285:1 291:1 297:1 298:1 303:1 304:1 305:1 309:1 313:1 316:1 318:1 319:1 322:1 340:1 343:1 354:1 356:1 365:1 369:1 372:1 374:1 378:1 379:1 382:1 394:1 402:1 404:1 408:1 416:1 425:1 426:1 430:1 438:1 440:1 444:1 461:1 477:1 479:1 483:1 485:1 486:1 495:1 496:1 504:1 519:1 532:1 533:1 545:1 550:1 553:1 557:1 560:1 564:1 570:1 595:1 599:1 607:1 614:1 615:1 637:1 638:1 639:1 644:1 647:1 679:1 684:1 700:1 712:1 714:1 721:1 727:1 755:1 768:1 774:1 784:1 787:1 791:1 793:1 802:1 805:1 833:1 845:1 850:1 856:1 862:1 867:1 871:1 878:1 917:1 919:1 921:1 947:1 959:1 977:1 986:1 987:1 994:1 1046:1 1049:1 1069:1 1071:1 1083:1 1092:1 1103:1 1105:1 1106:1 1116:1 1125:1 1127:1 1146:1 1149:1 1153:1 1187:1 1193:1 1198:1 1203:1 1214:1 1223:1 1227:1 1230:1 1232:1 1239:1 1244:1 1249:1 1250:1 1251:1 1271:1 1282:1 1283:1 1304:1 1349:1 1357:1 1392:1 1396:1 1399:1 1402:1 1411:1 1421:1 1429:1 1455:1 1483:1 1484:1 1486:1 1514:1 1522:1 1526:1 1545:1 1590:1 1605:1 1614:1 1616:1 1624:1 1653:1 1678:1 1680:1 1728:1 1731:1 1750:1 1806:1 1820:1 1823:1 1830:1 1845:1 1863:1 1873:1 1891:1 1897:1 1910:1 1974:1 1999:1 2013:1 2014:1 2028:1 2039:1 2053:1 2062:1 2081:1 2088:1 2114:1 2142:1 2161:1 2193:1 2212:1 2225:1 2258:1 2313:1 2340:1 2347:1 2350:1 2358:1 2379:1 2391:1 2410:1 2445:1 2496:1 2506:1 2550:1 2566:1 2582:1 2605:1 2698:1 2724:1 2730:1 2766:1 2803:1 2862:1 2871:1 2873:1 2888:1 2904:1 2943:1 2958:1 2965:1 2988:1 3017:1 3042:1 3098:1 3114:1 3240:1 3243:1 3247:1 3264:1 3285:1 3299:1 3312:1 3322:1 3325:1 3334:1 3352:1 3391:1 3404:1 3438:1 3454:1 3477:1 3480:1 3676:1 3705:1 3725:1 3740:1 3777:1 3994:1 4015:1 4021:1 4032:1 4089:1 4096:1 4136:1 4146:1 4155:1 4158:1 4178:1 4314:1 4358:1 4447:1 4460:1 4512:1 4537:1 4543:1 4552:1 4556:1 4579:1 4584:1 4598:1 4619:1 4649:1 4745:1 4810:1 4821:1 4826:1 4870:1 4937:1 4941:1 4974:1 4981:1 4989:1 5073:1 5080:1 5093:1 5110:1 5111:1 5124:1 5146:1 5156:1 5167:1 5298:1 5314:1 5384:1 5438:1 5444:1 5458:1 5487:1 5520:1 5596:1 5631:1 5711:1 5748:1 5788:1 5829:1 6037:1 6093:1 6227:1 6273:1 6309:1 6360:1 6410:1 6420:1 6519:1 6597:1 6757:1 6832:1 6872:1 6936:1 6992:1 6995:1 7047:1 7070:1 7084:1 7171:1 7202:1 7211:1 7219:1 7310:1 7316:1 7337:1 7342:1 7353:1 7372:1 7376:1 7434:1 7448:1 7457:1 7483:1 7521:1 7532:1 7636:1 7642:1 7749:1 7821:1 7894:1 7896:1 7931:1 7973:1 7987:1 8040:1 8078:1 8139:1 8236:1 8290:1 8443:1 8452:1 8462:1 8558:1 8663:1 9088:1 9246:1 9252:1 9324:1 9368:1 9436:1 9437:1 9511:1 9520:1 9524:1 9575:1 9955:1 9973:1 10023:1 10062:1 10078:1 10247:1 10268:1 10272:1 10274:1 10650:1 10691:1 10862:1 11163:1 11213:1 11370:1 11467:1 11542:1 11612:1 11683:1 11707:1 11808:1 11871:1 11985:1 12207:1 12477:1 12506:1 12549:1 12679:1 13008:1 13057:1 13107:1 13197:1 13232:1 13453:1 13512:1 14132:1 14157:1 14285:1 14337:1 14410:1 14463:1 14799:1 14843:1 14849:1 14873:1 14977:1 15031:1 15130:1 15234:1 15372:1 15583:1 15747:1 15971:1 16319:1 16992:1 17048:1 17206:1 17389:1 17428:1 17718:1 17778:1 17986:1 17987:1 18362:1 18442:1 18919:1 18980:1 19045:1 19176:1 19185:1 19471:1 19596:1 19797:1 20085:1 20225:1 20343:1 21122:1 21608:1 21695:1 21699:1 22287:1 22398:1 22669:1 23210:1 23441:1 23531:1 24321:1 24411:1 25468:1 25660:1 25661:1 25662:1 25663:1 25664:1 25665:1 25666:1 25667:1 25668:1 25669:1 25670:1 25671:1 25672:1 25673:1 25674:1 25675:1 25676:1 25677:1 25678:1 25679:1 25680:1 25681:1 25682:1 25683:1 25684:1 25685:1 25686:1 25687:1 25688:1 25689:1 25690:1 25691:1 25692:1 25693:1 25694:1 25695:1 25696:1 25697:1 25698:1 25699:1 25700:1 25701:1 25702:1 25703:1 25704:1 25705:1 25706:1 25707:1 25708:1 25709:1 25710:1 25711:1 25712:1 25713:1 25714:1 25715:1 25716:1 25717:1 25718:1 25719:1 25720:1 25721:1 25722:1 25723:1 25724:1 25725:1 25726:1 25727:1 25728:1 25729:1 25730:1 25731:1 #
0.0039303224666403712914131141076268 3:1 4:1 6:1 7:1 8:1 9:1 11:1 15:1 17:1 20:1 33:1 34:1 35:1 39:1 41:1 42:1 46:1 48:1 49:1 51:1 56:1 60:1 62:1 67:1 70:1 73:1 75:1 77:1 80:1 86:1 91:1 93:1 95:1 98:1 110:1 111:1 115:1 117:1 118:1 119:1 121:1 123:1 127:1 129:1 130:1 131:1 133:1 138:1 143:1 144:1 148:1 149:1 151:1 157:1 160:1 163:1 173:1 188:1 190:1 191:1 204:1 208:1 213:1 215:1 218:1 219:1 229:1 237:1 241:1 242:1 243:1 244:1 251:1 256:1 267:1 272:1 294:1 297:1 298:1 300:1 303:1 309:1 316:1 319:1 335:1 343:1 354:1 356:1 368:1 369:1 382:1 394:1 404:1 405:1 409:1 412:1 426:1 430:1 437:1 438:1 444:1 471:1 479:1 480:1 483:1 485:1 496:1 501:1 518:1 533:1 534:1 545:1 551:1 557:1 564:1 569:1 595:1 607:1 633:1 638:1 654:1 673:1 676:1 679:1 714:1 716:1 763:1 768:1 773:1 774:1 789:1 802:1 871:1 914:1 917:1 948:1 959:1 963:1 970:1 986:1 999:1 1014:1 1023:1 1024:1 1032:1 1056:1 1069:1 1070:1 1071:1 1073:1 1077:1 1091:1 1096:1 1105:1 1134:1 1149:1 1162:1 1177:1 1185:1 1187:1 1188:1 1192:1 1193:1 1199:1 1211:1 1230:1 1242:1 1251:1 1255:1 1271:1 1282:1 1283:1 1304:1 1343:1 1349:1 1359:1 1392:1 1394:1 1401:1 1402:1 1429:1 1442:1 1459:1 1471:1 1486:1 1494:1 1498:1 1501:1 1511:1 1512:1 1514:1 1517:1 1526:1 1605:1 1624:1 1628:1 1666:1 1678:1 1684:1 1700:1 1702:1 1712:1 1731:1 1787:1 1816:1 1863:1 1892:1 1897:1 1902:1 1910:1 1946:1 1951:1 1976:1 1977:1 2017:1 2039:1 2040:1 2069:1 2076:1 2077:1 2088:1 2093:1 2105:1 2161:1 2163:1 2182:1 2183:1 2193:1 2212:1 2218:1 2223:1 2228:1 2232:1 2237:1 2292:1 2299:1 2362:1 2363:1 2366:1 2372:1 2391:1 2410:1 2415:1 2427:1 2433:1 2440:1 2470:1 2496:1 2502:1 2544:1 2671:1 2715:1 2799:1 2820:1 2878:1 2904:1 2916:1 2917:1 2919:1 2998:1 3010:1 3044:1 3135:1 3136:1 3151:1 3255:1 3352:1 3362:1 3374:1 3383:1 3439:1 3477:1 3526:1 3561:1 3600:1 3626:1 3648:1 3653:1 3693:1 3904:1 3924:1 3934:1 3957:1 4037:1 4071:1 4094:1 4142:1 4282:1 4303:1 4361:1 4440:1 4452:1 4457:1 4546:1 4646:1 4706:1 4734:1 4810:1 4941:1 4957:1 4994:1 5000:1 5001:1 5133:1 5291:1 5305:1 5340:1 5392:1 5410:1 5434:1 5450:1 5451:1 5521:1 5553:1 5569:1 5646:1 5704:1 5705:1 5729:1 5745:1 5787:1 5816:1 5897:1 5898:1 6095:1 6199:1 6239:1 6365:1 6388:1 6404:1 6409:1 6410:1 6452:1 6534:1 6735:1 6762:1 6816:1 6874:1 6900:1 7084:1 7118:1 7348:1 7404:1 7446:1 7480:1 7503:1 7514:1 7673:1 7876:1 7957:1 8177:1 8201:1 8235:1 8397:1 8471:1 8667:1 8693:1 8754:1 8863:1 8889:1 9079:1 9128:1 9314:1 9337:1 9341:1 9385:1 9395:1 9516:1 9519:1 9561:1 9587:1 10167:1 10253:1 10321:1 10421:1 10771:1 10772:1 10784:1 10951:1 11010:1 11590:1 12699:1 12728:1 12802:1 12807:1 12883:1 12884:1 12892:1 13098:1 13570:1 13577:1 13759:1 13923:1 14370:1 14454:1 14536:1 14689:1 14837:1 15027:1 15179:1 15298:1 15395:1 15406:1 15734:1 16243:1 16837:1 17253:1 17304:1 17352:1 17684:1 17724:1 17725:1 17726:1 17727:1 17728:1 17729:1 17730:1 17731:1 17732:1 17733:1 17734:1 17735:1 17736:1 17737:1 17738:1 17739:1 17740:1 17741:1 17742:1 17743:1 17744:1 17745:1 17746:1 17747:1 17748:1 17749:1 17750:1 17751:1 17752:1 17753:1 17754:1 17755:1 17756:1 17757:1 17758:1 17759:1 17760:1 17761:1 17762:1 17763:1 17764:1 17765:1 17766:1 17767:1 17768:1 17769:1 17770:1 17771:1 17772:1 17773:1 17774:1 17775:1 17776:1 17777:1 17778:1 17779:1 17780:1 17781:1 17782:1 17783:1 17784:1 17785:1 17786:1 17787:1 17788:1 17789:1 17790:1 17791:1 17792:1 17793:1 17794:1 17795:1 17796:1 17797:1 17798:1 17799:1 17800:1 17801:1 17802:1 17803:1 17804:1 17805:1 17806:1 17807:1 17808:1 17809:1 17810:1 17811:1 17812:1 17813:1 17814:1 17815:1 17816:1 17817:1 17818:1 17819:1 17820:1 17821:1 17822:1 17823:1 17824:1 17825:1 17826:1 17827:1 17828:1 17829:1 17830:1 17831:1 17832:1 17833:1 17834:1 17835:1 #
0.0054907699033905441737823949210906 4:1 6:1 7:1 9:1 10:1 11:1 15:1 17:1 20:1 25:1 31:1 33:1 34:1 39:1 41:1 42:1 46:1 48:1 49:1 51:1 57:1 60:1 62:1 68:1 69:1 72:1 73:1 76:1 77:1 82:1 84:1 86:1 91:1 93:1 95:1 96:1 97:1 98:1 108:1 110:1 111:1 117:1 118:1 119:1 121:1 123:1 125:1 126:1 127:1 129:1 131:1 143:1 144:1 147:1 148:1 153:1 163:1 164:1 168:1 188:1 190:1 191:1 193:1 199:1 204:1 208:1 213:1 215:1 220:1 229:1 236:1 237:1 251:1 256:1 258:1 259:1 264:1 267:1 298:1 300:1 309:1 316:1 335:1 341:1 348:1 354:1 365:1 373:1 384:1 394:1 403:1 404:1 408:1 415:1 444:1 446:1 452:1 453:1 455:1 458:1 473:1 475:1 479:1 480:1 481:1 485:1 512:1 517:1 520:1 534:1 535:1 545:1 551:1 557:1 564:1 572:1 573:1 577:1 581:1 585:1 587:1 590:1 591:1 595:1 597:1 599:1 605:1 607:1 618:1 624:1 626:1 628:1 632:1 637:1 638:1 641:1 643:1 650:1 665:1 679:1 727:1 748:1 760:1 768:1 785:1 787:1 791:1 798:1 801:1 802:1 805:1 811:1 812:1 817:1 818:1 823:1 830:1 843:1 846:1 848:1 855:1 871:1 921:1 936:1 951:1 963:1 964:1 978:1 979:1 986:1 1013:1 1027:1 1038:1 1046:1 1060:1 1069:1 1071:1 1083:1 1105:1 1147:1 1153:1 1187:1 1203:1 1216:1 1223:1 1226:1 1230:1 1253:1 1271:1 1273:1 1334:1 1399:1 1402:1 1404:1 1407:1 1421:1 1429:1 1438:1 1454:1 1479:1 1488:1 1528:1 1547:1 1562:1 1567:1 1605:1 1613:1 1634:1 1644:1 1646:1 1648:1 1660:1 1662:1 1678:1 1698:1 1720:1 1728:1 1730:1 1738:1 1742:1 1753:1 1754:1 1756:1 1758:1 1763:1 1776:1 1831:1 1918:1 1932:1 1933:1 1983:1 2000:1 2021:1 2053:1 2067:1 2070:1 2076:1 2086:1 2088:1 2093:1 2107:1 2125:1 2153:1 2193:1 2204:1 2214:1 2250:1 2277:1 2282:1 2287:1 2306:1 2349:1 2421:1 2436:1 2497:1 2499:1 2546:1 2547:1 2571:1 2613:1 2618:1 2663:1 2672:1 2692:1 2758:1 2772:1 2775:1 2813:1 2821:1 2838:1 2846:1 2893:1 2933:1 2955:1 2979:1 3005:1 3026:1 3077:1 3115:1 3119:1 3243:1 3308:1 3334:1 3361:1 3362:1 3383:1 3385:1 3388:1 3455:1 3506:1 3517:1 3565:1 3591:1 3628:1 3648:1 3676:1 3682:1 3684:1 3703:1 3709:1 3717:1 3768:1 3812:1 3904:1 3954:1 3976:1 3977:1 3986:1 3989:1 3990:1 4031:1 4036:1 4216:1 4634:1 4783:1 4910:1 4918:1 4932:1 4957:1 5138:1 5186:1 5190:1 5197:1 5234:1 5266:1 5279:1 5298:1 5393:1 5461:1 5728:1 5767:1 5790:1 6006:1 6148:1 6351:1 6497:1 6521:1 6562:1 6575:1 6685:1 7048:1 7072:1 7537:1 7584:1 7597:1 7635:1 7655:1 7749:1 7777:1 7779:1 7780:1 7967:1 8078:1 8341:1 8384:1 8899:1 9246:1 9603:1 9841:1 9933:1 10078:1 10268:1 10391:1 10403:1 10594:1 10637:1 10792:1 10876:1 11203:1 11320:1 11693:1 12216:1 12407:1 12932:1 13478:1 13552:1 13773:1 13872:1 14132:1 14593:1 15193:1 15289:1 15564:1 15987:1 16089:1 16428:1 16954:1 16975:1 17168:1 18309:1 18881:1 19392:1 21333:1 21854:1 22666:1 22686:1 23406:1 23839:1 24979:1 25780:1 25934:1 25935:1 25936:1 25937:1 25938:1 25939:1 25940:1 25941:1 25942:1 25943:1 25944:1 25945:1 25946:1 25947:1 25948:1 25949:1 25950:1 25951:1 25952:1 25953:1 25954:1 25955:1 25956:1 25957:1 25958:1 25959:1 25960:1 25961:1 25962:1 25963:1 25964:1 25965:1 25966:1 #
0.0015909641090418166417541634416466 3:1 4:1 5:1 6:1 7:1 9:1 11:1 15:1 17:1 20:1 31:1 34:1 39:1 41:1 42:1 46:1 49:1 51:1 60:1 62:1 69:1 70:1 73:1 75:1 76:1 77:1 80:1 86:1 91:1 96:1 97:1 98:1 110:1 111:1 112:1 115:1 116:1 117:1 118:1 119:1 121:1 122:1 123:1 125:1 126:1 127:1 129:1 131:1 134:1 138:1 143:1 144:1 146:1 148:1 149:1 163:1 168:1 188:1 191:1 194:1 199:1 204:1 210:1 213:1 218:1 229:1 241:1 244:1 251:1 256:1 259:1 264:1 267:1 281:1 297:1 298:1 300:1 319:1 322:1 341:1 342:1 352:1 354:1 356:1 367:1 368:1 378:1 379:1 382:1 389:1 394:1 398:1 402:1 404:1 406:1 423:1 424:1 426:1 430:1 438:1 444:1 446:1 449:1 453:1 455:1 475:1 479:1 483:1 485:1 486:1 487:1 495:1 496:1 504:1 517:1 518:1 520:1 521:1 527:1 533:1 534:1 550:1 551:1 553:1 557:1 560:1 563:1 564:1 572:1 595:1 599:1 607:1 618:1 629:1 632:1 637:1 651:1 675:1 679:1 683:1 684:1 689:1 714:1 716:1 725:1 754:1 755:1 763:1 768:1 774:1 791:1 796:1 802:1 803:1 805:1 807:1 810:1 812:1 818:1 828:1 830:1 840:1 845:1 846:1 850:1 853:1 865:1 878:1 892:1 908:1 919:1 920:1 921:1 927:1 942:1 947:1 959:1 974:1 988:1 1027:1 1032:1 1046:1 1069:1 1083:1 1084:1 1105:1 1106:1 1126:1 1127:1 1149:1 1150:1 1161:1 1177:1 1178:1 1185:1 1187:1 1195:1 1203:1 1211:1 1226:1 1230:1 1249:1 1253:1 1255:1 1261:1 1302:1 1305:1 1334:1 1335:1 1367:1 1420:1 1426:1 1429:1 1455:1 1464:1 1478:1 1483:1 1511:1 1517:1 1534:1 1605:1 1614:1 1616:1 1627:1 1634:1 1640:1 1645:1 1678:1 1681:1 1728:1 1731:1 1789:1 1792:1 1794:1 1803:1 1806:1 1825:1 1830:1 1831:1 1849:1 1881:1 1967:1 1983:1 2039:1 2053:1 2076:1 2082:1 2086:1 2101:1 2102:1 2136:1 2163:1 2210:1 2222:1 2225:1 2282:1 2311:1 2313:1 2316:1 2318:1 2331:1 2337:1 2338:1 2341:1 2344:1 2357:1 2405:1 2406:1 2410:1 2413:1 2417:1 2440:1 2497:1 2502:1 2548:1 2560:1 2566:1 2615:1 2643:1 2644:1 2663:1 2667:1 2675:1 2768:1 2775:1 2789:1 2909:1 2916:1 2919:1 2943:1 2955:1 3012:1 3015:1 3027:1 3048:1 3058:1 3071:1 3086:1 3253:1 3264:1 3286:1 3292:1 3302:1 3322:1 3352:1 3355:1 3362:1 3385:1 3454:1 3470:1 3486:1 3548:1 3571:1 3572:1 3663:1 3669:1 3678:1 3693:1 3705:1 3742:1 3854:1 3925:1 3987:1 4014:1 4039:1 4126:1 4156:1 4158:1 4244:1 4269:1 4287:1 4338:1 4403:1 4542:1 4620:1 4648:1 4719:1 4790:1 4826:1 4937:1 4941:1 5110:1 5111:1 5130:1 5177:1 5190:1 5198:1 5253:1 5303:1 5410:1 5458:1 5508:1 5516:1 5541:1 5568:1 5647:1 5733:1 5786:1 5796:1 5971:1 5979:1 5989:1 6037:1 6302:1 6364:1 6365:1 6425:1 6452:1 6744:1 6920:1 7048:1 7050:1 7059:1 7224:1 7247:1 7266:1 7384:1 7510:1 7521:1 7532:1 7576:1 7600:1 7798:1 7811:1 7812:1 7829:1 7905:1 8205:1 8230:1 8307:1 8362:1 8397:1 8433:1 8473:1 8492:1 8548:1 8693:1 8887:1 9067:1 9130:1 9408:1 9436:1 9457:1 9508:1 9666:1 10224:1 10490:1 10757:1 10902:1 10971:1 11009:1 11153:1 11189:1 11515:1 11559:1 11569:1 11735:1 11866:1 12154:1 12168:1 12346:1 12428:1 12522:1 12680:1 12772:1 12967:1 13363:1 13470:1 13541:1 14080:1 14238:1 14298:1 14840:1 14904:1 15372:1 15460:1 15480:1 15481:1 15482:1 15483:1 15484:1 15485:1 15486:1 15487:1 15488:1 15489:1 15490:1 15491:1 15492:1 15493:1 15494:1 15495:1 15496:1 15497:1 15498:1 15499:1 15500:1 15501:1 15502:1 15503:1 15504:1 15505:1 15506:1 15507:1 15508:1 15509:1 15510:1 15511:1 15512:1 15513:1 15514:1 15515:1 15516:1 15517:1 15518:1 15519:1 15520:1 15521:1 15522:1 15523:1 15524:1 15525:1 15526:1 15527:1 15528:1 15529:1 15530:1 15531:1 15532:1 15533:1 15534:1 15535:1 15536:1 15537:1 15538:1 15539:1 15540:1 15541:1 15542:1 15543:1 15544:1 15545:1 15546:1 #
-0.0046342465243202528649146820782789 4:1 6:1 9:1 11:1 15:1 17:1 20:1 25:1 29:1 34:1 41:1 42:1 46:1 49:1 51:1 60:1 62:1 70:1 76:1 77:1 86:1 91:1 96:1 98:1 110:1 111:1 115:1 118:1 119:1 121:1 123:1 127:1 129:1 130:1 131:1 134:1 138:1 143:1 149:1 157:1 163:1 164:1 169:1 173:1 188:1 193:1 204:1 207:1 208:1 213:1 229:1 236:1 243:1 244:1 251:1 267:1 297:1 300:1 309:1 318:1 319:1 341:1 347:1 348:1 352:1 354:1 356:1 372:1 382:1 383:1 391:1 394:1 404:1 406:1 408:1 430:1 437:1 438:1 445:1 446:1 453:1 471:1 472:1 479:1 483:1 485:1 486:1 496:1 501:1 504:1 512:1 521:1 527:1 533:1 552:1 557:1 560:1 564:1 568:1 597:1 599:1 607:1 637:1 638:1 639:1 647:1 676:1 679:1 706:1 714:1 716:1 740:1 745:1 755:1 763:1 768:1 802:1 821:1 850:1 871:1 875:1 892:1 896:1 904:1 907:1 914:1 986:1 988:1 1027:1 1034:1 1041:1 1069:1 1077:1 1101:1 1105:1 1106:1 1116:1 1123:1 1177:1 1178:1 1187:1 1193:1 1199:1 1211:1 1230:1 1233:1 1239:1 1242:1 1249:1 1253:1 1255:1 1273:1 1304:1 1358:1 1359:1 1374:1 1420:1 1429:1 1438:1 1483:1 1488:1 1495:1 1505:1 1506:1 1590:1 1627:1 1680:1 1701:1 1702:1 1731:1 1742:1 1767:1 1806:1 1893:1 1933:1 1950:1 1973:1 1983:1 1996:1 2004:1 2036:1 2037:1 2039:1 2053:1 2069:1 2099:1 2105:1 2122:1 2136:1 2151:1 2174:1 2183:1 2188:1 2366:1 2368:1 2391:1 2410:1 2428:1 2487:1 2501:1 2516:1 2546:1 2566:1 2567:1 2570:1 2589:1 2605:1 2634:1 2640:1 2647:1 2680:1 2693:1 2702:1 2712:1 2724:1 2730:1 2862:1 2951:1 2968:1 2970:1 2998:1 3056:1 3066:1 3118:1 3244:1 3312:1 3322:1 3369:1 3404:1 3454:1 3477:1 3480:1 3517:1 3526:1 3541:1 3547:1 3574:1 3624:1 3694:1 3705:1 3768:1 3802:1 3900:1 3935:1 3975:1 4111:1 4208:1 4216:1 4263:1 4287:1 4290:1 4349:1 4456:1 4593:1 4605:1 4606:1 4648:1 4761:1 4828:1 4926:1 4929:1 5014:1 5042:1 5131:1 5190:1 5192:1 5265:1 5297:1 5298:1 5312:1 5425:1 5455:1 5472:1 5478:1 5509:1 5761:1 5784:1 5828:1 5830:1 5850:1 5857:1 5882:1 5895:1 5901:1 5903:1 5935:1 6004:1 6080:1 6197:1 6279:1 6515:1 6534:1 6797:1 6824:1 6859:1 7072:1 7178:1 7218:1 7238:1 7244:1 7315:1 7327:1 7411:1 7447:1 7448:1 7460:1 7510:1 7774:1 7874:1 7965:1 7996:1 8352:1 8397:1 8447:1 8478:1 8616:1 8617:1 8702:1 8705:1 8734:1 8754:1 9263:1 9481:1 9892:1 10144:1 10243:1 10499:1 10570:1 10611:1 10826:1 10842:1 11019:1 11297:1 11360:1 11441:1 11547:1 11787:1 11808:1 11865:1 12074:1 12188:1 12524:1 12528:1 13372:1 13374:1 14334:1 14424:1 14479:1 14601:1 14827:1 14879:1 14882:1 14905:1 15164:1 15170:1 15805:1 15954:1 16256:1 16343:1 16834:1 17292:1 17505:1 17866:1 18044:1 18088:1 18155:1 19370:1 20516:1 20733:1 21517:1 21909:1 22090:1 22312:1 22393:1 22394:1 22395:1 22396:1 22397:1 22398:1 22399:1 22400:1 22401:1 22402:1 22403:1 22404:1 22405:1 22406:1 22407:1 22408:1 22409:1 22410:1 22411:1 22412:1 22413:1 22414:1 22415:1 22416:1 22417:1 22418:1 22419:1 22420:1 22421:1 22422:1 22423:1 22424:1 22425:1 22426:1 22427:1 22428:1 22429:1 22430:1 22431:1 22432:1 22433:1 22434:1 22435:1 22436:1 22437:1 22438:1 22439:1 22440:1 22441:1 22442:1 22443:1 22444:1 22445:1 22446:1 22447:1 22448:1 22449:1 22450:1 22451:1 22452:1 22453:1 22454:1 22455:1 22456:1 22457:1 22458:1 22459:1 22460:1 22461:1 22462:1 22463:1 22464:1 22465:1 22466:1 22467:1 22468:1 22469:1 22470:1 22471:1 22472:1 22473:1 22474:1 22475:1 22476:1 22477:1 22478:1 22479:1 22480:1 22481:1 22482:1 22483:1 #
-0.0019299460412849885407315930763161 4:1 6:1 9:1 11:1 15:1 17:1 34:1 42:1 46:1 49:1 60:1 62:1 72:1 86:1 98:1 110:1 111:1 121:1 123:1 131:1 134:1 153:1 188:1 204:1 213:1 256:1 267:1 303:1 352:1 453:1 479:1 493:1 496:1 596:1 679:1 801:1 802:1 870:1 914:1 1027:1 1084:1 1106:1 1420:1 1787:1 2006:1 2116:1 2420:1 2470:1 2502:1 2623:1 2659:1 3119:1 3138:1 3478:1 3497:1 3659:1 4167:1 4558:1 4563:1 4688:1 5891:1 6874:1 7075:1 7600:1 7912:1 7978:1 8136:1 8862:1 8863:1 9914:1 10251:1 10950:1 11192:1 11193:1 11194:1 11195:1 11196:1 11197:1 11198:1 11199:1 11200:1 11201:1 11202:1 11203:1 11204:1 11205:1 11206:1 11207:1 11208:1 11209:1 11210:1 11211:1 11212:1 11213:1 11214:1 #
-0.0038080982758401352335220213518596 3:1 4:1 6:1 7:1 9:1 11:1 15:1 17:1 20:1 30:1 34:1 39:1 40:1 41:1 42:1 44:1 46:1 49:1 51:1 56:1 60:1 62:1 69:1 70:1 73:1 75:1 76:1 77:1 81:1 86:1 87:1 91:1 93:1 97:1 98:1 110:1 111:1 112:1 115:1 117:1 119:1 121:1 123:1 127:1 129:1 131:1 137:1 138:1 143:1 148:1 149:1 157:1 164:1 188:1 190:1 191:1 193:1 194:1 201:1 204:1 207:1 209:1 213:1 229:1 236:1 242:1 243:1 244:1 248:1 251:1 256:1 258:1 259:1 267:1 297:1 300:1 303:1 309:1 319:1 320:1 333:1 337:1 341:1 343:1 347:1 352:1 354:1 363:1 373:1 382:1 404:1 408:1 421:1 440:1 444:1 446:1 479:1 480:1 481:1 483:1 485:1 496:1 501:1 504:1 512:1 530:1 532:1 533:1 534:1 553:1 557:1 560:1 563:1 575:1 585:1 607:1 615:1 618:1 632:1 638:1 643:1 672:1 679:1 714:1 717:1 747:1 763:1 768:1 784:1 785:1 792:1 794:1 802:1 838:1 855:1 862:1 871:1 878:1 879:1 884:1 886:1 887:1 888:1 892:1 896:1 902:1 908:1 911:1 914:1 917:1 943:1 970:1 986:1 1027:1 1041:1 1048:1 1069:1 1077:1 1083:1 1096:1 1101:1 1105:1 1106:1 1107:1 1121:1 1149:1 1150:1 1155:1 1177:1 1178:1 1186:1 1187:1 1188:1 1193:1 1194:1 1199:1 1211:1 1230:1 1233:1 1242:1 1249:1 1250:1 1253:1 1269:1 1274:1 1347:1 1357:1 1359:1 1365:1 1374:1 1383:1 1402:1 1420:1 1426:1 1429:1 1459:1 1463:1 1466:1 1483:1 1489:1 1495:1 1497:1 1507:1 1522:1 1530:1 1547:1 1624:1 1626:1 1627:1 1640:1 1678:1 1684:1 1698:1 1777:1 1780:1 1784:1 1789:1 1794:1 1837:1 1863:1 1898:1 1910:1 1937:1 1974:1 1977:1 2006:1 2022:1 2039:1 2080:1 2088:1 2090:1 2099:1 2113:1 2137:1 2253:1 2285:1 2355:1 2366:1 2396:1 2405:1 2410:1 2421:1 2440:1 2558:1 2566:1 2571:1 2584:1 2613:1 2619:1 2647:1 2671:1 2676:1 2708:1 2742:1 2757:1 2791:1 2792:1 2799:1 2803:1 2924:1 2957:1 3040:1 3060:1 3086:1 3090:1 3322:1 3341:1 3383:1 3395:1 3454:1 3550:1 3563:1 3619:1 3673:1 3674:1 3745:1 3752:1 3860:1 3924:1 3956:1 3991:1 4071:1 4159:1 4211:1 4217:1 4287:1 4358:1 4414:1 4625:1 4726:1 4734:1 4745:1 4855:1 4895:1 5073:1 5082:1 5145:1 5161:1 5171:1 5186:1 5187:1 5279:1 5381:1 5442:1 5458:1 5501:1 5568:1 5644:1 5745:1 5792:1 5828:1 5832:1 5957:1 5958:1 5989:1 5997:1 6002:1 6020:1 6028:1 6033:1 6138:1 6351:1 6515:1 6575:1 6601:1 6762:1 6784:1 6871:1 6954:1 7062:1 7070:1 7104:1 7284:1 7336:1 7349:1 7381:1 7470:1 7483:1 7502:1 7749:1 7786:1 7792:1 7821:1 7927:1 7945:1 7975:1 8029:1 8247:1 8258:1 8262:1 8274:1 8410:1 8546:1 8760:1 9282:1 9524:1 9561:1 9818:1 9830:1 10234:1 10612:1 10853:1 10999:1 11694:1 11731:1 11773:1 12202:1 12684:1 13107:1 13324:1 14404:1 14602:1 14616:1 14680:1 14774:1 14933:1 15061:1 15079:1 15152:1 15281:1 16006:1 16159:1 16467:1 17253:1 17915:1 17923:1 18379:1 18637:1 18935:1 19036:1 19202:1 20046:1 20250:1 21022:1 21063:1 21899:1 21909:1 23109:1 25807:1 27028:1 27265:1 27636:1 28204:1 28205:1 28206:1 28207:1 28208:1 28209:1 28210:1 28211:1 28212:1 28213:1 28214:1 28215:1 28216:1 28217:1 28218:1 28219:1 28220:1 28221:1 28222:1 28223:1 28224:1 28225:1 28226:1 28227:1 #
-0.0032552584951477023765542551103636 4:1 6:1 7:1 9:1 11:1 15:1 17:1 21:1 29:1 33:1 34:1 39:1 42:1 44:1 46:1 49:1 51:1 60:1 62:1 70:1 72:1 73:1 77:1 81:1 86:1 91:1 101:1 110:1 115:1 117:1 121:1 123:1 126:1 127:1 129:1 130:1 131:1 141:1 143:1 144:1 148:1 149:1 168:1 204:1 213:1 217:1 255:1 256:1 267:1 279:1 300:1 319:1 335:1 354:1 356:1 369:1 372:1 373:1 375:1 394:1 399:1 402:1 408:1 419:1 424:1 438:1 444:1 446:1 453:1 482:1 483:1 490:1 496:1 517:1 523:1 533:1 534:1 535:1 545:1 560:1 572:1 599:1 607:1 637:1 642:1 643:1 714:1 727:1 728:1 747:1 768:1 802:1 811:1 812:1 818:1 878:1 879:1 892:1 943:1 951:1 969:1 977:1 978:1 1046:1 1056:1 1065:1 1069:1 1073:1 1084:1 1101:1 1105:1 1146:1 1149:1 1193:1 1195:1 1230:1 1239:1 1250:1 1253:1 1347:1 1365:1 1371:1 1384:1 1405:1 1431:1 1459:1 1479:1 1497:1 1505:1 1510:1 1512:1 1517:1 1545:1 1547:1 1562:1 1567:1 1613:1 1626:1 1631:1 1662:1 1667:1 1680:1 1748:1 1752:1 1756:1 1823:1 1845:1 1877:1 2000:1 2161:1 2163:1 2326:1 2389:1 2440:1 2536:1 2547:1 2560:1 2561:1 2638:1 2663:1 2684:1 2768:1 2784:1 2838:1 2862:1 2893:1 3048:1 3077:1 3091:1 3116:1 3243:1 3526:1 3572:1 3574:1 3626:1 3657:1 3663:1 3742:1 3766:1 3768:1 3833:1 3835:1 3924:1 3993:1 4015:1 4031:1 4244:1 4431:1 4508:1 4535:1 4586:1 4796:1 4932:1 4957:1 4975:1 5174:1 5340:1 5341:1 5528:1 5657:1 5729:1 5834:1 5900:1 5930:1 6148:1 6340:1 6357:1 6419:1 6474:1 6600:1 6719:1 6784:1 6816:1 7000:1 7071:1 7124:1 7579:1 7610:1 7635:1 7839:1 8205:1 8230:1 8559:1 8601:1 8841:1 8864:1 8988:1 9070:1 9074:1 9332:1 9437:1 9457:1 9580:1 9840:1 9958:1 10133:1 10592:1 10988:1 11033:1 11505:1 12851:1 13302:1 13491:1 13685:1 14441:1 14809:1 14909:1 15114:1 17162:1 19701:1 21698:1 21801:1 24519:1 25089:1 25090:1 25091:1 25092:1 25093:1 25094:1 25095:1 25096:1 25097:1 25098:1 25099:1 25100:1 #
-0.00044688010033789302751644489930527 4:1 6:1 7:1 8:1 9:1 11:1 14:1 15:1 17:1 20:1 33:1 34:1 39:1 40:1 41:1 42:1 46:1 49:1 51:1 60:1 61:1 67:1 72:1 75:1 76:1 77:1 78:1 86:1 87:1 91:1 93:1 98:1 110:1 115:1 117:1 119:1 121:1 122:1 123:1 127:1 129:1 130:1 131:1 133:1 138:1 143:1 144:1 146:1 148:1 157:1 168:1 188:1 213:1 229:1 251:1 256:1 267:1 277:1 298:1 300:1 316:1 319:1 322:1 339:1 354:1 374:1 382:1 394:1 403:1 430:1 438:1 444:1 446:1 453:1 470:1 480:1 482:1 483:1 485:1 486:1 496:1 519:1 551:1 569:1 607:1 614:1 672:1 673:1 679:1 714:1 763:1 784:1 786:1 802:1 818:1 840:1 843:1 845:1 846:1 848:1 850:1 865:1 879:1 888:1 914:1 928:1 959:1 985:1 1014:1 1024:1 1052:1 1056:1 1059:1 1068:1 1069:1 1070:1 1080:1 1083:1 1097:1 1103:1 1106:1 1116:1 1129:1 1134:1 1137:1 1149:1 1153:1 1155:1 1163:1 1187:1 1205:1 1210:1 1214:1 1222:1 1249:1 1250:1 1251:1 1253:1 1255:1 1346:1 1359:1 1429:1 1432:1 1437:1 1442:1 1478:1 1495:1 1627:1 1628:1 1633:1 1666:1 1674:1 1678:1 1701:1 1799:1 1830:1 1910:1 1936:1 2000:1 2004:1 2013:1 2017:1 2039:1 2040:1 2051:1 2088:1 2093:1 2176:1 2196:1 2223:1 2330:1 2362:1 2363:1 2366:1 2400:1 2481:1 2502:1 2507:1 2510:1 2512:1 2605:1 2608:1 2768:1 2845:1 2846:1 2856:1 2878:1 2901:1 2947:1 3348:1 3350:1 3377:1 3391:1 3417:1 3436:1 3574:1 3624:1 3625:1 3632:1 3663:1 4071:1 4279:1 4338:1 4497:1 4591:1 4606:1 4638:1 4639:1 4648:1 4709:1 4850:1 4860:1 5087:1 5298:1 5349:1 5392:1 5733:1 5814:1 5859:1 5979:1 5991:1 6030:1 6110:1 6228:1 6388:1 6512:1 6519:1 6601:1 6773:1 6785:1 6818:1 6995:1 7031:1 7509:1 7515:1 7678:1 7991:1 7992:1 8228:1 8363:1 8530:1 8664:1 9385:1 9417:1 9431:1 9452:1 9514:1 9528:1 10036:1 10127:1 10153:1 10592:1 10623:1 10862:1 10897:1 11548:1 11630:1 11693:1 11847:1 12311:1 12532:1 12659:1 12895:1 13065:1 13329:1 13524:1 13549:1 13841:1 13929:1 15039:1 15521:1 15546:1 16056:1 16506:1 16507:1 16628:1 16801:1 16848:1 16877:1 16986:1 17422:1 17474:1 17818:1 17933:1 18272:1 18959:1 19217:1 19597:1 20225:1 21889:1 22711:1 28570:1 28573:1 28746:1 31502:1 31620:1 31621:1 31622:1 31623:1 31624:1 31625:1 31626:1 31627:1 31628:1 31629:1 31630:1 31631:1 31632:1 31633:1 31634:1 31635:1 31636:1 31637:1 31638:1 31639:1 31640:1 31641:1 31642:1 31643:1 31644:1 31645:1 31646:1 31647:1 31648:1 31649:1 31650:1 31651:1 31652:1 31653:1 31654:1 31655:1 31656:1 31657:1 31658:1 31659:1 #
0.0076917947464453448325194528933935 6:1 9:1 11:1 15:1 18:1 20:1 34:1 39:1 40:1 41:1 42:1 51:1 62:1 77:1 93:1 98:1 121:1 123:1 129:1 144:1 188:1 190:1 213:1 243:1 256:1 262:1 267:1 382:1 394:1 412:1 416:1 432:1 446:1 480:1 521:1 537:1 652:1 802:1 823:1 896:1 1369:1 1575:1 1680:1 1886:1 2319:1 2432:1 2636:1 2672:1 3866:1 3935:1 4107:1 4135:1 4434:1 4643:1 4752:1 4826:1 5340:1 5492:1 5512:1 5642:1 5745:1 5786:1 5843:1 6208:1 6283:1 7130:1 7893:1 7929:1 8878:1 9176:1 9416:1 10689:1 11244:1 15720:1 16755:1 18088:1 19035:1 30762:1 31908:1 31909:1 31910:1 31911:1 31912:1 31913:1 31914:1 31915:1 #
0.0076917947464453448325194528933935 4:1 9:1 11:1 17:1 34:1 42:1 46:1 49:1 51:1 60:1 62:1 72:1 75:1 76:1 77:1 86:1 91:1 110:1 117:1 123:1 130:1 131:1 133:1 143:1 188:1 201:1 209:1 256:1 267:1 281:1 297:1 298:1 306:1 319:1 359:1 412:1 424:1 431:1 434:1 533:1 568:1 714:1 716:1 738:1 774:1 802:1 843:1 862:1 878:1 943:1 964:1 986:1 1193:1 1203:1 1207:1 1253:1 1269:1 1402:1 1495:1 1605:1 1606:1 1627:1 1810:1 2175:1 2196:1 2361:1 2494:1 2566:1 2807:1 2820:1 2901:1 2917:1 3024:1 3088:1 3336:1 3456:1 4009:1 4156:1 4455:1 4829:1 5073:1 5110:1 5161:1 5171:1 5190:1 5238:1 6573:1 7077:1 7358:1 7406:1 8244:1 8749:1 9083:1 10399:1 11713:1 12192:1 12557:1 13308:1 14379:1 15747:1 16611:1 16815:1 16816:1 16817:1 16818:1 16819:1 16820:1 16821:1 16822:1 16823:1 16824:1 16825:1 16826:1 16827:1 16828:1 16829:1 16830:1 16831:1 16832:1 #
0.0076917947464453448325194528933935 6:1 9:1 11:1 15:1 19:1 22:1 34:1 42:1 44:1 49:1 60:1 62:1 72:1 73:1 86:1 110:1 111:1 118:1 123:1 131:1 163:1 188:1 193:1 229:1 266:1 300:1 322:1 356:1 424:1 479:1 533:1 560:1 607:1 624:1 673:1 749:1 765:1 801:1 892:1 986:1 1046:1 1085:1 1105:1 1116:1 1123:1 1204:1 1206:1 1250:1 1357:1 1359:1 1600:1 1622:1 1624:1 1642:1 1730:1 1830:1 1863:1 1927:1 2010:1 2040:1 2099:1 2366:1 2482:1 2552:1 2646:1 2683:1 2902:1 2932:1 3118:1 3359:1 3403:1 3916:1 4083:1 4090:1 4091:1 4107:1 4115:1 4560:1 4957:1 5276:1 5370:1 5516:1 6585:1 6785:1 6903:1 7329:1 7516:1 7548:1 8524:1 9437:1 11189:1 11809:1 12690:1 13752:1 15130:1 16343:1 18080:1 19326:1 20691:1 21168:1 25756:1 25757:1 25758:1 25759:1 25760:1 25761:1 25762:1 #
0.0076917947464453448325194528933935 4:1 6:1 7:1 9:1 11:1 15:1 17:1 34:1 39:1 41:1 42:1 46:1 49:1 51:1 60:1 62:1 91:1 123:1 133:1 143:1 149:1 193:1 195:1 235:1 243:1 244:1 255:1 258:1 267:1 297:1 307:1 319:1 347:1 394:1 428:1 444:1 496:1 517:1 568:1 607:1 632:1 647:1 673:1 714:1 785:1 792:1 802:1 807:1 859:1 862:1 864:1 886:1 949:1 999:1 1006:1 1022:1 1085:1 1105:1 1121:1 1190:1 1203:1 1239:1 1549:1 1791:1 1830:1 1863:1 2146:1 2195:1 2218:1 2321:1 2345:1 2366:1 2382:1 2393:1 2415:1 2451:1 2512:1 2566:1 2651:1 2669:1 2976:1 3126:1 3434:1 3473:1 3857:1 4107:1 4244:1 4389:1 4530:1 4567:1 4586:1 4670:1 4717:1 4953:1 4973:1 5416:1 5862:1 6333:1 6515:1 6546:1 6649:1 7071:1 7337:1 7362:1 7941:1 7995:1 8029:1 8167:1 8199:1 8439:1 8634:1 8732:1 9983:1 10185:1 10771:1 10772:1 10853:1 11233:1 11846:1 11847:1 13515:1 14519:1 14908:1 15875:1 16625:1 17637:1 17802:1 18139:1 19841:1 20644:1 20645:1 20646:1 20647:1 20648:1 20649:1 20650:1 20651:1 20652:1 20653:1 20654:1 20655:1 20656:1 20657:1 20658:1 20659:1 20660:1 20661:1 20662:1 20663:1 #
0.0068429398369620154582437798751471 4:1 6:1 7:1 9:1 11:1 15:1 17:1 34:1 39:1 41:1 42:1 46:1 49:1 51:1 60:1 62:1 91:1 121:1 123:1 133:1 143:1 149:1 193:1 195:1 217:1 235:1 243:1 244:1 255:1 258:1 267:1 297:1 307:1 319:1 347:1 394:1 428:1 444:1 496:1 517:1 568:1 607:1 632:1 647:1 673:1 714:1 785:1 792:1 802:1 807:1 859:1 862:1 864:1 886:1 949:1 999:1 1006:1 1022:1 1085:1 1105:1 1121:1 1190:1 1203:1 1239:1 1260:1 1549:1 1791:1 1830:1 1863:1 1893:1 2146:1 2195:1 2218:1 2321:1 2345:1 2366:1 2382:1 2393:1 2415:1 2451:1 2512:1 2566:1 2651:1 2669:1 2951:1 2976:1 3126:1 3434:1 3473:1 3857:1 4107:1 4244:1 4389:1 4403:1 4530:1 4567:1 4586:1 4670:1 4717:1 4953:1 4973:1 5416:1 5862:1 6333:1 6515:1 6546:1 6649:1 7071:1 7337:1 7362:1 7941:1 7995:1 8029:1 8167:1 8199:1 8439:1 8634:1 8732:1 9305:1 9983:1 10185:1 10771:1 10772:1 10853:1 11233:1 11846:1 11847:1 13515:1 14519:1 14908:1 15875:1 16625:1 17637:1 17802:1 18139:1 19841:1 20644:1 20645:1 20646:1 20647:1 20648:1 20649:1 20650:1 20651:1 20652:1 20653:1 20654:1 20655:1 20656:1 20657:1 20658:1 20659:1 20660:1 20661:1 20662:1 20663:1 #
-0.0004845998426452962043291250449073 4:1 6:1 9:1 11:1 15:1 17:1 34:1 42:1 51:1 117:1 125:1 126:1 188:1 199:1 267:1 394:1 496:1 550:1 595:1 599:1 624:1 748:1 945:1 947:1 1438:1 1482:1 1509:1 1510:1 1598:1 1638:1 1678:1 1714:1 1906:1 1911:1 2313:1 2663:1 2791:1 3118:1 3724:1 3769:1 4113:1 4249:1 4688:1 4765:1 5284:1 5701:1 7596:1 8246:1 14688:1 14815:1 15725:1 18309:1 20190:1 #
-0.00017543651562554790678330474129609 4:1 6:1 9:1 11:1 15:1 17:1 29:1 34:1 41:1 42:1 49:1 70:1 93:1 98:1 110:1 121:1 123:1 127:1 181:1 195:1 212:1 218:1 236:1 267:1 282:1 300:1 313:1 322:1 340:1 349:1 402:1 438:1 446:1 455:1 471:1 485:1 513:1 537:1 550:1 560:1 569:1 607:1 763:1 801:1 827:1 864:1 978:1 984:1 1041:1 1104:1 1158:1 1349:1 1431:1 1796:1 1831:1 2088:1 2143:1 2235:1 2292:1 2337:1 2496:1 2505:1 2612:1 2709:1 2878:1 2909:1 3404:1 3443:1 3663:1 3759:1 3769:1 4059:1 4113:1 4122:1 4178:1 4417:1 5042:1 5510:1 5873:1 6132:1 6360:1 6392:1 7882:1 8572:1 10055:1 11758:1 12206:1 13363:1 15220:1 16463:1 16981:1 17521:1 17522:1 17523:1 17524:1 17525:1 #
-0.0076917947464453448325194528933935 4:1 9:1 11:1 15:1 98:1 567:1 774:1 835:1 1105:1 1253:1 1668:1 1677:1 1997:1 2253:1 3274:1 3336:1 4779:1 5161:1 10771:1 11729:1 12932:1 13805:1 13810:1 14318:1 15234:1 15235:1 15236:1 15237:1 15238:1 15239:1 #
-0.0023529997048097935768984356741385 9:1 11:1 15:1 34:1 42:1 60:1 62:1 70:1 86:1 123:1 144:1 212:1 267:1 374:1 509:1 650:1 774:1 954:1 971:1 978:1 979:1 1200:1 2256:1 2722:1 2733:1 3292:1 3374:1 3383:1 3424:1 3768:1 4549:1 6848:1 6920:1 8270:1 9559:1 #
-0.00077829025422319680557747823002046 6:1 7:1 9:1 11:1 15:1 17:1 23:1 34:1 42:1 46:1 49:1 51:1 60:1 62:1 72:1 77:1 98:1 102:1 111:1 123:1 127:1 191:1 199:1 208:1 211:1 213:1 216:1 239:1 267:1 300:1 332:1 382:1 412:1 421:1 471:1 518:1 550:1 563:1 599:1 607:1 684:1 754:1 771:1 782:1 921:1 942:1 965:1 987:1 1032:1 1036:1 1118:1 1155:1 1202:1 1469:1 1470:1 1477:1 1648:1 1694:1 1822:1 1972:1 2004:1 2037:1 2088:1 2316:1 2481:1 2793:1 2798:1 2854:1 3066:1 3539:1 3571:1 4693:1 4704:1 4751:1 4757:1 4758:1 6072:1 6331:1 6333:1 7130:1 8437:1 10356:1 12013:1 13883:1 16538:1 17572:1 20903:1 #
0.0059164824343975030290776473407277 4:1 6:1 7:1 9:1 11:1 12:1 15:1 17:1 20:1 34:1 39:1 41:1 42:1 46:1 49:1 51:1 62:1 67:1 69:1 70:1 72:1 73:1 77:1 86:1 91:1 93:1 98:1 110:1 111:1 112:1 117:1 118:1 119:1 120:1 121:1 123:1 127:1 129:1 131:1 133:1 142:1 143:1 147:1 148:1 149:1 150:1 157:1 163:1 164:1 168:1 185:1 188:1 193:1 202:1 204:1 212:1 213:1 217:1 235:1 236:1 238:1 242:1 243:1 244:1 251:1 256:1 267:1 285:1 303:1 316:1 319:1 354:1 357:1 362:1 382:1 394:1 402:1 404:1 413:1 415:1 440:1 444:1 446:1 452:1 462:1 476:1 479:1 480:1 483:1 490:1 501:1 504:1 506:1 509:1 510:1 517:1 520:1 521:1 527:1 533:1 534:1 537:1 541:1 548:1 550:1 557:1 563:1 569:1 581:1 595:1 607:1 637:1 638:1 676:1 679:1 714:1 768:1 773:1 785:1 796:1 828:1 850:1 862:1 865:1 870:1 875:1 914:1 975:1 984:1 986:1 1021:1 1048:1 1056:1 1059:1 1080:1 1129:1 1195:1 1198:1 1211:1 1361:1 1365:1 1402:1 1429:1 1482:1 1495:1 1567:1 1579:1 1616:1 1627:1 1645:1 1649:1 1653:1 1654:1 1680:1 1700:1 1722:1 1728:1 1742:1 1748:1 1764:1 1822:1 1848:1 1862:1 1865:1 1874:1 1893:1 1913:1 1983:1 1997:1 2017:1 2021:1 2029:1 2036:1 2088:1 2107:1 2109:1 2174:1 2181:1 2295:1 2313:1 2315:1 2410:1 2523:1 2547:1 2589:1 2646:1 2648:1 2768:1 2775:1 2807:1 2922:1 2947:1 2970:1 3042:1 3114:1 3322:1 3376:1 3385:1 3386:1 3404:1 3542:1 3568:1 3575:1 3658:1 3705:1 3728:1 3747:1 3751:1 3789:1 3975:1 4031:1 4058:1 4095:1 4217:1 4249:1 4345:1 4359:1 4414:1 4452:1 4549:1 4565:1 4593:1 4761:1 4923:1 4926:1 4927:1 4934:1 5091:1 5118:1 5186:1 5265:1 5342:1 5352:1 5402:1 5410:1 5501:1 5526:1 5701:1 5784:1 5789:1 5850:1 5861:1 5893:1 5901:1 5902:1 5912:1 5932:1 5951:1 6138:1 6139:1 6143:1 6283:1 6398:1 6462:1 6471:1 6620:1 6685:1 6725:1 6769:1 6848:1 7076:1 7191:1 7219:1 7228:1 7263:1 7381:1 7385:1 7387:1 7448:1 7455:1 7460:1 7741:1 7773:1 7929:1 8007:1 8037:1 8050:1 8339:1 8344:1 8350:1 8541:1 8601:1 8724:1 9173:1 9421:1 9431:1 9461:1 9983:1 9988:1 10247:1 10492:1 10839:1 11138:1 11469:1 11910:1 12719:1 13351:1 13453:1 13750:1 14268:1 15085:1 15312:1 15351:1 15436:1 15724:1 15954:1 16159:1 16509:1 16631:1 17437:1 17646:1 18097:1 18519:1 19431:1 19433:1 19467:1 20190:1 20218:1 20798:1 21333:1 21525:1 21748:1 22479:1 22985:1 23321:1 25101:1 26090:1 26862:1 27929:1 28655:1 30844:1 31146:1 31147:1 31148:1 31149:1 31150:1 31151:1 31152:1 31153:1 31154:1 31155:1 31156:1 31157:1 31158:1 31159:1 31160:1 31161:1 31162:1 31163:1 31164:1 31165:1 31166:1 31167:1 31168:1 31169:1 31170:1 31171:1 31172:1 31173:1 31174:1 31175:1 31176:1 31177:1 31178:1 31179:1 31180:1 31181:1 31182:1 #
0.0022803012621477004515102571247098 3:1 4:1 6:1 9:1 11:1 15:1 17:1 20:1 28:1 34:1 36:1 42:1 46:1 49:1 51:1 60:1 62:1 67:1 70:1 72:1 77:1 86:1 91:1 94:1 95:1 98:1 107:1 110:1 111:1 112:1 115:1 117:1 119:1 121:1 123:1 127:1 129:1 130:1 131:1 138:1 143:1 148:1 149:1 157:1 163:1 188:1 193:1 199:1 201:1 213:1 218:1 239:1 243:1 244:1 248:1 256:1 264:1 267:1 271:1 291:1 294:1 297:1 298:1 300:1 305:1 311:1 319:1 320:1 343:1 352:1 354:1 356:1 363:1 374:1 382:1 391:1 394:1 402:1 404:1 406:1 433:1 435:1 438:1 446:1 453:1 462:1 471:1 475:1 476:1 479:1 482:1 483:1 485:1 504:1 517:1 521:1 532:1 534:1 553:1 557:1 560:1 563:1 565:1 599:1 607:1 621:1 675:1 679:1 703:1 714:1 716:1 726:1 768:1 769:1 771:1 787:1 801:1 811:1 818:1 829:1 833:1 843:1 845:1 862:1 865:1 871:1 886:1 892:1 896:1 921:1 922:1 947:1 952:1 964:1 983:1 994:1 1000:1 1071:1 1083:1 1098:1 1101:1 1104:1 1123:1 1153:1 1155:1 1156:1 1186:1 1187:1 1188:1 1193:1 1199:1 1203:1 1209:1 1214:1 1215:1 1230:1 1233:1 1269:1 1357:1 1359:1 1383:1 1399:1 1402:1 1443:1 1447:1 1484:1 1498:1 1543:1 1627:1 1634:1 1640:1 1687:1 1702:1 1711:1 1720:1 1792:1 1827:1 1913:1 2011:1 2076:1 2088:1 2099:1 2109:1 2142:1 2198:1 2246:1 2272:1 2320:1 2352:1 2354:1 2366:1 2379:1 2417:1 2485:1 2522:1 2526:1 2533:1 2544:1 2566:1 2571:1 2619:1 2658:1 2681:1 2693:1 2696:1 2703:1 2712:1 2758:1 2768:1 2795:1 2796:1 2807:1 2832:1 2838:1 2873:1 2904:1 2932:1 2943:1 2971:1 2998:1 3010:1 3048:1 3252:1 3273:1 3322:1 3343:1 3426:1 3480:1 3513:1 3548:1 3553:1 3737:1 3769:1 3814:1 3904:1 3906:1 3954:1 3999:1 4012:1 4017:1 4071:1 4158:1 4294:1 4376:1 4421:1 4455:1 4468:1 4469:1 4648:1 4726:1 4816:1 4828:1 4856:1 4862:1 4932:1 4941:1 5010:1 5049:1 5073:1 5142:1 5340:1 5378:1 5400:1 5418:1 5462:1 5516:1 5568:1 5569:1 5586:1 5728:1 5733:1 5829:1 5936:1 6095:1 6148:1 6199:1 6253:1 6267:1 6366:1 6481:1 6496:1 6541:1 6680:1 6699:1 6723:1 6785:1 6843:1 6857:1 6879:1 6893:1 7075:1 7134:1 7329:1 7344:1 7385:1 7590:1 7627:1 7997:1 8028:1 8089:1 8136:1 8242:1 8250:1 8293:1 8296:1 8433:1 8617:1 8715:1 9001:1 9057:1 9118:1 9119:1 9176:1 9524:1 9587:1 9880:1 10023:1 10036:1 10340:1 10567:1 10612:1 10643:1 10778:1 10825:1 10826:1 10827:1 10828:1 10829:1 10830:1 10831:1 10832:1 10833:1 10834:1 10835:1 10836:1 10837:1 10838:1 10839:1 10840:1 10841:1 10842:1 10843:1 10844:1 10845:1 10846:1 10847:1 10848:1 10849:1 10850:1 10851:1 10852:1 10853:1 10854:1 10855:1 10856:1 10857:1 10858:1 10859:1 10860:1 10861:1 10862:1 10863:1 10864:1 10865:1 10866:1 10867:1 10868:1 10869:1 10870:1 10871:1 10872:1 10873:1 10874:1 10875:1 10876:1 10877:1 10878:1 10879:1 10880:1 10881:1 10882:1 10883:1 10884:1 10885:1 10886:1 10887:1 10888:1 10889:1 10890:1 10891:1 10892:1 10893:1 10894:1 10895:1 10896:1 10897:1 10898:1 10899:1 10900:1 10901:1 10902:1 10903:1 10904:1 10905:1 10906:1 10907:1 10908:1 10909:1 10910:1 10911:1 10912:1 10913:1 10914:1 10915:1 10916:1 10917:1 10918:1 10919:1 10920:1 10921:1 10922:1 10923:1 10924:1 10925:1 10926:1 10927:1 10928:1 10929:1 10930:1 10931:1 10932:1 10933:1 10934:1 10935:1 10936:1 10937:1 10938:1 10939:1 10940:1 10941:1 10942:1 10943:1 10944:1 10945:1 #
0.0046471860948338206825924956433482 2:1 4:1 6:1 7:1 9:1 11:1 15:1 17:1 20:1 24:1 33:1 34:1 39:1 40:1 41:1 42:1 46:1 47:1 49:1 50:1 51:1 60:1 62:1 67:1 72:1 74:1 76:1 77:1 86:1 91:1 92:1 95:1 98:1 110:1 111:1 113:1 117:1 118:1 121:1 122:1 123:1 125:1 126:1 127:1 129:1 131:1 134:1 143:1 144:1 148:1 163:1 188:1 194:1 202:1 204:1 215:1 219:1 220:1 229:1 241:1 243:1 255:1 256:1 258:1 267:1 277:1 297:1 309:1 319:1 352:1 354:1 356:1 382:1 394:1 402:1 404:1 408:1 413:1 416:1 437:1 438:1 440:1 446:1 453:1 462:1 471:1 479:1 480:1 481:1 483:1 485:1 496:1 504:1 514:1 515:1 518:1 521:1 530:1 533:1 550:1 563:1 569:1 585:1 590:1 599:1 616:1 643:1 659:1 679:1 700:1 714:1 716:1 741:1 763:1 785:1 802:1 827:1 830:1 845:1 850:1 864:1 885:1 890:1 892:1 902:1 920:1 960:1 963:1 979:1 984:1 988:1 1019:1 1030:1 1069:1 1085:1 1105:1 1106:1 1107:1 1108:1 1111:1 1134:1 1146:1 1149:1 1177:1 1178:1 1187:1 1192:1 1194:1 1199:1 1215:1 1223:1 1230:1 1242:1 1249:1 1250:1 1253:1 1306:1 1357:1 1367:1 1373:1 1392:1 1399:1 1402:1 1409:1 1426:1 1429:1 1468:1 1471:1 1478:1 1482:1 1485:1 1506:1 1528:1 1545:1 1547:1 1556:1 1626:1 1653:1 1728:1 1788:1 1961:1 2004:1 2013:1 2023:1 2030:1 2036:1 2039:1 2077:1 2078:1 2088:1 2355:1 2410:1 2454:1 2461:1 2496:1 2507:1 2512:1 2525:1 2703:1 2744:1 2862:1 2863:1 2958:1 2968:1 3078:1 3088:1 3124:1 3149:1 3340:1 3420:1 3443:1 3444:1 3485:1 3523:1 3563:1 3663:1 3693:1 3745:1 3780:1 3860:1 3919:1 4015:1 4069:1 4095:1 4141:1 4209:1 4309:1 4319:1 4361:1 4431:1 4593:1 4631:1 4648:1 4694:1 4813:1 4920:1 4935:1 5069:1 5131:1 5186:1 5214:1 5298:1 5508:1 5524:1 5815:1 5898:1 6037:1 6094:1 6112:1 6148:1 6216:1 6279:1 6467:1 6541:1 6723:1 6814:1 6818:1 6872:1 6934:1 6957:1 7050:1 7096:1 7176:1 7192:1 7205:1 7483:1 7532:1 7614:1 7650:1 7842:1 7975:1 8007:1 8027:1 8244:1 8247:1 8279:1 8280:1 8352:1 8483:1 8861:1 9159:1 9196:1 9224:1 9492:1 9840:1 9898:1 10026:1 10429:1 10494:1 10553:1 10570:1 10808:1 10822:1 11048:1 11127:1 11128:1 11129:1 11130:1 11131:1 11132:1 11133:1 11134:1 11135:1 11136:1 11137:1 11138:1 11139:1 11140:1 11141:1 11142:1 11143:1 11144:1 11145:1 11146:1 11147:1 11148:1 11149:1 11150:1 11151:1 11152:1 11153:1 11154:1 11155:1 11156:1 11157:1 11158:1 11159:1 11160:1 11161:1 11162:1 11163:1 11164:1 11165:1 11166:1 11167:1 11168:1 11169:1 11170:1 11171:1 11172:1 11173:1 11174:1 11175:1 11176:1 11177:1 11178:1 11179:1 11180:1 11181:1 11182:1 11183:1 11184:1 11185:1 11186:1 11187:1 11188:1 11189:1 11190:1 11191:1 #
0.0060135593022583441399908643631989 4:1 6:1 7:1 9:1 11:1 15:1 17:1 34:1 39:1 42:1 46:1 49:1 51:1 53:1 56:1 60:1 62:1 64:1 72:1 73:1 75:1 86:1 98:1 109:1 110:1 115:1 117:1 118:1 119:1 121:1 123:1 127:1 129:1 131:1 134:1 138:1 140:1 143:1 144:1 146:1 149:1 164:1 169:1 188:1 224:1 229:1 243:1 248:1 251:1 256:1 258:1 264:1 267:1 298:1 300:1 303:1 304:1 305:1 319:1 322:1 335:1 345:1 356:1 364:1 373:1 382:1 386:1 403:1 404:1 430:1 438:1 444:1 462:1 471:1 479:1 490:1 496:1 517:1 532:1 533:1 534:1 560:1 573:1 600:1 607:1 625:1 632:1 637:1 642:1 643:1 679:1 695:1 714:1 716:1 727:1 756:1 763:1 768:1 769:1 773:1 791:1 795:1 843:1 846:1 862:1 871:1 878:1 879:1 911:1 917:1 949:1 951:1 970:1 987:1 988:1 1027:1 1048:1 1056:1 1080:1 1085:1 1141:1 1174:1 1202:1 1264:1 1394:1 1426:1 1437:1 1444:1 1484:1 1497:1 1514:1 1517:1 1528:1 1545:1 1562:1 1624:1 1626:1 1710:1 1727:1 1753:1 1763:1 1792:1 1795:1 1863:1 1910:1 2029:1 2127:1 2222:1 2301:1 2344:1 2372:1 2405:1 2429:1 2502:1 2544:1 2626:1 2671:1 2694:1 2717:1 2751:1 2758:1 2792:1 2820:1 2901:1 2940:1 3017:1 3077:1 3086:1 3240:1 3285:1 3322:1 3454:1 3749:1 3894:1 3956:1 4031:1 4083:1 4086:1 4263:1 4279:1 4314:1 4505:1 4508:1 4560:1 4566:1 4609:1 4653:1 4768:1 5069:1 5080:1 5406:1 5634:1 5766:1 5858:1 5860:1 5862:1 6083:1 6184:1 6241:1 6279:1 6506:1 6572:1 6638:1 6735:1 6838:1 7199:1 7204:1 7237:1 7321:1 7340:1 7346:1 7470:1 7716:1 7737:1 7929:1 7932:1 8062:1 8182:1 8462:1 8572:1 8646:1 8723:1 8823:1 9060:1 9087:1 9818:1 9842:1 9908:1 9962:1 9984:1 10062:1 10399:1 10423:1 11427:1 11750:1 12105:1 13536:1 14143:1 15022:1 15167:1 15178:1 15224:1 15923:1 18342:1 18838:1 18948:1 19202:1 19542:1 19852:1 20395:1 20692:1 21043:1 21997:1 22375:1 22653:1 23440:1 23441:1 24087:1 24109:1 24933:1 25720:1 26288:1 27385:1 27988:1 29041:1 29831:1 30223:1 30704:1 30903:1 31108:1 31320:1 31321:1 31322:1 31323:1 31324:1 31325:1 31326:1 31327:1 31328:1 31329:1 31330:1 31331:1 31332:1 31333:1 31334:1 31335:1 31336:1 31337:1 31338:1 31339:1 31340:1 31341:1 31342:1 31343:1 31344:1 #
0.0032395199920620390207637306900779 3:1 4:1 6:1 9:1 11:1 15:1 17:1 19:1 34:1 39:1 42:1 44:1 46:1 49:1 51:1 60:1 62:1 69:1 70:1 72:1 73:1 76:1 77:1 80:1 86:1 87:1 91:1 98:1 110:1 115:1 117:1 118:1 119:1 120:1 121:1 123:1 125:1 127:1 129:1 131:1 134:1 138:1 143:1 146:1 148:1 149:1 154:1 157:1 160:1 188:1 204:1 213:1 229:1 241:1 242:1 243:1 244:1 248:1 251:1 256:1 257:1 261:1 267:1 294:1 297:1 298:1 309:1 316:1 319:1 320:1 322:1 335:1 341:1 352:1 354:1 356:1 365:1 382:1 386:1 406:1 408:1 439:1 446:1 453:1 463:1 477:1 479:1 480:1 482:1 485:1 490:1 496:1 501:1 511:1 512:1 521:1 532:1 533:1 534:1 535:1 560:1 568:1 576:1 605:1 607:1 679:1 687:1 714:1 716:1 738:1 768:1 769:1 773:1 785:1 793:1 801:1 802:1 841:1 845:1 846:1 850:1 862:1 871:1 886:1 914:1 977:1 1023:1 1032:1 1068:1 1069:1 1085:1 1096:1 1104:1 1105:1 1106:1 1111:1 1126:1 1158:1 1178:1 1187:1 1188:1 1189:1 1199:1 1202:1 1203:1 1213:1 1230:1 1239:1 1249:1 1250:1 1251:1 1253:1 1282:1 1392:1 1459:1 1489:1 1514:1 1522:1 1528:1 1616:1 1624:1 1674:1 1678:1 1681:1 1702:1 1731:1 1765:1 1789:1 1825:1 1830:1 1832:1 1852:1 1861:1 1873:1 1943:1 1987:1 1990:1 1994:1 2010:1 2017:1 2039:1 2067:1 2086:1 2111:1 2113:1 2151:1 2176:1 2225:1 2285:1 2344:1 2358:1 2362:1 2366:1 2391:1 2406:1 2465:1 2496:1 2498:1 2501:1 2563:1 2566:1 2571:1 2671:1 2751:1 2758:1 2763:1 2768:1 2805:1 2854:1 2862:1 2868:1 2876:1 3040:1 3088:1 3259:1 3387:1 3398:1 3454:1 3466:1 3480:1 3491:1 3548:1 3619:1 3693:1 3717:1 3768:1 3911:1 3916:1 4037:1 4093:1 4528:1 4560:1 4604:1 4704:1 4726:1 4734:1 4842:1 4846:1 4934:1 5021:1 5026:1 5073:1 5263:1 5298:1 5310:1 5349:1 5410:1 5711:1 5810:1 5843:1 5903:1 5979:1 5997:1 6083:1 6093:1 6253:1 6317:1 6514:1 6619:1 6723:1 6750:1 6751:1 6752:1 6753:1 6754:1 6755:1 6756:1 6757:1 6758:1 6759:1 6760:1 6761:1 6762:1 6763:1 6764:1 6765:1 6766:1 6767:1 6768:1 6769:1 6770:1 6771:1 6772:1 6773:1 6774:1 6775:1 6776:1 6777:1 6778:1 6779:1 6780:1 6781:1 6782:1 6783:1 6784:1 6785:1 6786:1 6787:1 6788:1 6789:1 6790:1 6791:1 6792:1 6793:1 6794:1 6795:1 6796:1 6797:1 6798:1 6799:1 6800:1 6801:1 6802:1 6803:1 6804:1 6805:1 6806:1 6807:1 6808:1 6809:1 6810:1 6811:1 6812:1 6813:1 6814:1 6815:1 6816:1 6817:1 6818:1 6819:1 6820:1 6821:1 6822:1 6823:1 6824:1 6825:1 6826:1 6827:1 6828:1 6829:1 6830:1 6831:1 6832:1 6833:1 6834:1 6835:1 6836:1 6837:1 6838:1 6839:1 6840:1 6841:1 6842:1 6843:1 6844:1 #
-0.0037191254945320431288258156143911 4:1 6:1 9:1 11:1 17:1 33:1 34:1 39:1 42:1 46:1 49:1 60:1 72:1 86:1 87:1 91:1 98:1 110:1 112:1 123:1 130:1 131:1 143:1 144:1 149:1 168:1 191:1 204:1 229:1 241:1 300:1 303:1 341:1 372:1 399:1 452:1 479:1 482:1 493:1 494:1 534:1 550:1 599:1 607:1 638:1 644:1 700:1 773:1 805:1 812:1 828:1 951:1 978:1 1046:1 1056:1 1188:1 1253:1 1365:1 1387:1 1407:1 1434:1 1545:1 1547:1 1562:1 1567:1 1613:1 1640:1 1650:1 1662:1 1678:1 1812:1 1822:1 2086:1 2313:1 2497:1 2560:1 2675:1 2796:1 3286:1 3355:1 3361:1 3428:1 3725:1 3899:1 3993:1 4018:1 4049:1 4130:1 4295:1 4490:1 4636:1 5042:1 5552:1 5633:1 5728:1 5949:1 7326:1 7532:1 8561:1 9087:1 9516:1 10187:1 10240:1 10742:1 12000:1 12428:1 24988:1 29060:1 #
-0.0029600289599291040518180828655659 4:1 6:1 8:1 9:1 11:1 15:1 17:1 29:1 34:1 39:1 41:1 42:1 46:1 49:1 51:1 52:1 53:1 60:1 62:1 72:1 73:1 76:1 77:1 86:1 91:1 98:1 110:1 111:1 115:1 117:1 118:1 119:1 121:1 122:1 123:1 129:1 131:1 143:1 144:1 147:1 148:1 149:1 157:1 163:1 169:1 188:1 190:1 193:1 213:1 215:1 229:1 232:1 237:1 239:1 242:1 243:1 244:1 248:1 251:1 256:1 258:1 260:1 267:1 272:1 279:1 282:1 289:1 291:1 292:1 294:1 297:1 298:1 300:1 309:1 319:1 322:1 335:1 347:1 352:1 353:1 354:1 356:1 357:1 369:1 373:1 382:1 394:1 404:1 405:1 406:1 412:1 438:1 443:1 446:1 453:1 462:1 468:1 471:1 472:1 477:1 479:1 480:1 483:1 485:1 496:1 517:1 527:1 532:1 533:1 534:1 543:1 557:1 560:1 563:1 571:1 607:1 618:1 632:1 638:1 639:1 654:1 663:1 672:1 673:1 679:1 714:1 717:1 755:1 763:1 773:1 774:1 784:1 785:1 789:1 801:1 807:1 808:1 845:1 850:1 871:1 886:1 902:1 904:1 915:1 923:1 925:1 943:1 953:1 986:1 999:1 1012:1 1032:1 1035:1 1046:1 1048:1 1052:1 1069:1 1075:1 1080:1 1081:1 1101:1 1103:1 1104:1 1121:1 1125:1 1146:1 1149:1 1162:1 1173:1 1177:1 1178:1 1188:1 1191:1 1193:1 1194:1 1203:1 1206:1 1215:1 1217:1 1225:1 1226:1 1227:1 1230:1 1233:1 1249:1 1250:1 1255:1 1269:1 1282:1 1357:1 1358:1 1402:1 1449:1 1489:1 1497:1 1514:1 1523:1 1609:1 1614:1 1694:1 1711:1 1731:1 1789:1 1810:1 1912:1 1983:1 2039:1 2151:1 2217:1 2410:1 2427:1 2440:1 2512:1 2544:1 2558:1 2566:1 2669:1 2671:1 2675:1 2683:1 2703:1 2758:1 2807:1 2833:1 2862:1 2917:1 2951:1 2988:1 2998:1 3056:1 3281:1 3288:1 3326:1 3354:1 3385:1 3480:1 3486:1 3563:1 3590:1 3619:1 3684:1 3728:1 3768:1 3793:1 3904:1 4032:1 4042:1 4135:1 4136:1 4208:1 4244:1 4269:1 4361:1 4437:1 4455:1 4474:1 4503:1 4648:1 4649:1 4681:1 4764:1 4826:1 4844:1 5000:1 5003:1 5009:1 5073:1 5080:1 5087:1 5145:1 5155:1 5187:1 5190:1 5237:1 5251:1 5279:1 5318:1 5347:1 5392:1 5436:1 5453:1 5756:1 5819:1 5832:1 5882:1 5891:1 5903:1 6053:1 6077:1 6089:1 6148:1 6153:1 6194:1 6195:1 6215:1 6239:1 6303:1 6435:1 6538:1 6667:1 6677:1 6775:1 6789:1 6824:1 6879:1 7025:1 7045:1 7087:1 7154:1 7266:1 7284:1 7297:1 7384:1 7568:1 7728:1 7912:1 7957:1 7986:1 8013:1 8021:1 8061:1 8088:1 8268:1 8378:1 8530:1 8558:1 8636:1 8705:1 8723:1 8751:1 8758:1 8905:1 8914:1 8947:1 9170:1 9222:1 9368:1 9458:1 9470:1 9818:1 9897:1 9956:1 9962:1 9978:1 10236:1 10296:1 10884:1 10913:1 11198:1 11699:1 11827:1 11891:1 11897:1 11993:1 12363:1 12430:1 12475:1 12482:1 12932:1 13232:1 13323:1 13329:1 13899:1 14088:1 14104:1 14128:1 14187:1 14699:1 15124:1 15406:1 15566:1 15893:1 16236:1 18364:1 18528:1 18993:1 19387:1 20841:1 21396:1 23157:1 23657:1 23934:1 25238:1 25439:1 25511:1 25728:1 26838:1 26890:1 28177:1 28251:1 28965:1 29098:1 29411:1 30578:1 30579:1 30580:1 30581:1 30582:1 30583:1 30584:1 30585:1 30586:1 30587:1 30588:1 30589:1 30590:1 30591:1 30592:1 30593:1 30594:1 30595:1 30596:1 30597:1 30598:1 30599:1 30600:1 30601:1 30602:1 30603:1 30604:1 30605:1 30606:1 30607:1 30608:1 30609:1 #
-0.00405077462280967800362097008815 4:1 6:1 9:1 11:1 15:1 17:1 20:1 25:1 34:1 39:1 41:1 42:1 46:1 48:1 49:1 51:1 60:1 61:1 62:1 64:1 69:1 70:1 72:1 73:1 77:1 86:1 91:1 95:1 98:1 110:1 111:1 118:1 119:1 121:1 123:1 127:1 129:1 130:1 131:1 133:1 136:1 138:1 143:1 148:1 149:1 157:1 169:1 188:1 190:1 204:1 213:1 229:1 235:1 236:1 243:1 244:1 248:1 251:1 256:1 258:1 259:1 264:1 267:1 297:1 298:1 300:1 305:1 319:1 354:1 356:1 363:1 378:1 382:1 386:1 394:1 400:1 405:1 406:1 431:1 434:1 438:1 444:1 453:1 467:1 477:1 480:1 483:1 485:1 495:1 496:1 500:1 512:1 519:1 527:1 533:1 535:1 557:1 571:1 599:1 607:1 632:1 637:1 638:1 639:1 675:1 679:1 714:1 718:1 741:1 763:1 774:1 785:1 802:1 843:1 850:1 862:1 873:1 878:1 893:1 914:1 942:1 986:1 1027:1 1048:1 1069:1 1075:1 1078:1 1085:1 1101:1 1106:1 1123:1 1134:1 1143:1 1162:1 1177:1 1186:1 1187:1 1188:1 1202:1 1204:1 1226:1 1230:1 1232:1 1237:1 1242:1 1244:1 1250:1 1252:1 1262:1 1283:1 1383:1 1402:1 1417:1 1429:1 1453:1 1461:1 1514:1 1528:1 1543:1 1567:1 1624:1 1640:1 1711:1 1788:1 1823:1 1830:1 1863:1 1872:1 1881:1 1904:1 1910:1 1954:1 1986:1 2004:1 2005:1 2017:1 2034:1 2088:1 2151:1 2183:1 2221:1 2225:1 2329:1 2344:1 2410:1 2427:1 2436:1 2446:1 2498:1 2558:1 2566:1 2584:1 2589:1 2750:1 2768:1 2820:1 2841:1 2854:1 2904:1 2947:1 2951:1 3134:1 3264:1 3302:1 3352:1 3362:1 3398:1 3454:1 3477:1 3491:1 3493:1 3561:1 3572:1 3600:1 3659:1 3745:1 3784:1 3975:1 3979:1 3982:1 4062:1 4095:1 4208:1 4241:1 4287:1 4323:1 4359:1 4360:1 4434:1 4575:1 4593:1 4620:1 4643:1 4648:1 4714:1 4726:1 4745:1 4792:1 4928:1 4957:1 4994:1 5021:1 5303:1 5442:1 5443:1 5476:1 5516:1 5553:1 5601:1 5701:1 5768:1 5777:1 5795:1 5796:1 5797:1 5798:1 5799:1 5800:1 5801:1 5802:1 5803:1 5804:1 5805:1 5806:1 5807:1 5808:1 5809:1 5810:1 5811:1 5812:1 5813:1 5814:1 5815:1 5816:1 5817:1 5818:1 5819:1 5820:1 5821:1 5822:1 5823:1 5824:1 5825:1 5826:1 5827:1 5828:1 5829:1 5830:1 5831:1 5832:1 5833:1 5834:1 5835:1 5836:1 5837:1 5838:1 5839:1 5840:1 5841:1 5842:1 5843:1 5844:1 5845:1 5846:1 5847:1 5848:1 5849:1 5850:1 5851:1 5852:1 5853:1 5854:1 5855:1 5856:1 5857:1 5858:1 5859:1 5860:1 5861:1 5862:1 5863:1 5864:1 5865:1 5866:1 5867:1 5868:1 5869:1 5870:1 5871:1 5872:1 5873:1 5874:1 5875:1 5876:1 5877:1 5878:1 5879:1 5880:1 5881:1 5882:1 5883:1 5884:1 5885:1 5886:1 5887:1 5888:1 5889:1 5890:1 5891:1 5892:1 5893:1 5894:1 5895:1 5896:1 5897:1 5898:1 5899:1 5900:1 5901:1 5902:1 5903:1 5904:1 5905:1 5906:1 5907:1 5908:1 5909:1 5910:1 5911:1 5912:1 5913:1 5914:1 5915:1 5916:1 5917:1 5918:1 5919:1 5920:1 5921:1 5922:1 5923:1 5924:1 5925:1 5926:1 5927:1 5928:1 5929:1 5930:1 #
-0.0017005521332271605634139932661242 4:1 6:1 7:1 9:1 11:1 15:1 17:1 19:1 34:1 39:1 41:1 42:1 46:1 49:1 51:1 52:1 55:1 60:1 62:1 70:1 72:1 73:1 77:1 86:1 91:1 93:1 95:1 97:1 98:1 110:1 115:1 121:1 122:1 123:1 126:1 127:1 129:1 131:1 133:1 134:1 143:1 144:1 149:1 163:1 169:1 188:1 190:1 193:1 204:1 210:1 213:1 229:1 241:1 243:1 244:1 249:1 251:1 255:1 256:1 264:1 267:1 271:1 273:1 286:1 297:1 298:1 300:1 304:1 305:1 319:1 333:1 343:1 344:1 354:1 356:1 368:1 373:1 382:1 404:1 406:1 424:1 438:1 444:1 446:1 462:1 471:1 472:1 477:1 479:1 480:1 483:1 501:1 504:1 532:1 533:1 534:1 561:1 563:1 568:1 576:1 596:1 607:1 632:1 637:1 638:1 639:1 648:1 663:1 676:1 714:1 716:1 750:1 758:1 773:1 774:1 784:1 785:1 791:1 792:1 802:1 814:1 840:1 845:1 847:1 850:1 856:1 859:1 862:1 879:1 884:1 885:1 896:1 917:1 943:1 949:1 963:1 968:1 976:1 986:1 988:1 1032:1 1035:1 1048:1 1056:1 1065:1 1067:1 1069:1 1096:1 1104:1 1105:1 1121:1 1149:1 1155:1 1156:1 1162:1 1187:1 1188:1 1194:1 1198:1 1199:1 1202:1 1203:1 1226:1 1230:1 1235:1 1250:1 1347:1 1394:1 1399:1 1402:1 1407:1 1417:1 1420:1 1429:1 1442:1 1459:1 1505:1 1510:1 1514:1 1551:1 1563:1 1624:1 1640:1 1676:1 1694:1 1699:1 1741:1 1765:1 1776:1 1806:1 1815:1 1863:1 1897:1 1974:1 2010:1 2039:1 2060:1 2088:1 2105:1 2165:1 2172:1 2197:1 2212:1 2225:1 2253:1 2255:1 2283:1 2344:1 2366:1 2395:1 2406:1 2410:1 2490:1 2496:1 2512:1 2541:1 2560:1 2566:1 2618:1 2658:1 2690:1 2768:1 2775:1 2789:1 2868:1 2884:1 2904:1 3091:1 3116:1 3127:1 3288:1 3322:1 3327:1 3352:1 3355:1 3360:1 3376:1 3405:1 3470:1 3477:1 3518:1 3562:1 3575:1 3619:1 3665:1 3741:1 3765:1 3904:1 3906:1 3924:1 3956:1 3957:1 4095:1 4109:1 4147:1 4287:1 4314:1 4368:1 4417:1 4434:1 4546:1 4586:1 4594:1 4693:1 4719:1 4821:1 4841:1 5080:1 5158:1 5178:1 5187:1 5246:1 5256:1 5284:1 5331:1 5361:1 5381:1 5408:1 5434:1 5472:1 5557:1 5723:1 5724:1 5832:1 5882:1 5889:1 5961:1 5997:1 6006:1 6215:1 6274:1 6298:1 6302:1 6303:1 6317:1 6408:1 6418:1 6658:1 6677:1 6757:1 6775:1 6814:1 7327:1 7350:1 7355:1 7411:1 7532:1 7743:1 7749:1 7980:1 8130:1 8239:1 8244:1 8410:1 8425:1 8542:1 8666:1 8723:1 8802:1 8808:1 8942:1 9130:1 9323:1 9436:1 9460:1 9507:1 9580:1 9830:1 9838:1 9959:1 10103:1 10160:1 10274:1 10275:1 10357:1 10359:1 10412:1 10425:1 10611:1 10704:1 10739:1 10792:1 10866:1 10949:1 11014:1 11510:1 11526:1 11577:1 11650:1 11659:1 11865:1 11868:1 11940:1 12165:1 12378:1 12379:1 12386:1 12803:1 13236:1 13297:1 13455:1 13710:1 13711:1 14130:1 15167:1 16240:1 16342:1 16865:1 18283:1 18369:1 18664:1 18951:1 19132:1 19141:1 19208:1 20100:1 20127:1 20861:1 21048:1 21686:1 23311:1 23352:1 23802:1 24686:1 24900:1 25415:1 25621:1 25872:1 27261:1 27262:1 27263:1 27264:1 27265:1 27266:1 27267:1 27268:1 27269:1 27270:1 27271:1 27272:1 27273:1 27274:1 27275:1 27276:1 27277:1 27278:1 27279:1 27280:1 27281:1 27282:1 27283:1 27284:1 27285:1 27286:1 27287:1 27288:1 27289:1 27290:1 27291:1 27292:1 27293:1 27294:1 27295:1 27296:1 27297:1 27298:1 27299:1 27300:1 27301:1 27302:1 27303:1 27304:1 27305:1 27306:1 27307:1 27308:1 27309:1 #
-0.00046029452519397325276767629631536 4:1 6:1 9:1 10:1 11:1 15:1 17:1 20:1 34:1 41:1 42:1 46:1 49:1 51:1 62:1 69:1 70:1 72:1 73:1 75:1 77:1 86:1 91:1 93:1 96:1 98:1 104:1 110:1 111:1 115:1 118:1 121:1 123:1 129:1 131:1 133:1 134:1 143:1 144:1 146:1 148:1 149:1 157:1 163:1 168:1 188:1 190:1 191:1 204:1 213:1 215:1 217:1 229:1 241:1 242:1 244:1 248:1 256:1 264:1 267:1 277:1 291:1 297:1 298:1 303:1 307:1 319:1 337:1 347:1 348:1 352:1 354:1 356:1 382:1 394:1 404:1 406:1 415:1 444:1 446:1 448:1 453:1 476:1 479:1 480:1 481:1 483:1 484:1 485:1 496:1 512:1 517:1 518:1 520:1 532:1 533:1 534:1 535:1 568:1 571:1 607:1 618:1 621:1 638:1 643:1 645:1 652:1 669:1 679:1 694:1 695:1 712:1 716:1 758:1 768:1 771:1 774:1 791:1 807:1 817:1 822:1 829:1 840:1 862:1 871:1 892:1 904:1 905:1 917:1 944:1 951:1 988:1 1030:1 1032:1 1048:1 1071:1 1075:1 1080:1 1081:1 1104:1 1159:1 1185:1 1186:1 1187:1 1188:1 1198:1 1205:1 1214:1 1226:1 1247:1 1269:1 1357:1 1358:1 1392:1 1402:1 1429:1 1431:1 1437:1 1438:1 1444:1 1459:1 1495:1 1497:1 1517:1 1541:1 1545:1 1614:1 1616:1 1620:1 1628:1 1678:1 1702:1 1851:1 1863:1 1875:1 1997:1 2017:1 2069:1 2077:1 2086:1 2097:1 2113:1 2145:1 2181:1 2255:1 2363:1 2393:1 2396:1 2401:1 2411:1 2427:1 2498:1 2569:1 2592:1 2617:1 2644:1 2658:1 2669:1 2677:1 2702:1 2751:1 2758:1 2772:1 2807:1 2863:1 2884:1 2909:1 3010:1 3043:1 3056:1 3128:1 3299:1 3322:1 3376:1 3383:1 3408:1 3477:1 3486:1 3491:1 3548:1 3572:1 3623:1 3705:1 3768:1 3889:1 3913:1 3937:1 3939:1 3942:1 3956:1 4002:1 4015:1 4083:1 4220:1 4322:1 4396:1 4453:1 4528:1 4555:1 4599:1 4606:1 4726:1 4734:1 4745:1 4763:1 4768:1 4789:1 4813:1 4826:1 4839:1 5003:1 5035:1 5075:1 5079:1 5103:1 5368:1 5374:1 5393:1 5421:1 5482:1 5508:1 5547:1 5788:1 5879:1 5882:1 5898:1 5948:1 6068:1 6157:1 6166:1 6185:1 6189:1 6241:1 6272:1 6348:1 6388:1 6420:1 6428:1 6461:1 6471:1 6527:1 6572:1 6738:1 6784:1 6922:1 7171:1 7284:1 7344:1 7358:1 7414:1 7438:1 7491:1 7494:1 7508:1 7759:1 7849:1 7905:1 7912:1 7998:1 8293:1 8318:1 8378:1 8541:1 8542:1 8550:1 8597:1 8605:1 8616:1 8659:1 8817:1 9159:1 9179:1 9221:1 9224:1 9333:1 9458:1 9521:1 9575:1 9965:1 10091:1 10130:1 10148:1 10176:1 10233:1 10310:1 10399:1 10650:1 10732:1 10875:1 10877:1 10946:1 10959:1 10971:1 11014:1 11112:1 11119:1 11189:1 11196:1 11323:1 11612:1 11668:1 11739:1 11930:1 11978:1 12363:1 12474:1 12537:1 12967:1 13673:1 13711:1 13836:1 13897:1 14111:1 14281:1 14286:1 14472:1 14541:1 14827:1 15166:1 15192:1 15747:1 15947:1 16051:1 16482:1 16590:1 16632:1 16925:1 16931:1 17341:1 17477:1 17516:1 17884:1 17933:1 17988:1 18438:1 19023:1 19171:1 19488:1 19631:1 19658:1 20950:1 21407:1 21888:1 22288:1 22979:1 22990:1 23279:1 23345:1 23447:1 23486:1 24285:1 24714:1 24776:1 25677:1 25728:1 25858:1 26393:1 26569:1 27603:1 28216:1 28295:1 29013:1 29211:1 29277:1 29497:1 29587:1 30197:1 30247:1 30300:1 30636:1 30768:1 31160:1 32545:1 32818:1 33018:1 33593:1 33594:1 33595:1 33596:1 33597:1 33598:1 33599:1 33600:1 33601:1 33602:1 33603:1 33604:1 33605:1 33606:1 33607:1 33608:1 33609:1 33610:1 33611:1 33612:1 33613:1 33614:1 33615:1 33616:1 33617:1 33618:1 33619:1 33620:1 33621:1 33622:1 33623:1 33624:1 33625:1 33626:1 33627:1 33628:1 33629:1 33630:1 33631:1 33632:1 33633:1 33634:1 33635:1 33636:1 33637:1 33638:1 33639:1 33640:1 33641:1 33642:1 33643:1 33644:1 33645:1 33646:1 33647:1 33648:1 33649:1 33650:1 33651:1 33652:1 33653:1 33654:1 33655:1 33656:1 33657:1 33658:1 33659:1 33660:1 33661:1 33662:1 33663:1 33664:1 33665:1 33666:1 #
0.0076917947464453448325194528933935 6:1 9:1 15:1 17:1 29:1 39:1 42:1 43:1 49:1 60:1 77:1 110:1 123:1 142:1 143:1 168:1 297:1 298:1 332:1 413:1 444:1 471:1 501:1 545:1 550:1 774:1 818:1 917:1 964:1 1084:1 1126:1 1260:1 1407:1 1567:1 1609:1 1700:1 2391:1 2675:1 2692:1 2762:1 2904:1 3272:1 3486:1 3769:1 3812:1 3926:1 4455:1 4634:1 4877:1 5242:1 6204:1 7462:1 10143:1 12882:1 13247:1 14650:1 16298:1 16492:1 17162:1 17771:1 17985:1 17986:1 17987:1 17988:1 17989:1 17990:1 17991:1 17992:1 17993:1 17994:1 #
0.0076917947464453448325194528933935 9:1 11:1 34:1 60:1 75:1 123:1 129:1 143:1 168:1 204:1 229:1 352:1 382:1 408:1 428:1 607:1 673:1 714:1 750:1 885:1 1545:1 1547:1 1617:1 1618:1 1619:1 1624:1 2010:1 2250:1 2366:1 3297:1 3477:1 3737:1 4191:1 4244:1 4505:1 5318:1 6264:1 8870:1 10578:1 11350:1 12632:1 17065:1 17511:1 24144:1 24145:1 24146:1 24147:1 #
0.0076917947464453448325194528933935 9:1 11:1 17:1 18:1 34:1 39:1 42:1 51:1 77:1 110:1 121:1 123:1 127:1 131:1 157:1 188:1 204:1 354:1 382:1 399:1 471:1 724:1 795:1 970:1 1040:1 1069:1 1123:1 1186:1 1226:1 1269:1 1403:1 1404:1 1412:1 1484:1 1586:1 1628:1 1678:1 1809:1 1873:1 1936:1 2017:1 2116:1 2399:1 2440:1 2496:1 2790:1 2820:1 4158:1 4208:1 4718:1 5516:1 5948:1 6071:1 6335:1 6685:1 7273:1 7957:1 7976:1 7982:1 8001:1 8193:1 8286:1 10669:1 10732:1 10792:1 10804:1 10875:1 11131:1 12143:1 15964:1 18292:1 22810:1 25677:1 26503:1 31456:1 31457:1 31458:1 31459:1 31460:1 31461:1 31462:1 31463:1 #
-0.0043805105657170571864522656824192 3:1 4:1 6:1 9:1 11:1 15:1 17:1 21:1 23:1 34:1 39:1 41:1 42:1 51:1 62:1 86:1 91:1 98:1 100:1 110:1 111:1 123:1 131:1 143:1 188:1 207:1 251:1 267:1 294:1 322:1 365:1 374:1 396:1 422:1 443:1 446:1 452:1 455:1 517:1 534:1 545:1 550:1 607:1 651:1 716:1 747:1 748:1 768:1 774:1 801:1 884:1 905:1 938:1 964:1 978:1 1027:1 1049:1 1126:1 1304:1 1349:1 1438:1 1484:1 1514:1 1605:1 1652:1 1662:1 1678:1 1720:1 1723:1 1724:1 1831:1 1971:1 2029:1 2088:1 2112:1 2137:1 2202:1 2204:1 2298:1 2314:1 2833:1 2901:1 3045:1 3119:1 3275:1 3481:1 3727:1 3987:1 4031:1 4165:1 4828:1 5767:1 5881:1 5972:1 6074:1 6241:1 6255:1 7597:1 7956:1 8063:1 8294:1 8339:1 8448:1 9188:1 9881:1 10876:1 11281:1 15289:1 16990:1 17352:1 19360:1 20383:1 20484:1 24211:1 28146:1 33482:1 34548:1 34549:1 #
-0.0069931011916458804197893606158232 7:1 9:1 11:1 15:1 18:1 34:1 42:1 46:1 51:1 60:1 72:1 73:1 86:1 91:1 110:1 123:1 127:1 143:1 188:1 249:1 258:1 264:1 267:1 305:1 319:1 324:1 343:1 382:1 394:1 444:1 472:1 534:1 576:1 595:1 699:1 756:1 798:1 836:1 850:1 856:1 917:1 988:1 1046:1 1056:1 1060:1 1067:1 1098:1 1174:1 1187:1 1392:1 1487:1 1624:1 1634:1 1650:1 1863:1 2010:1 2034:1 2344:1 2366:1 3491:1 3975:1 4010:1 4095:1 5097:1 5837:1 6317:1 6647:1 6735:1 7199:1 8250:1 9690:1 10139:1 10212:1 11217:1 12207:1 12557:1 12856:1 15094:1 16568:1 18066:1 20707:1 21608:1 23728:1 25706:1 26580:1 26581:1 #
-0.0056560355128803026930617292578063 9:1 11:1 39:1 42:1 51:1 68:1 77:1 93:1 121:1 131:1 479:1 482:1 537:1 585:1 802:1 878:1 947:1 969:1 1402:1 1581:1 1699:1 1831:1 2158:1 2301:1 2839:1 2974:1 3042:1 3318:1 3613:1 3994:1 5181:1 6668:1 9082:1 9940:1 10896:1 23289:1 23290:1 #
-0.00068598541603944970281026005665126 2:1 3:1 4:1 6:1 8:1 9:1 11:1 15:1 17:1 21:1 34:1 39:1 41:1 42:1 46:1 48:1 49:1 51:1 52:1 56:1 60:1 62:1 70:1 72:1 73:1 75:1 77:1 86:1 87:1 91:1 95:1 98:1 110:1 112:1 118:1 119:1 121:1 123:1 126:1 127:1 129:1 131:1 143:1 148:1 164:1 190:1 191:1 199:1 218:1 219:1 220:1 243:1 248:1 255:1 256:1 264:1 267:1 271:1 286:1 297:1 298:1 300:1 305:1 319:1 335:1 344:1 347:1 382:1 393:1 394:1 404:1 412:1 438:1 444:1 453:1 471:1 476:1 480:1 481:1 483:1 519:1 553:1 557:1 560:1 565:1 607:1 618:1 625:1 643:1 679:1 703:1 714:1 716:1 747:1 786:1 792:1 856:1 859:1 878:1 896:1 914:1 925:1 944:1 949:1 951:1 988:1 999:1 1027:1 1032:1 1034:1 1035:1 1038:1 1041:1 1042:1 1048:1 1067:1 1069:1 1083:1 1098:1 1101:1 1104:1 1110:1 1121:1 1149:1 1187:1 1193:1 1253:1 1306:1 1402:1 1483:1 1495:1 1626:1 1662:1 1806:1 1972:1 2017:1 2063:1 2295:1 2451:1 2470:1 2512:1 2594:1 2758:1 2869:1 3007:1 3028:1 3058:1 3264:1 3285:1 3383:1 3395:1 3728:1 3769:1 3903:1 3909:1 4079:1 4195:1 4244:1 4376:1 4414:1 4434:1 4649:1 4719:1 4910:1 5014:1 5035:1 5186:1 5215:1 5238:1 5372:1 5377:1 5492:1 5576:1 5624:1 5897:1 6546:1 7087:1 7178:1 7785:1 7821:1 8227:1 8239:1 8248:1 8378:1 8400:1 8809:1 9134:1 9241:1 9832:1 9906:1 10826:1 10886:1 11097:1 11249:1 11301:1 11508:1 12914:1 14513:1 14974:1 15097:1 15181:1 16171:1 16732:1 17086:1 17271:1 17472:1 17473:1 17474:1 18386:1 19311:1 20993:1 20994:1 21816:1 22019:1 22188:1 22836:1 22948:1 24048:1 24695:1 25929:1 27722:1 27728:1 27729:1 27730:1 27731:1 27732:1 27733:1 27734:1 27735:1 27736:1 27737:1 27738:1 27739:1 27740:1 27741:1 27742:1 27743:1 27744:1 27745:1 27746:1 27747:1 27748:1 27749:1 #
