SVM-light Version V6.02
0 # kernel type
3 # kernel parameter -d 
1 # kernel parameter -g 
1 # kernel parameter -s 
1 # kernel parameter -r 
empty# kernel parameter -u 
34623 # highest feature index 
2638 # number of training documents 
435 # number of support vectors plus 1 
1.0005729 # threshold b, each following line is a SV (starting with alpha*y)
-0.0005156426616742183126687604222127 4:6 6:1 9:40 11:16 15:16 17:5 20:2 21:1 34:11 35:1 39:1 41:2 42:15 46:1 49:3 60:1 62:1 69:2 72:4 76:2 77:1 84:2 86:20 87:3 91:4 97:1 98:4 110:7 111:2 117:2 119:1 121:4 123:11 127:3 129:3 131:3 143:2 148:1 149:2 163:1 168:1 169:1 173:2 183:3 188:2 193:2 195:1 200:1 201:1 204:2 213:4 215:1 217:1 248:1 251:1 256:3 267:4 297:5 298:1 307:1 348:1 354:3 369:1 372:1 382:2 383:1 404:1 406:1 446:2 453:2 476:1 483:4 495:1 496:1 501:3 510:1 519:1 533:2 581:1 595:3 628:1 632:2 638:4 716:1 721:1 725:1 749:1 789:1 798:1 807:1 829:1 862:2 871:3 907:1 914:2 917:5 936:1 958:1 986:2 988:3 1069:6 1076:1 1081:1 1083:1 1085:1 1106:2 1123:1 1124:1 1149:4 1150:1 1178:1 1186:2 1187:1 1193:1 1199:1 1230:5 1233:2 1253:1 1335:2 1353:1 1375:2 1392:2 1429:1 1459:2 1482:2 1485:2 1505:1 1614:1 1623:1 1626:1 1640:1 1731:1 1733:1 1755:1 1767:4 1825:1 1831:1 1910:1 2000:1 2004:1 2018:1 2036:1 2127:1 2151:2 2223:1 2292:2 2300:1 2376:1 2382:1 2410:1 2454:1 2502:1 2508:1 2512:1 2621:1 2687:1 2807:1 2808:1 2829:1 2916:1 2955:1 2958:1 2983:1 2985:1 2986:1 3122:1 3322:3 3326:1 3336:1 3341:1 3346:1 3449:3 3454:3 3486:1 3500:1 3690:1 3705:1 3934:1 4190:2 4390:1 4406:1 4413:1 4455:2 4463:1 4585:1 4648:1 4657:1 4721:1 4734:2 4765:3 4957:1 4989:1 5009:1 5129:1 5164:1 5291:1 5298:1 5377:1 5381:1 5733:1 5785:1 5844:1 5859:2 5930:1 5972:1 5974:1 5999:1 6125:2 6426:1 6471:1 6489:1 6496:1 6572:1 6762:1 7098:1 7145:1 7170:1 7202:1 7320:1 7342:1 7393:1 7631:1 7963:1 7986:1 8211:2 8261:1 8270:3 8303:1 8317:1 8380:1 8565:1 8844:1 9088:1 9366:3 9470:1 9832:1 10182:1 10285:1 10421:1 10574:1 10747:1 10780:1 11068:1 11161:1 11258:3 11644:2 11688:1 11699:2 11964:1 13362:1 13385:1 13512:1 14128:1 14380:1 14400:1 14641:1 14831:1 14849:2 15054:3 15175:1 16080:1 16295:1 16465:2 16466:1 16478:2 17063:1 17383:1 17403:1 17830:2 18033:1 19202:1 19539:1 19597:1 19902:1 20100:6 20699:1 20704:1 21475:1 21736:1 21910:1 22395:1 22414:1 22455:1 23447:1 26538:1 28223:1 29260:1 29946:1 30428:1 30659:1 31566:2 32006:1 32007:1 32008:1 32009:1 32010:1 32011:1 32012:1 32013:1 32014:1 32015:1 32016:1 32017:1 32018:1 32019:1 32020:1 32021:1 32022:1 32023:1 32024:1 32025:1 32026:1 32027:1 32028:1 32029:1 32030:1 32031:1 32032:1 32033:1 32034:1 32035:1 32036:1 32037:1 32038:1 32039:1 32040:1 32041:1 32042:1 32043:1 32044:1 32045:1 #
-0.00027329404201047001595967222975503 4:3 6:3 9:19 10:1 11:5 15:8 17:3 21:1 23:2 33:1 34:10 42:5 51:4 53:1 60:5 62:1 72:1 79:1 80:2 86:3 91:2 95:1 98:1 110:5 112:1 118:1 121:2 122:1 123:8 127:1 130:1 131:1 138:1 143:2 149:1 153:1 157:1 199:4 204:2 205:2 219:1 220:3 229:2 237:1 243:1 244:1 249:1 267:4 298:3 300:1 320:1 328:1 343:2 354:1 367:1 382:1 387:1 394:1 402:1 403:1 440:1 446:1 453:3 472:1 479:1 483:1 486:1 493:1 534:1 570:1 579:1 625:1 683:2 716:1 759:1 770:1 791:1 801:1 802:2 807:1 830:1 831:1 884:2 959:1 964:4 978:1 979:1 986:1 1002:1 1022:1 1038:1 1046:2 1056:1 1069:1 1071:1 1147:1 1191:1 1206:2 1253:2 1347:1 1404:1 1411:1 1415:2 1453:1 1545:1 1640:1 1662:1 1710:1 1720:1 1731:1 1787:6 1910:1 2148:1 2163:2 2331:1 2343:1 2482:1 2661:1 2943:1 3001:1 3044:1 3071:1 3086:1 3119:1 3240:1 3246:1 3271:1 3626:1 3659:2 3687:1 4046:1 4109:1 4563:1 4579:1 4648:1 4860:1 5008:1 5082:1 5179:1 5548:1 5791:1 5858:1 6078:2 6113:1 6138:1 6148:1 6700:1 6707:4 7242:1 7758:1 7910:10 7978:1 8123:1 10071:1 10247:1 10418:1 12603:1 12851:1 15692:4 15693:3 15694:5 15695:1 15696:5 15697:1 15698:1 15699:1 15700:1 15701:1 15702:1 15703:1 15704:1 15705:1 15706:1 15707:1 15708:1 #
-0.00096980903928548531714448621698921 6:1 9:6 11:2 17:2 34:2 39:1 41:1 42:6 91:1 110:2 117:1 118:1 121:2 123:3 127:1 131:1 144:2 149:1 163:1 209:1 212:1 241:2 294:1 319:1 365:1 382:1 413:1 453:1 496:1 550:1 569:1 714:1 765:1 845:1 855:1 961:1 1158:1 1164:1 1200:1 1250:2 1304:4 1349:2 1459:1 1464:2 1479:1 1666:1 1676:2 1897:1 2212:1 2366:2 2791:2 2813:1 2837:1 2951:1 3077:1 3978:1 4941:1 5073:1 5536:1 6132:1 7326:1 7716:1 7792:1 7809:1 7810:3 9069:2 10592:1 11934:1 #
-0.00080372617384021982980812914831859 4:2 6:3 7:1 9:14 11:2 15:3 17:2 18:1 34:1 39:2 42:7 46:1 49:1 51:1 56:1 60:1 62:2 75:2 77:2 86:2 110:2 115:1 117:2 121:1 123:6 127:1 131:2 133:1 134:2 143:1 146:1 148:1 153:1 168:1 188:2 191:2 193:1 199:1 201:1 202:1 208:1 213:2 219:1 220:1 255:1 267:4 298:2 319:1 324:3 327:1 337:2 341:1 354:1 375:1 382:1 385:2 393:1 413:1 481:1 483:1 502:1 518:1 533:1 535:1 638:1 771:2 802:2 812:1 858:1 862:1 879:1 896:1 925:2 942:1 960:5 1027:1 1046:1 1083:2 1187:1 1255:1 1528:1 1614:1 1624:4 1666:1 1789:1 1823:1 2037:1 2351:1 2366:3 2648:1 2661:1 2979:1 2991:1 2992:2 3000:2 3001:1 3025:2 3068:1 3383:1 3470:1 3543:4 3544:1 3545:1 3549:1 3609:1 3735:1 4071:1 4208:1 4287:1 4431:1 5171:1 5408:1 5821:1 5960:2 6418:1 6624:3 6643:1 6645:1 6785:1 7171:1 7235:1 7241:1 7410:1 9933:1 9962:1 12390:2 12474:1 12814:1 12920:1 14401:1 14402:1 14403:5 14404:1 14405:2 14406:1 14407:1 14408:1 14409:1 #
-0.00024784659340470918502397079663524 2:1 3:1 4:3 6:4 9:34 11:17 15:9 17:3 25:1 34:6 39:4 41:1 42:21 49:1 51:1 60:5 62:5 72:4 73:1 77:4 78:1 86:8 91:3 95:1 98:4 110:8 117:1 123:7 125:1 131:2 140:1 143:4 145:1 185:4 188:3 194:1 195:9 199:2 204:1 209:1 211:1 212:1 213:2 217:1 229:2 241:1 251:4 267:3 297:2 298:3 300:2 327:1 337:1 343:1 354:1 362:1 382:2 394:1 400:1 403:1 424:1 444:2 453:2 457:1 471:1 480:4 482:1 490:1 512:5 515:1 518:1 521:1 545:2 548:6 560:2 582:3 585:1 589:1 590:16 607:3 619:3 622:2 624:1 637:1 664:1 672:2 676:1 679:3 684:1 765:1 768:1 772:1 784:1 810:1 814:1 862:2 865:1 872:1 879:2 892:1 923:1 942:1 960:2 1084:1 1153:1 1188:1 1211:1 1214:1 1217:1 1236:1 1253:1 1255:1 1262:1 1263:1 1347:1 1415:1 1447:1 1568:2 1616:1 1628:1 1640:1 1701:1 1748:1 1816:2 1830:1 1864:2 1881:1 1996:1 2037:2 2088:1 2097:1 2098:1 2148:1 2193:1 2339:1 2436:3 2523:1 2647:2 2651:1 2706:1 2820:2 2893:1 2968:1 2975:1 3040:1 3042:1 3127:1 3360:1 3515:1 3600:2 3617:1 3684:1 3709:1 3731:1 3745:1 3751:1 3769:1 3954:1 4001:1 4062:1 4216:1 4239:1 4249:1 4324:1 4414:2 4474:4 4485:1 4611:5 4691:1 5540:1 5825:2 5843:1 5901:1 5993:2 6033:1 6115:1 6119:1 6124:2 6342:1 6479:1 6600:1 6620:1 6729:1 7018:1 7130:1 7138:1 7228:1 7609:1 7872:1 7920:1 8194:1 8811:1 8836:1 8896:1 9438:4 10062:1 10142:1 10401:1 10689:1 11143:1 11344:1 11973:1 12765:2 12882:1 13083:2 14150:1 14268:1 14716:2 15363:1 15367:1 15377:1 15903:1 16125:1 19272:1 20615:1 20777:2 22895:1 23449:1 24013:1 24076:1 28291:1 29520:1 29521:3 29522:1 29523:1 29524:1 29525:1 29526:1 29527:1 #
0.00096980903928548531714448621698921 4:5 6:5 9:17 11:9 15:3 17:2 29:1 33:2 34:5 39:1 40:1 41:1 42:7 46:1 60:2 62:1 70:1 77:2 86:2 91:3 98:1 104:1 110:3 111:1 123:2 127:1 143:4 157:1 212:2 243:1 267:1 271:2 294:1 298:1 300:1 301:1 309:1 316:2 352:2 357:1 382:1 402:1 501:1 560:4 596:1 599:2 643:1 768:1 802:2 818:1 879:1 896:2 921:1 925:3 945:1 947:1 1052:1 1056:2 1105:1 1106:1 1123:1 1174:1 1199:1 1226:1 1236:1 1464:5 1516:1 1517:2 1518:3 1519:2 1520:3 1521:3 1522:1 1523:1 1524:1 1525:1 1526:1 1527:1 1528:1 1529:1 1530:1 1531:1 1532:1 1533:3 1534:4 1535:1 1536:1 1537:1 1538:1 1539:1 1540:1 1541:1 1542:1 1543:1 1544:1 1545:1 1546:1 1547:5 1548:1 1549:1 1550:1 1551:1 1552:1 1553:2 1554:1 1555:1 1556:2 1557:1 1558:1 1559:1 1560:1 1561:1 1562:2 1563:2 1564:1 1565:1 1566:1 1567:1 1568:1 1569:1 1570:1 1571:1 1572:1 1573:1 1574:1 1575:2 1576:1 1577:1 1578:1 1579:1 1580:1 1581:2 1582:1 1583:1 1584:1 1585:1 1586:1 1587:1 1588:1 1589:1 1590:1 1591:1 1592:1 1593:1 1594:1 1595:1 1596:1 1597:1 1598:1 1599:1 1600:1 1601:1 1602:1 1603:1 1604:1 1605:1 1606:1 1607:1 1608:1 1609:1 1610:1 1611:1 1612:1 1613:1 1614:1 1615:1 1616:1 1617:1 1618:1 1619:1 1620:1 1621:1 1622:1 1623:1 1624:1 1625:1 1626:1 1627:1 1628:1 1629:1 1630:1 1631:1 1632:1 1633:1 1634:1 1635:1 #
0.00096980903928548531714448621698921 3:1 4:8 6:8 7:1 8:1 9:62 11:31 15:19 17:1 20:1 23:2 31:1 34:18 39:7 41:2 42:14 46:1 49:3 51:8 60:4 62:4 72:4 73:1 77:4 86:8 87:1 91:3 93:2 98:4 110:6 111:3 113:2 115:4 117:1 118:1 123:23 125:1 127:2 131:3 134:1 143:2 148:1 163:1 186:2 188:2 190:1 193:1 199:1 201:5 202:1 204:1 213:2 215:1 242:1 243:1 244:2 248:2 251:1 255:1 256:5 258:1 267:11 291:1 297:4 298:2 300:4 303:1 305:4 309:1 313:1 317:1 319:1 337:1 345:1 349:1 352:2 354:4 369:1 373:2 382:2 385:2 404:1 405:1 406:1 427:1 438:1 440:3 444:1 446:1 449:1 453:3 462:1 476:1 479:2 483:2 485:3 501:1 506:2 515:1 518:1 519:2 545:1 548:1 553:1 557:5 581:1 599:2 607:5 615:1 637:1 638:1 645:1 653:1 695:1 700:1 703:1 712:1 714:3 765:1 773:1 786:1 791:2 802:1 807:2 821:1 827:1 833:1 845:1 850:1 859:2 862:3 865:1 875:1 886:2 892:3 908:1 917:6 942:1 952:1 959:1 985:1 1015:1 1019:1 1030:1 1036:1 1056:2 1059:1 1073:1 1075:2 1080:1 1083:1 1092:1 1096:1 1126:1 1187:2 1192:1 1194:1 1195:1 1203:2 1213:1 1230:2 1233:1 1239:1 1253:2 1304:4 1350:1 1385:1 1388:1 1407:1 1447:1 1455:1 1459:1 1510:2 1531:1 1601:1 1605:9 1606:1 1616:1 1621:1 1624:10 1634:1 1678:2 1687:1 1695:1 1710:1 1711:1 1742:1 1762:1 1851:1 1897:1 1983:1 2010:2 2044:1 2063:1 2071:3 2104:3 2136:1 2137:1 2150:1 2193:1 2255:2 2304:1 2342:1 2343:3 2344:4 2345:1 2346:1 2347:1 2348:1 2349:1 2350:2 2351:2 2352:2 2353:16 2354:16 2355:2 2356:3 2357:1 2358:1 2359:1 2360:1 2361:6 2362:1 2363:1 2364:1 2365:1 2366:8 2367:1 2368:1 2369:1 2370:1 2371:1 2372:1 2373:1 2374:1 2375:1 2376:1 2377:1 2378:1 2379:1 2380:1 2381:1 2382:1 2383:2 2384:2 2385:1 2386:1 2387:1 2388:1 2389:1 2390:1 2391:1 2392:1 2393:1 2394:1 2395:1 2396:2 2397:1 2398:1 2399:1 2400:1 2401:1 2402:2 2403:1 2404:2 2405:1 2406:1 2407:1 2408:1 2409:1 2410:1 2411:1 2412:1 2413:1 2414:1 2415:1 2416:1 2417:1 2418:1 2419:1 2420:1 2421:1 2422:1 2423:1 2424:1 2425:1 2426:1 2427:1 2428:1 2429:1 2430:1 2431:1 2432:1 2433:5 2434:1 2435:3 2436:1 2437:1 2438:2 2439:2 2440:1 2441:1 2442:2 2443:1 2444:1 2445:1 2446:1 2447:1 2448:1 2449:1 2450:1 2451:1 2452:1 2453:1 2454:1 2455:1 2456:1 2457:2 2458:1 2459:1 2460:1 2461:1 2462:1 2463:1 2464:1 2465:1 2466:1 2467:1 2468:1 2469:1 2470:2 2471:1 2472:1 2473:1 2474:1 2475:1 2476:1 2477:1 2478:1 2479:1 2480:1 2481:1 2482:1 2483:1 2484:1 2485:1 2486:1 2487:1 2488:1 2489:1 2490:1 2491:1 2492:1 2493:1 2494:1 2495:1 2496:1 2497:1 2498:1 2499:1 2500:1 2501:1 2502:1 2503:1 2504:1 2505:1 2506:1 2507:1 2508:1 2509:1 2510:1 2511:1 2512:3 2513:1 2514:1 2515:1 2516:1 2517:1 2518:1 2519:2 2520:1 2521:1 2522:1 2523:1 2524:1 2525:1 2526:1 2527:1 2528:1 2529:1 2530:1 2531:1 2532:1 2533:1 2534:1 2535:1 2536:1 2537:1 2538:2 2539:1 2540:1 2541:1 2542:1 2543:1 2544:1 2545:1 2546:1 2547:1 2548:1 2549:1 2550:1 2551:1 2552:1 2553:1 2554:1 2555:1 2556:1 2557:1 2558:1 2559:1 2560:2 2561:1 2562:1 2563:1 2564:1 2565:1 2566:1 2567:1 2568:1 2569:1 2570:1 2571:2 2572:1 2573:1 2574:1 2575:1 2576:1 2577:1 #
0.00096980903928548531714448621698921 4:2 6:5 9:21 11:15 15:3 34:1 39:4 41:1 42:9 49:2 51:2 60:3 72:1 86:7 91:3 96:1 98:1 101:1 110:4 111:1 115:1 117:2 119:1 121:5 123:6 127:2 129:1 131:1 143:1 148:1 149:1 152:1 157:1 185:1 188:2 213:1 242:1 267:4 268:1 298:2 300:2 303:2 305:1 309:1 319:1 341:2 345:1 346:1 357:1 382:2 446:1 453:2 457:1 479:1 496:1 534:1 550:1 552:1 557:1 590:1 607:1 638:1 651:2 679:1 683:1 684:1 699:1 768:3 769:1 772:1 773:2 802:3 811:1 857:1 878:1 887:2 891:2 902:2 972:1 984:1 1012:1 1069:2 1083:1 1105:1 1124:1 1187:1 1195:1 1215:1 1253:3 1255:1 1402:1 1407:1 1409:1 1415:1 1419:1 1431:1 1483:1 1530:3 1567:1 1614:1 1686:1 1710:1 1927:1 1961:1 1997:1 2036:1 2069:1 2127:1 2137:1 2282:1 2283:4 2304:1 2379:1 2482:1 2571:1 2689:1 2765:1 2796:1 2853:1 2873:2 2975:1 2978:1 2979:1 3011:1 3276:4 3277:3 3278:1 3279:3 3280:2 3281:1 3282:2 3283:1 3284:3 3285:2 3286:2 3287:1 3288:1 3289:1 3290:1 3291:1 3292:1 3293:2 3294:2 3295:1 3296:1 3297:1 3298:1 3299:2 3300:1 3301:1 3302:1 3303:1 3304:1 3305:1 3306:1 3307:1 3308:1 3309:1 3310:2 3311:1 3312:1 3313:1 3314:1 3315:1 3316:1 3317:1 3318:1 3319:1 3320:1 3321:1 3322:1 3323:1 3324:1 3325:1 3326:1 3327:1 3328:2 3329:1 3330:2 3331:1 3332:1 3333:1 3334:1 3335:1 3336:1 3337:1 3338:1 3339:1 3340:1 3341:1 3342:1 3343:1 3344:1 3345:1 3346:1 3347:1 3348:1 3349:1 3350:1 3351:1 3352:1 3353:1 3354:1 3355:1 3356:1 3357:1 3358:1 3359:1 3360:1 3361:1 3362:1 3363:1 3364:1 3365:1 3366:1 3367:1 3368:1 3369:1 3370:1 3371:1 3372:1 #
0.00096980903928548531714448621698921 4:3 6:1 9:3 15:2 34:1 41:1 42:3 51:1 57:1 60:1 73:1 98:2 110:1 111:2 119:1 122:1 123:1 125:1 127:2 148:1 157:1 188:1 229:1 256:1 264:2 267:1 299:1 309:2 352:1 377:1 416:1 453:1 483:2 533:1 534:1 553:1 557:1 585:1 714:1 717:1 829:1 878:1 914:1 917:2 1033:1 1056:1 1069:1 1103:1 1105:1 1107:1 1187:1 1230:1 1380:1 1459:1 1544:1 1562:1 1609:1 1678:1 1852:1 2039:1 2202:1 2225:1 2255:1 2344:1 2410:1 2571:1 2645:1 2805:1 3311:1 3361:1 3563:1 3575:1 3717:1 3758:1 3759:1 3760:1 3761:1 3762:1 3763:1 3764:1 3765:1 3766:1 3767:1 3768:1 3769:1 3770:1 3771:1 3772:1 3773:1 3774:1 3775:1 3776:1 3777:1 #
0.00096980903928548531714448621698921 4:1 6:2 7:1 9:5 11:7 15:5 17:1 18:1 34:2 39:1 42:4 46:1 49:1 51:1 60:4 64:1 72:4 73:1 122:1 123:2 129:1 138:1 188:2 256:1 267:1 298:2 402:1 496:1 542:1 550:1 599:1 714:3 716:1 850:1 897:1 939:1 944:1 986:1 1049:1 1051:1 1069:1 1084:1 1122:1 1185:1 1372:1 1394:1 1429:1 1434:1 1485:1 1990:1 2036:1 2112:2 2501:1 2900:1 2912:1 3028:1 3352:1 4062:1 4388:1 4681:1 4688:1 4751:4 4752:1 4753:1 4754:1 4755:2 4756:1 4757:1 4758:1 4759:2 4760:1 4761:1 4762:1 4763:1 4764:1 4765:1 4766:1 4767:1 4768:1 4769:1 4770:1 4771:1 4772:1 4773:1 4774:1 4775:1 #
-0.00013097751105345300441477884856312 6:2 9:4 11:5 15:3 17:1 34:3 42:2 49:1 51:1 60:3 62:1 118:1 123:2 153:1 212:1 236:2 243:2 267:1 289:1 300:1 305:1 322:1 368:1 394:1 438:1 445:1 597:1 607:1 748:1 826:1 853:1 987:1 1027:1 1350:1 1649:1 1783:3 2112:2 2464:2 2579:1 3369:1 3568:2 3906:1 3924:1 4406:1 4934:1 5606:1 6303:1 6658:2 6879:1 6956:2 6957:1 6958:2 6959:3 6960:1 6961:1 6962:1 6963:1 6964:1 6965:1 6966:1 6967:1 6968:1 6969:1 6970:1 6971:1 #
0.00017444994950216430838751957566046 4:12 6:13 7:3 9:38 10:2 11:21 15:15 17:3 20:1 25:1 31:1 33:17 34:16 39:3 41:2 42:29 46:1 48:1 49:1 51:8 57:2 60:4 62:6 68:1 69:1 72:5 73:1 76:1 77:4 82:1 84:1 86:4 91:4 93:2 95:1 96:3 97:1 98:8 108:2 110:22 111:1 117:2 118:1 119:2 121:3 123:25 125:1 126:1 127:4 129:2 131:1 143:3 144:1 147:1 148:1 153:2 163:1 164:2 168:4 188:3 190:1 191:2 193:1 199:2 204:1 208:1 213:1 215:1 220:1 229:2 236:1 237:1 251:6 256:1 258:1 259:1 264:1 267:3 298:4 300:2 309:4 316:2 335:1 341:1 348:1 354:2 365:1 373:2 384:1 394:1 403:4 404:3 408:1 415:1 444:1 446:1 452:5 453:6 455:1 458:1 473:1 475:2 479:2 480:1 481:1 485:1 512:3 517:2 520:1 534:6 535:1 545:1 551:1 557:2 564:1 572:1 573:1 577:2 581:24 585:1 587:1 590:1 591:1 595:2 597:1 599:1 605:1 607:1 618:1 624:1 626:1 628:1 632:1 637:2 638:3 641:2 643:3 650:2 665:5 679:2 727:1 748:1 760:2 768:2 785:1 787:1 791:1 798:1 801:2 802:1 805:2 811:1 812:2 817:1 818:1 823:1 830:1 843:1 846:1 848:1 855:1 871:3 921:2 936:1 951:1 963:1 964:5 978:1 979:3 986:1 1013:2 1027:1 1038:1 1046:1 1060:1 1069:2 1071:1 1083:4 1105:1 1147:1 1153:1 1187:1 1203:1 1216:1 1223:1 1226:3 1230:1 1253:1 1271:1 1273:1 1334:1 1399:1 1402:1 1404:1 1407:2 1421:2 1429:2 1438:1 1454:1 1479:2 1488:1 1528:2 1547:1 1562:2 1567:1 1605:1 1613:1 1634:2 1644:1 1646:1 1648:3 1660:1 1662:1 1678:10 1698:2 1720:2 1728:1 1730:2 1738:1 1742:1 1753:1 1754:1 1756:2 1758:1 1763:1 1776:1 1831:1 1918:1 1932:1 1933:1 1983:1 2000:1 2021:1 2053:1 2067:2 2070:2 2076:1 2086:1 2088:1 2093:2 2107:1 2125:1 2153:1 2193:3 2204:1 2214:1 2250:1 2277:1 2282:1 2287:1 2306:1 2349:1 2421:2 2436:1 2497:1 2499:1 2546:1 2547:1 2571:1 2613:1 2618:1 2663:1 2672:1 2692:3 2758:1 2772:1 2775:1 2813:1 2821:1 2838:1 2846:1 2893:1 2933:1 2955:1 2979:1 3005:1 3026:1 3077:1 3115:3 3119:2 3243:1 3308:1 3334:4 3361:1 3362:1 3383:1 3385:1 3388:1 3455:1 3506:2 3517:1 3565:1 3591:1 3628:1 3648:1 3676:1 3682:15 3684:1 3703:1 3709:3 3717:2 3768:1 3812:1 3904:1 3954:1 3976:1 3977:1 3986:1 3989:1 3990:2 4031:1 4036:1 4216:3 4634:1 4783:3 4910:1 4918:1 4932:1 4957:1 5138:1 5186:1 5190:1 5197:1 5234:1 5266:1 5279:1 5298:2 5393:1 5461:1 5728:1 5767:1 5790:1 6006:1 6148:1 6351:1 6497:1 6521:2 6562:1 6575:1 6685:1 7048:1 7072:1 7537:1 7584:1 7597:1 7635:1 7655:1 7749:1 7777:1 7779:23 7780:22 7967:1 8078:1 8341:1 8384:1 8899:1 9246:1 9603:1 9841:1 9933:1 10078:1 10268:2 10391:2 10403:2 10594:1 10637:3 10792:1 10876:1 11203:1 11320:1 11693:1 12216:1 12407:1 12932:1 13478:1 13552:1 13773:1 13872:1 14132:1 14593:1 15193:1 15289:1 15564:1 15987:1 16089:1 16428:1 16954:1 16975:1 17168:1 18309:1 18881:1 19392:1 21333:1 21854:1 22666:1 22686:2 23406:1 23839:1 24979:1 25780:1 25934:1 25935:2 25936:1 25937:1 25938:1 25939:1 25940:1 25941:1 25942:1 25943:1 25944:1 25945:1 25946:1 25947:1 25948:1 25949:1 25950:1 25951:1 25952:1 25953:1 25954:1 25955:1 25956:1 25957:1 25958:1 25959:1 25960:2 25961:1 25962:1 25963:1 25964:1 25965:1 25966:1 #
0.00096980903928548531714448621698921 3:1 4:3 6:9 7:2 9:47 11:20 12:1 15:13 17:4 20:1 29:1 34:22 39:6 42:18 46:1 49:6 51:9 52:1 60:8 62:2 69:2 70:1 72:11 76:2 77:3 86:4 91:9 93:1 95:1 97:3 98:2 110:11 111:4 117:5 119:1 120:1 121:2 123:12 125:1 126:1 127:2 128:1 129:3 130:2 131:1 132:1 138:1 140:1 143:2 144:1 148:1 149:1 154:1 163:1 164:1 186:3 187:1 188:2 190:1 193:1 204:2 213:3 217:1 218:1 236:1 243:1 244:2 248:2 251:3 256:2 258:5 259:1 267:7 278:1 281:1 285:1 291:1 297:2 298:13 305:1 313:10 340:1 343:1 354:1 382:3 394:2 404:1 419:1 428:1 444:2 446:1 453:4 462:1 480:1 485:1 501:2 517:1 534:1 582:1 607:2 637:3 638:3 679:1 714:3 717:1 719:1 733:1 768:1 774:3 792:2 801:1 802:1 850:1 862:3 865:1 871:3 884:2 892:1 893:1 917:1 919:1 923:1 925:1 943:1 952:1 1024:1 1027:2 1048:2 1069:2 1071:1 1103:1 1105:2 1155:1 1171:1 1190:3 1193:1 1227:1 1230:1 1242:1 1255:1 1284:1 1394:1 1402:1 1429:1 1436:1 1442:1 1447:3 1505:1 1517:4 1627:1 1628:2 1634:1 1638:1 1711:1 1818:2 1823:1 1825:1 1863:1 1880:1 1881:1 1892:1 1927:7 2006:1 2028:1 2088:1 2108:1 2146:1 2193:1 2220:1 2255:1 2362:1 2399:1 2406:1 2420:1 2428:1 2439:1 2445:1 2470:1 2490:1 2496:1 2523:1 2557:1 2668:1 2715:1 2722:1 2758:1 2768:1 2805:1 2807:1 2943:1 2960:1 3033:3 3043:1 3055:1 3086:1 3088:2 3207:1 3246:1 3264:1 3299:1 3333:2 3352:1 3362:1 3367:1 3406:1 3454:1 3576:1 3653:1 3687:1 3768:2 3785:1 3839:1 3879:2 3888:1 3897:1 3900:1 3962:1 3998:1 4031:2 4032:1 4244:1 4303:1 4361:1 4396:1 4400:1 4431:1 4574:1 4606:2 4688:1 4692:1 4704:1 4734:1 4790:1 4793:2 4813:1 4826:10 4875:1 4941:1 5014:1 5105:6 5109:1 5145:1 5162:1 5368:1 5374:1 5377:1 5392:1 5400:1 5451:2 5472:2 5520:1 5548:1 5787:1 5798:2 5845:1 5852:1 5889:1 5979:1 5997:1 5999:1 6012:1 6169:1 6208:1 6448:1 6491:2 6492:2 6527:1 6584:1 6593:1 6769:1 6879:1 7284:1 7319:1 7337:1 7342:1 7411:1 7514:1 7570:1 7957:1 7981:1 7982:1 8009:1 8013:2 8048:1 8145:1 8191:1 8400:1 8406:1 8443:1 8595:1 8646:1 8651:1 9001:1 9147:1 9176:2 9337:1 9585:1 10043:1 10103:1 10144:1 10163:1 10196:1 10212:1 10307:1 10328:1 10665:1 10691:1 10875:2 10897:1 11000:1 11131:1 11531:1 11978:1 12201:1 12556:1 12606:1 12615:1 12626:1 12632:1 12811:1 12895:1 12947:1 13063:1 13188:1 13453:1 13536:1 13857:1 13899:1 14868:2 14909:1 14942:1 15037:2 15123:1 15796:1 15829:4 15833:4 15873:2 15956:1 15982:1 16069:1 16367:1 17149:1 17343:1 17517:1 17524:1 17547:1 18028:1 18158:1 18200:1 18397:2 18553:2 18996:1 19560:1 20085:1 20090:1 22089:1 22466:1 22731:1 22752:1 22905:18 23110:1 23563:8 23564:1 23565:1 23566:1 23567:11 23568:2 23569:1 23570:1 23571:1 23572:1 23573:1 23574:1 23575:1 23576:1 23577:1 23578:1 23579:1 23580:1 23581:1 23582:1 23583:1 23584:2 23585:1 23586:1 23587:1 23588:1 23589:1 23590:1 23591:1 23592:1 23593:1 23594:1 23595:1 23596:1 23597:1 23598:1 23599:1 23600:2 23601:1 23602:1 23603:1 23604:1 23605:1 23606:1 23607:1 23608:1 23609:2 23610:1 23611:1 23612:1 23613:1 23614:1 23615:1 23616:1 #
-0.00094021219059037914808629743390611 6:2 7:1 9:15 11:2 15:7 17:1 21:1 29:1 34:3 39:4 42:7 46:3 49:2 50:1 51:2 60:5 62:2 64:1 73:2 76:1 77:3 86:1 91:1 110:1 111:1 116:1 117:2 118:2 119:1 122:2 123:7 148:2 158:1 186:3 188:1 190:1 213:2 218:1 243:1 256:1 258:2 267:4 297:3 300:1 307:1 353:1 394:2 405:1 409:1 418:2 444:2 453:1 471:1 483:1 486:1 585:1 607:3 637:2 638:1 643:2 673:2 714:8 748:1 871:1 917:1 942:1 1017:1 1032:1 1035:1 1046:1 1054:1 1068:1 1069:2 1071:1 1084:1 1098:1 1103:3 1113:1 1149:1 1184:1 1239:1 1249:1 1429:1 1434:1 1483:1 1489:1 1624:6 1915:2 1919:1 1927:3 1928:1 1946:1 2167:1 2180:1 2181:2 2283:2 2362:1 2366:9 2382:1 2566:3 2666:1 2675:1 2680:1 2684:2 2837:1 3010:1 3077:1 3095:2 3128:1 3273:1 3671:1 3793:1 4241:1 4244:1 4455:1 4501:1 4563:2 4937:2 5340:1 5661:1 6005:1 6086:1 6491:2 6492:1 7266:1 7678:1 8368:1 9293:1 9360:1 9403:1 9921:1 10514:1 11123:2 13083:2 14404:1 14974:1 15583:1 17796:1 18653:1 18735:1 20143:1 21080:2 22842:1 26589:7 26590:1 26591:1 26592:1 26593:1 26594:1 26595:1 26596:1 26597:1 26598:1 26599:1 26600:1 26601:1 26602:1 #
0.00041528268127203943251707363160108 3:1 4:6 6:14 8:1 9:48 10:1 11:36 15:18 17:8 19:1 20:1 22:2 31:1 34:17 35:1 39:10 40:2 41:1 42:40 44:1 45:1 46:1 49:3 51:12 60:7 67:2 69:1 70:3 72:7 73:2 75:3 76:1 77:3 84:1 86:8 91:5 93:1 95:3 97:1 98:17 110:8 111:5 112:1 115:1 117:6 118:1 119:4 121:1 122:1 123:33 125:2 126:2 127:3 129:4 131:1 134:1 138:1 143:6 144:2 146:1 148:1 149:3 157:2 164:1 168:2 169:1 173:1 188:10 190:1 191:1 193:1 199:3 204:2 212:1 213:2 217:1 218:1 219:1 220:1 237:1 241:1 243:1 244:1 251:1 255:1 256:1 264:4 267:6 285:2 291:2 297:3 298:5 303:1 304:1 305:1 309:1 313:1 316:1 318:1 319:2 322:1 340:3 343:2 354:3 356:1 365:1 369:1 372:1 374:1 378:1 379:1 382:2 394:4 402:3 404:1 408:2 416:1 425:1 426:2 430:1 438:1 440:1 444:4 461:1 477:1 479:1 483:2 485:2 486:1 495:2 496:3 504:1 519:3 532:1 533:2 545:1 550:3 553:1 557:3 560:2 564:1 570:1 595:4 599:1 607:1 614:1 615:3 637:1 638:3 639:1 644:2 647:1 679:9 684:1 700:3 712:1 714:11 721:3 727:1 755:1 768:1 774:1 784:1 787:2 791:1 793:1 802:2 805:1 833:1 845:2 850:2 856:3 862:1 867:1 871:1 878:1 917:1 919:1 921:1 947:5 959:1 977:1 986:2 987:1 994:2 1046:2 1049:1 1069:2 1071:1 1083:1 1092:1 1103:2 1105:3 1106:1 1116:1 1125:1 1127:1 1146:1 1149:1 1153:1 1187:2 1193:1 1198:1 1203:2 1214:1 1223:1 1227:1 1230:4 1232:1 1239:1 1244:1 1249:1 1250:1 1251:1 1271:1 1282:2 1283:1 1304:2 1349:1 1357:1 1392:1 1396:1 1399:1 1402:2 1411:1 1421:2 1429:1 1455:1 1483:1 1484:1 1486:1 1514:1 1522:1 1526:1 1545:2 1590:1 1605:1 1614:1 1616:1 1624:2 1653:1 1678:4 1680:1 1728:1 1731:1 1750:1 1806:1 1820:3 1823:1 1830:3 1845:11 1863:1 1873:1 1891:1 1897:1 1910:1 1974:1 1999:1 2013:1 2014:1 2028:2 2039:1 2053:1 2062:1 2081:1 2088:2 2114:1 2142:1 2161:1 2193:2 2212:1 2225:10 2258:1 2313:1 2340:1 2347:1 2350:1 2358:1 2379:1 2391:1 2410:1 2445:1 2496:1 2506:2 2550:1 2566:1 2582:1 2605:1 2698:1 2724:1 2730:1 2766:1 2803:1 2862:1 2871:1 2873:1 2888:1 2904:1 2943:1 2958:1 2965:1 2988:1 3017:1 3042:1 3098:1 3114:3 3240:1 3243:1 3247:1 3264:2 3285:2 3299:1 3312:2 3322:2 3325:1 3334:1 3352:1 3391:1 3404:2 3438:1 3454:1 3477:1 3480:1 3676:1 3705:1 3725:2 3740:1 3777:1 3994:1 4015:1 4021:1 4032:1 4089:1 4096:1 4136:1 4146:1 4155:1 4158:2 4178:1 4314:1 4358:1 4447:2 4460:1 4512:1 4537:1 4543:1 4552:1 4556:1 4579:2 4584:5 4598:5 4619:1 4649:1 4745:2 4810:1 4821:1 4826:1 4870:1 4937:1 4941:1 4974:2 4981:2 4989:1 5073:1 5080:1 5093:1 5110:1 5111:1 5124:1 5146:2 5156:1 5167:2 5298:1 5314:1 5384:1 5438:1 5444:1 5458:3 5487:1 5520:2 5596:1 5631:1 5711:1 5748:1 5788:2 5829:1 6037:2 6093:1 6227:2 6273:1 6309:1 6360:1 6410:4 6420:1 6519:1 6597:1 6757:2 6832:2 6872:1 6936:1 6992:1 6995:1 7047:1 7070:1 7084:1 7171:1 7202:1 7211:1 7219:1 7310:1 7316:1 7337:1 7342:1 7353:2 7372:1 7376:1 7434:2 7448:1 7457:1 7483:4 7521:1 7532:1 7636:4 7642:1 7749:2 7821:1 7894:1 7896:1 7931:1 7973:1 7987:10 8040:1 8078:1 8139:1 8236:1 8290:1 8443:1 8452:1 8462:1 8558:1 8663:3 9088:3 9246:1 9252:1 9324:1 9368:1 9436:1 9437:1 9511:1 9520:1 9524:1 9575:1 9955:1 9973:7 10023:1 10062:1 10078:1 10247:1 10268:1 10272:1 10274:1 10650:1 10691:1 10862:1 11163:1 11213:2 11370:1 11467:1 11542:2 11612:1 11683:4 11707:1 11808:1 11871:1 11985:1 12207:1 12477:3 12506:1 12549:1 12679:2 13008:1 13057:1 13107:1 13197:3 13232:5 13453:1 13512:2 14132:1 14157:3 14285:1 14337:1 14410:1 14463:1 14799:1 14843:2 14849:1 14873:1 14977:1 15031:1 15130:1 15234:1 15372:1 15583:1 15747:1 15971:1 16319:1 16992:1 17048:1 17206:1 17389:1 17428:1 17718:1 17778:1 17986:1 17987:1 18362:1 18442:1 18919:1 18980:1 19045:1 19176:1 19185:1 19471:1 19596:1 19797:1 20085:1 20225:1 20343:1 21122:1 21608:2 21695:1 21699:1 22287:1 22398:1 22669:1 23210:1 23441:1 23531:1 24321:1 24411:1 25468:1 25660:1 25661:1 25662:1 25663:1 25664:1 25665:1 25666:1 25667:2 25668:1 25669:1 25670:2 25671:1 25672:1 25673:1 25674:1 25675:1 25676:1 25677:2 25678:1 25679:3 25680:1 25681:1 25682:1 25683:3 25684:1 25685:1 25686:1 25687:1 25688:1 25689:3 25690:1 25691:1 25692:1 25693:1 25694:1 25695:1 25696:1 25697:1 25698:1 25699:1 25700:1 25701:1 25702:1 25703:1 25704:1 25705:1 25706:1 25707:1 25708:1 25709:1 25710:1 25711:1 25712:1 25713:3 25714:2 25715:1 25716:2 25717:1 25718:1 25719:1 25720:1 25721:1 25722:3 25723:1 25724:1 25725:1 25726:1 25727:1 25728:1 25729:1 25730:1 25731:1 #
0.00096980903928548531714448621698921 4:8 6:8 7:1 9:34 11:19 12:1 15:18 17:8 20:1 34:9 39:8 41:1 42:17 46:1 49:3 51:4 62:2 67:1 69:2 70:1 72:2 73:1 77:2 86:4 91:6 93:1 98:1 110:7 111:3 112:1 117:4 118:1 119:2 120:1 121:6 123:20 127:1 129:1 131:3 133:1 142:1 143:1 147:2 148:2 149:2 150:1 157:2 163:1 164:2 168:1 185:1 188:2 193:1 202:1 204:1 212:1 213:3 217:1 235:1 236:1 238:2 242:1 243:4 244:1 251:1 256:1 267:9 285:1 303:1 316:1 319:2 354:3 357:2 362:2 382:2 394:1 402:2 404:2 413:1 415:1 440:2 444:1 446:3 452:1 462:2 476:1 479:2 480:4 483:1 490:1 501:1 504:1 506:1 509:1 510:1 517:5 520:1 521:2 527:1 533:1 534:1 537:1 541:1 548:1 550:3 557:3 563:1 569:1 581:1 595:1 607:3 637:1 638:4 676:1 679:3 714:1 768:2 773:1 785:1 796:1 828:1 850:2 862:1 865:1 870:8 875:1 914:1 975:1 984:1 986:1 1021:1 1048:1 1056:1 1059:1 1080:1 1129:1 1195:1 1198:1 1211:1 1361:1 1365:1 1402:1 1429:1 1482:6 1495:1 1567:1 1579:1 1616:1 1627:1 1645:3 1649:1 1653:1 1654:2 1680:1 1700:2 1722:1 1728:1 1742:1 1748:1 1764:1 1822:3 1848:1 1862:1 1865:1 1874:1 1893:1 1913:1 1983:2 1997:1 2017:1 2021:1 2029:1 2036:1 2088:1 2107:1 2109:1 2174:1 2181:1 2295:1 2313:2 2315:1 2410:1 2523:1 2547:4 2589:1 2646:1 2648:1 2768:1 2775:1 2807:1 2922:1 2947:1 2970:1 3042:1 3114:1 3322:1 3376:1 3385:1 3386:1 3404:1 3542:1 3568:1 3575:1 3658:1 3705:1 3728:1 3747:1 3751:1 3789:2 3975:1 4031:1 4058:1 4095:2 4217:1 4249:1 4345:1 4359:1 4414:1 4452:1 4549:1 4565:1 4593:1 4761:1 4923:2 4926:1 4927:1 4934:1 5091:1 5118:1 5186:1 5265:1 5342:1 5352:1 5402:1 5410:1 5501:1 5526:1 5701:1 5784:2 5789:4 5850:2 5861:1 5893:1 5901:3 5902:1 5912:1 5932:1 5951:3 6138:1 6139:1 6143:1 6283:1 6398:1 6462:1 6471:1 6620:1 6685:2 6725:1 6769:1 6848:1 7076:1 7191:1 7219:1 7228:1 7263:1 7381:1 7385:1 7387:1 7448:2 7455:1 7460:1 7741:1 7773:1 7929:1 8007:1 8037:1 8050:1 8339:1 8344:1 8350:1 8541:1 8601:2 8724:1 9173:1 9421:4 9431:1 9461:1 9983:1 9988:1 10247:1 10492:1 10839:1 11138:1 11469:1 11910:1 12719:2 13351:1 13453:1 13750:1 14268:2 15085:2 15312:1 15351:1 15436:1 15724:1 15954:1 16159:1 16509:1 16631:1 17437:1 17646:1 18097:1 18519:1 19431:1 19433:1 19467:1 20190:1 20218:1 20798:1 21333:1 21525:1 21748:1 22479:1 22985:1 23321:1 25101:1 26090:13 26862:1 27929:1 28655:1 30844:1 31146:3 31147:1 31148:1 31149:1 31150:1 31151:8 31152:1 31153:1 31154:1 31155:4 31156:6 31157:1 31158:1 31159:1 31160:1 31161:1 31162:1 31163:3 31164:1 31165:1 31166:1 31167:1 31168:2 31169:1 31170:1 31171:1 31172:1 31173:1 31174:1 31175:1 31176:1 31177:1 31178:1 31179:1 31180:1 31181:1 31182:1 #
-0.00055072755447311541251997901724735 4:1 6:13 7:1 8:1 9:88 11:12 15:13 17:13 20:3 33:1 34:16 39:12 40:3 41:3 42:31 44:1 46:4 48:1 49:2 51:12 60:9 62:5 64:3 67:2 70:1 72:1 73:6 77:3 86:2 91:1 95:3 98:10 110:8 111:2 115:1 117:1 118:3 119:1 121:3 122:3 123:30 125:1 127:3 129:2 132:1 133:4 134:1 137:5 142:1 143:4 148:3 149:3 160:1 188:1 190:1 193:5 204:6 213:1 218:1 221:2 229:1 241:2 243:1 251:2 256:2 258:5 267:13 294:1 297:2 298:2 300:2 305:1 319:5 320:1 333:1 335:1 354:2 369:1 372:3 378:1 382:10 402:1 403:1 426:4 446:1 462:1 476:1 479:1 480:4 483:2 484:2 485:1 486:1 493:1 501:1 519:2 533:10 534:2 557:2 560:5 568:1 569:1 595:1 607:2 613:1 632:2 687:1 700:1 714:17 716:1 738:1 763:5 768:1 774:6 784:1 802:10 818:2 859:1 862:4 878:5 892:2 919:4 928:4 951:1 1027:1 1046:1 1054:1 1056:1 1059:3 1069:7 1070:10 1076:1 1085:1 1103:8 1104:1 1105:6 1106:1 1129:1 1146:1 1149:1 1150:1 1155:4 1163:5 1171:1 1178:1 1187:3 1191:1 1199:1 1202:2 1226:2 1227:1 1230:8 1242:1 1246:1 1250:2 1251:2 1263:1 1284:1 1356:1 1357:1 1429:4 1438:1 1442:1 1455:2 1522:4 1627:1 1628:1 1634:5 1640:3 1711:1 1731:1 1806:1 1830:4 1910:2 1936:2 2020:1 2034:1 2039:1 2069:1 2088:1 2165:1 2219:1 2220:1 2223:2 2235:1 2253:1 2440:1 2566:1 2608:4 2680:1 2799:1 2833:1 2846:1 2901:6 2951:1 3044:2 3078:1 3128:1 3155:4 3160:1 3247:1 3255:5 3348:2 3362:1 3383:1 3385:1 3398:1 3485:7 3574:3 3624:2 3633:4 3676:3 3728:2 3737:1 3785:1 3819:4 3850:1 3857:1 3861:1 4052:1 4071:1 4124:1 4359:2 4361:1 4390:1 4396:8 4398:1 4447:1 4503:4 4546:2 4560:1 4600:1 4606:1 4611:2 4648:1 4663:1 4681:1 4682:1 4755:1 4809:1 4828:1 4937:1 4942:4 5014:1 5097:1 5177:1 5349:1 5350:1 5412:1 5436:1 5451:1 5452:14 5624:1 5668:1 5715:2 5733:1 5739:1 5888:1 5896:1 5907:1 5968:1 5979:1 6028:3 6171:5 6215:1 6264:1 6288:1 6333:1 6369:1 6470:6 6499:1 6514:1 6529:2 6541:1 6571:1 6582:1 6594:1 6816:1 7075:1 7149:1 7205:1 7239:12 7308:2 7480:1 7699:1 7909:2 8228:1 8307:1 8471:1 8600:1 8951:3 9088:1 9168:1 9232:2 9314:1 10145:1 10339:1 10401:1 10621:1 10954:1 11214:1 11244:1 12015:4 13309:1 13520:1 14540:1 14703:1 15039:1 15585:2 15933:1 16031:1 16233:1 16634:1 17012:1 17084:5 17658:2 18444:1 19587:2 20329:1 21038:1 21122:1 21559:3 23146:2 23169:1 23759:1 25677:1 26816:1 27916:1 28448:2 28538:4 28558:5 28559:2 28570:2 28578:1 29197:1 29502:1 32496:1 32714:1 32729:1 33478:2 33479:2 33480:1 33481:7 33482:5 33483:2 33484:2 33485:1 33486:2 33487:1 33488:1 33489:2 33490:1 33491:1 33492:1 33493:1 33494:1 33495:1 33496:1 33497:1 33498:1 33499:1 33500:2 #
0.00096980903928548531714448621698921 4:1 6:6 9:12 11:14 15:8 33:1 34:5 39:1 42:3 49:1 60:3 62:1 96:1 98:1 110:1 123:4 125:1 127:1 143:2 168:1 188:2 212:2 213:1 229:1 251:1 297:3 300:1 352:1 368:1 394:1 406:1 446:1 452:1 521:1 533:2 543:1 548:1 576:1 581:1 598:2 607:3 637:1 769:1 841:1 845:1 914:1 964:1 1143:3 1156:1 1204:1 1409:1 1464:1 1527:1 1530:1 1545:1 1547:3 1557:2 1678:1 1789:1 1830:1 2022:1 2130:1 2308:1 2600:1 2613:1 2643:1 2692:1 2796:2 2906:1 3240:1 3334:1 3731:2 3765:3 3827:2 3946:1 3962:1 3993:1 4156:2 4292:1 4488:1 4875:2 5074:1 5080:1 5104:3 5108:2 5164:1 5251:1 5275:1 5336:1 5433:1 5624:1 5657:2 5898:1 6677:2 6719:1 7512:1 7779:7 7780:3 7941:1 8136:1 8307:1 8553:1 9070:1 9077:1 9097:2 9134:1 9511:2 9967:2 10517:4 10518:1 10519:3 10520:3 10521:2 10522:1 10523:1 10524:1 10525:1 10526:1 10527:1 10528:1 10529:1 10530:1 10531:1 10532:1 10533:1 10534:2 10535:1 10536:1 10537:1 10538:2 10539:2 10540:1 10541:1 10542:1 10543:1 10544:1 10545:1 10546:1 10547:1 10548:1 10549:1 10550:1 #
0.00096980903928548531714448621698921 6:1 9:6 11:2 15:4 34:1 39:2 41:1 42:1 46:1 49:1 60:2 72:1 91:1 93:1 98:3 110:3 121:2 123:3 148:1 149:1 158:1 190:1 193:1 195:1 243:1 244:1 267:3 298:1 319:1 352:1 382:1 394:1 479:1 534:1 590:2 607:6 773:1 774:1 802:2 807:1 839:2 865:1 885:1 1015:1 1027:1 1048:1 1060:1 1096:1 1105:2 1249:1 1253:1 1271:1 1273:1 1304:1 1306:1 1358:1 1402:1 1415:1 1421:1 1468:1 1594:1 1627:1 1767:3 1825:1 1863:1 2010:1 2069:1 2098:1 2235:1 2436:1 2446:1 2750:1 2796:1 2982:2 3308:1 3466:1 3684:1 3703:1 3709:1 4400:1 5080:1 5110:3 5111:3 5173:1 5309:1 5843:1 6253:1 6423:1 7240:1 7453:1 9159:1 9973:2 10428:1 10429:1 12829:1 13403:1 13865:2 15222:1 15277:1 18001:1 18002:1 18003:1 18004:1 18005:1 18006:1 18007:1 18008:1 18009:2 18010:1 #
-6.7939305193607205603689887241092e-06 6:1 17:1 22:1 42:14 62:1 77:1 204:1 208:1 212:1 267:2 577:1 749:1 871:2 1067:1 1302:20 1349:1 1650:2 1818:1 1822:1 1883:2 2292:2 2690:1 2943:4 3477:1 3579:1 3834:1 4201:2 4202:2 4262:1 4453:1 4563:1 4628:1 5044:1 5045:10 5046:19 5047:10 5048:2 5049:10 5050:10 5051:10 5056:3 5062:1 5065:3 5412:1 20857:1 #
0.00096980903928548531714448621698921 3:1 4:2 6:26 7:2 8:1 9:68 11:23 15:23 17:12 20:3 33:1 34:27 35:1 39:3 41:1 42:32 46:8 48:2 49:8 51:10 56:1 60:10 62:1 67:3 70:2 73:2 75:1 77:6 80:1 86:4 91:3 93:1 95:2 98:9 110:19 111:2 115:4 117:6 118:1 119:6 121:6 123:21 127:5 129:2 130:1 131:2 133:1 138:1 143:4 144:1 148:1 149:2 151:1 157:3 160:1 163:4 173:2 188:3 190:1 191:5 204:6 208:1 213:2 215:1 218:1 219:1 229:2 237:1 241:1 242:1 243:1 244:2 251:1 256:2 267:11 272:1 294:3 297:4 298:1 300:1 303:1 309:1 316:2 319:6 335:4 343:1 354:1 356:1 368:3 369:2 382:2 394:1 404:1 405:1 409:1 412:3 426:1 430:2 437:1 438:1 444:3 471:2 479:4 480:3 483:3 485:1 496:3 501:2 518:1 533:2 534:2 545:4 551:1 557:3 564:1 569:1 595:1 607:2 633:1 638:6 654:1 673:4 676:3 679:2 714:6 716:2 763:1 768:1 773:2 774:1 789:1 802:6 871:2 914:1 917:1 948:1 959:1 963:1 970:6 986:3 999:2 1014:4 1023:1 1024:1 1032:1 1056:2 1069:10 1070:9 1071:1 1073:1 1077:1 1091:1 1096:1 1105:1 1134:1 1149:1 1162:1 1177:1 1185:1 1187:1 1188:1 1192:1 1193:1 1199:2 1211:1 1230:1 1242:1 1251:1 1255:2 1271:1 1282:1 1283:1 1304:2 1343:1 1349:1 1359:1 1392:1 1394:1 1401:2 1402:1 1429:3 1442:1 1459:1 1471:1 1486:2 1494:1 1498:1 1501:1 1511:1 1512:1 1514:1 1517:1 1526:2 1605:8 1624:4 1628:3 1666:1 1678:2 1684:1 1700:3 1702:2 1712:1 1731:1 1787:1 1816:1 1863:3 1892:1 1897:1 1902:7 1910:1 1946:1 1951:2 1976:1 1977:1 2017:1 2039:3 2040:3 2069:1 2076:1 2077:1 2088:1 2093:2 2105:1 2161:1 2163:1 2182:1 2183:2 2193:2 2212:1 2218:7 2223:1 2228:1 2232:3 2237:1 2292:1 2299:1 2362:1 2363:1 2366:3 2372:1 2391:1 2410:1 2415:1 2427:3 2433:1 2440:3 2470:1 2496:1 2502:1 2544:1 2671:1 2715:1 2799:1 2820:1 2878:1 2904:1 2916:2 2917:1 2919:1 2998:2 3010:1 3044:1 3135:1 3136:2 3151:1 3255:1 3352:1 3362:2 3374:1 3383:3 3439:3 3477:1 3526:1 3561:1 3600:1 3626:3 3648:1 3653:1 3693:1 3904:1 3924:1 3934:2 3957:1 4037:1 4071:1 4094:1 4142:1 4282:1 4303:1 4361:2 4440:4 4452:1 4457:1 4546:1 4646:1 4706:1 4734:1 4810:1 4941:1 4957:1 4994:1 5000:2 5001:1 5133:3 5291:2 5305:1 5340:1 5392:1 5410:1 5434:1 5450:1 5451:1 5521:1 5553:1 5569:1 5646:1 5704:1 5705:1 5729:1 5745:1 5787:1 5816:1 5897:1 5898:1 6095:1 6199:1 6239:1 6365:1 6388:1 6404:1 6409:1 6410:1 6452:1 6534:1 6735:1 6762:1 6816:1 6874:1 6900:1 7084:1 7118:1 7348:1 7404:1 7446:1 7480:1 7503:1 7514:1 7673:1 7876:1 7957:1 8177:2 8201:1 8235:2 8397:1 8471:1 8667:1 8693:1 8754:1 8863:1 8889:1 9079:1 9128:1 9314:2 9337:1 9341:1 9385:1 9395:1 9516:1 9519:1 9561:2 9587:1 10167:1 10253:2 10321:1 10421:1 10771:1 10772:1 10784:1 10951:1 11010:1 11590:1 12699:1 12728:1 12802:1 12807:1 12883:1 12884:2 12892:1 13098:1 13570:2 13577:1 13759:1 13923:1 14370:1 14454:2 14536:1 14689:1 14837:1 15027:1 15179:1 15298:1 15395:1 15406:1 15734:1 16243:1 16837:1 17253:1 17304:1 17352:1 17684:1 17724:6 17725:7 17726:20 17727:1 17728:1 17729:1 17730:1 17731:1 17732:1 17733:1 17734:1 17735:1 17736:1 17737:1 17738:1 17739:1 17740:1 17741:1 17742:1 17743:4 17744:2 17745:1 17746:2 17747:1 17748:1 17749:3 17750:1 17751:1 17752:1 17753:1 17754:1 17755:1 17756:1 17757:1 17758:1 17759:2 17760:1 17761:1 17762:1 17763:1 17764:1 17765:1 17766:1 17767:1 17768:1 17769:1 17770:1 17771:1 17772:1 17773:1 17774:1 17775:1 17776:1 17777:1 17778:1 17779:1 17780:1 17781:1 17782:1 17783:1 17784:1 17785:1 17786:1 17787:1 17788:1 17789:1 17790:1 17791:4 17792:1 17793:1 17794:1 17795:1 17796:1 17797:1 17798:1 17799:1 17800:1 17801:1 17802:1 17803:1 17804:1 17805:1 17806:1 17807:1 17808:1 17809:1 17810:1 17811:1 17812:1 17813:2 17814:1 17815:1 17816:1 17817:1 17818:1 17819:1 17820:1 17821:1 17822:1 17823:1 17824:1 17825:1 17826:1 17827:1 17828:1 17829:1 17830:1 17831:1 17832:1 17833:1 17834:1 17835:1 #
-0.00046455084562075700006789080731551 4:4 6:11 9:60 11:33 15:19 17:3 20:2 25:5 29:1 34:21 41:4 42:17 46:6 49:3 51:5 60:1 62:2 70:1 76:1 77:4 86:13 91:1 96:1 98:12 110:11 111:2 115:1 118:1 119:1 121:11 123:22 127:3 129:1 130:1 131:3 134:2 138:1 143:1 149:3 157:1 163:1 164:2 169:1 173:2 188:3 193:2 204:6 207:2 208:1 213:1 229:1 236:1 243:3 244:2 251:2 267:9 297:1 300:3 309:2 318:1 319:3 341:2 347:1 348:1 352:3 354:4 356:1 372:1 382:2 383:1 391:1 394:1 404:3 406:1 408:1 430:3 437:2 438:1 445:1 446:2 453:1 471:1 472:1 479:3 483:1 485:2 486:1 496:1 501:1 504:1 512:2 521:1 527:1 533:9 552:1 557:1 560:1 564:3 568:3 597:1 599:1 607:4 637:1 638:1 639:1 647:1 676:1 679:3 706:1 714:4 716:1 740:2 745:1 755:1 763:1 768:3 802:5 821:1 850:3 871:2 875:1 892:3 896:1 904:1 907:1 914:2 986:1 988:2 1027:1 1034:3 1041:2 1069:3 1077:1 1101:2 1105:2 1106:2 1116:1 1123:1 1177:1 1178:1 1187:2 1193:1 1199:1 1211:1 1230:5 1233:1 1239:3 1242:1 1249:4 1253:1 1255:1 1273:2 1304:1 1358:1 1359:1 1374:1 1420:3 1429:2 1438:1 1483:1 1488:1 1495:1 1505:1 1506:1 1590:1 1627:1 1680:2 1701:1 1702:1 1731:1 1742:3 1767:1 1806:1 1893:1 1933:1 1950:1 1973:1 1983:1 1996:1 2004:2 2036:1 2037:1 2039:1 2053:1 2069:1 2099:3 2105:1 2122:1 2136:1 2151:7 2174:2 2183:1 2188:2 2366:2 2368:1 2391:2 2410:1 2428:1 2487:1 2501:1 2516:2 2546:2 2566:1 2567:1 2570:1 2589:3 2605:1 2634:2 2640:1 2647:1 2680:1 2693:2 2702:1 2712:1 2724:1 2730:1 2862:1 2951:1 2968:1 2970:1 2998:1 3056:3 3066:1 3118:1 3244:1 3312:1 3322:1 3369:2 3404:1 3454:3 3477:2 3480:1 3517:1 3526:1 3541:1 3547:2 3574:3 3624:1 3694:1 3705:1 3768:1 3802:2 3900:1 3935:1 3975:1 4111:1 4208:1 4216:1 4263:2 4287:1 4290:1 4349:1 4456:1 4593:2 4605:1 4606:1 4648:2 4761:1 4828:1 4926:1 4929:1 5014:2 5042:1 5131:1 5190:1 5192:1 5265:1 5297:1 5298:1 5312:1 5425:1 5455:1 5472:1 5478:1 5509:2 5761:1 5784:1 5828:1 5830:1 5850:1 5857:1 5882:1 5895:1 5901:1 5903:1 5935:1 6004:2 6080:1 6197:1 6279:1 6515:1 6534:1 6797:1 6824:2 6859:1 7072:1 7178:1 7218:1 7238:1 7244:1 7315:1 7327:1 7411:1 7447:1 7448:3 7460:1 7510:1 7774:1 7874:1 7965:1 7996:1 8352:2 8397:1 8447:1 8478:1 8616:1 8617:1 8702:1 8705:2 8734:4 8754:2 9263:2 9481:1 9892:1 10144:1 10243:4 10499:1 10570:2 10611:1 10826:1 10842:1 11019:1 11297:4 11360:2 11441:1 11547:1 11787:1 11808:2 11865:1 12074:2 12188:1 12524:1 12528:1 13372:1 13374:2 14334:1 14424:1 14479:2 14601:1 14827:1 14879:2 14882:1 14905:1 15164:1 15170:1 15805:1 15954:8 16256:1 16343:1 16834:1 17292:3 17505:5 17866:1 18044:2 18088:1 18155:1 19370:1 20516:1 20733:1 21517:1 21909:1 22090:1 22312:1 22393:26 22394:1 22395:4 22396:1 22397:2 22398:1 22399:1 22400:1 22401:1 22402:1 22403:2 22404:1 22405:1 22406:1 22407:1 22408:1 22409:1 22410:1 22411:1 22412:1 22413:1 22414:1 22415:2 22416:1 22417:1 22418:1 22419:1 22420:1 22421:1 22422:5 22423:1 22424:3 22425:1 22426:1 22427:1 22428:1 22429:1 22430:1 22431:1 22432:1 22433:1 22434:1 22435:1 22436:1 22437:2 22438:1 22439:3 22440:1 22441:1 22442:3 22443:1 22444:1 22445:1 22446:1 22447:1 22448:1 22449:1 22450:1 22451:1 22452:2 22453:1 22454:2 22455:1 22456:1 22457:1 22458:1 22459:1 22460:1 22461:1 22462:1 22463:1 22464:1 22465:1 22466:1 22467:1 22468:1 22469:1 22470:1 22471:1 22472:5 22473:1 22474:1 22475:1 22476:1 22477:1 22478:1 22479:1 22480:1 22481:1 22482:1 22483:1 #
-0.00056595862730011547558212070541117 4:6 6:8 7:1 8:1 9:66 11:33 12:1 15:14 17:6 23:1 31:2 34:20 36:1 39:7 41:1 42:20 44:1 46:6 49:5 51:5 57:1 60:8 62:4 70:3 72:4 73:4 75:1 77:1 86:5 87:1 91:7 93:1 94:1 95:2 98:11 100:1 102:2 110:12 111:5 112:1 115:3 117:1 118:1 119:1 121:1 123:26 125:1 127:3 129:2 131:12 134:2 136:1 143:4 146:1 148:3 149:3 157:3 163:1 188:4 204:3 213:1 229:1 232:1 243:5 244:1 248:1 251:3 255:1 258:4 259:1 267:9 271:1 279:1 297:1 298:1 300:3 320:2 345:2 352:2 353:1 354:4 356:1 365:1 382:2 384:1 394:4 402:3 404:2 416:2 428:2 438:5 444:3 445:1 453:5 462:3 471:1 472:1 477:1 479:5 480:1 485:2 495:1 496:1 501:1 519:1 527:2 532:1 533:2 534:2 553:2 560:4 579:2 598:1 599:4 607:2 622:2 626:1 632:1 654:2 669:1 673:2 675:1 679:5 699:1 703:2 748:1 774:6 787:2 800:2 802:9 862:1 885:2 903:1 904:1 908:2 947:1 978:1 986:3 994:1 1008:3 1019:1 1056:2 1067:3 1069:2 1080:1 1092:1 1096:1 1106:1 1123:2 1155:1 1177:1 1178:1 1185:1 1187:1 1193:2 1194:1 1195:1 1199:1 1206:1 1215:1 1255:1 1269:1 1302:1 1339:1 1392:1 1399:1 1402:1 1406:2 1429:1 1481:2 1508:1 1512:1 1534:2 1545:2 1547:1 1562:1 1605:1 1634:1 1662:1 1665:1 1678:1 1680:1 1694:1 1701:1 1720:1 1724:1 1744:1 1753:1 1837:1 1863:1 1873:16 1888:1 1900:1 1910:1 2006:1 2010:2 2012:2 2028:3 2082:1 2116:2 2142:1 2176:1 2251:1 2282:1 2292:1 2357:1 2401:1 2406:3 2440:1 2502:1 2512:1 2520:2 2524:1 2663:1 2675:1 2703:1 2708:1 2709:2 2807:1 2837:1 2951:1 2955:1 2983:1 3011:1 3021:1 3040:1 3043:3 3071:1 3322:2 3346:1 3427:1 3478:1 3486:1 3506:1 3515:1 3516:1 3575:1 3657:1 3768:5 3832:1 3840:1 3951:1 4015:1 4042:1 4062:1 4149:1 4158:2 4165:1 4202:1 4209:1 4244:1 4294:2 4390:1 4405:1 4455:1 4503:2 4558:1 4606:1 4720:1 4734:1 4765:1 4783:1 4828:3 4879:2 4940:4 4982:1 5121:2 5130:1 5167:1 5373:1 5458:1 5516:1 5622:1 5732:1 5733:1 5844:1 5974:1 6128:1 6143:1 6148:1 6216:1 6298:1 6317:1 6371:1 6392:1 6441:1 6621:1 6645:1 6699:1 6730:1 6816:1 6932:1 6979:3 7071:1 7133:1 7227:1 7253:1 7273:5 7294:1 7295:5 7425:3 7457:1 7548:1 7610:1 7758:1 7894:1 8247:1 8261:1 8274:1 8473:1 8601:1 8662:1 8680:1 8724:1 9282:1 9558:1 9875:1 9955:1 9958:1 10208:1 10403:1 10686:1 10795:1 10918:1 10936:1 11758:1 11890:1 12106:1 12137:1 12164:1 12177:1 12262:1 12265:1 12587:1 12811:1 12902:1 13363:1 13452:1 13711:1 14053:1 14423:1 14472:1 14780:1 14880:1 14909:1 14914:1 15081:1 15128:1 15261:1 15445:1 15934:1 16079:1 16236:1 16260:1 16909:1 17028:1 17523:1 17847:1 18039:1 18090:1 18292:2 18461:1 19202:1 19287:1 19662:1 19717:3 20736:1 21047:1 21328:1 21494:2 21543:1 23338:1 23474:1 23497:1 23541:1 23822:1 24790:1 25525:1 27007:2 27110:1 27173:1 28140:1 28453:1 30847:1 32575:1 33718:13 33719:1 33720:1 33721:1 33722:2 33723:1 33724:1 33725:1 33726:3 33727:1 33728:1 33729:1 33730:1 33731:1 33732:2 33733:1 33734:1 33735:1 33736:1 33737:1 33738:1 33739:1 33740:1 #
0.00096980903928548531714448621698921 6:2 9:7 15:2 17:2 29:1 39:1 42:3 43:1 49:1 60:1 77:1 110:1 123:3 142:2 143:1 168:2 297:1 298:1 332:1 413:1 444:1 471:1 501:1 545:1 550:2 774:1 818:3 917:1 964:1 1084:1 1126:1 1260:1 1407:2 1567:2 1609:2 1700:1 2391:1 2675:1 2692:1 2762:1 2904:1 3272:1 3486:1 3769:1 3812:1 3926:1 4455:1 4634:1 4877:1 5242:1 6204:1 7462:1 10143:1 12882:1 13247:1 14650:1 16298:1 16492:1 17162:1 17771:2 17985:1 17986:1 17987:1 17988:1 17989:2 17990:1 17991:1 17992:1 17993:1 17994:1 #
0.00096980903928548531714448621698921 9:5 11:1 17:2 18:1 34:5 39:1 42:2 51:1 77:7 110:4 121:4 123:1 127:1 131:1 157:1 188:1 204:2 354:1 382:2 399:1 471:1 724:1 795:1 970:3 1040:1 1069:1 1123:1 1186:1 1226:1 1269:4 1403:2 1404:1 1412:1 1484:1 1586:1 1628:1 1678:2 1809:1 1873:2 1936:1 2017:1 2116:1 2399:1 2440:1 2496:1 2790:1 2820:1 4158:1 4208:1 4718:1 5516:1 5948:1 6071:1 6335:1 6685:1 7273:1 7957:1 7976:2 7982:1 8001:1 8193:1 8286:1 10669:1 10732:1 10792:1 10804:1 10875:1 11131:1 12143:1 15964:1 18292:4 22810:4 25677:1 26503:1 31456:3 31457:2 31458:1 31459:1 31460:1 31461:1 31462:1 31463:1 #
0.00096980903928548531714448621698921 4:3 6:1 9:6 11:3 15:9 17:3 20:1 33:1 34:3 39:2 41:2 42:3 46:1 60:1 62:1 72:1 86:2 115:1 118:1 121:1 123:3 127:1 128:1 138:1 143:2 149:1 188:1 204:2 212:1 213:1 219:2 220:1 255:1 297:1 300:3 325:1 340:1 341:5 352:1 369:1 450:3 493:1 518:1 532:1 533:1 542:1 543:1 587:1 607:5 714:2 914:2 1005:1 1046:1 1122:1 1162:2 1221:1 1249:1 1347:1 1392:1 1562:1 1563:3 1650:1 1731:1 1787:3 2501:1 2566:1 2851:1 3017:1 3286:4 3287:1 3289:1 3360:2 3659:1 4139:1 4841:1 4910:1 5138:1 5256:1 5400:2 6253:1 6558:1 6596:1 7156:1 7719:1 7888:3 9735:1 10494:1 11282:1 12031:1 12048:2 14771:1 17422:1 17637:1 18103:1 19614:1 19860:1 19991:1 20666:1 21713:1 23453:1 23655:1 29395:1 29477:1 31839:1 31840:1 31841:4 31842:1 31843:2 31844:1 31845:1 31846:1 31847:1 #
-0.0001699335107649290908457540005827 6:5 22:1 96:1 251:1 679:1 706:1 798:1 920:2 931:1 970:2 1038:1 1113:1 1269:3 1285:1 1305:2 1325:1 1333:1 1720:1 1787:3 1917:1 1966:1 2224:1 2225:1 2226:1 2258:2 2579:3 3151:1 3163:1 3184:1 4059:1 4075:1 4076:1 4081:3 4083:2 4084:1 4882:10 5450:1 5689:1 5694:1 5712:1 5713:1 6050:1 6294:1 6502:1 6776:1 8014:1 8914:1 9413:1 9480:1 9593:1 10011:9 10515:1 10884:1 11489:1 11490:1 11582:2 12191:1 12261:1 12510:1 12903:1 13089:1 13090:1 13149:2 13150:7 13151:1 13152:1 13153:1 13154:1 13155:1 13156:1 13157:1 13158:1 13159:1 13160:1 13161:1 13162:1 13163:1 13164:1 13165:1 13166:1 13167:1 13168:1 13169:1 13170:1 13171:1 13172:1 13173:1 13174:1 13175:1 13176:1 13177:1 13178:1 13179:1 13180:1 13181:1 13182:1 13183:1 13184:1 13185:1 13186:1 13187:2 13188:1 13189:1 13190:1 #
-1.0367189440412412135121035527963e-05 4:1 6:6 9:41 11:15 14:1 15:6 17:4 20:3 33:1 34:15 39:3 41:2 42:10 46:3 49:3 51:3 60:3 62:7 70:1 72:2 77:6 80:1 86:5 91:3 98:3 111:4 115:1 117:2 119:2 121:2 123:9 127:1 129:1 131:1 133:1 134:1 149:2 187:1 190:2 204:4 218:1 229:1 236:1 241:1 242:1 244:1 248:2 251:1 264:1 267:3 297:3 299:6 303:2 309:1 319:1 332:1 341:1 347:1 352:1 354:2 365:1 382:2 393:1 435:1 438:3 444:1 453:1 477:2 479:1 480:2 483:1 484:1 496:2 517:1 521:1 560:2 565:1 571:1 607:1 652:5 679:3 714:2 716:1 718:1 725:1 759:2 768:1 774:2 785:1 807:1 873:1 878:1 887:2 911:1 943:1 970:1 999:1 1032:2 1049:1 1056:1 1067:1 1069:1 1081:1 1105:2 1123:1 1126:1 1156:1 1187:1 1192:1 1194:1 1199:1 1226:1 1230:1 1283:1 1343:1 1360:1 1429:1 1495:1 1501:1 1505:1 1623:1 1627:1 1806:1 1812:1 1846:1 1864:1 1996:1 2010:1 2105:2 2168:1 2222:1 2289:1 2391:1 2396:1 2410:1 2415:1 2427:2 2470:1 2630:2 2706:1 2758:2 2856:1 2947:1 2951:1 2966:1 3066:1 3118:1 3294:3 3334:1 3376:1 3548:1 3596:1 3605:2 3694:1 3766:1 3795:3 4062:2 4147:1 4241:1 4358:1 4455:1 4602:1 4620:1 4719:1 4779:2 4792:1 4932:1 5020:1 5023:2 5133:1 5172:1 5372:1 5374:1 5410:1 5759:1 5788:1 5798:1 5879:1 5977:1 6216:1 6239:1 6362:1 6388:1 6484:2 6561:1 6690:1 6910:1 6970:1 6997:3 7151:1 7249:1 7263:1 7284:2 7344:2 7346:5 7361:1 7599:1 7732:1 8270:1 8311:1 8440:1 8542:4 8577:1 8597:2 8680:1 8810:1 9007:1 9088:1 9224:2 9880:1 9914:1 9984:1 10124:2 10650:1 10792:1 10850:2 11665:1 11909:1 12180:1 12370:1 12693:1 14150:1 14204:1 14290:1 14633:1 14873:1 15043:1 15060:1 15105:1 15262:1 15404:1 15505:1 15770:1 16525:1 17030:1 17309:1 17451:1 17640:1 18200:1 18386:1 19597:1 19797:1 20264:1 21628:1 21990:1 22383:2 22637:1 22781:1 22908:1 23317:1 24779:1 24780:1 24781:1 24782:1 24783:1 24784:1 24785:1 24786:1 24787:1 24788:1 24789:2 24790:1 24791:1 24792:1 24793:1 24794:1 24795:1 24796:1 24797:1 24798:1 24799:1 24800:1 24801:2 24802:3 24803:1 24804:1 24805:2 24806:1 24807:1 24808:2 24809:1 24810:1 24811:1 24812:3 24813:1 24814:1 24815:1 24816:2 24817:1 24818:3 24819:1 24820:1 24821:1 24822:1 #
0.00054940092154094090620003454361608 3:1 4:4 5:1 6:14 7:2 9:63 11:32 15:17 17:8 20:1 31:1 34:16 39:7 41:1 42:41 46:4 49:5 51:2 60:6 62:4 69:1 70:3 73:3 75:1 76:1 77:2 80:1 86:8 91:5 96:1 97:1 98:8 110:14 111:2 112:1 115:4 116:3 117:2 118:1 119:2 121:3 122:2 123:18 125:1 126:1 127:3 129:1 131:4 134:2 138:1 143:7 144:1 146:1 148:3 149:3 163:1 168:1 188:4 191:1 194:4 199:2 204:1 210:1 213:2 218:1 229:4 241:1 244:1 251:1 256:3 259:1 264:1 267:3 281:1 297:3 298:4 300:3 319:2 322:1 341:2 342:1 352:1 354:3 356:1 367:1 368:4 378:2 379:1 382:2 389:6 394:1 398:1 402:1 404:1 406:1 423:1 424:1 426:1 430:1 438:7 444:1 446:4 449:1 453:2 455:2 475:1 479:3 483:2 485:1 486:2 487:1 495:1 496:2 504:1 517:1 518:1 520:1 521:8 527:1 533:2 534:2 550:5 551:1 553:2 557:1 560:8 563:1 564:1 572:1 595:1 599:1 607:1 618:1 629:1 632:2 637:1 651:1 675:1 679:2 683:1 684:1 689:1 714:14 716:1 725:1 754:1 755:1 763:1 768:1 774:1 791:1 796:1 802:5 803:1 805:1 807:1 810:1 812:1 818:1 828:2 830:1 840:1 845:3 846:1 850:1 853:1 865:1 878:2 892:2 908:1 919:1 920:1 921:2 927:1 942:1 947:1 959:1 974:1 988:1 1027:1 1032:1 1046:1 1069:5 1083:4 1084:1 1105:3 1106:1 1126:1 1127:1 1149:1 1150:1 1161:1 1177:2 1178:1 1185:1 1187:4 1195:1 1203:2 1211:1 1226:1 1230:3 1249:2 1253:2 1255:1 1261:1 1302:1 1305:1 1334:1 1335:1 1367:1 1420:1 1426:1 1429:1 1455:1 1464:1 1478:1 1483:1 1511:1 1517:1 1534:2 1605:1 1614:1 1616:1 1627:2 1634:1 1640:1 1645:2 1678:3 1681:1 1728:2 1731:1 1789:1 1792:1 1794:1 1803:1 1806:2 1825:1 1830:1 1831:2 1849:1 1881:1 1967:1 1983:1 2039:2 2053:1 2076:1 2082:1 2086:1 2101:1 2102:1 2136:1 2163:2 2210:1 2222:1 2225:1 2282:1 2311:1 2313:2 2316:1 2318:1 2331:1 2337:1 2338:1 2341:1 2344:1 2357:1 2405:1 2406:1 2410:2 2413:1 2417:1 2440:1 2497:1 2502:1 2548:1 2560:1 2566:2 2615:2 2643:1 2644:1 2663:1 2667:1 2675:1 2768:1 2775:1 2789:1 2909:1 2916:1 2919:2 2943:2 2955:1 3012:1 3015:1 3027:3 3048:1 3058:1 3071:1 3086:1 3253:2 3264:1 3286:1 3292:1 3302:2 3322:6 3352:2 3355:5 3362:1 3385:1 3454:1 3470:1 3486:1 3548:1 3571:1 3572:1 3663:1 3669:1 3678:1 3693:2 3705:1 3742:1 3854:1 3925:1 3987:1 4014:1 4039:1 4126:1 4156:1 4158:1 4244:1 4269:1 4287:1 4338:1 4403:1 4542:2 4620:1 4648:1 4719:1 4790:2 4826:1 4937:1 4941:1 5110:1 5111:1 5130:1 5177:1 5190:1 5198:1 5253:2 5303:1 5410:1 5458:2 5508:1 5516:4 5541:1 5568:1 5647:2 5733:2 5786:1 5796:1 5971:2 5979:2 5989:1 6037:1 6302:3 6364:1 6365:2 6425:1 6452:1 6744:1 6920:1 7048:1 7050:1 7059:1 7224:1 7247:1 7266:1 7384:1 7510:1 7521:1 7532:4 7576:1 7600:1 7798:1 7811:1 7812:1 7829:2 7905:1 8205:1 8230:1 8307:1 8362:1 8397:1 8433:1 8473:1 8492:1 8548:1 8693:1 8887:1 9067:1 9130:1 9408:1 9436:1 9457:2 9508:1 9666:1 10224:1 10490:1 10757:1 10902:1 10971:1 11009:1 11153:1 11189:1 11515:1 11559:1 11569:1 11735:3 11866:1 12154:1 12168:1 12346:1 12428:1 12522:1 12680:2 12772:1 12967:1 13363:1 13470:1 13541:1 14080:2 14238:1 14298:1 14840:1 14904:2 15372:1 15460:1 15480:4 15481:1 15482:1 15483:1 15484:2 15485:1 15486:2 15487:1 15488:1 15489:4 15490:1 15491:1 15492:1 15493:1 15494:1 15495:1 15496:1 15497:1 15498:1 15499:1 15500:1 15501:1 15502:1 15503:2 15504:1 15505:1 15506:1 15507:1 15508:1 15509:1 15510:1 15511:1 15512:1 15513:2 15514:1 15515:1 15516:1 15517:1 15518:1 15519:2 15520:1 15521:1 15522:1 15523:1 15524:1 15525:1 15526:1 15527:1 15528:1 15529:1 15530:1 15531:1 15532:1 15533:1 15534:1 15535:1 15536:1 15537:1 15538:1 15539:1 15540:1 15541:1 15542:1 15543:1 15544:1 15545:1 15546:1 #
-0.00015281008135380907443645615018113 2:1 6:2 9:1 11:2 15:1 17:1 18:1 29:1 121:1 275:1 303:1 550:2 585:1 970:1 1056:1 1260:2 1269:1 1284:1 1304:1 1333:7 1334:1 1336:2 1466:1 2256:1 2513:1 2860:1 2878:1 3082:1 3845:1 4667:1 4829:1 6413:1 6555:4 6973:2 7350:1 8173:2 9101:1 9127:1 9291:1 9293:1 9561:1 9670:1 10008:2 10015:2 10034:1 10035:2 11107:1 11242:1 12112:2 12630:1 12642:2 13092:1 13669:1 13671:1 14288:1 14974:1 17022:1 18690:1 18691:1 21463:1 21576:1 21577:1 21578:1 21579:1 21580:1 21581:1 21582:1 21583:1 21584:1 21585:1 21586:2 21587:1 21588:2 21589:1 21590:1 21591:1 21592:1 21593:1 21594:1 21595:1 21596:1 21597:1 21598:1 21599:1 21600:1 21601:1 21602:1 21603:1 21604:1 #
-0.00047141947571882635882600798282738 6:11 7:1 9:17 11:5 15:5 17:4 18:1 33:1 34:6 39:1 41:1 42:11 46:2 48:1 49:3 51:5 60:1 75:2 77:3 86:3 91:2 110:1 115:2 116:5 117:2 118:2 120:1 121:2 123:10 125:1 126:1 127:2 131:1 143:3 144:2 146:1 148:1 149:2 160:1 163:1 190:1 191:1 204:2 205:1 213:1 229:1 241:3 248:2 251:1 258:1 267:5 279:1 300:2 319:1 337:2 382:3 394:2 409:1 424:1 444:2 446:2 476:1 496:1 511:4 527:1 533:4 560:2 567:2 598:1 607:2 643:1 647:1 652:2 684:1 727:1 785:1 802:2 830:1 850:1 852:1 858:1 886:1 888:1 896:2 897:1 1021:1 1027:1 1046:1 1096:1 1101:1 1103:1 1110:1 1187:2 1192:1 1207:1 1255:1 1262:1 1269:1 1347:1 1405:1 1441:1 1522:1 1689:1 1809:2 1845:1 1902:3 1976:1 2256:1 2258:1 2287:1 2497:1 2498:1 2693:1 2820:1 2855:1 3012:1 3086:2 3135:1 3136:7 3236:1 3339:1 3515:1 3600:1 3626:1 3693:1 3703:1 3894:1 4086:9 4144:2 4326:1 4334:1 4338:2 4656:1 4659:1 4721:1 4726:1 4927:2 4957:1 5116:1 5145:1 5171:1 5187:1 5197:2 5238:1 5340:1 5434:3 5625:1 5657:1 6208:1 6484:1 7011:1 7550:1 7688:1 7701:1 7907:1 8244:1 8332:1 9856:1 10185:1 10671:1 11388:1 13210:1 13585:1 14136:1 15376:1 17473:1 18056:1 21490:1 22348:1 25346:1 33578:1 33579:1 33580:1 #
-0.00014318130449280988265685354843271 2:1 4:1 11:3 15:3 23:1 42:7 93:1 102:1 126:1 163:1 188:1 204:1 316:1 322:1 323:1 327:1 328:1 329:1 508:1 529:1 537:1 572:1 577:1 597:1 615:1 626:1 727:1 774:1 809:1 853:1 982:1 988:1 998:3 1000:1 1014:1 1015:1 1016:1 1059:1 1106:1 1818:1 1825:1 1864:1 1963:1 2089:1 2132:1 2136:1 2547:1 2619:2 2647:1 2664:1 2666:1 2733:1 2947:1 3035:1 3077:1 3272:1 3327:1 3532:1 3572:1 3684:1 3687:1 3745:1 3888:1 4049:1 4127:1 4177:1 4249:1 4488:1 4940:1 5054:1 5223:1 5224:1 5522:1 5829:1 6474:1 6805:1 7138:1 7773:1 7903:1 8225:1 8535:1 9141:1 9983:1 11011:1 11524:1 11556:1 11693:1 13358:1 13543:1 14312:1 15415:1 16248:1 26966:1 26967:1 26968:1 #
-0.00096980903928548531714448621698921 4:7 6:7 7:2 9:44 11:25 15:8 17:4 34:22 41:2 42:20 46:4 49:2 51:7 60:3 62:4 69:1 72:11 73:4 77:1 81:1 86:10 91:3 98:3 110:12 111:4 115:2 118:2 119:2 121:3 123:19 125:3 127:8 131:6 133:1 134:1 138:2 143:2 144:1 147:1 148:3 149:1 153:1 163:1 188:7 204:1 210:1 213:2 217:1 218:1 229:1 236:1 243:4 244:2 256:2 257:1 262:1 264:3 267:8 297:6 298:19 300:3 305:8 309:1 319:1 323:1 333:1 352:1 353:1 354:1 356:1 357:2 380:1 382:2 394:2 402:3 405:2 412:1 416:2 436:1 453:4 462:2 471:1 479:3 480:1 483:1 487:1 517:1 521:1 527:1 532:6 533:2 534:1 557:1 564:1 569:1 607:13 608:1 638:1 651:1 679:1 684:1 714:9 746:1 754:1 763:1 768:1 774:3 791:1 792:1 802:3 806:1 813:2 828:1 843:1 844:1 859:1 862:1 867:1 871:2 878:1 886:2 896:1 902:1 904:1 905:1 906:3 925:2 927:1 964:1 984:1 1027:1 1036:1 1046:1 1056:1 1069:1 1080:1 1094:1 1096:1 1099:1 1104:1 1105:1 1110:1 1121:1 1130:1 1149:1 1158:1 1161:1 1162:1 1167:1 1180:1 1182:1 1187:3 1188:1 1193:3 1203:5 1250:1 1253:1 1255:1 1269:1 1271:1 1356:1 1357:2 1371:1 1399:1 1402:2 1411:1 1429:1 1439:1 1442:1 1485:1 1497:1 1517:1 1614:1 1628:1 1640:1 1678:1 1681:1 1710:1 1711:4 1754:1 1772:1 1832:1 1886:2 1998:1 2010:1 2012:2 2036:1 2094:1 2107:1 2146:1 2161:1 2181:1 2319:1 2344:2 2412:2 2427:1 2454:2 2506:1 2512:1 2566:7 2571:1 2606:1 2644:1 2698:1 2758:1 2820:1 2926:1 2943:1 3010:1 3055:1 3102:1 3322:1 3352:1 3383:2 3391:1 3394:1 3403:2 3426:1 3428:1 3454:2 3477:1 3480:1 3504:1 3563:1 3568:1 3619:1 3683:1 3737:1 3902:1 3904:1 3922:2 3942:1 3986:1 3995:1 4042:1 4060:1 4096:1 4124:1 4139:1 4263:1 4308:1 4319:1 4345:1 4361:1 4390:1 4455:1 4490:1 4558:1 4566:1 4579:1 4726:1 4734:1 4765:1 4799:1 4809:1 4857:3 4862:3 4880:4 4937:1 5074:1 5077:1 5104:1 5118:1 5171:1 5190:1 5370:3 5393:2 5400:1 5516:3 5631:1 5633:1 5733:1 5737:1 5828:1 5835:1 5844:1 5907:1 5989:4 6148:2 6184:1 6186:1 6216:1 6246:1 6298:1 6320:18 6342:1 6365:1 6368:1 6457:1 6546:1 6572:1 6593:1 6594:1 6728:1 6785:1 6854:1 6866:1 7095:1 7211:1 7227:1 7244:1 7284:2 7308:1 7343:1 7344:3 7400:1 7439:1 7539:1 7658:1 7660:2 7732:1 7977:1 7986:1 8001:1 8025:1 8270:3 8274:1 8275:1 8290:1 8397:1 8445:1 9130:1 9561:1 9831:1 10224:1 10402:1 10490:3 10758:1 10838:1 10900:2 10993:1 11284:1 11323:1 11569:2 11856:1 11934:1 11978:1 12092:1 12106:1 12212:1 12372:1 12396:1 12746:1 12823:1 12846:1 13324:1 13710:1 13856:1 14233:1 14396:1 14404:1 14432:1 14654:1 14888:1 15167:1 15175:2 15276:1 15675:1 15772:1 16314:1 16588:1 16641:1 17264:1 17904:1 18660:1 18946:1 19050:1 19171:1 19381:1 19845:1 21375:1 21376:1 21377:1 21378:1 21379:1 21380:1 21381:1 21382:1 21383:1 21384:1 21385:1 21386:1 21387:1 21388:3 21389:1 21390:1 21391:1 21392:1 21393:1 21394:1 21395:1 21396:4 21397:1 21398:1 21399:1 21400:4 21401:1 21402:1 21403:1 21404:1 21405:2 21406:1 21407:1 21408:1 21409:1 21410:1 21411:1 21412:1 21413:1 21414:1 21415:1 21416:1 21417:1 21418:1 21419:1 21420:1 21421:1 21422:1 21423:1 21424:1 21425:1 21426:1 21427:1 21428:1 21429:1 21430:1 21431:1 21432:1 21433:1 21434:1 21435:1 21436:1 21437:1 21438:1 #
0.00096980903928548531714448621698921 4:2 9:8 11:1 12:1 15:4 34:3 39:1 42:4 49:1 51:3 121:1 123:5 129:2 148:1 183:1 190:2 204:3 209:1 213:1 217:1 236:1 239:1 309:1 341:1 394:1 412:1 413:1 446:1 462:1 493:2 494:1 700:1 754:1 755:1 768:1 802:2 867:1 964:1 1022:1 1158:1 1200:1 1333:3 1334:3 1394:1 1464:3 1510:1 1665:1 1712:1 2433:1 2516:1 2813:1 2826:1 3026:1 3086:2 3128:1 3240:2 5127:1 5319:1 5856:1 5935:1 6006:1 7596:1 8140:1 8193:1 8944:2 9069:1 9686:1 9832:1 11564:1 12513:2 12746:2 13565:1 14704:1 14858:1 15166:1 15584:1 15755:1 16056:1 16501:1 17737:1 19486:1 19487:3 19488:2 19489:1 19490:1 19491:1 19492:1 19493:1 19494:1 19495:1 #
0.00096980903928548531714448621698921 7:1 9:9 11:2 15:1 17:7 33:1 34:6 39:1 42:7 49:3 51:1 60:1 70:1 72:1 77:1 86:2 91:2 98:1 110:2 112:1 117:1 121:3 123:5 126:1 127:1 130:1 131:1 148:2 149:1 184:1 224:2 256:1 285:1 298:1 319:1 356:1 382:1 424:1 452:1 496:1 501:1 519:1 533:3 560:1 769:1 802:2 878:1 888:1 1049:1 1056:2 1069:1 1188:1 1191:1 1676:1 1720:1 1723:1 1831:2 1973:1 2012:1 2029:1 2067:1 3128:1 3526:2 3799:1 3837:1 4022:1 4919:3 4975:1 5153:1 5257:2 5410:1 5657:1 6543:1 6928:1 7315:1 8136:2 9119:2 9830:1 10930:1 13385:1 14861:1 15871:1 17326:1 19037:2 20510:2 20511:1 20512:2 20513:2 20514:1 20515:1 20516:1 20517:1 20518:1 20519:1 20520:1 #
-0.00023851502847089265171853789126999 4:2 6:2 9:6 11:1 14:1 15:5 17:3 21:1 34:2 39:3 42:3 49:2 60:2 70:1 72:2 86:2 91:3 95:1 110:1 115:1 117:3 122:1 123:2 126:1 127:1 129:1 131:1 149:2 163:1 180:3 213:1 229:1 256:1 267:1 297:1 298:2 337:3 342:2 374:1 479:1 481:1 483:1 490:1 501:1 564:1 569:1 573:1 599:2 625:1 714:1 792:1 802:1 892:1 1106:1 1155:1 1226:1 1230:1 1605:2 1627:1 1710:1 1863:1 2308:2 2309:1 2330:4 2351:1 2391:1 2402:3 2412:1 2519:4 2663:1 2909:1 2998:1 3027:1 3134:1 3281:1 3444:1 3456:1 3574:1 3924:2 4501:1 5110:1 5111:1 5778:2 6812:1 7749:1 8524:1 16126:1 16421:1 26245:1 26246:1 26247:2 26248:1 26249:1 #
0.0004834590079567540102899181331253 4:10 6:10 7:4 9:32 10:3 11:25 15:9 17:4 34:21 39:7 41:5 42:14 46:4 49:2 51:20 60:1 62:6 67:1 69:3 70:2 72:9 76:2 77:2 86:8 90:1 91:1 97:1 98:6 110:9 111:3 115:1 119:3 120:1 121:4 122:2 123:22 125:1 127:8 130:1 131:4 134:1 137:1 143:3 148:1 149:1 163:1 168:1 188:1 191:1 193:1 194:8 213:3 229:2 237:1 242:1 243:1 244:1 248:4 258:25 264:3 267:2 271:1 297:9 298:7 300:3 303:1 304:1 311:1 319:4 341:1 343:1 353:1 354:1 356:1 360:1 374:2 382:5 394:1 403:1 404:4 406:1 426:1 435:1 438:3 446:4 453:1 471:1 479:5 483:2 485:2 487:1 490:1 492:1 496:1 497:2 517:2 519:1 532:2 533:4 550:1 563:1 564:1 595:1 607:1 616:1 632:3 637:3 638:2 650:1 676:1 679:3 700:1 714:17 727:1 802:2 805:1 807:1 862:4 871:1 875:1 878:5 884:1 886:1 892:2 943:1 961:1 1027:1 1048:1 1054:1 1061:1 1069:3 1083:1 1105:4 1116:1 1126:1 1150:2 1156:1 1165:1 1170:1 1186:2 1187:1 1193:1 1199:1 1200:2 1203:4 1206:1 1207:1 1209:1 1226:1 1230:2 1236:2 1239:1 1249:1 1250:1 1253:1 1269:6 1392:1 1403:2 1429:2 1437:1 1463:2 1482:2 1483:2 1489:1 1511:1 1552:1 1562:1 1579:1 1581:1 1616:1 1627:1 1634:2 1640:1 1698:1 1731:1 1892:1 1910:1 1954:1 1970:1 1983:1 2000:1 2021:1 2028:2 2036:3 2086:1 2115:1 2181:1 2187:1 2217:1 2255:1 2300:1 2355:1 2395:1 2415:26 2421:1 2427:1 2430:1 2496:1 2502:1 2544:1 2561:1 2566:3 2576:1 2594:1 2598:1 2615:1 2647:1 2658:1 2712:1 2775:1 2805:1 2807:1 2862:1 2903:1 2911:1 2945:1 2983:1 2988:1 2990:1 3010:1 3058:1 3079:1 3086:1 3264:1 3322:1 3326:1 3341:1 3352:1 3362:1 3480:1 3483:1 3486:1 3491:1 3568:2 3607:1 3705:1 3861:1 3888:1 3909:1 3916:1 3945:1 4042:1 4071:1 4159:1 4195:1 4208:1 4211:1 4234:1 4266:1 4322:1 4398:1 4483:1 4489:1 4546:1 4586:1 4595:2 4632:1 4648:2 4688:1 4734:1 4748:1 4789:1 4920:2 4941:1 5073:1 5140:1 5150:1 5158:1 5190:1 5371:2 5458:1 5501:1 5510:1 5568:1 5624:1 5757:1 5815:1 5819:1 5950:1 5966:1 5974:1 6024:1 6074:1 6136:1 6150:1 6238:1 6239:3 6246:2 6249:1 6264:1 6312:1 6360:1 6499:1 6572:1 6577:1 6626:1 6735:1 6780:1 6805:1 6842:1 6879:2 6968:1 7007:1 7070:1 7181:2 7340:1 7362:3 7384:1 7441:1 7486:1 7515:1 7763:1 7866:1 8410:1 8461:1 8503:1 8530:1 8534:1 8616:1 8640:1 8732:1 8811:1 8886:1 9067:1 9082:1 9216:1 9436:1 9885:1 10129:1 10211:1 10387:1 10515:1 10530:3 10589:1 10804:1 10943:1 10971:1 11396:1 12303:1 12372:1 13236:1 13456:1 13687:1 13710:1 14068:20 14069:1 14070:1 14071:1 14072:1 14073:1 14074:3 14075:1 14076:1 14077:1 14078:7 14079:2 14080:1 14081:1 14082:1 14083:1 14084:1 14085:1 14086:1 14087:1 14088:1 14089:1 14090:1 14091:1 14092:1 14093:1 14094:1 14095:1 14096:1 14097:1 14098:1 14099:1 14100:1 14101:1 14102:1 14103:1 14104:1 14105:1 14106:1 14107:1 14108:1 14109:1 14110:1 14111:1 14112:1 14113:1 14114:1 14115:1 14116:2 14117:1 14118:1 14119:1 14120:1 14121:1 14122:1 14123:1 14124:1 14125:2 14126:1 14127:1 14128:1 14129:1 14130:1 14131:1 14132:1 14133:1 14134:1 14135:1 14136:1 14137:1 14138:1 14139:1 14140:2 14141:1 14142:1 14143:1 14144:1 14145:1 14146:1 14147:1 14148:2 14149:1 14150:1 14151:1 14152:1 14153:1 14154:1 14155:1 14156:1 14157:1 #
0.00096980903928548531714448621698921 9:8 11:4 15:1 17:1 34:3 42:7 46:3 51:1 60:2 73:2 77:1 91:1 98:1 110:1 115:1 121:1 123:3 148:1 149:1 267:2 300:1 307:1 343:1 444:1 495:1 496:1 560:3 615:1 714:7 768:1 786:1 887:2 914:1 917:1 943:1 1048:1 1069:2 1101:1 1162:1 1163:1 1199:1 1211:1 1250:2 1359:1 1365:1 1401:1 1421:1 1437:2 1442:1 1451:1 1514:1 1728:1 1748:1 1973:1 2298:1 2470:1 2566:1 2715:1 2862:1 3048:1 3349:1 3392:1 3663:1 3765:1 4009:1 4206:1 4393:1 4527:1 4535:1 4681:1 5133:2 5171:1 5374:1 6080:1 6208:4 6762:1 6774:1 6894:1 6912:1 7170:1 7337:1 7388:1 7642:1 7830:1 9955:1 10599:1 11427:1 12745:1 12746:1 13732:1 13841:1 14254:1 14369:1 14874:1 15765:1 17479:1 17481:1 17968:1 19631:4 21888:1 28801:1 30909:2 30910:1 30911:1 30912:1 30913:1 30914:1 30915:1 30916:1 30917:1 30918:1 30919:1 30920:1 30921:1 #
0.00096980903928548531714448621698921 5:1 6:1 9:25 11:8 15:8 17:6 34:11 39:3 41:1 42:17 46:6 51:1 60:1 67:4 69:2 72:1 81:2 86:6 90:1 91:2 93:2 98:1 103:1 110:9 111:3 112:3 115:1 117:1 118:1 119:1 120:1 121:3 123:10 127:2 129:2 131:3 143:2 146:1 148:1 185:1 188:3 204:2 213:1 217:1 218:1 229:1 241:1 244:1 248:2 251:1 255:1 258:1 267:9 297:1 300:1 309:2 319:2 322:1 347:1 352:1 354:1 356:3 362:2 369:1 394:1 402:1 424:1 434:1 440:3 446:6 453:5 471:1 479:4 483:3 496:5 506:1 519:1 521:2 533:4 547:1 557:1 563:1 568:1 572:1 599:6 607:2 632:1 714:2 716:2 718:1 774:1 791:1 792:1 796:1 802:1 810:1 834:1 862:2 878:2 879:1 886:2 887:4 944:1 972:1 988:1 1027:1 1059:1 1069:3 1105:3 1106:1 1121:1 1134:1 1149:1 1155:1 1156:1 1177:1 1187:5 1193:1 1199:1 1230:2 1233:1 1250:3 1359:1 1402:1 1429:1 1459:3 1466:2 1482:1 1497:1 1515:1 1528:1 1547:2 1567:1 1578:1 1582:1 1600:1 1603:1 1634:1 1635:1 1640:1 1753:1 1755:2 1797:1 1816:1 1831:2 1852:1 1863:1 2010:1 2012:1 2017:2 2023:1 2078:1 2153:1 2222:2 2300:1 2313:4 2372:1 2391:1 2413:2 2440:1 2584:1 2671:1 2768:1 2796:1 2818:2 2820:1 2922:2 2938:1 2944:1 2951:1 2965:1 2971:1 2978:1 2980:1 3090:1 3122:1 3320:1 3322:4 3326:1 3456:2 3477:1 3548:1 3554:2 3568:1 3612:1 3676:1 3718:1 3737:1 3799:1 3975:1 3988:1 3995:3 4017:2 4158:1 4287:1 4338:2 4392:1 4431:1 4585:1 4734:1 4745:1 4989:1 5236:1 5293:1 5303:1 5370:1 5392:1 5400:2 5501:1 5509:1 5547:1 5901:1 5979:1 6110:1 6250:1 6360:1 6515:1 6920:1 6991:1 7017:3 7055:1 7519:1 7611:1 7749:1 7797:1 8664:1 8806:1 8880:3 9162:1 9189:1 9437:1 9516:1 9931:1 10253:1 10574:1 10909:1 11119:1 11773:1 11783:1 11787:1 11972:1 12218:1 12770:1 13644:1 13710:1 14268:1 14677:1 14851:1 14873:1 15104:1 15522:1 15660:1 15670:1 15719:1 16478:1 17253:1 17434:1 17578:1 17933:1 18246:1 20803:1 21468:1 21543:1 21896:2 21897:1 21898:4 21899:1 21900:2 21901:1 21902:1 21903:1 21904:1 21905:1 21906:1 21907:1 21908:1 21909:1 21910:1 21911:1 21912:1 21913:3 21914:1 21915:1 21916:1 21917:1 21918:1 21919:1 21920:1 21921:1 21922:1 #
-0.00039436918694548713090405889225565 6:1 354:2 679:1 970:1 1260:1 1313:1 1847:2 1927:2 1951:1 2403:1 2808:1 2885:1 2947:1 5237:1 5312:3 5403:1 5965:1 6352:2 7037:1 8135:1 8788:1 8792:1 9107:1 9398:1 9850:1 10009:1 10011:2 10040:1 10455:2 10461:2 10469:2 10793:1 11000:1 12632:1 12661:1 13021:1 14947:1 15882:1 16450:1 17173:1 17193:2 17198:1 17201:2 20565:1 21965:1 23050:1 24056:1 24960:1 26311:1 28810:1 29143:1 29156:1 30283:1 32392:1 32393:1 32394:1 32395:1 32396:1 32397:1 32398:1 32399:1 32400:1 32401:1 32402:1 32403:1 32404:1 32405:1 32406:1 32407:1 32408:1 32409:1 32410:1 32411:1 32412:1 32413:1 32414:1 #
-0.00096980903928548531714448621698921 91:1 130:1 426:1 1253:1 1304:2 1349:1 2350:1 13810:1 15220:1 33838:1 #
-0.00029348680714436303990436116784224 9:15 11:7 15:6 17:1 34:4 39:1 42:5 46:1 49:1 50:1 51:2 52:1 60:3 73:2 84:3 86:1 91:1 98:2 110:1 111:4 123:3 126:1 128:1 129:1 131:1 158:2 163:2 188:1 193:1 199:1 242:1 243:1 244:1 245:1 267:4 271:1 272:1 294:1 368:4 372:1 376:1 394:3 416:1 444:1 446:1 476:1 485:1 496:1 560:3 568:1 569:1 576:1 607:2 641:1 679:1 750:1 798:1 834:1 890:1 893:1 914:1 953:1 987:1 1027:1 1084:1 1627:1 1687:2 1689:1 1815:1 2011:1 2037:1 2127:1 2283:1 2290:2 2301:2 2612:1 2646:1 2720:1 3088:1 3318:1 3355:2 3426:1 3617:1 3692:1 3722:1 3802:2 3897:1 3906:3 4045:1 4248:1 4839:1 4853:1 4957:1 5079:1 5251:1 5329:1 6450:1 6659:1 7776:1 8004:1 10951:1 12150:1 12733:1 12950:1 14784:3 15490:1 17983:1 18308:1 23169:1 23573:1 26330:1 28985:1 34332:1 34333:1 34334:1 #
0.00082376483447053102781437727841762 4:5 6:12 9:46 11:39 12:1 15:15 17:3 31:3 33:3 34:18 39:8 41:2 42:17 46:3 49:5 62:4 69:2 70:2 77:2 86:3 91:5 97:1 98:3 110:3 111:6 112:1 115:2 117:3 121:3 123:11 126:1 127:3 129:1 131:3 134:1 136:4 143:2 148:1 157:2 188:2 194:1 199:1 204:3 213:1 229:1 236:2 241:3 243:4 251:2 256:1 260:1 267:13 303:1 316:1 319:1 333:1 354:2 356:1 364:1 365:2 372:2 403:2 404:1 424:1 440:1 444:2 453:2 455:1 459:2 462:3 475:1 479:3 482:1 483:3 485:1 512:1 517:2 533:3 534:2 542:2 550:2 551:1 557:1 563:1 572:2 581:3 582:3 591:1 595:1 612:1 650:1 664:1 677:1 683:1 700:1 716:1 723:3 739:1 755:1 763:2 796:1 802:12 807:2 831:1 862:6 867:1 870:4 871:2 877:2 878:2 879:1 884:1 886:4 895:2 904:1 914:2 917:1 952:1 978:1 998:1 999:1 1056:2 1059:1 1069:2 1083:3 1103:1 1126:1 1155:1 1167:1 1174:1 1186:2 1187:1 1193:1 1195:4 1199:2 1202:2 1211:1 1223:1 1253:7 1271:3 1365:1 1438:1 1466:2 1541:1 1568:1 1594:2 1598:1 1623:1 1627:1 1662:1 1666:1 1678:1 1733:1 1744:1 1758:1 1762:3 1765:1 1863:1 1873:1 1892:1 1905:1 2022:1 2070:3 2073:1 2076:2 2080:1 2088:1 2089:1 2099:1 2104:1 2106:1 2116:1 2122:1 2153:2 2161:1 2313:1 2392:1 2451:1 2465:3 2547:1 2568:1 2592:1 2636:1 2663:1 2680:1 2706:2 2709:1 2722:1 2776:1 2861:1 2873:1 2878:1 2919:1 2949:1 2953:1 2968:1 2975:1 3042:1 3056:1 3059:1 3098:1 3321:1 3362:2 3385:3 3392:1 3424:1 3428:1 3437:2 3456:1 3475:1 3571:1 3589:1 3684:5 3699:1 3790:1 3792:1 3799:1 4031:1 4062:1 4165:1 4294:4 4376:2 4431:1 4442:1 4455:1 4474:1 4552:1 4593:1 4619:1 4648:1 4714:1 4765:1 4783:1 5194:1 5312:1 5461:1 5508:1 5516:1 5540:1 5550:1 5847:1 5917:1 5930:2 5979:1 6113:1 6237:1 6317:1 6407:1 6468:1 6472:1 6575:1 6621:1 6772:1 6812:1 6842:1 6854:1 6920:1 7070:3 7135:1 7240:1 7284:1 7346:4 7400:1 7425:2 7446:1 7779:8 7787:1 8577:1 8892:1 9093:1 9142:1 9193:1 9351:1 9474:1 10314:1 10801:1 10865:1 10875:2 11024:1 11328:1 11437:2 11537:1 11542:1 11827:1 11942:1 11955:1 11974:1 12088:1 12168:1 12575:1 12695:14 13224:2 14452:1 14554:1 14841:2 15176:1 15277:1 15745:1 15809:1 15914:2 15964:1 16002:1 16732:1 17285:1 17323:1 17750:1 17905:2 18103:1 18842:1 19290:1 20449:1 21065:1 21412:1 21699:1 22298:1 22894:1 23126:1 23184:1 23202:1 24368:1 25370:2 25371:2 25372:3 25373:1 25374:5 25375:2 25376:1 25377:3 25378:1 25379:1 25380:1 25381:2 25382:3 25383:1 25384:1 25385:1 25386:1 25387:1 25388:5 25389:1 25390:2 25391:2 25392:2 25393:1 25394:1 25395:1 25396:1 25397:1 25398:2 25399:1 25400:1 25401:1 25402:1 25403:1 25404:1 25405:1 25406:2 25407:1 25408:1 25409:1 25410:1 25411:1 25412:1 25413:1 25414:1 25415:1 #
-0.00077707352661006358525430659511812 9:2 11:4 15:2 33:3 34:5 39:1 42:8 77:1 86:1 91:6 96:1 110:1 117:6 123:4 125:1 129:1 138:1 164:2 185:3 188:1 199:1 204:1 212:1 236:3 242:1 257:1 267:2 444:5 499:3 533:1 598:1 607:1 624:1 638:1 650:1 660:1 806:2 1211:1 1785:1 1786:1 1849:1 1850:1 1882:1 2020:1 2070:1 2080:1 2502:1 2921:1 2965:6 3334:1 3374:1 4037:3 4089:2 4927:5 5881:1 6033:1 6140:1 6358:2 6471:1 6472:2 6473:4 6474:1 6475:1 6476:1 6477:1 6478:1 6479:1 6480:1 6481:1 6482:1 6483:1 #
-0.00096980903928548531714448621698921 3:1 4:5 6:6 7:1 9:51 11:29 15:20 17:5 20:5 30:1 34:22 39:5 40:1 41:1 42:16 44:1 46:7 49:6 51:3 56:2 60:5 62:3 69:4 70:1 73:3 75:1 76:1 77:3 81:4 86:7 87:1 91:4 93:1 97:1 98:7 110:8 111:3 112:2 115:1 117:2 119:1 121:5 123:25 127:6 129:3 131:1 137:1 138:3 143:2 148:7 149:2 157:1 164:1 188:1 190:2 191:1 193:3 194:1 201:1 204:1 207:4 209:2 213:1 229:1 236:1 242:1 243:6 244:1 248:1 251:2 256:2 258:3 259:1 267:10 297:4 300:2 303:3 309:1 319:1 320:1 333:2 337:1 341:1 343:1 347:2 352:4 354:2 363:1 373:1 382:1 404:3 408:1 421:1 440:1 444:5 446:4 479:2 480:3 481:1 483:4 485:2 496:1 501:5 504:1 512:2 530:1 532:1 533:11 534:2 553:1 557:6 560:1 563:2 575:1 585:2 607:4 615:1 618:1 632:2 638:1 643:3 672:1 679:5 714:15 717:1 747:1 763:1 768:1 784:1 785:2 792:2 794:1 802:2 838:1 855:2 862:1 871:1 878:1 879:1 884:1 886:2 887:2 888:1 892:2 896:1 902:1 908:1 911:1 914:1 917:2 943:1 970:2 986:2 1027:1 1041:1 1048:1 1069:5 1077:1 1083:1 1096:1 1101:1 1105:1 1106:1 1107:7 1121:1 1149:4 1150:1 1155:1 1177:1 1178:2 1186:1 1187:5 1188:1 1193:2 1194:1 1199:4 1211:2 1230:3 1233:1 1242:1 1249:1 1250:5 1253:1 1269:1 1274:1 1347:1 1357:3 1359:1 1365:1 1374:1 1383:1 1402:2 1420:1 1426:1 1429:2 1459:3 1463:1 1466:1 1483:1 1489:1 1495:1 1497:1 1507:1 1522:1 1530:1 1547:1 1624:5 1626:1 1627:1 1640:1 1678:1 1684:1 1698:1 1777:1 1780:1 1784:1 1789:1 1794:1 1837:1 1863:1 1898:1 1910:1 1937:1 1974:2 1977:1 2006:1 2022:1 2039:1 2080:2 2088:2 2090:1 2099:1 2113:1 2137:1 2253:1 2285:1 2355:1 2366:10 2396:1 2405:1 2410:2 2421:1 2440:1 2558:1 2566:1 2571:1 2584:1 2613:1 2619:8 2647:5 2671:1 2676:3 2708:1 2742:1 2757:1 2791:2 2792:1 2799:1 2803:1 2924:2 2957:1 3040:1 3060:1 3086:1 3090:1 3322:3 3341:1 3383:2 3395:1 3454:2 3550:1 3563:1 3619:1 3673:2 3674:4 3745:1 3752:1 3860:1 3924:1 3956:1 3991:1 4071:1 4159:1 4211:1 4217:2 4287:1 4358:1 4414:1 4625:1 4726:1 4734:1 4745:1 4855:1 4895:1 5073:1 5082:1 5145:1 5161:1 5171:1 5186:2 5187:1 5279:1 5381:1 5442:1 5458:1 5501:1 5568:1 5644:1 5745:1 5792:1 5828:1 5832:3 5957:1 5958:1 5989:2 5997:2 6002:1 6020:1 6028:5 6033:2 6138:1 6351:1 6515:1 6575:1 6601:1 6762:1 6784:1 6871:1 6954:2 7062:1 7070:1 7104:1 7284:1 7336:1 7349:1 7381:1 7470:1 7483:1 7502:1 7749:1 7786:1 7792:1 7821:1 7927:2 7945:1 7975:1 8029:1 8247:1 8258:1 8262:1 8274:1 8410:1 8546:1 8760:2 9282:1 9524:1 9561:1 9818:1 9830:2 10234:1 10612:1 10853:3 10999:1 11694:1 11731:1 11773:1 12202:1 12684:1 13107:1 13324:1 14404:2 14602:2 14616:1 14680:1 14774:1 14933:1 15061:1 15079:4 15152:1 15281:1 16006:3 16159:1 16467:1 17253:1 17915:1 17923:1 18379:1 18637:1 18935:1 19036:1 19202:1 20046:1 20250:1 21022:1 21063:1 21899:1 21909:1 23109:1 25807:1 27028:7 27265:1 27636:1 28204:1 28205:3 28206:1 28207:1 28208:1 28209:1 28210:1 28211:1 28212:1 28213:1 28214:1 28215:2 28216:2 28217:1 28218:1 28219:2 28220:1 28221:2 28222:1 28223:1 28224:1 28225:1 28226:1 28227:1 #
0.00096980903928548531714448621698921 9:8 11:2 15:2 17:3 34:2 39:1 42:4 46:2 49:2 51:1 60:3 62:1 72:4 73:2 77:1 86:1 98:1 110:1 115:2 123:7 126:2 129:3 131:1 143:1 258:1 267:1 298:3 300:3 324:1 382:1 394:1 405:1 519:1 564:1 573:1 607:1 703:1 716:2 856:1 884:1 907:1 914:1 952:1 982:1 1046:1 1081:1 1085:1 1155:1 1161:1 1162:1 1407:1 1489:1 1517:3 1731:1 1783:1 2940:2 2998:1 3184:2 3274:1 3553:1 3579:2 3837:2 3893:1 3962:1 4392:1 4957:1 5175:1 6011:2 6785:1 7151:1 7728:1 7918:1 8988:1 10672:1 10872:1 13663:1 13721:1 13752:1 14851:1 15104:1 16931:1 17921:1 27363:1 32544:3 32545:1 32546:1 32547:2 32548:1 32549:1 32550:1 32551:1 32552:1 32553:1 32554:1 #
0.00096980903928548531714448621698921 2:1 4:1 6:7 9:6 11:3 15:2 34:3 39:2 42:2 46:1 49:2 51:1 60:2 70:1 77:3 86:2 98:2 123:5 127:1 183:1 185:1 212:2 229:1 236:1 258:1 298:1 316:1 319:1 394:2 462:2 480:1 493:1 496:2 521:1 533:1 607:3 625:1 727:1 871:2 893:1 970:2 1069:2 1104:1 1105:1 1149:1 1178:1 1203:1 1205:1 1269:1 1304:1 1522:1 1556:1 1605:2 1614:1 1624:2 1628:1 1678:1 1797:1 1820:1 1862:1 1951:2 2093:1 2218:1 2220:1 2221:1 2352:1 2607:1 2766:1 3271:1 3275:1 3888:1 3916:1 4287:1 4452:2 4667:2 4681:1 4757:1 4810:1 4972:1 5392:1 5661:1 5704:1 5705:1 6593:1 7199:1 8316:1 8362:1 9122:1 9134:1 9314:1 9915:1 10080:1 10125:1 10784:2 11967:1 12807:1 12932:1 13197:1 13610:1 13830:1 14312:1 16541:1 16855:1 17525:1 17725:3 17821:1 20171:1 20190:1 21096:1 22810:1 22979:1 23568:1 27281:1 28180:1 29001:1 29076:1 29397:1 32091:1 32665:1 32760:2 33801:7 33802:5 33803:1 33804:1 33805:1 33806:1 33807:1 33808:1 33809:1 33810:1 33811:1 33812:1 33813:1 33814:1 33815:1 33816:1 33817:1 33818:1 33819:1 33820:2 33821:1 33822:1 33823:1 33824:1 33825:1 33826:1 #
-0.0003731891354884306496141055387028 4:1 6:1 9:9 11:10 15:4 34:5 42:4 49:2 51:1 62:1 77:3 86:3 98:1 121:2 123:1 127:3 129:1 143:1 163:1 164:1 194:2 259:1 309:1 333:1 335:1 352:1 405:1 438:2 446:1 471:1 485:2 496:1 509:1 557:1 577:1 615:1 616:1 644:1 653:2 679:1 727:1 768:1 840:1 850:1 852:3 853:1 878:2 889:1 891:1 972:1 1077:2 1241:2 1825:2 1997:1 2069:1 2357:1 2470:1 2512:1 2689:1 2690:1 2922:1 2962:1 3040:1 3491:1 4879:1 5046:1 5298:1 5846:1 7286:1 9215:1 11360:1 15516:1 15517:1 16251:1 19030:1 19255:1 20760:2 20886:1 25906:1 33751:1 33768:3 33769:1 #
0.00096980903928548531714448621698921 2:3 4:4 6:13 7:2 9:45 11:28 15:9 17:2 20:1 24:1 33:2 34:22 39:9 40:1 41:1 42:27 46:8 47:1 49:4 50:1 51:4 60:6 62:1 67:1 72:1 74:1 76:1 77:6 86:11 91:2 92:1 95:1 98:12 110:6 111:4 113:1 117:2 118:1 121:2 122:1 123:9 125:1 126:1 127:6 129:4 131:2 134:2 143:4 144:1 148:3 163:1 188:1 194:1 202:1 204:2 215:2 219:1 220:1 229:3 241:1 243:2 255:1 256:1 258:1 267:6 277:1 297:1 309:1 319:3 352:3 354:4 356:1 382:3 394:4 402:1 404:1 408:1 413:1 416:2 437:1 438:4 440:1 446:3 453:2 462:2 471:1 479:2 480:1 481:2 483:5 485:1 496:1 504:1 514:1 515:1 518:1 521:1 530:1 533:1 550:10 563:1 569:2 585:1 590:1 599:3 616:1 643:1 659:3 679:1 700:1 714:8 716:1 741:1 763:1 785:1 802:13 827:2 830:1 845:2 850:1 864:1 885:1 890:1 892:2 902:2 920:8 960:1 963:1 979:2 984:1 988:1 1019:1 1030:1 1069:7 1085:1 1105:4 1106:3 1107:1 1108:1 1111:1 1134:1 1146:1 1149:3 1177:1 1178:2 1187:4 1192:1 1194:1 1199:3 1215:1 1223:1 1230:3 1242:1 1249:2 1250:3 1253:3 1306:1 1357:1 1367:6 1373:1 1392:1 1399:1 1402:1 1409:1 1426:1 1429:2 1468:1 1471:1 1478:1 1482:3 1485:2 1506:1 1528:1 1545:1 1547:2 1556:2 1626:2 1653:1 1728:1 1788:2 1961:1 2004:2 2013:1 2023:1 2030:1 2036:2 2039:1 2077:1 2078:1 2088:1 2355:1 2410:1 2454:1 2461:1 2496:1 2507:1 2512:2 2525:1 2703:1 2744:1 2862:1 2863:1 2958:1 2968:1 3078:1 3088:1 3124:1 3149:1 3340:1 3420:1 3443:1 3444:1 3485:1 3523:1 3563:1 3663:1 3693:1 3745:1 3780:1 3860:1 3919:1 4015:1 4069:1 4095:1 4141:1 4209:2 4309:1 4319:1 4361:2 4431:2 4593:1 4631:1 4648:3 4694:1 4813:1 4920:2 4935:2 5069:1 5131:1 5186:1 5214:1 5298:1 5508:1 5524:1 5815:1 5898:1 6037:3 6094:2 6112:1 6148:1 6216:1 6279:1 6467:1 6541:1 6723:1 6814:1 6818:1 6872:1 6934:1 6957:1 7050:1 7096:1 7176:1 7192:1 7205:1 7483:1 7532:2 7614:1 7650:1 7842:4 7975:1 8007:1 8027:1 8244:1 8247:1 8279:1 8280:1 8352:1 8483:1 8861:1 9159:1 9196:1 9224:1 9492:1 9840:1 9898:1 10026:7 10429:2 10494:1 10553:1 10570:3 10808:1 10822:1 11048:1 11127:3 11128:14 11129:1 11130:1 11131:1 11132:1 11133:1 11134:1 11135:1 11136:1 11137:1 11138:1 11139:1 11140:1 11141:1 11142:1 11143:1 11144:1 11145:1 11146:1 11147:1 11148:1 11149:1 11150:1 11151:1 11152:1 11153:1 11154:1 11155:1 11156:1 11157:1 11158:1 11159:1 11160:3 11161:1 11162:1 11163:1 11164:1 11165:1 11166:1 11167:1 11168:1 11169:1 11170:1 11171:1 11172:1 11173:1 11174:1 11175:1 11176:1 11177:1 11178:1 11179:1 11180:1 11181:1 11182:1 11183:1 11184:1 11185:1 11186:1 11187:1 11188:1 11189:1 11190:1 11191:1 #
-0.00037263905851394539233203961892116 4:5 5:1 6:17 9:32 10:1 11:24 15:7 17:7 20:2 25:5 31:1 33:1 34:13 39:7 41:2 42:30 46:4 49:2 50:1 51:6 57:1 62:2 72:4 77:1 80:2 86:18 87:1 91:4 98:9 110:10 111:1 115:1 116:1 117:6 119:1 120:1 121:2 122:2 123:17 126:2 129:3 130:1 131:2 133:1 134:2 145:1 148:3 149:1 160:1 188:1 193:1 194:1 204:6 213:1 229:1 236:2 237:1 241:1 242:1 244:1 255:1 256:1 267:9 297:2 300:1 303:1 309:3 316:1 319:1 348:1 352:1 354:2 356:1 357:4 385:1 386:2 391:1 404:2 438:2 444:1 453:1 479:3 483:5 484:1 485:2 486:1 496:1 501:1 512:3 517:1 518:1 519:1 527:1 533:3 534:2 568:1 587:1 588:1 603:2 607:4 615:1 621:1 637:3 638:2 639:1 643:1 673:2 676:1 679:2 714:2 727:1 759:1 763:3 796:1 802:2 838:1 843:1 850:2 862:1 879:1 885:1 892:3 911:1 942:1 963:1 971:1 986:1 1032:3 1059:5 1069:4 1075:1 1105:1 1149:1 1156:1 1160:2 1173:1 1187:2 1195:2 1215:1 1230:2 1233:1 1250:1 1357:2 1415:1 1426:2 1459:1 1483:1 1522:1 1567:1 1627:1 1628:1 1634:1 1650:1 1654:1 1678:1 1700:2 1702:1 1722:1 1728:1 1730:1 1731:1 1748:1 1799:7 1827:1 1830:1 1831:9 1852:3 1861:1 1863:1 1864:1 1891:1 1998:1 2012:1 2037:1 2053:1 2076:1 2088:1 2131:1 2153:1 2193:3 2202:2 2232:1 2292:1 2313:1 2315:1 2357:1 2413:1 2547:2 2589:1 2658:5 2697:1 2744:1 2819:1 2849:1 2934:1 3044:1 3124:1 3134:1 3352:3 3355:1 3362:1 3428:1 3454:1 3489:3 3531:1 3569:1 3590:1 3612:1 3633:1 3687:1 3705:1 3712:1 3737:1 3751:1 3768:4 3769:1 3799:1 3934:1 3975:1 3979:3 3988:1 3995:1 4006:1 4062:1 4208:1 4226:2 4390:1 4415:1 4593:3 4733:4 4806:1 4853:1 4898:3 4957:1 5023:1 5278:1 5410:1 5547:1 5692:1 5701:1 5745:2 5759:1 5802:1 5815:1 5825:1 5850:1 5893:3 5898:1 5901:1 6124:1 6135:1 6230:1 6279:1 6305:1 6515:1 6534:1 6593:1 6770:8 6773:4 7098:1 7135:1 7289:1 7340:1 7570:2 7912:1 8009:1 8193:2 8254:1 8295:1 8303:1 8340:1 8754:4 8866:12 8927:1 9211:2 10107:1 10247:1 10429:7 11087:1 11567:1 11569:1 11662:1 11688:1 11902:2 12498:1 12932:2 13329:1 13495:1 13512:3 13759:1 14268:2 14450:1 14641:1 15039:1 16674:1 16675:1 17101:1 17707:1 17976:1 18020:1 18528:1 18860:1 19428:1 20153:1 21341:3 21930:1 22455:1 23215:1 23441:1 23975:1 24976:15 24977:1 24978:11 24979:1 24980:4 24981:1 24982:1 24983:1 24984:1 24985:1 24986:4 24987:3 24988:1 24989:2 24990:1 24991:1 24992:2 24993:1 24994:1 24995:1 24996:1 24997:2 24998:1 24999:1 25000:1 25001:1 25002:1 25003:1 25004:1 25005:1 #
-0.00032970127353444201104282207381857 2:3 4:2 5:2 6:21 7:1 9:42 10:1 11:20 15:15 17:5 18:2 20:1 22:2 34:25 39:4 42:27 46:8 49:2 51:9 60:1 62:2 70:1 73:2 75:2 76:1 77:3 82:2 86:12 90:1 91:12 93:1 98:8 110:4 111:3 115:1 117:8 118:3 119:3 121:5 123:17 126:2 127:5 129:1 131:5 134:2 138:1 143:3 144:1 148:1 149:2 154:1 157:2 163:1 173:1 185:1 188:5 190:1 193:2 194:4 202:1 204:4 213:4 229:4 236:5 238:1 239:1 243:1 244:2 248:1 256:2 266:7 267:9 275:1 297:2 298:2 300:1 303:1 309:1 318:1 319:1 320:1 326:1 340:1 341:1 347:1 348:1 352:1 354:2 356:1 372:1 373:1 374:2 394:1 400:1 444:1 453:4 455:1 457:1 479:4 480:1 481:1 482:1 485:3 490:1 494:1 511:1 512:1 517:1 527:1 533:2 534:1 545:1 548:1 550:1 557:1 560:1 567:1 568:1 585:1 599:4 607:3 632:1 638:2 651:6 663:1 670:1 674:1 675:1 679:4 684:1 714:1 749:1 770:1 782:1 784:1 802:3 803:2 807:3 821:1 840:1 843:1 855:2 879:1 881:1 892:2 896:1 914:1 948:5 959:1 978:1 988:1 999:1 1032:1 1056:3 1069:4 1070:2 1075:1 1079:1 1084:1 1096:1 1104:1 1123:1 1132:1 1149:1 1162:1 1163:1 1169:2 1187:1 1188:1 1192:1 1199:1 1211:1 1226:1 1230:4 1250:1 1252:1 1253:1 1356:1 1429:2 1486:2 1528:1 1541:1 1552:1 1622:1 1628:1 1634:1 1678:4 1702:2 1709:1 1710:1 1723:2 1731:1 1742:1 1755:2 1756:1 1763:2 1816:1 1877:1 1881:1 1886:1 1891:1 1903:3 1909:1 1910:1 1913:4 1925:1 1961:1 1983:1 2000:2 2132:1 2148:1 2218:7 2222:1 2223:1 2237:1 2292:2 2363:2 2391:1 2401:1 2425:1 2470:1 2496:1 2575:5 2615:5 2638:1 2641:1 2825:1 2855:1 2916:1 2917:1 3058:1 3135:1 3147:1 3149:1 3250:1 3336:1 3362:1 3374:1 3383:1 3392:1 3477:3 3568:2 3591:1 3624:1 3633:1 3651:2 3680:2 3714:1 3722:1 3745:2 3904:1 3978:1 3982:1 4042:2 4086:3 4099:1 4107:1 4208:3 4244:1 4324:1 4338:1 4361:1 4392:1 4400:1 4414:2 4440:1 4457:2 4560:1 4565:4 4631:1 4632:1 4714:1 4733:1 5004:1 5011:2 5033:1 5118:1 5160:1 5161:1 5173:1 5318:1 5463:1 5528:1 5646:2 5711:1 5768:1 5810:1 5856:1 5889:1 5932:1 6062:1 6069:1 6136:1 6186:1 6301:2 6317:1 6400:1 6409:12 6410:7 6471:1 6495:1 6525:1 6533:1 6619:2 6936:1 6982:2 7088:1 7100:1 7134:1 7483:1 7716:1 7842:18 7971:1 8177:11 8206:1 8299:1 8300:4 8309:1 8339:1 8430:1 8473:1 8534:1 8548:2 8635:1 8664:1 8760:1 9332:1 9333:1 9334:1 9335:1 9336:1 9337:1 9338:11 9339:1 9340:1 9341:1 9342:1 9343:2 9344:6 9345:2 9346:2 9347:1 9348:1 9349:1 9350:1 9351:1 9352:1 9353:1 9354:1 9355:1 9356:1 9357:1 9358:1 9359:1 9360:1 9361:1 9362:1 9363:1 9364:1 9365:1 9366:1 9367:1 9368:1 9369:1 9370:1 9371:1 9372:1 9373:1 9374:1 9375:1 9376:1 9377:1 9378:1 9379:1 9380:1 9381:1 9382:1 9383:1 9384:1 9385:1 9386:1 9387:2 9388:1 9389:1 9390:1 9391:1 9392:1 9393:2 9394:1 #
-0.00038057715222597542168575524001994 2:2 4:2 6:15 9:47 11:14 12:1 15:7 17:6 18:2 20:2 33:2 34:12 39:8 40:2 42:32 43:1 46:2 51:6 52:1 60:7 62:4 64:1 67:1 70:2 75:1 76:3 77:4 80:2 86:2 87:1 91:7 95:2 98:14 101:1 110:4 111:5 115:3 116:2 117:2 118:1 119:1 122:2 123:12 127:4 130:3 131:2 132:1 134:1 143:2 148:1 149:1 168:1 180:1 188:3 190:1 204:1 211:1 213:1 215:1 216:1 229:2 236:1 239:1 258:6 267:3 285:4 300:1 301:1 303:1 318:1 319:3 341:1 368:1 372:1 378:1 382:1 389:1 394:1 406:1 438:1 446:5 453:5 479:1 481:1 483:1 485:1 496:3 517:1 519:1 527:2 533:4 550:5 560:7 565:1 569:1 573:1 595:1 614:2 619:2 632:2 642:2 643:1 679:2 700:2 714:4 716:1 727:1 752:1 774:1 784:1 791:1 802:5 814:6 815:1 827:1 848:1 878:1 879:4 885:1 917:1 945:1 958:1 990:1 999:3 1014:1 1024:1 1027:2 1041:1 1046:1 1069:3 1070:1 1084:1 1085:1 1097:5 1103:1 1105:1 1120:2 1129:3 1143:1 1149:1 1156:1 1160:1 1162:1 1163:1 1169:2 1179:1 1187:1 1195:2 1204:1 1208:1 1215:1 1223:1 1230:1 1233:1 1252:1 1253:2 1263:4 1282:1 1356:1 1365:1 1383:1 1408:2 1429:2 1434:1 1438:1 1444:1 1454:1 1459:5 1483:2 1494:1 1501:1 1514:1 1562:1 1614:1 1627:1 1649:1 1680:2 1733:1 1751:1 1891:1 1902:7 1910:2 1913:1 1936:1 2018:1 2098:1 2107:1 2127:1 2137:1 2212:1 2253:1 2292:1 2315:1 2348:1 2396:1 2638:2 2643:1 2671:1 2675:1 2684:1 2750:1 2775:1 2791:3 2795:1 2820:1 2841:1 2854:1 2855:1 2939:1 2955:1 2991:1 3027:2 3077:1 3088:1 3176:1 3261:1 3273:1 3383:1 3436:4 3477:1 3548:1 3565:1 3568:2 3600:1 3625:2 3753:1 3842:1 3913:1 3940:2 4010:1 4012:1 4015:1 4032:1 4069:1 4071:1 4135:1 4251:2 4361:2 4396:1 4404:1 4561:2 4565:3 4594:2 4632:1 4634:4 4643:10 4644:1 4648:1 4656:1 4659:1 4684:2 4688:1 4690:1 4709:6 4716:1 4765:1 4853:2 4858:1 5076:1 5187:1 5251:1 5285:1 5289:1 5363:1 5412:1 5510:2 5568:1 5711:1 5733:1 5745:1 5846:1 5897:1 6309:1 6343:1 6663:1 6750:1 6808:1 7105:1 7483:3 7532:1 7647:1 8380:2 8617:1 9088:1 9450:1 10054:1 10140:1 10551:1 10825:1 10922:1 11018:1 11582:1 11928:1 11934:1 12232:1 12299:1 12895:1 12947:2 12952:1 13416:1 14424:1 14613:1 15152:1 15257:1 15725:1 15988:1 15989:1 17743:1 18234:1 18395:1 18444:1 19720:1 20534:1 21006:1 26257:3 26593:1 26879:1 27490:3 29291:1 29699:1 29700:1 29701:1 29702:1 29703:1 29704:1 29705:4 29706:1 29707:1 29708:1 29709:1 29710:1 29711:1 29712:1 29713:1 29714:1 29715:1 29716:1 29717:1 #
0.00096980903928548531714448621698921 4:3 9:12 11:8 15:10 20:1 29:1 34:5 39:2 41:3 42:10 49:2 60:2 72:6 73:1 77:2 86:5 87:1 89:1 91:1 98:2 110:4 111:2 117:1 118:1 121:1 123:10 129:1 130:1 143:4 148:2 149:1 163:1 188:4 190:2 213:1 229:1 245:1 256:1 267:2 294:1 297:2 298:3 300:2 305:2 327:1 368:1 373:1 394:1 399:1 417:1 444:1 453:1 479:3 483:1 485:1 517:1 521:2 534:3 543:1 607:2 618:1 679:1 684:1 714:5 716:1 763:1 784:1 801:1 802:3 846:1 879:1 885:1 892:1 914:1 917:1 1000:1 1024:1 1027:1 1036:1 1038:2 1042:2 1046:1 1061:2 1069:2 1071:1 1106:1 1121:1 1156:1 1174:1 1203:2 1247:1 1253:1 1357:1 1365:1 1372:1 1429:2 1522:1 1645:1 1676:1 1695:1 1731:1 1822:1 1825:2 2010:1 2049:1 2298:1 2355:1 2517:1 2547:1 2566:2 2615:3 2863:1 2998:1 3134:1 3217:1 3339:1 3729:1 3857:1 4062:4 4206:1 4361:1 4455:1 4957:1 5178:1 5190:1 5393:1 5419:1 5567:2 5733:1 5741:1 5745:1 5814:1 5960:2 6239:1 6246:2 6428:1 6761:1 7094:1 7202:1 7237:1 7359:7 7360:1 7361:1 7362:1 7363:1 7364:1 7365:1 7366:2 7367:3 7368:1 7369:2 7370:1 7371:1 7372:1 7373:1 7374:1 7375:1 7376:1 7377:1 7378:1 7379:1 7380:1 7381:1 7382:1 7383:2 7384:1 7385:1 7386:1 7387:1 7388:1 7389:1 7390:1 7391:1 7392:1 7393:1 7394:1 7395:1 7396:1 7397:1 7398:1 7399:1 7400:1 7401:1 7402:1 7403:1 7404:1 7405:1 7406:1 7407:1 7408:1 #
-0.00096980903928548531714448621698921 4:5 6:28 9:30 11:14 15:11 17:2 20:2 34:27 36:1 40:2 41:2 42:10 46:10 48:1 49:1 51:3 62:1 67:1 72:6 73:1 77:2 86:13 91:1 93:1 95:1 96:2 98:10 110:12 111:6 115:2 119:2 121:7 122:1 123:24 125:1 127:2 129:2 131:1 133:3 134:1 143:8 149:10 157:2 163:3 188:2 204:1 219:2 229:2 251:1 256:1 258:1 267:3 297:3 298:3 300:2 301:1 303:1 305:1 309:1 318:1 319:1 320:1 328:1 344:3 348:1 354:3 382:3 394:2 399:1 402:1 404:1 412:1 423:1 430:1 434:1 438:1 453:1 476:1 479:2 480:2 483:2 485:2 493:1 496:1 501:1 513:1 517:2 519:1 532:1 533:4 534:1 557:2 564:1 569:2 571:1 573:1 607:1 626:1 638:3 650:1 663:1 679:1 707:1 716:1 763:4 768:2 784:1 800:1 807:3 818:2 845:1 862:1 885:1 886:1 933:4 936:1 951:1 963:1 970:1 986:1 1048:2 1069:9 1080:1 1096:1 1104:1 1105:4 1106:1 1146:2 1149:2 1178:1 1180:1 1187:4 1199:1 1207:1 1226:4 1230:7 1249:1 1250:1 1358:1 1359:1 1392:1 1428:1 1455:3 1459:2 1485:1 1497:1 1513:1 1531:1 1590:1 1624:3 1627:1 1680:1 1733:1 1792:1 1815:1 1826:1 1830:1 1936:1 1945:1 1972:1 2069:1 2093:1 2109:1 2113:1 2225:1 2344:1 2348:3 2362:1 2363:1 2395:1 2427:2 2440:1 2496:1 2512:2 2671:1 2689:1 2690:1 2901:1 2904:1 2906:1 2917:2 2988:3 3012:1 3274:2 3286:2 3292:1 3311:1 3336:2 3352:3 3362:3 3383:1 3389:2 3475:1 3480:3 3517:1 3531:1 3563:3 3592:1 3619:1 3906:1 3909:2 3989:1 4083:1 4128:1 4211:2 4392:1 4394:1 4455:1 4509:1 4556:1 4557:1 4567:1 4720:1 4726:2 4734:1 4764:1 4997:2 5021:1 5029:1 5153:1 5155:1 5167:1 5172:1 5177:1 5256:1 5294:1 5400:1 5539:1 5557:1 5569:1 5606:1 5733:2 5906:1 5997:2 6080:1 6539:1 6572:1 6631:2 6653:1 6669:1 6673:1 6744:1 6872:1 7170:1 7444:1 7522:1 7554:1 7773:1 7792:3 7905:2 7985:1 8261:3 8270:7 8723:1 8878:1 9303:3 9735:1 9993:1 10359:2 10391:4 10403:1 10600:1 10615:1 10665:2 10669:1 10822:1 11018:1 11211:1 11261:1 12528:1 13556:1 13687:1 14351:1 14446:1 14552:2 14893:1 15159:1 15495:1 16427:1 17451:1 17454:1 17517:1 18532:1 19381:1 20847:1 21319:5 21434:1 21815:3 22158:1 23365:1 25336:1 26461:2 26809:1 26862:2 27555:1 30208:1 30869:1 30897:2 30930:1 31666:9 31667:1 31668:1 31669:1 31670:1 31671:4 31672:1 31673:1 31674:1 31675:1 31676:1 31677:1 31678:1 31679:1 31680:1 31681:1 31682:1 31683:1 31684:1 31685:1 31686:1 #
-9.4841963384811834789078766050352e-05 4:2 6:10 8:1 9:36 11:24 15:9 17:3 34:23 39:17 41:2 42:21 46:2 49:7 51:8 60:4 62:2 63:1 64:2 67:2 72:4 77:2 86:10 87:1 91:1 97:1 98:5 102:1 110:11 111:2 117:1 118:1 120:1 121:2 123:12 126:1 127:4 129:3 131:2 138:1 141:1 143:6 149:2 157:3 163:1 168:1 188:3 190:1 202:1 204:1 221:1 229:2 237:1 239:1 243:1 258:1 267:13 279:1 291:2 297:3 298:2 300:2 305:2 318:1 319:2 320:1 328:1 347:1 352:2 354:2 369:1 374:2 382:1 391:1 394:1 406:2 408:2 428:1 438:3 442:1 444:1 480:1 483:3 496:3 509:1 517:2 533:2 557:5 563:1 568:1 571:1 591:1 597:1 599:2 607:3 632:1 638:2 645:1 672:1 714:3 763:2 768:4 771:1 774:1 787:1 802:1 823:2 830:1 836:1 856:2 875:1 878:1 891:1 892:1 908:2 972:1 1017:8 1056:2 1059:1 1069:2 1083:1 1084:1 1098:1 1105:1 1106:1 1149:1 1153:1 1186:1 1195:2 1200:1 1209:1 1214:1 1253:1 1345:1 1392:2 1395:1 1396:1 1403:2 1415:1 1438:3 1455:1 1459:1 1479:1 1485:1 1486:1 1522:1 1541:1 1593:1 1613:1 1624:1 1627:1 1634:1 1666:1 1678:3 1745:1 1765:1 1768:1 1789:2 1812:1 1825:1 1833:1 1888:1 1897:1 1918:1 1946:1 1997:1 2060:1 2077:4 2082:1 2086:2 2151:1 2153:8 2283:3 2292:1 2298:1 2301:3 2306:1 2313:3 2336:2 2366:5 2391:2 2547:4 2565:1 2566:2 2594:3 2721:1 2722:2 2762:1 2805:1 2872:1 2878:1 2954:1 3079:1 3086:1 3151:1 3322:1 3352:1 3360:1 3362:1 3383:1 3386:1 3425:1 3426:1 3428:1 3458:1 3497:3 3517:2 3558:1 3568:1 3603:2 3657:1 3725:1 3731:2 3757:1 3766:1 3769:1 3898:1 4158:1 4165:1 4243:1 4295:1 4341:2 4350:1 4452:1 4537:1 4560:1 4579:1 4687:1 4705:1 4796:1 4904:1 5046:1 5075:1 5082:1 5085:2 5160:1 5161:1 5501:1 5548:1 5552:1 5566:3 5567:6 5568:1 5808:1 5832:1 5833:1 5860:1 5935:1 6215:1 6294:4 6356:1 6515:1 6726:2 6750:2 6874:1 6893:1 7070:2 7274:1 7287:1 7411:1 7425:1 7446:1 7450:1 7521:1 7769:1 7828:1 8060:1 8061:1 8237:2 8336:1 8724:1 9226:1 9432:1 9516:1 9914:9 9915:3 9916:1 9917:1 9918:1 9919:5 9920:4 9921:3 9922:13 9923:1 9924:10 9925:2 9926:1 9927:1 9928:1 9929:2 9930:1 9931:1 9932:1 9933:1 9934:1 9935:1 9936:1 9937:1 9938:4 9939:1 9940:1 9941:1 9942:4 9943:1 9944:1 9945:1 9946:1 9947:1 9948:1 9949:3 9950:2 9951:1 9952:1 9953:1 9954:1 9955:1 9956:1 9957:2 9958:1 9959:1 9960:1 9961:1 9962:1 9963:1 9964:4 9965:5 9966:1 9967:1 9968:1 9969:1 9970:1 9971:1 9972:1 9973:2 9974:1 9975:2 9976:1 9977:1 9978:2 9979:2 9980:1 9981:1 9982:1 9983:1 9984:1 9985:1 9986:1 9987:1 9988:1 9989:1 #
0.00096980903928548531714448621698921 6:1 9:8 11:5 17:1 22:1 34:4 39:3 40:1 41:1 42:3 46:1 49:1 56:4 72:2 86:3 91:1 98:2 110:1 111:1 115:1 123:2 204:1 212:2 251:1 267:1 298:1 333:1 354:1 372:1 394:1 404:1 445:2 533:2 548:1 571:1 607:1 646:2 679:1 714:1 732:1 982:1 987:2 1110:1 1116:1 1187:2 1202:1 1230:2 1383:1 1626:1 1681:1 1732:1 2010:1 2113:1 2372:2 2548:1 2566:3 2968:1 2998:1 3017:2 3122:4 3352:1 4086:3 4287:1 4501:1 4585:4 4709:1 5158:1 6357:1 6992:1 10255:2 11510:2 11512:1 12842:2 14300:2 18459:1 19756:1 20354:1 27050:1 31320:1 31322:1 34369:2 34370:1 34371:1 34372:1 34373:1 34374:1 34375:1 #
-0.00090922278749321668988442324277344 129:1 679:1 4790:2 5023:1 5313:1 5413:1 10325:1 22095:1 25271:1 28408:1 28409:1 28410:1 28411:1 28412:2 28413:1 28414:1 #
-0.0006012228035798394950792178370591 4:1 6:2 9:1 11:2 23:1 33:1 34:1 42:4 46:1 49:1 62:2 86:1 98:1 111:1 123:3 144:1 190:1 200:1 229:1 267:2 345:1 347:1 369:1 413:1 557:1 599:1 679:1 769:2 774:1 787:1 817:1 845:1 944:1 945:1 947:1 1187:1 1251:1 1624:1 1888:1 2413:1 2565:1 2860:1 2975:1 3016:1 3079:2 3090:1 3127:1 3454:1 3724:1 4808:1 6419:1 6700:1 6701:1 6707:1 7809:1 7810:2 10050:1 10285:1 10635:1 12025:1 12786:1 12890:2 13866:1 19596:1 22273:1 23662:1 23663:1 23674:1 #
-4.2836809879788362710566207436358e-05 4:1 6:6 9:12 11:11 15:9 17:2 34:16 39:1 42:7 62:3 69:1 91:4 102:1 107:1 110:1 111:1 117:3 121:1 123:5 127:4 136:1 143:1 188:2 191:1 194:3 213:1 241:1 243:2 244:2 248:1 267:4 300:1 340:1 345:1 362:1 377:1 408:1 440:3 446:2 457:1 471:2 480:1 485:1 496:1 509:1 511:1 517:1 518:1 533:1 537:1 557:1 560:1 577:5 597:1 607:3 621:1 639:1 643:1 650:6 669:1 678:1 679:1 768:1 774:1 843:1 845:1 853:4 862:2 878:2 988:2 1032:1 1181:1 1188:1 1402:2 1495:1 1584:1 1589:1 1634:1 1667:1 1678:1 1722:2 1725:1 1752:1 1753:5 1822:1 1825:1 1831:1 1850:2 1889:1 1937:1 2068:1 2084:2 2088:1 2142:1 2153:3 2339:1 2589:1 2636:1 2651:1 2693:1 2722:5 2732:1 2818:1 2909:1 2960:1 2968:1 2975:1 3040:1 3088:1 3374:1 3383:1 3424:1 3503:1 3628:1 3694:1 3787:2 4202:8 4283:1 4509:1 4593:1 4599:1 4607:2 4732:3 4932:1 4982:1 5052:1 5569:1 6012:1 6033:1 6124:1 7289:2 7941:1 8230:1 8271:1 8542:1 8887:5 9432:1 10781:1 11438:1 12828:1 13413:1 13414:1 13415:4 13416:1 13417:1 13418:1 13419:1 13420:1 13421:1 13422:1 13423:1 13424:1 13425:1 13426:1 13427:1 13428:1 13429:1 #
0.00096980903928548531714448621698921 4:5 6:2 7:1 9:33 10:3 11:22 15:8 17:11 29:1 33:1 34:11 39:1 41:2 42:11 46:1 47:1 48:1 49:3 51:4 60:7 62:1 70:2 72:1 73:1 76:1 77:1 86:4 91:1 98:6 110:3 115:1 116:2 117:2 118:1 119:1 121:6 122:2 123:18 127:2 129:9 130:1 133:1 134:1 143:2 149:2 157:2 188:1 213:2 229:3 243:1 248:4 256:1 259:2 267:5 300:3 303:1 305:1 307:1 313:2 316:1 319:6 354:2 356:1 382:3 394:2 404:1 438:1 444:1 446:1 480:1 482:1 483:1 519:1 532:1 533:7 534:1 560:5 568:1 571:1 637:1 663:1 673:1 684:1 714:10 716:1 747:1 768:1 774:2 785:1 791:1 802:3 856:1 862:1 865:1 878:3 884:1 885:1 886:2 907:1 943:1 945:2 948:1 949:1 963:1 970:2 987:1 1015:1 1021:1 1024:1 1027:1 1046:1 1069:5 1083:1 1085:2 1098:1 1101:1 1105:3 1123:1 1149:1 1185:1 1187:2 1188:1 1191:1 1199:1 1203:1 1226:1 1230:1 1250:1 1253:2 1255:1 1269:3 1365:1 1371:1 1383:1 1402:1 1442:1 1447:1 1459:1 1565:1 1589:1 1621:1 1624:1 1626:1 1631:1 1634:1 1666:1 1710:1 1711:1 1730:1 1815:1 1831:1 1864:1 1892:2 1971:1 1974:1 2051:1 2086:1 2091:1 2132:1 2148:1 2151:1 2181:2 2184:1 2292:1 2366:3 2376:1 2428:1 2454:1 2566:1 2681:1 2721:1 2768:1 2804:1 2902:1 2909:1 2923:1 3018:1 3116:1 3335:1 3355:1 3391:2 3428:1 3489:1 3495:1 3575:1 3668:1 3725:1 3826:1 3904:1 4017:1 4144:1 4149:1 4158:1 4201:1 4361:1 4560:1 4570:1 4606:1 4663:1 4706:1 4726:1 4745:2 4989:1 5158:1 5238:1 5372:1 5551:1 5825:2 5900:1 5960:1 5992:2 6001:1 6155:1 6184:1 6208:1 6222:1 6519:1 6533:1 6602:1 6661:1 6797:1 7244:1 7358:1 7611:1 7626:1 7728:1 7749:1 7942:2 7945:1 8418:1 8457:1 8487:2 8730:1 9666:1 10768:1 10780:1 11967:1 12105:1 13063:2 13292:1 13306:1 13470:2 13688:1 13732:1 13749:1 13759:1 14550:1 14861:2 14876:2 14909:1 15175:1 15319:1 15918:1 15963:1 16910:1 16923:1 17506:1 17508:1 17549:1 17647:3 18968:1 18969:1 18970:1 18971:1 18972:1 18973:1 18974:1 18975:1 18976:1 18977:1 18978:1 18979:1 18980:1 18981:1 18982:1 18983:1 18984:1 18985:1 18986:2 18987:1 18988:1 18989:1 18990:1 18991:1 18992:1 18993:1 18994:1 18995:1 18996:1 18997:1 18998:1 18999:1 19000:1 19001:1 19002:1 19003:1 #
-0.0006003786891932813736538765425621 6:6 7:3 8:2 9:31 10:3 11:20 15:9 17:6 21:1 24:1 33:1 34:11 39:2 42:19 46:2 49:2 51:4 60:1 62:5 67:1 75:2 76:1 77:3 86:3 87:1 91:2 98:3 110:4 115:1 117:1 119:1 121:3 123:5 126:2 127:4 129:2 131:1 138:1 143:1 146:2 157:2 160:1 188:1 193:1 199:4 204:1 213:1 215:3 216:3 217:1 229:1 239:1 243:2 249:1 251:6 256:1 258:2 267:3 294:1 297:1 300:2 354:3 374:1 382:2 402:1 412:1 413:1 430:1 444:1 445:1 446:5 459:5 476:1 480:3 485:1 496:1 533:2 545:1 550:2 557:3 568:1 579:1 591:1 599:1 601:1 607:1 648:1 675:1 679:2 700:1 716:1 726:1 728:1 774:1 785:1 791:1 795:1 796:1 802:7 827:2 853:1 859:1 902:1 914:1 921:6 967:2 986:2 998:1 999:1 1013:1 1021:2 1027:1 1046:2 1056:1 1098:1 1134:1 1187:2 1194:1 1214:1 1226:1 1230:1 1233:2 1249:1 1253:3 1274:1 1482:3 1483:1 1499:3 1528:1 1538:2 1594:1 1600:1 1614:1 1626:1 1662:1 1676:2 1678:2 1680:1 1687:1 1734:1 1783:7 1809:1 1891:1 1972:1 2017:2 2030:1 2034:1 2039:1 2113:1 2127:2 2137:1 2440:2 2502:1 2547:1 2644:1 2673:1 2675:1 2752:1 2758:1 2775:1 2862:1 3028:1 3086:1 3322:7 3373:8 3374:1 3375:1 3376:4 3377:1 3378:1 3379:1 3380:2 3381:12 3382:1 3383:1 3384:1 3385:1 3386:1 3387:1 3388:1 3389:1 3390:3 3391:1 3392:1 3393:1 3394:1 3395:1 3396:2 3397:3 3398:1 3399:2 3400:1 3401:1 3402:1 3403:1 3404:1 3405:1 3406:2 3407:2 3408:2 3409:2 3410:1 3411:1 3412:1 3413:1 3414:1 3415:1 3416:1 3417:1 3418:1 3419:1 3420:1 3421:1 3422:1 3423:1 3424:1 3425:1 3426:1 3427:1 3428:3 3429:1 3430:1 3431:1 3432:1 3433:1 3434:1 3435:1 3436:1 3437:1 3438:1 3439:1 3440:1 3441:1 3442:1 3443:1 3444:1 3445:1 3446:1 3447:1 3448:1 3449:1 3450:1 3451:1 3452:1 3453:1 3454:1 3455:1 3456:1 3457:1 3458:1 3459:1 3460:1 #
0.00096980903928548531714448621698921 4:2 6:1 9:7 11:10 15:7 17:1 22:1 31:1 34:6 42:2 49:2 51:1 62:1 72:1 73:2 77:1 86:4 98:2 110:3 111:1 112:1 119:1 123:6 143:1 148:1 149:1 154:1 169:1 188:2 201:1 212:1 219:1 220:1 249:1 298:4 300:3 324:1 325:1 330:4 331:3 334:4 341:1 368:1 381:3 385:1 394:1 472:1 485:1 543:2 560:1 598:1 607:3 638:1 750:1 843:1 844:1 850:1 862:1 904:3 907:1 985:1 988:1 1019:1 1027:1 1059:1 1126:1 1160:1 1169:1 1178:1 1226:1 1357:1 1421:1 1434:1 1528:1 1653:1 1974:1 2163:1 2174:2 2183:1 2470:1 2575:1 2755:1 2768:1 2940:1 2965:1 2998:1 3246:1 3274:2 3480:1 3548:1 3561:1 3579:1 3633:2 3737:1 3840:1 3925:1 4287:1 4565:2 4739:1 4875:1 4977:2 5164:1 5181:1 5236:1 5251:1 5394:1 6896:1 7358:3 7483:1 7635:1 7728:2 7905:2 10732:1 11510:1 12281:1 14250:1 16619:1 18107:1 18587:1 19458:1 21507:1 25050:1 26641:1 31587:1 34319:1 34320:1 34321:1 34322:1 #
0.00096980903928548531714448621698921 4:3 9:21 11:4 15:8 17:1 20:2 34:7 39:4 42:7 46:1 49:4 51:2 62:5 91:3 110:5 121:3 123:5 125:2 127:2 136:1 138:1 153:1 204:1 229:1 243:1 244:1 251:2 267:8 297:1 298:3 316:1 319:4 340:1 349:1 363:12 374:1 382:1 394:1 396:1 404:2 416:1 430:1 435:1 438:5 446:4 453:4 462:1 479:3 485:2 494:4 533:1 587:1 599:3 607:3 637:3 679:2 772:1 774:1 793:1 871:1 914:1 970:3 978:1 1012:1 1027:3 1056:2 1111:1 1126:1 1188:1 1230:1 1269:5 1402:1 1429:1 1648:1 1662:1 1731:1 1789:1 1830:1 1873:1 1892:1 1970:3 1983:1 1994:1 2000:1 2114:2 2116:1 2306:1 2399:1 2427:1 2537:1 2646:2 2722:1 2732:1 2878:1 2909:1 2960:1 3098:1 3253:1 3255:1 3322:2 3344:1 3426:1 3479:1 3527:1 3579:2 3586:1 3928:1 4253:1 4693:1 4704:1 4792:1 4932:1 5298:1 5557:1 5708:1 5759:1 5989:1 6034:1 6264:1 6571:1 6818:1 7070:1 7197:1 7199:1 7231:1 7246:1 7263:1 7340:1 7351:1 7363:1 7425:2 7620:1 7728:2 8135:1 8295:1 8531:1 8538:1 9120:1 9204:1 9412:3 10144:1 10174:1 11816:1 11982:2 12685:2 12749:1 12921:1 13223:1 13453:2 15517:1 17482:1 18159:1 18258:1 18445:1 18908:1 18967:1 20643:1 20649:1 20650:1 21427:1 21513:1 21618:1 22088:1 22198:1 23227:2 23441:1 24807:1 26003:1 27857:2 27969:1 30688:1 31446:1 32837:12 32838:1 32839:3 32840:1 32841:2 32842:1 32843:3 32844:1 32845:1 32846:1 32847:1 32848:3 32849:1 32850:1 32851:1 32852:1 32853:1 32854:1 32855:1 32856:1 32857:2 32858:1 32859:1 32860:1 32861:1 32862:1 32863:1 32864:1 32865:1 32866:1 #
0.00096980903928548531714448621698921 4:4 6:3 9:19 11:10 15:11 17:3 20:1 33:2 34:16 39:3 41:1 42:9 49:3 51:2 60:1 62:6 64:1 70:1 77:1 86:4 91:1 96:1 98:4 110:2 117:1 123:7 126:1 127:1 129:1 143:1 182:1 188:3 199:1 208:1 213:3 229:2 236:2 244:1 258:1 267:4 298:1 300:1 309:1 322:1 327:1 347:1 354:5 382:1 399:2 438:1 444:1 446:1 453:1 479:1 493:1 494:1 512:2 517:2 560:2 575:1 581:1 585:2 598:1 599:2 607:1 626:2 638:5 642:1 643:1 700:1 702:1 706:1 731:1 769:1 774:1 817:5 836:2 846:1 850:2 871:1 878:1 879:2 886:1 921:4 986:1 1023:1 1024:1 1030:1 1202:1 1206:1 1207:1 1263:1 1360:1 1375:1 1399:1 1417:1 1459:1 1468:1 1545:3 1547:3 1680:1 1702:1 1720:2 1758:1 1796:1 1823:1 1832:2 1850:1 1887:1 1904:1 1924:1 1988:1 2011:2 2028:1 2116:1 2193:1 2287:1 2298:1 2356:1 2502:1 2547:2 2597:1 2598:1 2647:1 2662:1 2672:3 2795:1 2909:1 2944:1 3058:2 3134:1 3322:1 3336:1 3398:1 3574:1 3760:1 3812:2 3865:2 3994:1 4031:1 4232:1 4453:3 4586:1 4599:1 4793:1 4965:1 5004:1 5187:2 5275:1 5284:1 5365:1 5377:1 5400:1 5568:1 5815:1 5849:1 5930:2 6033:1 6665:1 6668:1 6908:1 7120:1 7194:1 7232:4 7465:1 7759:1 7799:1 7895:1 8305:1 8394:1 8419:1 8727:1 9022:1 9127:1 9166:3 11214:1 11379:1 11408:1 12692:1 13941:1 14009:1 14095:1 14818:1 15171:1 16917:9 16918:1 16919:2 16920:2 16921:1 16922:1 16923:1 16924:2 16925:1 16926:1 16927:4 16928:1 16929:1 16930:1 16931:1 16932:1 16933:1 16934:1 16935:1 16936:1 16937:1 #
-4.1280906989448807632714366633309e-05 4:1 6:5 9:11 11:5 15:4 17:3 18:3 21:1 34:2 39:4 42:4 48:1 49:1 51:7 60:1 62:1 72:1 73:1 86:2 93:1 109:1 110:2 111:1 115:1 117:3 121:2 123:1 126:1 127:1 148:1 149:1 188:2 199:1 219:1 220:1 267:1 286:2 297:1 298:1 300:1 303:1 322:1 326:1 341:2 391:1 421:1 476:2 480:1 533:1 542:1 545:1 553:1 560:1 585:2 596:1 598:1 684:1 754:2 759:2 763:1 782:2 791:1 796:3 802:1 810:1 827:1 856:1 870:1 921:2 961:1 964:2 1003:1 1046:1 1187:1 1206:1 1253:1 1269:1 1379:6 1415:1 1423:3 1431:1 1464:5 1470:5 1477:2 1496:1 1499:1 1500:1 1621:1 1648:1 1673:1 1701:1 1714:1 1756:2 2160:1 2187:1 2277:1 2292:1 2421:1 2520:1 2617:1 2765:1 2774:1 2820:2 2853:1 3073:1 3075:1 3318:1 3456:1 3575:1 3902:1 3913:1 4007:1 4826:1 5167:1 5388:1 5776:1 6231:1 6279:1 6342:1 7246:1 7758:1 8425:1 8572:1 8916:1 11069:1 11255:1 12940:3 14913:1 15506:1 16517:1 17570:1 17571:1 19246:1 19247:2 19248:1 19249:3 19250:1 19251:1 19252:1 #
