SVM-light Version V6.02
0 # kernel type
3 # kernel parameter -d 
1 # kernel parameter -g 
1 # kernel parameter -s 
1 # kernel parameter -r 
empty# kernel parameter -u 
5632 # highest feature index 
2638 # number of training documents 
896 # number of support vectors plus 1 
0.94282895 # threshold b, each following line is a SV (starting with alpha*y)
-0.019522388741150888818998154761175 21:1 100:1 553:1 672:1 766:1 1991:1 1992:1 #
-0.017745794926591888784894734953923 19:1 2519:1 3728:1 4313:1 4703:1 4947:1 #
-0.019358924037047545163581219185289 16:1 17:1 18:1 19:1 20:1 21:1 22:1 #
-0.01185372244408210325172792209969 23:1 24:1 25:1 26:1 27:1 28:1 29:1 30:1 31:1 #
-0.039837961330030591255990657373331 184:1 398:1 3575:1 #
0.13183993027623330807074353288044 6:1 124:1 125:1 126:1 127:1 128:1 129:1 130:1 131:1 132:1 133:1 #
0.13183993027623330807074353288044 14:1 42:1 67:1 210:1 211:1 212:1 213:1 214:1 215:1 #
0.13183993027623330807074353288044 96:1 307:1 308:1 309:1 310:1 311:1 #
0.13183993027623330807074353288044 355:1 356:1 #
0.13183993027623330807074353288044 6:1 19:1 461:1 462:1 463:1 464:1 465:1 466:1 467:1 468:1 #
-0.016516807110967823141178811852114 42:1 55:1 64:1 67:1 467:1 2538:1 3350:1 3795:1 3796:1 3797:1 3798:1 #
-0.048394816129605888743725472522783 19:1 124:1 328:1 357:1 965:1 1020:1 1375:1 1435:1 2245:1 #
-0.033597354885356527087747480209146 6:1 42:1 355:1 421:1 459:1 611:1 1127:1 1425:1 1426:1 1427:1 1428:1 #
-0.0030745829064051321231898494801271 626:1 899:1 2252:1 2310:1 4159:1 4160:1 #
-0.031468515953746598046159022032953 6:1 42:1 67:1 629:1 1033:1 1531:1 1840:1 1962:1 4371:1 #
0.13183993027623330807074353288044 4:1 21:1 72:1 93:1 222:1 332:1 939:1 2518:1 4219:1 4264:1 4265:1 4266:1 #
0.13183993027623330807074353288044 19:1 21:1 64:1 251:1 453:1 679:1 1040:1 2604:1 5264:1 #
0.13183993027623330807074353288044 19:1 23:1 530:1 #
0.13183993027623330807074353288044 6:1 21:1 38:1 73:1 260:1 939:1 2069:1 3382:1 3383:1 #
-0.033631141030349469278615259781873 19:1 453:1 679:1 2849:1 5184:1 5185:1 #
-0.016197066139366618486850057934134 19:1 453:1 679:1 980:1 985:1 5209:1 5210:1 #
-0.0022876574374520544132016741656344 37:1 42:1 344:1 971:1 2519:1 2655:1 #
-0.13183993027623330807074353288044 19:1 939:1 1293:1 3409:1 5473:1 5474:1 #
-0.011598825735709561088326857714037 21:1 150:1 224:1 258:1 259:1 260:1 261:1 262:1 #
0.13183993027623330807074353288044 42:1 55:1 67:1 143:1 488:1 1062:1 2969:1 #
0.13183993027623330807074353288044 6:1 42:1 489:1 620:1 682:1 2287:1 2536:1 3056:1 3057:1 3058:1 3059:1 #
0.13183993027623330807074353288044 42:1 67:1 398:1 766:1 2077:1 3445:1 4973:1 4974:1 4975:1 #
0.13183993027623330807074353288044 42:1 67:1 398:1 701:1 766:1 933:1 1312:1 3279:1 5140:1 #
0.13183993027623330807074353288044 42:1 55:1 587:1 1038:1 1053:1 1893:1 1981:1 #
-0.0076450175573952042565317732680796 6:1 42:1 143:1 152:1 251:1 762:1 763:1 764:1 765:1 766:1 767:1 #
-0.013721021593676404823347603212369 42:1 55:1 64:1 67:1 129:1 798:1 1451:1 3508:1 3831:1 5407:1 5408:1 5409:1 #
-0.021175771140481684795542349775133 42:1 67:1 766:1 780:1 1027:1 3950:1 4429:1 4430:1 4431:1 #
-0.014111046915478240443286850336335 42:1 67:1 766:1 1105:1 1369:1 2012:1 4211:1 4885:1 4886:1 #
-0.026174530881224844502952464608825 21:1 42:1 64:1 67:1 90:1 96:1 240:1 587:1 1311:1 3308:1 4573:1 5300:1 5301:1 5302:1 #
0.13183993027623330807074353288044 19:1 64:1 1257:1 1728:1 #
0.13183993027623330807074353288044 6:1 19:1 44:1 50:1 73:1 104:1 355:1 1437:1 2516:1 2517:1 #
0.13183993027623330807074353288044 19:1 80:1 136:1 419:1 786:1 787:1 788:1 789:1 #
0.13183993027623330807074353288044 19:1 90:1 235:1 758:1 759:1 930:1 1309:1 #
0.13183993027623330807074353288044 19:1 80:1 1634:1 1635:1 1636:1 1637:1 #
-0.025915624680433641674470734983515 19:1 80:1 90:1 235:1 436:1 873:1 983:1 1946:1 2654:1 #
-0.0059704882477234896484552528761469 6:1 14:1 142:1 282:1 691:1 985:1 1793:1 3981:1 #
-0.0051635963430718906722050043356376 47:1 663:1 684:1 701:1 2155:1 2156:1 2157:1 2158:1 2159:1 #
-0.03904193956944057575242368329782 151:1 921:1 1650:1 #
-0.011686064656795660740562503576712 64:1 90:1 684:1 722:1 822:1 947:1 1998:1 5429:1 5430:1 5431:1 5432:1 5433:1 #
0.13183993027623330807074353288044 13:1 21:1 42:1 282:1 365:1 616:1 834:1 4421:1 4531:1 #
0.10922930409492101477830772182642 6:1 42:1 67:1 939:1 1288:1 1289:1 1290:1 1291:1 1292:1 1293:1 1294:1 #
0.13183993027623330807074353288044 21:1 42:1 90:1 142:1 255:1 290:1 365:1 734:1 735:1 764:1 1292:1 2489:1 3251:1 #
0.13183993027623330807074353288044 21:1 42:1 142:1 448:1 587:1 629:1 2072:1 4151:1 4773:1 #
0.13183993027623330807074353288044 8:1 64:1 67:1 774:1 1032:1 1231:1 2793:1 3610:1 #
-0.013208782346595678014455899074164 21:1 42:1 167:1 365:1 987:1 2077:1 2680:1 4208:1 #
-0.0091597292867364316082401387575374 4:1 60:1 67:1 206:1 1122:1 1905:1 1906:1 1907:1 1908:1 1909:1 #
-0.0071560061186521509504765425901951 4:1 19:1 120:1 192:1 2238:1 3135:1 3136:1 3137:1 3138:1 3139:1 3140:1 #
-0.02172780912068196165765066041331 21:1 42:1 398:1 1014:1 2523:1 2593:1 3448:1 4760:1 5487:1 #
-0.035976657586758956086647742722562 21:1 42:1 64:1 260:1 587:1 612:1 5255:1 5256:1 #
0.13183993027623330807074353288044 19:1 1476:1 3190:1 3339:1 3543:1 3544:1 #
0.13183993027623330807074353288044 19:1 441:1 684:1 951:1 2569:1 3069:1 3255:1 3257:1 3841:1 3842:1 #
0.13183993027623330807074353288044 19:1 335:1 2337:1 #
0.13183993027623330807074353288044 19:1 86:1 185:1 187:1 1334:1 1647:1 1942:1 4687:1 4688:1 4689:1 4690:1 #
0.13183993027623330807074353288044 19:1 67:1 273:1 684:1 750:1 1467:1 1609:1 1610:1 1611:1 1612:1 1613:1 1614:1 #
-0.01992243417599808344431444595557 19:1 44:1 67:1 1092:1 1169:1 1292:1 1353:1 2062:1 2777:1 5347:1 5348:1 #
-0.048220429896921747359161969370689 19:1 53:1 67:1 251:1 2609:1 3190:1 #
-0.0088515479890243775606961662560934 386:1 837:1 875:1 2680:1 4976:1 4977:1 #
-0.040921266988302978928615516451828 67:1 648:1 680:1 681:1 682:1 683:1 684:1 685:1 #
-0.0082670407604076307644946908226302 67:1 142:1 448:1 542:1 782:1 1467:1 5596:1 5597:1 #
0.13183993027623330807074353288044 42:1 80:1 152:1 312:1 1807:1 2123:1 2691:1 2692:1 2693:1 2694:1 2695:1 2696:1 #
0.13183993027623330807074353288044 6:1 21:1 28:1 355:1 1116:1 2591:1 2592:1 2593:1 2594:1 #
0.13183993027623330807074353288044 21:1 129:1 152:1 1576:1 2146:1 2497:1 3554:1 4632:1 #
0.13183993027623330807074353288044 6:1 42:1 210:1 1006:1 1999:1 2829:1 3274:1 4519:1 4520:1 #
0.13183993027623330807074353288044 42:1 587:1 847:1 2025:1 2955:1 2956:1 #
-0.011377809985735521866589969874894 1690:1 2667:1 2668:1 2669:1 2670:1 #
-0.013029620854737595375683056886373 6:1 14:1 568:1 587:1 639:1 1006:1 1308:1 1561:1 2536:1 #
-0.020592057395609056347218768223684 6:1 73:1 152:1 427:1 461:1 818:1 1985:1 2738:1 4786:1 #
-0.05569727104824521990433794371711 6:1 104:1 484:1 607:1 1038:1 1040:1 1041:1 2626:1 #
-0.0056665113798159815611255041289951 6:1 104:1 528:1 607:1 1053:1 1055:1 1214:1 1350:1 1636:1 #
0.13183993027623330807074353288044 19:1 42:1 64:1 67:1 90:1 740:1 809:1 1619:1 2452:1 2453:1 2454:1 2455:1 2456:1 2457:1 #
0.13183993027623330807074353288044 17:1 67:1 90:1 1739:1 1993:1 1994:1 1995:1 1996:1 1997:1 #
0.13183993027623330807074353288044 67:1 90:1 129:1 319:1 398:1 582:1 611:1 678:1 766:1 1765:1 2473:1 3547:1 4969:1 #
0.13183993027623330807074353288044 25:1 67:1 1433:1 1909:1 3927:1 5574:1 5575:1 5576:1 #
0.13183993027623330807074353288044 14:1 67:1 90:1 578:1 1721:1 1722:1 1723:1 1724:1 1725:1 1726:1 1727:1 #
-0.018151747451942590316775749670342 90:1 129:1 781:1 1231:1 2840:1 3539:1 3540:1 3541:1 3542:1 #
-0.078373590531183368046441728438367 17:1 65:1 67:1 90:1 98:1 129:1 2518:1 4178:1 4179:1 4180:1 4181:1 #
-0.074306742393821581527113551146613 90:1 200:1 312:1 398:1 684:1 1772:1 3966:1 3969:1 3970:1 #
-0.032224880267517685972222807322396 42:1 72:1 90:1 599:1 1013:1 1249:1 1804:1 1805:1 1806:1 1807:1 #
-0.13183993027623330807074353288044 55:1 90:1 142:1 231:1 467:1 692:1 757:1 758:1 759:1 760:1 761:1 #
0.13183993027623330807074353288044 6:1 44:1 427:1 578:1 2050:1 2826:1 3407:1 3731:1 4991:1 4992:1 5257:1 5258:1 #
0.13183993027623330807074353288044 6:1 67:1 100:1 136:1 473:1 628:1 730:1 744:1 1002:1 3193:1 3194:1 #
0.13183993027623330807074353288044 6:1 73:1 75:1 4941:1 4942:1 4943:1 4944:1 #
0.13183993027623330807074353288044 6:1 64:1 268:1 1451:1 #
0.13183993027623330807074353288044 6:1 20:1 976:1 1053:1 1166:1 3872:1 3873:1 #
-0.13183993027623330807074353288044 67:1 268:1 355:1 566:1 611:1 781:1 976:1 1166:1 1431:1 1433:1 1434:1 #
-0.015065594769422784027224082592511 42:1 75:1 184:1 661:1 740:1 766:1 1726:1 2958:1 3211:1 3601:1 3602:1 #
-0.0072432249647016401158938769810902 6:1 44:1 67:1 143:1 282:1 611:1 740:1 828:1 2989:1 3444:1 3445:1 3446:1 #
-0.0011857087847127606439201485954982 6:1 42:1 64:1 73:1 844:1 845:1 846:1 847:1 #
-0.010127305195979728613675519000026 7:1 19:1 106:1 115:1 1960:1 3147:1 3255:1 #
0.13183993027623330807074353288044 19:1 90:1 566:1 1040:1 5196:1 5197:1 5198:1 5199:1 #
0.13183993027623330807074353288044 14:1 42:1 80:1 90:1 939:1 1466:1 2254:1 2255:1 2256:1 2257:1 #
0.13183993027623330807074353288044 42:1 251:1 312:1 2104:1 2105:1 2106:1 #
0.13183993027623330807074353288044 42:1 90:1 206:1 339:1 803:1 819:1 939:1 1293:1 3061:1 3902:1 #
0.13183993027623330807074353288044 90:1 774:1 775:1 776:1 777:1 #
-0.10934521068050719050379626651193 19:1 42:1 1053:1 1365:1 1540:1 3069:1 3274:1 3299:1 3304:1 3474:1 #
-0.089539022023847170128618699891376 14:1 64:1 90:1 185:1 187:1 251:1 1716:1 1996:1 2064:1 3338:1 3339:1 #
-0.068465022530086530605508698954509 19:1 42:1 559:1 1576:1 3566:1 3915:1 4991:1 5592:1 #
-0.0062354698586903735749165100799019 271:1 2570:1 2571:1 2572:1 2573:1 2574:1 2575:1 #
-0.049699610788242754022547842396307 42:1 124:1 1020:1 1726:1 1894:1 2173:1 2174:1 2175:1 #
0.13183993027623330807074353288044 6:1 67:1 274:1 757:1 2492:1 2493:1 2494:1 2495:1 2496:1 2497:1 #
0.13183993027623330807074353288044 64:1 67:1 758:1 759:1 2541:1 2542:1 2543:1 2544:1 #
0.13183993027623330807074353288044 67:1 129:1 270:1 398:1 423:1 766:1 1256:1 1433:1 1765:1 5581:1 5582:1 5583:1 #
0.13183993027623330807074353288044 6:1 67:1 124:1 274:1 722:1 1257:1 1851:1 2330:1 4794:1 4795:1 4796:1 4797:1 #
0.13183993027623330807074353288044 6:1 615:1 616:1 960:1 #
-0.018874494391648358182500544444338 6:1 19:1 60:1 67:1 210:1 991:1 1257:1 4016:1 5523:1 5629:1 5630:1 5631:1 #
-0.022506624257711327352637908916222 628:1 1435:1 4017:1 5488:1 5489:1 #
-0.044666524020744627354595479573618 67:1 330:1 331:1 332:1 333:1 334:1 335:1 #
-0.13183993027623330807074353288044 13:1 94:1 124:1 206:1 616:1 759:1 1000:1 1654:1 2567:1 #
-0.014416504339312507035342214578577 19:1 1057:1 3407:1 4718:1 4719:1 4720:1 4721:1 #
0.13183993027623330807074353288044 19:1 42:1 1166:1 1226:1 3757:1 #
0.13183993027623330807074353288044 42:1 566:1 1019:1 1020:1 1021:1 1022:1 1023:1 1024:1 1025:1 #
0.13183993027623330807074353288044 42:1 55:1 810:1 1481:1 1809:1 2170:1 3000:1 3001:1 3002:1 #
0.13183993027623330807074353288044 14:1 42:1 72:1 378:1 573:1 1292:1 2407:1 2408:1 2409:1 #
-0.050831084585703720235549951667053 42:1 312:1 566:1 689:1 788:1 1535:1 2326:1 3768:1 #
-0.035260196493035682319128198969338 42:1 74:1 241:1 321:1 926:1 1292:1 2022:1 3623:1 3624:1 3625:1 #
-0.011546627630639703931958450766615 6:1 17:1 19:1 100:1 143:1 2726:1 4645:1 4646:1 4647:1 #
-0.089058755175909512513676702383236 42:1 530:1 531:1 532:1 533:1 #
-0.019490191364706633408987457301009 42:1 86:1 173:1 174:1 826:1 1793:1 1999:1 2435:1 3201:1 3202:1 #
0.13183993027623330807074353288044 60:1 124:1 611:1 4767:1 4768:1 4769:1 4770:1 #
0.13183993027623330807074353288044 64:1 142:1 185:1 599:1 1333:1 1334:1 1335:1 1336:1 1337:1 1338:1 1339:1 #
0.13183993027623330807074353288044 328:1 441:1 607:1 741:1 1315:1 2568:1 4991:1 4992:1 4993:1 #
-0.0051307770407502039863856246881824 8:1 44:1 467:1 664:1 2724:1 2725:1 2726:1 #
-0.00086112281958922870517270098389417 14:1 42:1 174:1 185:1 360:1 361:1 362:1 363:1 364:1 365:1 366:1 #
-0.030752153369847205766074438315627 72:1 248:1 768:1 1155:1 2497:1 3254:1 5183:1 #
-0.00041539340756031081607069221917072 6:1 297:1 687:1 1659:1 4594:1 4595:1 #
-0.0020457491068590679533789611355132 64:1 185:1 213:1 274:1 657:1 1622:1 3555:1 3832:1 3833:1 3834:1 3835:1 #
0.13183993027623330807074353288044 156:1 174:1 282:1 566:1 1365:1 1531:1 3299:1 5610:1 5611:1 5612:1 #
0.13183993027623330807074353288044 42:1 186:1 302:1 1257:1 2786:1 5180:1 5181:1 #
0.13183993027623330807074353288044 42:1 55:1 100:1 467:1 951:1 1476:1 2653:1 2689:1 3502:1 #
0.13183993027623330807074353288044 198:1 701:1 1195:1 1793:1 3173:1 3174:1 3175:1 3176:1 3177:1 #
-0.0087631927894146685598109058901173 55:1 184:1 186:1 933:1 2816:1 2817:1 2818:1 2819:1 2820:1 #
-0.025812158767080220500567122599023 44:1 362:1 615:1 1257:1 1793:1 4149:1 4150:1 4151:1 #
-0.033051584331723483922704787119073 6:1 114:1 566:1 665:1 1021:1 2095:1 2190:1 2223:1 5182:1 #
-0.068249298793038121191401046417013 55:1 100:1 408:1 968:1 1006:1 1038:1 1226:1 5371:1 #
-0.11714410493855552386488483307403 42:1 467:1 950:1 951:1 952:1 #
0.13183993027623330807074353288044 64:1 96:1 170:1 2713:1 2714:1 2715:1 #
0.13183993027623330807074353288044 64:1 182:1 1005:1 2349:1 2350:1 2351:1 #
0.13183993027623330807074353288044 64:1 1510:1 2216:1 2420:1 5146:1 #
0.13183993027623330807074353288044 64:1 152:1 489:1 1509:1 4114:1 #
0.13183993027623330807074353288044 193:1 248:1 274:1 457:1 489:1 3468:1 3469:1 3470:1 3471:1 #
-0.023127441481499907971475238355197 64:1 91:1 129:1 170:1 656:1 779:1 1106:1 1107:1 1108:1 1109:1 #
-0.047059716935322223885229675488517 64:1 72:1 88:1 398:1 810:1 1772:1 3803:1 3804:1 3805:1 3806:1 3807:1 #
-0.015107505332616469329032327095774 64:1 185:1 207:1 2335:1 2336:1 2337:1 2338:1 2339:1 2340:1 #
-0.02511649258179382560030035165255 64:1 90:1 178:1 185:1 198:1 312:1 486:1 986:1 1287:1 1931:1 5162:1 #
-0.048504673062455483378840881414362 14:1 64:1 90:1 129:1 213:1 701:1 1831:1 3389:1 3390:1 3391:1 3392:1 #
0.13183993027623330807074353288044 6:1 90:1 533:1 1067:1 1451:1 2153:1 2957:1 2958:1 2959:1 2960:1 #
0.13183993027623330807074353288044 968:1 1772:1 2755:1 #
0.13183993027623330807074353288044 19:1 530:1 #
0.13183993027623330807074353288044 100:1 2891:1 3283:1 4011:1 #
-0.03713577314480880769975712496489 282:1 964:1 2891:1 2934:1 2935:1 #
-0.041156537047309330046296338423417 89:1 654:1 2216:1 2690:1 2786:1 2787:1 #
-0.087158881853258096672476540334173 4:1 80:1 489:1 800:1 2465:1 3287:1 3288:1 3289:1 3290:1 3291:1 #
-0.00040210304778639144361943036365403 136:1 182:1 463:1 563:1 826:1 992:1 1176:1 2197:1 2536:1 3733:1 3808:1 3809:1 #
-0.048203139669707108228013936468415 93:1 282:1 1247:1 3971:1 3972:1 3973:1 #
0.13183993027623330807074353288044 185:1 684:1 1973:1 3257:1 4137:1 4839:1 5549:1 5550:1 5551:1 5552:1 #
0.13183993027623330807074353288044 49:1 64:1 932:1 1292:1 2372:1 2373:1 2374:1 2375:1 2376:1 2377:1 #
0.13183993027623330807074353288044 312:1 684:1 2694:1 3105:1 3106:1 3107:1 3108:1 3109:1 3110:1 #
0.13183993027623330807074353288044 10:1 109:1 5587:1 5588:1 5589:1 #
0.13183993027623330807074353288044 4:1 28:1 67:1 597:1 740:1 1038:1 1053:1 1116:1 2712:1 5404:1 5405:1 #
-0.009476167914286647009358688364955 19:1 67:1 156:1 1437:1 2308:1 2467:1 2543:1 4260:1 4261:1 #
-0.041180511920753712362675003078039 67:1 1334:1 1437:1 4873:1 4874:1 4875:1 4876:1 4877:1 4878:1 #
-0.091495768157794837849294822262891 21:1 161:1 354:1 1292:1 1781:1 2516:1 3164:1 #
-0.020996180557545096601046452633454 312:1 661:1 1506:1 1507:1 1508:1 1509:1 1510:1 #
-0.01001854766761928194895858723612 32:1 72:1 96:1 365:1 369:1 549:1 564:1 1912:1 4764:1 4765:1 4766:1 #
0.13183993027623330807074353288044 129:1 282:1 1976:1 1977:1 1978:1 1979:1 #
0.13183993027623330807074353288044 46:1 654:1 1922:1 5586:1 #
0.13183993027623330807074353288044 88:1 909:1 1462:1 2954:1 #
0.13183993027623330807074353288044 2395:1 2526:1 2810:1 4912:1 4913:1 #
0.13183993027623330807074353288044 892:1 3708:1 3781:1 5066:1 5067:1 5068:1 5069:1 #
-0.035510662554230909560004647573805 349:1 684:1 1554:1 1604:1 1724:1 1818:1 3879:1 4985:1 5329:1 #
-0.13183993027623330807074353288044 1053:1 3428:1 #
-0.021425893750866786824360588070704 821:1 896:1 1053:1 1572:1 2631:1 3481:1 3482:1 #
-0.026695425324874122452456504106522 48:1 49:1 149:1 678:1 3160:1 3161:1 #
-0.030203631093459294004732740290819 349:1 577:1 578:1 579:1 580:1 #
0.13183993027623330807074353288044 19:1 185:1 308:1 5585:1 #
0.13183993027623330807074353288044 6:1 111:1 241:1 557:1 741:1 1481:1 1879:1 1880:1 1881:1 1882:1 1883:1 #
0.13183993027623330807074353288044 21:1 210:1 545:1 1390:1 3068:1 3069:1 3070:1 3071:1 #
-0.032628075637329723157620264828438 42:1 77:1 210:1 1005:1 1596:1 2306:1 #
-0.049467344508734911734393335791538 6:1 42:1 75:1 266:1 714:1 1116:1 1560:1 2506:1 3228:1 3229:1 #
-0.065275984751522089788444702662673 10:1 42:1 1114:1 1115:1 1116:1 1117:1 #
-0.046630185053578368514770602359931 42:1 60:1 525:1 892:1 3781:1 5294:1 5295:1 #
-0.01990772353784951015365223270237 210:1 231:1 369:1 587:1 1333:1 1728:1 1857:1 2050:1 2276:1 5458:1 #
0.13183993027623330807074353288044 67:1 96:1 696:1 697:1 698:1 #
0.13183993027623330807074353288044 67:1 192:1 566:1 604:1 2120:1 2604:1 #
0.13183993027623330807074353288044 17:1 355:1 375:1 817:1 874:1 1437:1 1603:1 4540:1 4541:1 4542:1 #
0.13183993027623330807074353288044 175:1 2016:1 2017:1 2018:1 #
0.13183993027623330807074353288044 828:1 2185:1 2684:1 2685:1 #
-0.10400286761610275099165789924882 67:1 111:1 489:1 804:1 1020:1 1385:1 4881:1 #
-0.051039013083776729740037580995704 191:1 192:1 193:1 194:1 #
-0.030362215643240212520348464408926 339:1 566:1 1175:1 1270:1 1363:1 1864:1 2118:1 2119:1 2120:1 #
-0.039326938616844379914549989507577 67:1 376:1 740:1 1390:1 2343:1 2344:1 #
-0.034517788844159402739109054891742 21:1 46:1 1920:1 1921:1 1922:1 1923:1 1924:1 #
0.13183993027623330807074353288044 42:1 124:1 328:1 401:1 3772:1 3773:1 3774:1 3775:1 #
0.13183993027623330807074353288044 42:1 126:1 129:1 198:1 339:1 440:1 1165:1 1312:1 1363:1 1572:1 1644:1 4919:1 4920:1 4921:1 #
0.13183993027623330807074353288044 6:1 42:1 288:1 355:1 802:1 1319:1 1512:1 1849:1 2107:1 4855:1 4856:1 4857:1 4858:1 #
-0.013906546314861434332499356969493 6:1 438:1 439:1 440:1 441:1 442:1 443:1 444:1 445:1 446:1 447:1 #
-0.0050683402671000713987647934288816 21:1 42:1 213:1 505:1 1686:1 2489:1 3299:1 5022:1 5616:1 5617:1 #
-0.018868765345902843710845786517893 6:1 104:1 198:1 328:1 490:1 608:1 741:1 1018:1 1212:1 1708:1 #
-0.0074263807740928729217433357234768 42:1 388:1 1038:1 2744:1 3386:1 4600:1 #
-0.13183993027623330807074353288044 268:1 355:1 1437:1 2832:1 4198:1 4199:1 #
0.13183993027623330807074353288044 1020:1 1540:1 3766:1 3767:1 #
0.13183993027623330807074353288044 21:1 120:1 1116:1 1732:1 5088:1 5089:1 5090:1 #
0.13183993027623330807074353288044 173:1 318:1 882:1 4623:1 4624:1 4625:1 4626:1 #
0.13183993027623330807074353288044 2243:1 2244:1 #
0.13183993027623330807074353288044 21:1 1002:1 2676:1 2706:1 2707:1 2708:1 2709:1 #
-0.076447371037248551539633467655221 21:1 124:1 434:1 874:1 1575:1 1588:1 1589:1 1590:1 #
-0.020013026701653807704062160155445 21:1 175:1 2174:1 3610:1 4838:1 4839:1 #
-0.019411101537355646140525777809671 21:1 932:1 2098:1 2327:1 2328:1 2329:1 2330:1 2331:1 #
-0.0042911547557299423161225604417268 48:1 142:1 1271:1 2760:1 2761:1 #
-0.031717593345517949843248572960874 129:1 168:1 286:1 2151:1 2420:1 2421:1 2422:1 2423:1 #
0.13183993027623330807074353288044 6:1 73:1 118:1 489:1 1376:1 1377:1 #
0.13183993027623330807074353288044 6:1 960:1 1276:1 1718:1 #
0.13183993027623330807074353288044 6:1 124:1 837:1 838:1 839:1 #
-0.049249740618775440792465047934456 6:1 73:1 1002:1 1685:1 2315:1 2316:1 2317:1 #
-0.054968655436591795648837432963774 6:1 73:1 152:1 441:1 757:1 954:1 1443:1 #
-0.068703514237383633833644580590772 6:1 1187:1 1257:1 5551:1 5561:1 5562:1 #
-0.067360493522474321204107639005088 6:1 1195:1 1564:1 1765:1 2775:1 2898:1 2899:1 #
-0.024378511530796453943281676401966 6:1 620:1 733:1 904:1 905:1 906:1 907:1 908:1 909:1 #
0.13183993027623330807074353288044 265:1 272:1 437:1 995:1 3363:1 #
0.13183993027623330807074353288044 968:1 2157:1 2478:1 3578:1 3579:1 #
0.13183993027623330807074353288044 968:1 2998:1 3190:1 4409:1 4410:1 4411:1 #
0.13183993027623330807074353288044 80:1 758:1 759:1 2599:1 2600:1 2601:1 2602:1 #
-0.020553707271420029734088075201726 429:1 606:1 968:1 1475:1 1476:1 1477:1 1478:1 #
-0.032654730901923362251793037103198 393:1 452:1 456:1 968:1 1042:1 1389:1 3927:1 #
-0.043670253587779372939081667936989 968:1 1088:1 2755:1 5041:1 #
-0.019203279687035324646560141559348 102:1 967:1 968:1 969:1 970:1 #
-0.010260804677739387286150574141175 968:1 1569:1 2573:1 2649:1 3296:1 #
0.13183993027623330807074353288044 6:1 21:1 38:1 73:1 260:1 939:1 2069:1 3382:1 3383:1 #
-0.063226782931800423748214257102518 19:1 124:1 1020:1 2259:1 2282:1 2992:1 3249:1 3250:1 #
-0.028038033686103393249400284048534 19:1 113:1 118:1 136:1 318:1 2086:1 2785:1 2795:1 2796:1 2797:1 2798:1 #
-0.072875406171975284919106741199357 67:1 111:1 124:1 406:1 1087:1 1904:1 2384:1 #
-0.016782303476983811973965998731728 111:1 124:1 190:1 704:1 1667:1 1865:1 2384:1 #
-0.002008753715255060749017568255681 111:1 288:1 738:1 2999:1 3068:1 3536:1 #
0.13183993027623330807074353288044 757:1 1555:1 2493:1 5243:1 5453:1 5454:1 5455:1 5456:1 #
0.13183993027623330807074353288044 566:1 785:1 #
0.13183993027623330807074353288044 365:1 616:1 889:1 2835:1 #
0.13183993027623330807074353288044 968:1 2407:1 4331:1 #
0.13183993027623330807074353288044 64:1 774:1 4310:1 5289:1 5290:1 #
-0.0029449422327853941316888608525915 611:1 774:1 2319:1 2552:1 3474:1 3864:1 3865:1 3866:1 #
-0.008124776427271097195559335091275 2700:1 3610:1 4125:1 4126:1 4127:1 #
-0.026315876585495372869116792458044 566:1 2468:1 2469:1 4374:1 4375:1 4376:1 4377:1 #
-0.021380406713515116151613781880769 566:1 916:1 3837:1 4474:1 4475:1 #
-0.084306773672773449579409543730435 616:1 1980:1 #
0.13183993027623330807074353288044 124:1 558:1 1650:1 2116:1 2779:1 2780:1 #
0.13183993027623330807074353288044 124:1 1292:1 1351:1 1745:1 4082:1 #
-0.00688941276121257661912977710017 1830:1 2791:1 2967:1 #
-0.046929047809523539991349849742619 1467:1 1609:1 1614:1 3755:1 4458:1 5291:1 5292:1 #
-0.017450964394113852029555289391283 968:1 1650:1 3220:1 4393:1 4394:1 4395:1 4396:1 4397:1 4398:1 #
-0.0054686990708228393892609275894756 6:1 42:1 73:1 163:1 412:1 413:1 414:1 415:1 #
-0.026448057283119066895871185352007 400:1 498:1 1002:1 1538:1 1539:1 1540:1 #
0.13183993027623330807074353288044 98:1 131:1 323:1 824:1 1013:1 1665:1 2592:1 2768:1 4420:1 4421:1 #
0.13183993027623330807074353288044 90:1 355:1 428:1 824:1 1037:1 1548:1 1576:1 2115:1 3026:1 3027:1 3028:1 #
0.13183993027623330807074353288044 489:1 812:1 1006:1 2361:1 #
-0.086782312638649466984830382898508 67:1 72:1 355:1 388:1 695:1 1427:1 1459:1 2361:1 4233:1 4871:1 #
-0.021743236329575574283801131514338 67:1 90:1 129:1 1203:1 1998:1 2150:1 2699:1 2700:1 2701:1 2702:1 2703:1 #
-0.053007463078524330590823865350103 42:1 67:1 90:1 185:1 587:1 611:1 774:1 1451:1 1471:1 1996:1 2823:1 3349:1 3350:1 3351:1 #
-0.060862261734286458858544932581935 19:1 64:1 67:1 767:1 774:1 776:1 1395:1 1674:1 2920:1 4399:1 4400:1 #
-0.037770327670468478720167126994056 38:1 67:1 407:1 2938:1 2939:1 2940:1 2941:1 #
0.13183993027623330807074353288044 684:1 2143:1 2144:1 2145:1 2146:1 2147:1 #
0.13183993027623330807074353288044 759:1 1739:1 1740:1 1741:1 #
-0.041988410527621436441059188382496 409:1 505:1 759:1 769:1 1767:1 2380:1 #
-0.031477333434916855703367133401116 75:1 557:1 684:1 1098:1 1122:1 4254:1 #
-0.051514643170130922089633429550304 4:1 40:1 348:1 759:1 1492:1 1493:1 #
-0.069470802457703692556201247043646 88:1 274:1 824:1 909:1 1572:1 2359:1 4012:1 5103:1 #
-0.054966049091800278647568234191567 417:1 684:1 858:1 2864:1 #
0.13183993027623330807074353288044 67:1 88:1 467:1 516:1 1292:1 2788:1 3283:1 3284:1 3285:1 3286:1 #
0.13183993027623330807074353288044 355:1 732:1 919:1 1716:1 1717:1 1718:1 1719:1 1720:1 #
-0.053226217110245457875272734327154 21:1 516:1 1444:1 1717:1 3610:1 4109:1 4110:1 #
0.13183993027623330807074353288044 758:1 759:1 1103:1 1389:1 2519:1 2520:1 #
-0.022005239126680294081683797458027 14:1 234:1 1363:1 2473:1 2823:1 2824:1 2825:1 2826:1 2827:1 #
-0.064983288232679042861761331550952 14:1 1135:1 1522:1 1576:1 3190:1 4360:1 #
-0.058647939546374629193881133915056 44:1 142:1 231:1 752:1 757:1 758:1 759:1 1250:1 2021:1 2022:1 #
-0.012199955960865899173839466129721 840:1 1127:1 1973:1 2519:1 4641:1 4642:1 4643:1 4644:1 #
0.13183993027623330807074353288044 124:1 807:1 1111:1 1512:1 2116:1 2117:1 #
0.13183993027623330807074353288044 55:1 487:1 488:1 489:1 #
-0.0008471727478837958943969077552083 67:1 152:1 285:1 546:1 853:1 3824:1 4348:1 4349:1 #
-0.010996844543809740704642941011571 100:1 339:1 667:1 766:1 1389:1 4302:1 4303:1 #
-0.072405447503716871548995470675436 164:1 557:1 1389:1 #
-0.048371854187853946527297921420541 42:1 100:1 766:1 2271:1 2650:1 2651:1 2652:1 2653:1 #
-0.038606515095149479543934489811363 42:1 304:1 314:1 365:1 539:1 597:1 #
0.13183993027623330807074353288044 325:1 939:1 1293:1 1415:1 1467:1 1609:1 3433:1 3434:1 3435:1 3436:1 #
0.13183993027623330807074353288044 939:1 1801:1 2465:1 3811:1 4216:1 4217:1 4218:1 4219:1 4220:1 #
-0.10228801513593646643762724579574 5:1 19:1 663:1 673:1 939:1 940:1 941:1 942:1 943:1 #
-0.00198815103961759876566306459722 968:1 1226:1 3235:1 5593:1 5594:1 5595:1 #
-0.020390003458151353954441731275438 80:1 420:1 592:1 1963:1 #
-0.06930334648345043424555456113012 4:1 19:1 21:1 32:1 80:1 339:1 889:1 1292:1 1330:1 4056:1 4057:1 #
-0.047597843398184451479959733433134 28:1 2309:1 2509:1 2858:1 2859:1 #
0.13183993027623330807074353288044 758:1 759:1 1489:1 #
-0.039535451444337038617860002887028 613:1 759:1 1000:1 1096:1 1097:1 #
-0.046734427266536718303946429386997 684:1 911:1 1173:1 1260:1 1489:1 1574:1 #
-0.055521306655978014399366315956286 42:1 67:1 759:1 833:1 1870:1 4364:1 5001:1 5002:1 #
-0.041191268020153749829237455060138 42:1 90:1 116:1 117:1 118:1 119:1 120:1 121:1 122:1 123:1 #
-0.020351334404042902004317028286096 398:1 448:1 732:1 933:1 1205:1 1855:1 2335:1 5506:1 5507:1 5508:1 #
-0.057617158343864091629704660135758 6:1 398:1 1110:1 1111:1 1112:1 1113:1 #
-0.030484784422301583473036146187951 253:1 254:1 255:1 256:1 257:1 #
-0.03748610763867049611164361522242 829:1 1639:1 2025:1 2026:1 #
-0.028282020835947708353730334351894 67:1 874:1 4331:1 5296:1 5297:1 5298:1 5299:1 #
-0.018923470217894242106915214662877 173:1 187:1 1333:1 1396:1 2139:1 2140:1 2141:1 2142:1 #
-0.031005926263925443625568689753891 67:1 90:1 596:1 1679:1 1731:1 5513:1 5514:1 #
-0.012185986054518533130974766720556 67:1 185:1 616:1 1044:1 2838:1 3022:1 5200:1 5201:1 5202:1 #
-0.031666069961293258350210066964792 270:1 2910:1 3232:1 3838:1 #
0.11947663844030201318879846894561 124:1 1292:1 2376:1 3952:1 3953:1 3954:1 3955:1 3956:1 3957:1 3958:1 #
-0.018597271403421346963602545088179 64:1 86:1 185:1 876:1 919:1 1628:1 3816:1 3817:1 3818:1 #
-0.042781366088612167442040146170257 6:1 63:1 64:1 90:1 1337:1 1451:1 1452:1 1453:1 1454:1 1455:1 1456:1 #
-0.0082775825944067654704738856707991 19:1 100:1 277:1 2135:1 2489:1 3418:1 3603:1 4798:1 4799:1 #
-0.010881042420848481555584186253327 19:1 474:1 495:1 981:1 982:1 1644:1 1645:1 #
0.13183993027623330807074353288044 42:1 55:1 810:1 1481:1 1809:1 2170:1 3000:1 3001:1 3002:1 #
0.13183993027623330807074353288044 67:1 758:1 759:1 1739:1 3879:1 4042:1 #
-0.026219827928207244810421272518397 42:1 49:1 272:1 744:1 771:1 1006:1 3200:1 #
-0.016664558107541381504201893903883 42:1 578:1 663:1 1220:1 2494:1 2756:1 2757:1 #
-0.023900290488528687371516667781179 42:1 747:1 748:1 749:1 750:1 #
-0.062036225399982020123346160289657 6:1 136:1 879:1 1169:1 2996:1 2997:1 2998:1 #
-0.031149637782057634782795219052787 6:1 146:1 365:1 380:1 1776:1 2067:1 #
-0.045941689417306807996510542579927 241:1 1013:1 1390:1 1391:1 1663:1 #
-0.023647927938414994158966564441471 54:1 55:1 193:1 1186:1 1360:1 1997:1 5335:1 5336:1 5337:1 5338:1 #
-0.0065359850972174227123900891456287 457:1 946:1 1039:1 #
-0.12703457361947181891714819812478 6:1 42:1 73:1 1292:1 1467:1 1609:1 2075:1 3410:1 3425:1 3426:1 #
-0.088336154682370604529495494716684 6:1 19:1 42:1 64:1 200:1 568:1 741:1 758:1 874:1 947:1 1079:1 1080:1 #
-0.060591323862118365295437172335369 19:1 64:1 67:1 623:1 916:1 1358:1 1479:1 1480:1 1481:1 #
-0.050111961004139796149736696406762 6:1 129:1 292:1 730:1 731:1 732:1 733:1 #
-0.038055539067383049867121513898383 19:1 67:1 698:1 701:1 2146:1 2180:1 2359:1 2434:1 3822:1 3823:1 #
-0.077371347038122359474066058737662 19:1 152:1 201:1 210:1 837:1 1257:1 4712:1 #
-0.020031135162714663183747276775648 21:1 75:1 88:1 90:1 167:1 174:1 185:1 876:1 1451:1 3284:1 5499:1 5500:1 5501:1 #
-0.036697470833233193643341252254686 6:1 21:1 143:1 698:1 740:1 764:1 1231:1 1703:1 3872:1 4476:1 4477:1 #
-0.04084697080093051962945693844631 185:1 599:1 800:1 930:1 1603:1 3066:1 3067:1 #
-0.024627749046463035670351260364441 21:1 90:1 299:1 614:1 3105:1 5019:1 5020:1 5021:1 #
-0.01263196801101261479427506628781 55:1 383:1 3021:1 3874:1 3875:1 3876:1 3877:1 3878:1 3879:1 #
-0.02184169851342459417464780813134 6:1 67:1 73:1 147:1 324:1 325:1 326:1 327:1 328:1 329:1 #
-0.08331355540789346647567725767658 6:1 19:1 47:1 124:1 1865:1 2640:1 3125:1 5382:1 #
-0.0052842774484404188978237115748016 67:1 174:1 371:1 807:1 2368:1 2788:1 5187:1 5188:1 5189:1 #
-0.023228186534721299849604037035533 64:1 67:1 96:1 431:1 571:1 1208:1 3166:1 3453:1 3454:1 3455:1 3456:1 3457:1 #
-0.045619349909926935893178523429015 2:1 14:1 333:1 534:1 563:1 759:1 1312:1 1972:1 3590:1 #
-0.054101090425694983720994457598863 44:1 90:1 667:1 807:1 808:1 809:1 810:1 811:1 #
-0.062161246636675396293192363827984 44:1 90:1 124:1 684:1 1020:1 1152:1 1437:1 1667:1 1820:1 1935:1 5101:1 #
-0.061266993126544148917655974173613 55:1 64:1 90:1 114:1 932:1 1451:1 3253:1 5248:1 #
-0.012164747052304395250055257804433 25:1 42:1 55:1 90:1 842:1 988:1 1604:1 1925:1 1926:1 1927:1 1928:1 #
-0.055110922869574696658645507341134 90:1 129:1 463:1 618:1 629:1 630:1 631:1 632:1 #
-0.033646182434023029494962742091957 19:1 42:1 67:1 361:1 494:1 812:1 1318:1 2494:1 2788:1 5577:1 #
-0.020186234271897383896199329456067 19:1 67:1 297:1 347:1 1602:1 1847:1 1851:1 1853:1 2050:1 2867:1 2889:1 4574:1 4575:1 #
-0.042962004852148828748514830522254 6:1 21:1 67:1 142:1 235:1 614:1 615:1 616:1 707:1 2768:1 3926:1 #
-0.01993844010785496626003698850127 21:1 67:1 339:1 440:1 1158:1 2157:1 2474:1 2475:1 2476:1 2477:1 2478:1 #
-0.10580628514233568482350023032268 31:1 67:1 182:1 210:1 826:1 845:1 1188:1 1292:1 #
-0.016342886308975894393835659457181 42:1 172:1 549:1 995:1 3459:1 3460:1 #
-0.040065761376682954009176285126159 803:1 1722:1 2464:1 2842:1 2891:1 3338:1 5548:1 #
-0.04670321744897420329634130098384 6:1 42:1 2257:1 3792:1 3793:1 3794:1 #
-0.045632043673407229888994152133819 98:1 764:1 2829:1 4016:1 4903:1 #
-0.023859933477098881071665203990051 38:1 42:1 764:1 1408:1 1599:1 1600:1 1601:1 #
-0.016076168102274617649483090531248 14:1 19:1 882:1 1647:1 2942:1 2943:1 2944:1 2945:1 2946:1 2947:1 2948:1 #
-0.041746615234508288594383884628769 19:1 44:1 533:1 1292:1 3776:1 3777:1 3778:1 3779:1 #
-0.010428745703211774950580625898056 21:1 44:1 55:1 67:1 290:1 1257:1 1532:1 2529:1 2664:1 4541:1 4910:1 4911:1 #
-0.030524910467322245721799589546208 23:1 64:1 67:1 96:1 107:1 147:1 148:1 328:1 401:1 402:1 #
-0.038180496934769547756616248079808 6:1 64:1 67:1 90:1 174:1 1974:1 2473:1 5565:1 5566:1 5567:1 5568:1 5569:1 #
-0.017579972398127929195110752402798 6:1 566:1 976:1 1488:1 1548:1 1662:1 2160:1 2161:1 2162:1 2163:1 2164:1 #
-0.03715417812641836486919899584791 10:1 21:1 42:1 737:1 1922:1 3257:1 4627:1 4628:1 4629:1 #
-0.035064460385632101324659970487119 140:1 152:1 214:1 968:1 1415:1 1964:1 2023:1 2024:1 #
-0.027594786869646888843865539797662 6:1 42:1 63:1 290:1 319:1 616:1 3604:1 3605:1 3606:1 #
-0.016091577554928283150248446986552 6:1 55:1 73:1 85:1 1843:1 1983:1 2748:1 2749:1 2750:1 #
-0.040689869145442592035522011428839 64:1 67:1 96:1 248:1 794:1 795:1 796:1 797:1 798:1 799:1 #
-0.024961222080805235690181831387235 64:1 107:1 129:1 339:1 470:1 766:1 2275:1 2660:1 5123:1 #
-0.019379252709937087872926753107095 19:1 80:1 154:1 463:1 467:1 598:1 599:1 1291:1 2583:1 2630:1 2913:1 2914:1 2915:1 #
-0.028094470451996481769052493859817 38:1 67:1 472:1 2141:1 3012:1 4837:1 5383:1 #
-0.010538040711624717740702017465537 64:1 96:1 101:1 104:1 107:1 328:1 500:1 582:1 2347:1 #
-0.023176182016024799575903969639512 6:1 42:1 67:1 1166:1 1267:1 3220:1 3279:1 4958:1 5274:1 5385:1 5386:1 #
-0.028994932391640217822503799993683 21:1 42:1 88:1 141:1 1595:1 3071:1 4840:1 4841:1 4842:1 #
-0.066345269600294951017893652078783 21:1 2526:1 2583:1 3707:1 3708:1 #
-0.078886688828621237545846156535845 10:1 19:1 42:1 90:1 129:1 5258:1 5471:1 5472:1 #
-0.056035752125657416200521510063481 213:1 214:1 701:1 702:1 703:1 #
0.054347969625814979144351468676177 187:1 355:1 682:1 1292:1 1718:1 2376:1 3265:1 3266:1 3267:1 3268:1 3269:1 #
-0.023156482134881327394904104721718 182:1 992:1 1724:1 3761:1 5414:1 5415:1 #
-0.022603017858601224393533257739364 14:1 60:1 371:1 732:1 919:1 933:1 1716:1 3554:1 4461:1 4462:1 4463:1 #
-0.03566850239544855361017994255235 672:1 1351:1 3897:1 4571:1 #
-0.034279682654204036984513237484862 7:1 235:1 766:1 3180:1 5613:1 5614:1 #
-0.022717910891772136183774932760571 187:1 610:1 619:1 757:1 1793:1 2072:1 2958:1 3590:1 4050:1 #
-0.069747580688078972266374933042243 21:1 398:1 1509:1 5119:1 5120:1 #
-0.083255665015340429846446568262763 6:1 21:1 50:1 273:1 423:1 4422:1 5464:1 #
-0.020247820364558112571362613607562 6:1 67:1 156:1 263:1 264:1 265:1 266:1 #
-0.051396202446925345896922010524577 6:1 55:1 73:1 84:1 566:1 3463:1 3508:1 3509:1 #
-0.018961757969345217900158928614474 21:1 274:1 1045:1 1158:1 1765:1 1862:1 #
-0.013208538134736533264934621456632 64:1 90:1 463:1 722:1 1986:1 2261:1 3151:1 3152:1 3153:1 3154:1 3155:1 3156:1 #
-0.10456989307438468994604363615508 129:1 241:1 4800:1 #
-0.015039672998434949757751155630103 185:1 318:1 496:1 2169:1 5446:1 5447:1 5448:1 5449:1 #
-0.02526883046643293301292132468916 64:1 90:1 614:1 732:1 933:1 2077:1 2153:1 2293:1 2529:1 3417:1 3418:1 #
-0.00043036763207386597926418225767975 6:1 83:1 143:1 328:1 423:1 428:1 660:1 1071:1 1479:1 1485:1 1486:1 #
-0.016324021797779766917990684760298 741:1 883:1 2428:1 2429:1 2430:1 2431:1 2432:1 2433:1 #
-0.018549893129159573251785175784789 288:1 328:1 534:1 882:1 2605:1 2606:1 2607:1 #
-0.010156263992174974566951028975836 6:1 72:1 73:1 327:1 928:1 929:1 930:1 931:1 #
-0.0093957606150265743361060799543338 540:1 741:1 1166:1 1708:1 1709:1 1710:1 1711:1 1712:1 1713:1 1714:1 1715:1 #
-0.028451360288587617536348872704366 6:1 14:1 19:1 64:1 274:1 586:1 740:1 1315:1 1907:1 4975:1 5522:1 5523:1 #
-0.02612508613147072888960309455797 42:1 240:1 312:1 587:1 611:1 1511:1 1512:1 1513:1 1514:1 #
-0.057669335067295081354021846209434 64:1 67:1 198:1 312:1 408:1 440:1 1476:1 1477:1 2936:1 2937:1 #
-0.051171188973377829123379001430294 19:1 42:1 67:1 295:1 545:1 744:1 766:1 2403:1 2499:1 #
-0.037920688020278051078015835173574 42:1 64:1 129:1 1451:1 2077:1 2437:1 2962:1 3465:1 3466:1 3467:1 #
-0.013936476950242339400976021579481 779:1 834:1 1088:1 1466:1 4065:1 4066:1 4067:1 4068:1 4069:1 4070:1 #
-0.04461955776545039470404319104091 847:1 1790:1 1791:1 2361:1 2362:1 #
-0.028947368135876339056977712971275 6:1 42:1 607:1 1461:1 1462:1 1463:1 1464:1 1465:1 1466:1 1467:1 1468:1 #
-0.035842336166076078918241165638392 94:1 124:1 757:1 818:1 1255:1 2000:1 2001:1 #
-0.073260818702912608446631281822192 111:1 143:1 339:1 440:1 489:1 1073:1 1894:1 2186:1 #
-0.013923408615777198293894656444536 42:1 145:1 842:1 1646:1 1647:1 1648:1 1649:1 #
-0.032067070731686582452102385332182 21:1 313:1 842:1 1257:1 1414:1 1415:1 1416:1 #
-0.028815304498397115162688919554057 265:1 570:1 2700:1 3328:1 #
-0.0030342135416648050375010292611933 684:1 1185:1 1282:1 2024:1 2276:1 2425:1 3576:1 3577:1 #
-0.033669871814981537638811204260492 540:1 1916:1 2337:1 4116:1 #
-0.011052685012864273475519105716103 6:1 55:1 383:1 3759:1 3760:1 3761:1 3762:1 3763:1 #
-0.004394238783200513087656702282402 34:1 100:1 766:1 933:1 971:1 972:1 973:1 974:1 #
-0.0062353320046858043759763212676717 6:1 42:1 55:1 101:1 480:1 1524:1 5038:1 5039:1 5040:1 #
-0.036531988308521820552066117215873 405:1 766:1 1410:1 4534:1 4535:1 #
-0.043250292688811531327530701673822 28:1 51:1 282:1 691:1 1346:1 1681:1 #
-0.015533819569836628329828620564967 67:1 293:1 563:1 740:1 2687:1 3061:1 3209:1 3210:1 3211:1 3212:1 #
-0.0069001683663373666183238341886863 21:1 67:1 239:1 242:1 356:1 448:1 534:1 1078:1 3387:1 3388:1 #
-0.067474352049259445074369523354108 21:1 72:1 759:1 932:1 1460:1 3295:1 #
-0.00046991973819450510085546368621578 9:1 21:1 253:1 422:1 423:1 424:1 425:1 #
-0.040854639015321138340031126290341 90:1 651:1 1181:1 1381:1 #
-0.014402665721343558061229295219619 582:1 722:1 1105:1 2663:1 3702:1 3703:1 #
-0.0026131505420903334072080248517977 21:1 42:1 64:1 98:1 129:1 167:1 282:1 1451:1 1604:1 3136:1 4200:1 4201:1 4202:1 #
-0.034345055519458142501143527169916 1333:1 1572:1 2563:1 3651:1 #
-0.035015177428332787401554782036328 6:1 1001:1 1764:1 1765:1 1766:1 1767:1 1768:1 #
-0.01384743288290748997049206536758 6:1 185:1 1633:1 2413:1 3681:1 4817:1 4818:1 #
-0.02879893222661643326087954619652 6:1 90:1 174:1 228:1 467:1 587:1 764:1 2216:1 2551:1 2552:1 2553:1 2554:1 #
-0.0078791193972905290004993261732125 6:1 73:1 1267:1 1583:1 1584:1 1585:1 1586:1 1587:1 #
-0.037540071885583684019316308422276 90:1 4580:1 4581:1 4582:1 4583:1 #
-0.02205859690399267908356151224325 551:1 986:1 1647:1 3360:1 3361:1 3362:1 #
-0.00016899175050193778607754424569976 55:1 67:1 885:1 1057:1 1941:1 3499:1 3500:1 3501:1 #
-0.021784273556656998105385270037004 55:1 318:1 2993:1 3508:1 5368:1 #
-0.021202125941998006125599474103183 3:1 66:1 87:1 88:1 440:1 698:1 3554:1 3555:1 3556:1 #
-0.015598659226552069601012817656738 207:1 290:1 328:1 428:1 807:1 949:1 2339:1 5609:1 #
-0.021756446033871036649376407012824 64:1 67:1 72:1 86:1 90:1 378:1 534:1 618:1 919:1 1855:1 2494:1 4451:1 4452:1 #
-0.027277875992614407374414753348901 1088:1 1509:1 2600:1 4239:1 4714:1 #
-0.057016248980273229185478101044282 55:1 80:1 473:1 1098:1 1166:1 1231:1 4971:1 #
-0.0089412214230657344193886615357769 876:1 933:1 1653:1 1828:1 2153:1 4132:1 4133:1 4134:1 #
-0.018734515280842627127366739614445 21:1 174:1 988:1 1412:1 1728:1 3437:1 4433:1 #
-0.010483954304582826164149444991835 21:1 174:1 233:1 563:1 1440:1 2955:1 4732:1 4733:1 #
-0.034466970311529232517955279035959 6:1 64:1 67:1 100:1 185:1 566:1 619:1 2412:1 4084:1 5365:1 5366:1 #
-0.020314791917844857854769102800674 64:1 67:1 185:1 312:1 722:1 1548:1 3025:1 4493:1 4494:1 4495:1 4496:1 #
-0.029110231426272815957734252378941 19:1 20:1 42:1 597:1 3173:1 3174:1 3291:1 5359:1 5360:1 #
-0.021323545731218536414264264067242 20:1 42:1 44:1 566:1 788:1 933:1 1037:1 1373:1 2461:1 2462:1 2463:1 #
-0.042175498353493351411103162718064 67:1 324:1 566:1 587:1 1333:1 2150:1 4276:1 4914:1 #
-0.048936302101230025329847705961583 6:1 80:1 198:1 274:1 921:1 1142:1 5542:1 #
-0.043007680820721594372457730059978 14:1 80:1 1305:1 2676:1 2677:1 2678:1 #
-0.044832966332681981058705389386887 42:1 49:1 260:1 274:1 282:1 562:1 1597:1 1598:1 #
-0.0393766747788716064970770958098 14:1 104:1 126:1 473:1 968:1 3115:1 3116:1 3117:1 #
-0.0088240505224572839820806890998028 13:1 42:1 1890:1 2115:1 3149:1 5606:1 #
-0.028268607144126184360644060689083 19:1 59:1 64:1 66:1 67:1 654:1 2471:1 2532:1 4856:1 5042:1 5043:1 #
-0.032390548190359323699194504797561 64:1 67:1 90:1 197:1 459:1 583:1 684:1 690:1 976:1 1161:1 1162:1 #
-0.014605108965263371295639771574315 64:1 67:1 351:1 697:1 914:1 915:1 916:1 917:1 918:1 919:1 #
-0.035929862274672305644251935063949 6:1 67:1 142:1 448:1 682:1 740:1 752:1 1178:1 1179:1 #
-0.037565205004850714398667577142987 23:1 64:1 67:1 129:1 156:1 401:1 722:1 865:1 896:1 2494:1 5114:1 #
-0.032983422723305122481463058647932 17:1 19:1 152:1 1167:1 1411:1 1752:1 2133:1 2786:1 #
-0.028687055886652806230285861488483 73:1 391:1 1137:1 1257:1 1520:1 1862:1 4151:1 4616:1 #
-0.017097529363411828606800213492534 19:1 810:1 3100:1 3101:1 3661:1 3705:1 5192:1 5193:1 #
-0.024314527998433456412730180318249 19:1 42:1 1037:1 1697:1 1985:1 2498:1 3027:1 #
-0.044560782230933432268571436907223 6:1 607:1 968:1 1319:1 2762:1 2763:1 #
-0.039034078166870392334608652618044 42:1 129:1 184:1 282:1 611:1 697:1 828:1 829:1 830:1 #
-0.036550157690002929578021451106906 42:1 611:1 616:1 997:1 1334:1 3649:1 3650:1 #
-0.021098005676072957570443833219542 50:1 51:1 60:1 67:1 288:1 837:1 1529:1 #
-0.038981800452572323845146229359671 42:1 55:1 170:1 1285:1 1286:1 1287:1 #
-0.024495383465485773971659355652264 42:1 1999:1 2586:1 2587:1 2588:1 2589:1 2590:1 #
-0.018905372428635922044115602602687 6:1 64:1 618:1 1032:1 2091:1 2596:1 2848:1 3276:1 3277:1 #
-0.019205832948920364966483020907617 6:1 64:1 67:1 701:1 724:1 2447:1 2461:1 4237:1 4262:1 #
-0.031854292563165631513300013466505 6:1 73:1 157:1 274:1 892:1 2217:1 3206:1 3781:1 #
-0.031702309387197355472487458882824 8:1 19:1 67:1 72:1 152:1 186:1 396:1 397:1 398:1 399:1 400:1 #
-0.023375429794935082689066874195305 351:1 354:1 840:1 1627:1 2019:1 2170:1 #
-0.050489525309562112431738256645986 42:1 124:1 167:1 845:1 1127:1 2292:1 #
-0.027591799503072722554719575782656 21:1 42:1 302:1 2077:1 3062:1 4577:1 4578:1 4579:1 #
-0.026781815614597515723405152243686 42:1 819:1 971:1 1726:1 2210:1 2211:1 2212:1 #
-0.027602274825894324711272886929692 42:1 63:1 319:1 320:1 321:1 322:1 323:1 #
-0.016506056448896799793146783486009 42:1 265:1 573:1 728:1 1127:1 1503:1 1726:1 1773:1 1774:1 1775:1 #
-0.037124513105294423831459482698847 152:1 275:1 802:1 1670:1 1671:1 1672:1 #
-0.019949120147396005864326440359946 64:1 86:1 90:1 274:1 2261:1 3796:1 3911:1 4426:1 5393:1 5394:1 #
-0.023314590056997607642186309817589 23:1 80:1 2216:1 4771:1 5624:1 #
-0.041611177408824834289546856780362 34:1 426:1 427:1 428:1 429:1 #
-0.019720712915803382397905707534846 37:1 1467:1 1609:1 2833:1 4700:1 4701:1 4702:1 #
-0.012076758602029807887490164830524 6:1 42:1 292:1 559:1 647:1 701:1 1312:1 2879:1 #
-0.017800191537131117291981041717008 6:1 40:1 42:1 353:1 435:1 734:1 735:1 736:1 737:1 738:1 #
-0.00052589544684038757281496767603812 67:1 767:1 1823:1 2565:1 3214:1 3529:1 #
-0.041410136591391470683998221602451 6:1 42:1 79:1 80:1 161:1 292:1 3257:1 #
-0.032144419401790254309236871677058 136:1 587:1 722:1 1304:1 1484:1 4289:1 5179:1 #
-0.028687626168878044286003614615765 11:1 21:1 64:1 67:1 96:1 156:1 185:1 1176:1 2319:1 2320:1 2321:1 2322:1 #
-0.0066449547819827075451071252132351 19:1 64:1 67:1 96:1 100:1 101:1 274:1 428:1 448:1 644:1 1424:1 3566:1 #
-0.03991009641563725285351438287762 671:1 1801:1 2174:1 4839:1 5505:1 #
-0.028107729646004421530935957207475 19:1 85:1 100:1 694:1 1152:1 2497:1 #
-0.017920516408581020628698610153151 6:1 288:1 883:1 4826:1 4827:1 4828:1 #
-0.020507169203512913557840846578983 6:1 19:1 533:1 562:1 1614:1 2185:1 3946:1 4227:1 #
-0.046980077627138995544076038868297 218:1 328:1 365:1 981:1 3297:1 5213:1 #
-0.020640684240247661462852590830153 19:1 684:1 2382:1 4678:1 4679:1 4680:1 4681:1 #
-0.030440201072311313251761433207321 14:1 1111:1 1973:1 3420:1 3421:1 3422:1 3423:1 #
-0.022291122985282369600712470969484 142:1 455:1 542:1 543:1 544:1 545:1 #
-0.0038190201747178020852402369200718 64:1 67:1 618:1 790:1 1662:1 1707:1 2293:1 2547:1 2793:1 2794:1 #
-0.0043189863687662453234361592535606 142:1 404:1 725:1 1944:1 4979:1 4980:1 #
-0.092439064506659132658406008431484 312:1 457:1 3549:1 #
-0.0092691869065887645684487239350346 73:1 391:1 578:1 579:1 1313:1 1444:1 1792:1 #
-0.06249583095582818270674607674664 13:1 1510:1 2216:1 #
-0.012469140752444214659266918943104 19:1 42:1 500:1 927:1 1742:1 1743:1 1744:1 1745:1 #
-0.0083603722673485127148129691931899 19:1 41:1 42:1 1730:1 1731:1 1732:1 1733:1 1734:1 #
-0.0084102932685819753455547242992907 19:1 37:1 134:1 135:1 136:1 137:1 138:1 139:1 #
-0.032632755113842462635354024769185 25:1 701:1 1119:1 1360:1 1616:1 2891:1 #
-0.015264584613828145742697728337589 42:1 186:1 339:1 2246:1 2247:1 2248:1 #
-0.016445120503169062542436762441866 142:1 390:1 558:1 1667:1 1935:1 2337:1 3789:1 #
-0.0083383518640856805342886914900191 6:1 19:1 55:1 64:1 67:1 486:1 1177:1 1389:1 1856:1 2112:1 2113:1 2114:1 2115:1 #
-0.0071488320075262104871804957895165 6:1 288:1 428:1 448:1 822:1 1127:1 1602:1 1603:1 #
-0.02475855477872802856698086770848 42:1 365:1 736:1 966:1 1396:1 2003:1 2004:1 2005:1 #
-0.012934010413111209428227432738367 39:1 42:1 926:1 1184:1 1186:1 1312:1 2118:1 2838:1 #
-0.0087260333766642651093237148529624 19:1 42:1 137:1 544:1 2663:1 5243:1 5244:1 5245:1 #
-0.017291625581507253511803767764832 90:1 111:1 587:1 619:1 824:1 965:1 1005:1 1006:1 1007:1 1008:1 #
-0.010334781492026779911586054083728 64:1 1052:1 2261:1 3735:1 3736:1 3737:1 #
-0.056504937783822914432185768873751 26:1 42:1 44:1 272:1 286:1 1005:1 1292:1 2593:1 2799:1 2800:1 #
-0.027408001057157897750737873820981 42:1 192:1 193:1 285:1 629:1 766:1 1209:1 1622:1 3195:1 3580:1 4340:1 #
-0.021129121821699427957730321736562 19:1 64:1 67:1 127:1 185:1 1084:1 2416:1 5259:1 5260:1 5261:1 5262:1 5263:1 #
-0.020776868610850332541595264501666 67:1 185:1 260:1 1211:1 1907:1 2225:1 3322:1 3430:1 3528:1 3854:1 #
-0.027707264108580063888265243576825 19:1 318:1 465:1 565:1 1550:1 4123:1 4124:1 #
-0.0023296269614967099470526079585397 4:1 271:1 372:1 1234:1 1489:1 1500:1 1501:1 1502:1 #
-0.048096016386976171708145244565458 21:1 51:1 124:1 258:1 274:1 282:1 611:1 1109:1 3830:1 3831:1 #
-0.013837820534188098944849976135174 42:1 55:1 231:1 786:1 787:1 916:1 1741:1 1948:1 1949:1 1950:1 1951:1 1952:1 1953:1 1954:1 #
-0.027170144724897937055230201508493 6:1 246:1 247:1 248:1 249:1 250:1 251:1 252:1 #
-0.022774168535475536323531287052901 86:1 171:1 172:1 173:1 174:1 175:1 176:1 177:1 #
-0.025965289895714966511564014695068 439:1 612:1 1136:1 1363:1 4310:1 4311:1 #
-0.011628882372868611094762769653244 19:1 55:1 64:1 113:1 272:1 1002:1 1082:1 1742:1 3038:1 3039:1 3040:1 3041:1 #
-0.018642131850215581251317686906077 19:1 52:1 270:1 566:1 966:1 1048:1 1489:1 2175:1 2345:1 #
-0.02100652903041257471561387148995 19:1 38:1 1139:1 1871:1 2132:1 2138:1 #
-0.013825951584734808702537023350487 19:1 566:1 733:1 840:1 1753:1 3019:1 4137:1 4168:1 4191:1 4528:1 #
-0.027928636705172496523807978974219 272:1 1257:1 1694:1 2720:1 4209:1 #
-0.022552674917049958525083752647333 21:1 961:1 968:1 1270:1 2956:1 3113:1 3114:1 #
-0.026511684461769189496971321773344 21:1 260:1 272:1 458:1 1441:1 2776:1 3256:1 #
-0.019666285291589907097131728619388 4:1 42:1 67:1 443:1 740:1 801:1 1021:1 1348:1 2276:1 2425:1 2489:1 4497:1 #
-0.012212621421024246609610131031332 21:1 42:1 58:1 163:1 272:1 819:1 1868:1 4161:1 #
-0.020347990617254320400153488890282 14:1 17:1 644:1 2952:1 2953:1 #
-0.0072216226319884550821637247963736 25:1 473:1 1224:1 1875:1 3582:1 #
-0.0072216226319884550821637247963736 25:1 342:1 473:1 1224:1 1875:1 #
-0.014387460622062642201512971951161 72:1 839:1 3680:1 4157:1 4353:1 4354:1 4355:1 #
-0.010938537566275906287582841969197 19:1 282:1 463:1 1379:1 2263:1 4996:1 4997:1 4998:1 4999:1 5000:1 #
-0.032355985006368034873069916557142 6:1 42:1 44:1 371:1 682:1 759:1 1311:1 2092:1 2093:1 #
-0.047310226593165735642365632429573 6:1 607:1 687:1 757:1 1808:1 1809:1 #
-0.027921713540428147459770968907833 6:1 73:1 143:1 152:1 210:1 2618:1 3878:1 5618:1 5619:1 #
-0.012070641680121445282747316696259 6:1 42:1 290:1 1275:1 2032:1 2222:1 2726:1 4759:1 #
-0.032382620716718615860862939825893 6:1 607:1 968:1 1636:1 2068:1 4562:1 4563:1 #
-0.014790705370010075875297772540762 19:1 506:1 1067:1 2679:1 2680:1 2681:1 #
-0.011946726386322679969165250213337 67:1 2801:1 2802:1 2803:1 2804:1 2805:1 2806:1 #
-0.010732175716365631792936774502323 61:1 67:1 3372:1 3713:1 3714:1 3715:1 #
-0.0081218040531984229263295915757226 67:1 1499:1 2358:1 2896:1 3940:1 4966:1 4967:1 #
-0.017925778563663185422027979143422 490:1 750:1 788:1 1014:1 1166:1 2399:1 2400:1 2401:1 2402:1 #
-0.019907613567239051954871342786646 6:1 227:1 398:1 985:1 1180:1 1181:1 1182:1 #
-0.029607972496073137191885393804114 1112:1 2973:1 3810:1 3811:1 #
-0.012229253059625964580869883491232 6:1 1400:1 1750:1 2265:1 2266:1 2267:1 #
-0.012894130331348428036841724519945 6:1 1310:1 2364:1 2925:1 2926:1 2927:1 2928:1 #
-0.019341195497022643789986062756725 6:1 2071:1 3631:1 3739:1 4378:1 #
-0.010358002978835066654195173896369 67:1 410:1 621:1 622:1 623:1 624:1 625:1 626:1 627:1 628:1 #
-0.020988215506607704741171005480282 42:1 54:1 221:1 222:1 223:1 224:1 225:1 #
-0.028353269507831346807336103665875 42:1 175:1 362:1 768:1 1491:1 4541:1 #
-0.01698734475122873344155038921599 67:1 100:1 1257:1 1258:1 1583:1 1662:1 2739:1 2740:1 2741:1 #
-0.011727387705774423853899435243875 6:1 64:1 67:1 156:1 251:1 294:1 421:1 432:1 766:1 1139:1 #
-0.011609317845662787266336479774509 6:1 64:1 67:1 1251:1 1590:1 1614:1 1702:1 3235:1 3236:1 3237:1 3238:1 #
-0.027721673035227212267272989265621 64:1 655:1 1911:1 4177:1 #
-0.025520002808075301081736085961893 20:1 524:1 3591:1 4389:1 #
-0.029987709188871117943486765966554 6:1 14:1 19:1 21:1 73:1 142:1 597:1 818:1 1177:1 1292:1 1903:1 1904:1 #
-0.017794668133689316158463356032371 6:1 32:1 42:1 73:1 3445:1 4498:1 4499:1 #
-0.027998684380242722102849484144826 21:1 69:1 748:1 1158:1 1248:1 2497:1 3945:1 #
-0.033654704194117174287370630736405 80:1 2137:1 3205:1 3726:1 #
-0.012344443439793517658387145274901 21:1 55:1 349:1 1054:1 1553:1 1554:1 1555:1 1556:1 #
-0.029453241009150747664602221220775 391:1 684:1 992:1 1437:1 1489:1 3317:1 3654:1 #
-0.018912677635944209753038336430109 4:1 678:1 2678:1 4812:1 4813:1 #
-0.0089739961755934943149481952673341 42:1 142:1 149:1 178:1 339:1 556:1 826:1 845:1 1276:1 1718:1 #
-0.010409128797056556303690655340688 152:1 206:1 893:1 894:1 895:1 #
-0.014520127621976530035707853016902 19:1 55:1 67:1 350:1 472:1 601:1 766:1 1099:1 5533:1 5534:1 #
-0.014804140148144162222876296652885 56:1 800:1 1198:1 2185:1 2309:1 2455:1 4664:1 #
-0.013445441857840467747564616729505 152:1 2633:1 2634:1 2635:1 2636:1 #
-0.018631875513579095049454537047495 566:1 663:1 1893:1 2425:1 4242:1 4572:1 4573:1 #
-0.019780766869383466233234258879747 67:1 740:1 2540:1 2933:1 3607:1 3608:1 #
-0.017584657913994800049195532665181 19:1 766:1 2308:1 4682:1 4683:1 4684:1 #
-0.030605005051976340996189307475106 100:1 486:1 566:1 885:1 2160:1 #
-0.037698698816097601926866644816982 64:1 288:1 971:1 1006:1 1408:1 #
-0.015416145318004878528306278440141 67:1 184:1 766:1 889:1 1105:1 1386:1 4887:1 #
-0.0069294121382518503171610291246907 4:1 55:1 1141:1 2399:1 2458:1 3356:1 3357:1 3358:1 #
-0.021387835923437625851306620461401 334:1 365:1 539:1 807:1 1748:1 2465:1 4565:1 4566:1 #
-0.034393546961825699481707374616235 49:1 67:1 1397:1 1531:1 2467:1 3298:1 3299:1 #
-0.037701292422836464590663041462903 356:1 1114:1 1249:1 3077:1 3190:1 #
-0.01030458549728710711257395615803 67:1 88:1 909:1 3507:1 4364:1 4365:1 4366:1 4367:1 4368:1 4369:1 4370:1 #
-0.024095174418004784017144359609119 6:1 55:1 104:1 274:1 1038:1 1210:1 1295:1 1350:1 1430:1 1548:1 #
-0.015264822876178307797800925982301 104:1 107:1 398:1 556:1 1002:1 1043:1 4292:1 #
-0.046109853963204064375425161870226 6:1 21:1 42:1 73:1 175:1 441:1 606:1 1020:1 3190:1 3206:1 #
-0.015251720438987356742721601676749 21:1 64:1 80:1 527:1 3847:1 3848:1 3849:1 3850:1 3851:1 3852:1 #
-0.019997875873076689096086155927878 42:1 167:1 648:1 995:1 1117:1 1512:1 3014:1 4904:1 4905:1 #
-0.01370734335432470529791970648148 19:1 42:1 64:1 365:1 587:1 751:1 752:1 753:1 754:1 755:1 756:1 #
-0.017950108545894769701556370478102 21:1 41:1 42:1 616:1 2473:1 4300:1 5496:1 5497:1 #
-0.017205197484341593072709741818471 75:1 267:1 274:1 380:1 807:1 1024:1 3887:1 #
-0.019598644515284955464062832675154 6:1 14:1 40:1 46:1 253:1 425:1 2107:1 2108:1 #
-0.01978213597377486560047188390854 67:1 448:1 897:1 4356:1 4357:1 4358:1 #
-0.022006450679560404792844963139942 19:1 505:1 684:1 810:1 964:1 1787:1 1788:1 1789:1 #
-0.01057032193794851804291567987093 67:1 499:1 728:1 750:1 1604:1 5072:1 5073:1 5074:1 #
-0.014131584483864175275091845662701 5:1 42:1 90:1 832:1 2496:1 2576:1 3012:1 3577:1 3764:1 3765:1 #
-0.021008156934904959056709117248829 6:1 42:1 328:1 597:1 598:1 599:1 600:1 601:1 602:1 603:1 604:1 #
-0.012718196357671541010803117899286 6:1 42:1 587:1 597:1 708:1 709:1 710:1 #
-0.02726284646638232889159780825139 42:1 290:1 1793:1 2844:1 4771:1 #
-0.014541226613883143081729087953136 42:1 636:1 779:1 1002:1 2523:1 4074:1 4075:1 4076:1 #
-0.017692441517567533693089387725195 6:1 104:1 741:1 1053:1 1054:1 1055:1 1056:1 1057:1 1058:1 1059:1 #
-0.021732692697599226283600160058995 740:1 2503:1 3934:1 3935:1 #
-0.021100038431632661684034246718511 115:1 473:1 684:1 723:1 742:1 2704:1 2705:1 #
-0.0093983857821797744946934471954592 19:1 641:1 1175:1 2779:1 2889:1 4139:1 5563:1 5564:1 #
-0.0083243613289057383219926578021841 21:1 101:1 198:1 1321:1 1779:1 2438:1 3099:1 5241:1 #
-0.010475895000677675622524631648957 14:1 86:1 87:1 88:1 89:1 90:1 91:1 92:1 93:1 94:1 95:1 96:1 97:1 98:1 99:1 #
-0.024918453281230101836740686849225 762:1 1508:1 2115:1 3052:1 5249:1 #
-0.0052726874198999870366200148907865 64:1 520:1 619:1 652:1 1539:1 2220:1 3045:1 3279:1 3620:1 3621:1 3622:1 #
-0.0078181407845424946700951807088131 21:1 64:1 540:1 1026:1 1027:1 1028:1 1029:1 1030:1 1031:1 1032:1 #
-0.0087975268267611525518923087929579 42:1 64:1 67:1 614:1 822:1 1676:1 2117:1 3384:1 3385:1 3386:1 #
-0.024081190303774719502216683508777 6:1 741:1 885:1 1569:1 2791:1 3219:1 #
-0.028528509814759562407404658301857 6:1 19:1 23:1 64:1 73:1 96:1 107:1 401:1 498:1 639:1 778:1 1548:1 #
-0.010253762552373471214628430914217 6:1 19:1 73:1 516:1 1430:1 2019:1 4872:1 #
-0.01143265943467547396394934366981 6:1 138:1 2524:1 3596:1 3597:1 3598:1 3599:1 #
-0.011123761499070234162744874595319 6:1 19:1 32:1 42:1 282:1 912:1 2632:1 3176:1 4467:1 #
-0.0088028891200763043078936220808828 21:1 140:1 235:1 1034:1 1208:1 3279:1 4100:1 4101:1 #
-0.009768331384281151927306829918507 67:1 235:1 339:1 847:1 876:1 1211:1 1858:1 2768:1 2843:1 2844:1 #
-0.028444524964338802064389710722025 1449:1 1450:1 #
-0.0075169690852024484764570821937468 389:1 677:1 1131:1 1688:1 2613:1 2614:1 2615:1 #
-0.013562070119808146764772693870782 6:1 42:1 234:1 274:1 414:1 2135:1 2520:1 2985:1 4882:1 4883:1 4884:1 #
-0.0095785870050900858568843077023303 6:1 42:1 73:1 1071:1 1269:1 2110:1 3398:1 3399:1 3400:1 #
-0.025481218074009909235755344525387 968:1 2352:1 2354:1 4203:1 #
-0.028199813164026976686216130474349 2991:1 2995:1 #
-0.00840077032456276739935674413573 415:1 3141:1 3142:1 3143:1 3144:1 #
-0.011279925265610791715320537775824 2932:1 3006:1 3221:1 3222:1 3223:1 #
-0.018799875442684649967661769665028 4229:1 4230:1 4231:1 #
-0.0073353365497633897865381591429923 3141:1 4503:1 4504:1 4505:1 4506:1 4507:1 #
-0.015963739924507412692999963610418 6:1 42:1 240:1 357:1 701:1 1312:1 1447:1 1776:1 #
-0.019127211149678264440199271234633 4915:1 4916:1 4917:1 #
-0.056831976006951778757070314895827 4940:1 #
-0.056357893920231605378035055764485 5030:1 #
-0.056449836967253141928324566833908 5125:1 #
-0.01901885462855975109097705910699 2260:1 3054:1 5207:1 #
-0.11816395912871968665314170721103 1226:1 #
-0.013136892382075888996428858490617 6:1 73:1 111:1 807:1 1932:1 3471:1 5246:1 5247:1 #
-0.13183993027623330807074353288044 #
-0.025188978819248426799237705608903 855:1 968:1 4596:1 4597:1 #
-0.037631250383634975986701931560674 640:1 968:1 4860:1 #
-0.019134827230630702121771946622175 587:1 619:1 1717:1 5445:1 #
-0.0045001821451282524380599348035048 4506:1 4744:1 4745:1 4746:1 4747:1 4748:1 4749:1 4750:1 4751:1 4752:1 4753:1 #
-0.024063983510548392352745850075735 80:1 351:1 473:1 1729:1 #
-0.012163489705281962591221223135562 201:1 591:1 1037:1 1239:1 2168:1 #
-0.014026090191041080262879248152785 19:1 120:1 187:1 853:1 873:1 5270:1 5271:1 #
-0.012320800873199038924510340109464 42:1 75:1 80:1 2547:1 2951:1 4036:1 4037:1 4038:1 4039:1 #
-0.020072535375239102667377366628898 6:1 42:1 44:1 339:1 759:1 1143:1 1144:1 1145:1 1146:1 #
-0.03197759045362288249370052994891 6:1 64:1 67:1 156:1 251:1 294:1 421:1 432:1 638:1 766:1 #
-0.013613451159360067180270625897265 42:1 152:1 467:1 587:1 782:1 2302:1 2303:1 2304:1 2305:1 #
-0.011525080498649739602079478117957 90:1 185:1 757:1 1858:1 1859:1 2094:1 2276:1 3061:1 4017:1 4018:1 4019:1 #
-0.017818135786916128315837681839184 53:1 383:1 684:1 1467:1 2174:1 4137:1 5578:1 5579:1 #
-0.023781001019068399165989902144247 339:1 954:1 1006:1 1022:1 1343:1 4313:1 #
-0.012376824234498333757170662750013 6:1 55:1 1824:1 2118:1 2576:1 2577:1 2578:1 #
-0.0091189128073752012682007261901163 42:1 67:1 390:1 614:1 1029:1 1257:1 1935:1 2034:1 2956:1 4151:1 5225:1 #
-0.018593179398276760139196994714439 42:1 67:1 156:1 743:1 744:1 745:1 746:1 #
-0.010703651559387445876825317725434 67:1 2813:1 2907:1 3500:1 5176:1 5177:1 5178:1 #
-0.01485625301355347586962363237717 21:1 64:1 185:1 189:1 191:1 629:1 782:1 876:1 1032:1 1528:1 2494:1 2788:1 #
-0.017449340874438404314084039015142 42:1 100:1 328:1 587:1 1363:1 1782:1 5362:1 5363:1 #
-0.017962462695882194102514617384259 6:1 270:1 2910:1 3372:1 3989:1 3990:1 3991:1 #
-0.0080145450781391198297187727916935 80:1 185:1 380:1 1297:1 2205:1 2206:1 2207:1 #
-0.014539470916736683611669711524428 39:1 42:1 933:1 1195:1 1231:1 2808:1 2837:1 4334:1 #
-0.012696402399363830929002183722787 55:1 67:1 100:1 1127:1 3879:1 5545:1 5546:1 5547:1 #
-0.018688870117133601217451754905596 42:1 274:1 364:1 428:1 595:1 612:1 817:1 1100:1 #
-0.020233631109942473713658728229348 19:1 578:1 579:1 1707:1 2077:1 2529:1 #
-0.018216669495741390216725363870864 968:1 1088:1 1807:1 4058:1 4059:1 #
-0.021982248366673205058896556352011 21:1 282:1 398:1 562:1 662:1 1318:1 2881:1 #
-0.009313190126315156955327800858413 6:1 21:1 5024:1 5025:1 5026:1 5027:1 5028:1 #
-0.0097688834476685054708511302123952 96:1 626:1 648:1 663:1 684:1 989:1 4933:1 4934:1 #
-0.010069416624998661635714825024479 72:1 295:1 418:1 766:1 1102:1 1103:1 1104:1 1105:1 #
-0.019457292340932064861336314720575 38:1 42:1 698:1 701:1 737:1 1776:1 5544:1 #
-0.011662526194950968011498915188895 25:1 42:1 150:1 1758:1 5469:1 5470:1 #
-0.0074941406441199117510754135196294 42:1 187:1 454:1 1366:1 1367:1 3147:1 3334:1 #
-0.01368229880196525360958048622706 21:1 42:1 77:1 288:1 803:1 3262:1 4201:1 4962:1 #
-0.0079775261241189915351057493353437 42:1 256:1 286:1 3069:1 3698:1 5536:1 5537:1 5538:1 #
-0.011475239335039480459421668001596 67:1 173:1 448:1 1175:1 1461:1 1570:1 2682:1 2683:1 #
-0.012114939481585214331449407154651 55:1 269:1 771:1 2511:1 2866:1 3379:1 3380:1 #
-0.014152825167275832896063292309918 19:1 80:1 185:1 2051:1 2883:1 2884:1 2885:1 #
-0.015572441512477164238248406036291 264:1 2252:1 3610:1 3904:1 3905:1 #
-0.010761800823994844764075473619869 21:1 90:1 722:1 1488:1 2332:1 4094:1 4095:1 #
-0.00660435376713577187990367178827 67:1 90:1 380:1 428:1 460:1 517:1 1041:1 3747:1 4166:1 4167:1 #
-0.0072488691058178594817107409653545 6:1 32:1 42:1 274:1 539:1 759:1 1423:1 3231:1 4521:1 #
-0.014458336224429269023517008463386 739:1 5054:1 5055:1 5056:1 #
-0.01778755198018666661141651275102 399:1 452:1 1389:1 2115:1 3530:1 #
-0.056858696949889542260336838808144 1404:1 #
-0.014037691713212646638098135554173 660:1 3157:1 3158:1 3159:1 #
-0.013620822006789464267417777421088 6:1 17:1 19:1 442:1 1162:1 2579:1 2580:1 #
-0.014231288719781159946009552186297 46:1 67:1 549:1 1127:1 2536:1 3732:1 3733:1 3734:1 #
-0.013861150083104002012079902783626 6:1 741:1 968:1 1088:1 2114:1 2355:1 2356:1 #
-0.01599369788817302240335749274891 274:1 456:1 1053:1 2839:1 2840:1 2841:1 #
-0.0072517426540306354626475027203014 21:1 100:1 1191:1 1192:1 1193:1 1194:1 #
-0.0081067181566596754199727214995619 47:1 100:1 282:1 2502:1 4459:1 4861:1 #
-0.016087607856734131850373614724958 769:1 901:1 1002:1 1776:1 1777:1 #
-0.01377031646983699342268181453619 6:1 80:1 418:1 592:1 644:1 4932:1 #
-0.0090659805992473752045412993538775 19:1 42:1 214:1 511:1 512:1 513:1 514:1 515:1 516:1 517:1 #
-0.012156501241529005241659433522727 1828:1 2215:1 3326:1 3327:1 #
-0.01249161780691085410488483375957 1026:1 4453:1 4454:1 4455:1 #
-0.02426038063541197109529434783326 371:1 453:1 679:1 1270:1 #
-0.010700530120945073164762106898706 19:1 96:1 431:1 533:1 648:1 663:1 684:1 1067:1 1301:1 1302:1 1303:1 #
-0.016570513614839556260083242023029 2896:1 3060:1 5092:1 #
-0.0065470756737357142102107232517483 1048:1 2057:1 2058:1 2059:1 2060:1 #
-0.0045123159742066782512681655248343 32:1 67:1 578:1 579:1 2370:1 3888:1 3889:1 #
-0.0078701886597561821617974331388723 19:1 100:1 398:1 1685:1 2521:1 4888:1 4889:1 4890:1 4891:1 #
-0.016423729688081780547781463042156 19:1 38:1 67:1 132:1 380:1 722:1 2137:1 2138:1 #
-0.011032278492552283211125541129149 55:1 140:1 1756:1 1757:1 1758:1 #
-0.026077124331435136417312037337979 100:1 101:1 565:1 1039:1 2569:1 #
-0.0069437867812417262275426210749174 132:1 473:1 721:1 722:1 723:1 724:1 #
-0.0067734703588909483951141510260641 10:1 64:1 587:1 647:1 876:1 2188:1 3172:1 3811:1 4294:1 5126:1 #
-0.0015541481854194072464991904780618 21:1 46:1 51:1 273:1 1643:1 1887:1 5031:1 5032:1 #
-0.0041828415182466232094538050034771 1830:1 2791:1 2967:1 #
-0.01028083632320253570924251107499 612:1 1022:1 1345:1 1346:1 #
-0.00027649650028473311824672720149465 6:1 12:1 32:1 72:1 77:1 508:1 668:1 1265:1 2068:1 2069:1 2070:1 #
-0.017297590151967814908751108760043 42:1 142:1 165:1 365:1 539:1 1012:1 2306:1 #
-0.0080177093426214412347219351318017 4:1 64:1 98:1 185:1 463:1 866:1 867:1 868:1 869:1 870:1 871:1 #
-0.015820950802615925401273244688127 42:1 210:1 290:1 539:1 854:1 1006:1 2306:1 #
-0.0099940475224156444244982822056045 67:1 104:1 375:1 457:1 1014:1 1016:1 2468:1 3683:1 #
-0.015809421412602799733582159547041 19:1 129:1 185:1 614:1 615:1 616:1 2465:1 3374:1 3510:1 3511:1 #
-0.01737800687452321218851025719232 6:1 23:1 1134:1 1241:1 1929:1 #
-0.0079958240063788786622378523816224 64:1 1633:1 2731:1 3913:1 4719:1 4722:1 4723:1 4724:1 #
-0.0085140903519732944598752411025089 270:1 505:1 2299:1 3664:1 3665:1 3666:1 #
-0.0087007680078025097236693596869372 67:1 198:1 486:1 688:1 722:1 740:1 4121:1 4122:1 #
-0.0082018641222236232657394339184975 14:1 19:1 22:1 42:1 90:1 764:1 834:1 1716:1 2552:1 4127:1 4555:1 4556:1 4557:1 #
-0.0087335579743332853591697428896623 25:1 42:1 88:1 89:1 4469:1 4470:1 4471:1 4472:1 4473:1 #
-0.0080346320380128011251485986576881 21:1 1469:1 3274:1 3996:1 3997:1 #
-0.011119751774406657490734673388033 55:1 64:1 96:1 107:1 185:1 372:1 689:1 1122:1 1166:1 1340:1 1874:1 #
-0.013160935028881827826841011130909 6:1 42:1 187:1 1007:1 1363:1 2914:1 3700:1 3701:1 #
-0.009628193309798921059594611904231 6:1 55:1 67:1 104:1 607:1 1040:1 1041:1 1057:1 1089:1 3085:1 3086:1 #
-0.0096218515039633075586200661177827 67:1 3165:1 3166:1 3167:1 3168:1 3169:1 #
-0.0098697851001452226865628958307752 6:1 42:1 73:1 661:1 1006:1 1251:1 1252:1 1253:1 1254:1 #
-0.013756628329408087524354797892556 328:1 1801:1 2248:1 2309:1 3994:1 #
-0.010764752989323736476201531786501 19:1 597:1 1351:1 1352:1 1353:1 #
-0.012167607412223741675250110461093 19:1 1013:1 4756:1 4757:1 4758:1 #
-0.013728103252463520755899395453525 810:1 1477:1 2067:1 3652:1 3653:1 #
-0.0081975737416533894091896783606899 19:1 152:1 243:1 404:1 579:1 725:1 824:1 2347:1 2348:1 #
-0.011223657195557800586582786195322 40:1 67:1 578:1 579:1 1044:1 2280:1 2325:1 3263:1 #
-0.0076862432670829761161002124936203 14:1 67:1 90:1 964:1 2850:1 2851:1 2852:1 2853:1 2854:1 #
-0.0059904537447787002679699952523151 64:1 67:1 251:1 1985:1 2679:1 4834:1 4835:1 4836:1 #
-0.0062130100292826645480559477618954 21:1 42:1 932:1 1257:1 1603:1 1935:1 3346:1 3347:1 3348:1 #
-0.0077957917881575885046818719104067 21:1 100:1 570:1 1257:1 1258:1 1486:1 1778:1 1779:1 #
-0.0073658424134535084581987263163683 42:1 143:1 155:1 684:1 694:1 1923:1 5287:1 5288:1 #
-0.0074627574814159604657537450123073 158:1 1369:1 3128:1 3129:1 3130:1 #
-0.0088221738121607613802854785944874 42:1 2978:1 4096:1 4097:1 4098:1 #
-0.0068528868759029620133516047530975 49:1 67:1 192:1 248:1 285:1 404:1 725:1 1362:1 2135:1 #
-0.0057172365104144499611815710693463 34:1 67:1 216:1 217:1 474:1 776:1 3297:1 #
-0.0067038472956734047880633653448967 67:1 339:1 349:1 448:1 628:1 1014:1 1461:1 1742:1 2121:1 2122:1 2123:1 2124:1 2125:1 #
-0.0027283894628935493470445194930107 6:1 19:1 42:1 467:1 475:1 476:1 477:1 478:1 479:1 480:1 481:1 482:1 483:1 #
-0.0091816285322054626977239522034324 6:1 13:1 42:1 73:1 152:1 205:1 995:1 996:1 997:1 #
-0.0087942028360165659661706882843646 42:1 1762:1 2273:1 2988:1 5334:1 #
-0.015808270468812904430144783418655 20:1 42:1 1351:1 1681:1 2271:1 #
-0.0085414712315100820710922491230122 178:1 985:1 2788:1 3010:1 3812:1 3813:1 #
-0.0096987791255759570052674689577543 1382:1 1750:1 1872:1 1873:1 #
-0.0074835556946367016994958731856968 1800:1 2476:1 2674:1 4329:1 4638:1 #
-0.019486529039596051093852224767033 19:1 700:1 766:1 3021:1 3458:1 #
-0.003320796576920094153595464092632 6:1 142:1 288:1 327:1 347:1 386:1 546:1 547:1 548:1 #
-0.0068265865081187822316355351404127 42:1 1261:1 1262:1 1263:1 1264:1 1265:1 #
-0.0097663093640907461950861900845666 6:1 21:1 818:1 1469:1 3279:1 5029:1 #
-0.0075338183206015421275458798788804 791:1 1707:1 2284:1 2285:1 #
-0.0094197362071194723487366218250827 2096:1 2097:1 2098:1 2099:1 #
-0.0058011151306032512214860830113139 42:1 64:1 67:1 1643:1 2095:1 3866:1 4948:1 4949:1 4950:1 #
-0.0046874151093858288513738230562922 21:1 80:1 328:1 933:1 944:1 2327:1 2882:1 3725:1 4121:1 4234:1 #
-0.0054926962423082299410981299558898 19:1 42:1 64:1 129:1 274:1 541:1 544:1 2066:1 5057:1 5058:1 5059:1 #
-0.0044585134817721090716435838885445 67:1 104:1 312:1 556:1 644:1 1038:1 2011:1 2100:1 2101:1 2102:1 #
-0.0054121709093908620946677956453641 54:1 648:1 684:1 2644:1 3880:1 3881:1 3882:1 3883:1 #
-0.009402000587389403377103214154431 6:1 19:1 32:1 80:1 435:1 436:1 437:1 #
-0.020390003458151138848730710151358 80:1 403:1 420:1 592:1 #
-0.0047746705919413934271489097227459 6:1 85:1 100:1 1524:1 4789:1 4790:1 4791:1 4792:1 #
-0.004247581646548005511465628813994 6:1 136:1 170:1 292:1 293:1 294:1 295:1 296:1 #
-0.0047956643902180608185492616257761 19:1 282:1 1007:1 3974:1 3975:1 3976:1 3977:1 #
-0.0065633798138775359398700004476268 4:1 64:1 67:1 328:1 434:1 463:1 467:1 654:1 2973:1 2993:1 5237:1 5238:1 5239:1 #
-0.0096232340707696692461148302299989 6:1 597:1 1111:1 1113:1 3162:1 3163:1 #
-0.0049320008547853264740945533617378 152:1 210:1 289:1 1020:1 1021:1 2175:1 3995:1 5351:1 5605:1 #
-0.0056971929306221308006441539362186 4:1 6:1 90:1 380:1 1057:1 1451:1 1572:1 4926:1 4927:1 4928:1 #
-0.010838405605213149301979669303364 14:1 198:1 451:1 722:1 3318:1 #
-0.0090120874469337124840206953990673 55:1 90:1 256:1 432:1 700:1 1082:1 1224:1 3558:1 #
-0.0080607846551838061716077632468114 506:1 507:1 508:1 509:1 510:1 #
-0.0051899316146198897631292012988524 25:1 67:1 2598:1 2823:1 4023:1 4024:1 4025:1 4026:1 #
-0.013231771299825778598346914805006 1875:1 2028:1 2029:1 #
-0.0095531536888223880094050954880913 19:1 21:1 750:1 5450:1 5451:1 5452:1 #
-0.0064367321335949134741838406625902 48:1 142:1 2642:1 2643:1 #
-0.012872735661757325753562497538951 21:1 292:1 1002:1 1038:1 1039:1 1349:1 1350:1 #
-0.0071956475498510495680815068908487 19:1 482:1 483:1 687:1 912:1 946:1 2351:1 3893:1 #
-0.0071535756424060820135579774614598 240:1 723:1 732:1 892:1 1627:1 1717:1 2313:1 2314:1 #
-0.0062541223979151842893298152148418 55:1 740:1 1009:1 1604:1 1730:1 4117:1 4118:1 4711:1 #
-0.0062491291072325240441021065862515 67:1 1803:1 2217:1 2999:1 4020:1 4021:1 4022:1 #
-0.0066198710189330316200351234101618 42:1 613:1 933:1 1006:1 1467:1 1572:1 1934:1 2746:1 #
-0.007459983739654266546303951201935 44:1 527:1 611:1 774:1 3519:1 3520:1 #
-0.0062855084206160372062299757089932 19:1 88:1 1006:1 1381:1 2128:1 2129:1 2130:1 2131:1 #
-0.0061925126241030564039347083848952 42:1 90:1 213:1 242:1 458:1 549:1 629:1 701:1 2680:1 4824:1 4825:1 #
-0.0067145689003187897583857512984196 42:1 70:1 690:1 1603:1 2344:1 3133:1 3134:1 #
-0.0099721143711384192809266124868373 42:1 2370:1 4031:1 4032:1 #
-0.0061954567799480213252660831813046 42:1 1313:1 3300:1 3657:1 3658:1 #
-0.00603219872783098461782591570568 10:1 42:1 1234:1 1357:1 1650:1 1651:1 1652:1 1653:1 #
-0.0052414975160345322890975694463123 35:1 39:1 1279:1 4013:1 4014:1 #
-0.0044269215978554043999793066177517 100:1 793:1 1566:1 1567:1 1568:1 1569:1 #
-0.0063730805094395813828467289852142 21:1 2226:1 5283:1 5284:1 5285:1 #
-0.0030200279077713543945948870828033 605:1 2423:1 2500:1 4204:1 4205:1 4206:1 4207:1 #
-0.0053817430034199574898079454499111 19:1 1489:1 1835:1 1836:1 1837:1 1838:1 #
-0.0058643270661120636480512224864015 16:1 42:1 272:1 933:1 3708:1 3999:1 4000:1 4001:1 #
-0.0053829443650343922200818269629963 118:1 192:1 611:1 3716:1 3717:1 3718:1 #
-0.0037862688653195345281354811106667 42:1 75:1 274:1 1638:1 2169:1 3878:1 4310:1 4470:1 5113:1 #
-0.0059886137063771549549073824891821 19:1 84:1 210:1 684:1 1048:1 1499:1 2175:1 4925:1 #
-0.04072292068840786816164012407171 64:1 67:1 1985:1 #
-0.0048897141020257410201632630730728 6:1 67:1 292:1 421:1 2673:1 2712:1 3824:1 #
-0.0036229399356438700408045150425096 19:1 64:1 67:1 347:1 722:1 934:1 1329:1 1847:1 2048:1 2049:1 2050:1 #
-0.0040131985489382454926343690715385 67:1 381:1 1552:1 1627:1 1628:1 1629:1 #
-0.0046083626968824219563569677404757 1425:1 2442:1 3537:1 5559:1 5560:1 #
-0.0043196737219111840458407591825107 679:1 2664:1 3206:1 3844:1 3845:1 3846:1 #
-0.004135685520791446481703168558397 264:1 2279:1 5105:1 5106:1 5107:1 #
-0.0037171406096447867639653850346804 285:1 605:1 2397:1 4252:1 4253:1 #
-0.0055697544954549597223669721302031 274:1 1299:1 3204:1 3825:1 3826:1 #
-0.005377557255467753545563613926106 51:1 96:1 981:1 1071:1 3273:1 3274:1 #
-0.0030403896597851771260723197087827 6:1 372:1 2341:1 2468:1 2469:1 2470:1 2471:1 2472:1 2473:1 #
-0.0033147325913444733100354788746245 113:1 185:1 1131:1 1489:1 1934:1 1944:1 2645:1 3365:1 3987:1 #
-0.0044500014976218025750109852367586 636:1 704:1 1887:1 3311:1 3312:1 #
-0.0034442602438354286142896398814628 100:1 724:1 790:1 791:1 792:1 793:1 #
-0.0038292128837280232922513079074633 19:1 60:1 163:1 453:1 1180:1 2658:1 5034:1 #
-0.0045961175094593629750217012031044 185:1 2024:1 3089:1 3090:1 3091:1 #
-0.0055971534361144801433818329883252 4:1 136:1 173:1 248:1 559:1 587:1 685:1 750:1 946:1 947:1 948:1 949:1 #
-0.0016477096254372829327305982616281 42:1 143:1 423:1 2001:1 2465:1 5303:1 5304:1 5305:1 #
-0.0062672651897255028316524594345083 6:1 32:1 365:1 1358:1 1750:1 5099:1 5100:1 #
-0.0022674862709331925283984254804182 6:1 55:1 1358:1 2359:1 3879:1 3982:1 3983:1 3984:1 3985:1 #
-0.0040207206019838934857313361703746 6:1 528:1 1088:1 2788:1 4695:1 4953:1 4954:1 #
-0.0025087519141271225585343440656061 21:1 889:1 1027:1 2320:1 3614:1 4141:1 4142:1 #
-0.0025925275372160232548179870093463 88:1 625:1 800:1 824:1 911:1 1752:1 3866:1 4784:1 4785:1 #
-0.0042440363732901701179778264361175 42:1 132:1 601:1 722:1 1897:1 2308:1 3333:1 #
-0.0036065800074215684234424372789363 72:1 684:1 804:1 1864:1 2185:1 2249:1 2250:1 5370:1 #
-0.0019073510055874877758275154349121 6:1 21:1 474:1 544:1 807:1 985:1 1037:1 2314:1 3274:1 4432:1 #
-0.0033353859849311515671510530722799 4:1 3531:1 3532:1 3533:1 3534:1 3535:1 #
-0.0034055317326919798404105677036569 122:1 1826:1 4847:1 4866:1 #
-0.0038811715596402118766405919814133 121:1 4053:1 5215:1 5216:1 #
-0.0028827068369846717450777351388069 42:1 80:1 129:1 469:1 474:1 661:1 941:1 1832:1 2438:1 #
-0.002471815880869667608754625121037 37:1 251:1 810:1 1616:1 1631:1 1875:1 1920:1 2001:1 5012:1 #
-0.0029919848511364296149428465554365 152:1 272:1 1236:1 5064:1 5519:1 5520:1 5521:1 #
-0.0029977448274924878290903507149778 172:1 1701:1 4386:1 4847:1 4848:1 #
-0.0045622056011061489638747090680226 6:1 192:1 597:1 932:1 1033:1 3698:1 3699:1 #
-0.0049655200059840346252237885948944 55:1 100:1 104:1 1091:1 1705:1 #
-0.0034368449527834429510497749049591 6:1 19:1 73:1 115:1 232:1 516:1 2019:1 2020:1 #
-0.0022712583654651316393546789385027 104:1 328:1 481:1 1018:1 1211:1 2112:1 2495:1 3724:1 3725:1 #
-0.0025718861651015780325768567138311 700:1 4191:1 4192:1 4193:1 4194:1 #
-0.0029907993069859702128798772946539 12:1 21:1 627:1 2040:1 2041:1 2042:1 #
-0.0024029339934908736618746072366548 42:1 235:1 587:1 3084:1 3180:1 3552:1 5226:1 5227:1 #
-0.023736355380876150711344507726608 37:1 #
-0.0031624568297158833600490890347601 42:1 1140:1 1748:1 4673:1 4674:1 #
-0.0033819329304144388897990225473222 42:1 1369:1 4691:1 4692:1 #
-0.0016714384312688785987066619753705 6:1 23:1 156:1 232:1 1241:1 1761:1 4047:1 #
-0.0024477013787382638845824267548323 6:1 152:1 205:1 206:1 207:1 208:1 209:1 #
-0.0028366928215862435153082898864341 6:1 42:1 1366:1 1367:1 1368:1 1369:1 1370:1 #
-0.0021811974052891335874859723986674 55:1 146:1 295:1 645:1 766:1 1266:1 1683:1 2133:1 2690:1 4434:1 #
-0.0016488196410742103625857168935909 19:1 64:1 90:1 235:1 614:1 1702:1 2516:1 3698:1 4263:1 #
-0.0032411192799480419493574068212638 64:1 67:1 96:1 104:1 107:1 490:1 557:1 2781:1 5580:1 #
-0.0016614098216050827722806149111534 449:1 649:1 650:1 651:1 652:1 653:1 654:1 655:1 656:1 #
-0.0020772310917597201773698856186456 19:1 152:1 178:1 198:1 1068:1 2345:1 2539:1 3750:1 3751:1 #
-0.0025020332996889644780469375007215 21:1 312:1 313:1 314:1 315:1 316:1 317:1 318:1 #
-0.0011067401088295067586309006202328 42:1 98:1 933:1 3343:1 3748:1 4543:1 4544:1 4545:1 #
-0.0033764657215907822873646182415541 48:1 149:1 661:1 678:1 2052:1 2053:1 #
-0.001378343926978065243915683169007 700:1 2252:1 3343:1 3344:1 3345:1 #
-0.0019879553259917479360319170211824 19:1 507:1 553:1 668:1 733:1 1725:1 3261:1 #
-0.0034241655700842478851630978908815 44:1 60:1 64:1 185:1 1007:1 1037:1 1082:1 2077:1 2437:1 3027:1 #
-0.0020722367534361813695698018022995 6:1 344:1 357:1 4963:1 4964:1 4965:1 #
-0.002502273741444682730872273168643 420:1 432:1 453:1 454:1 #
-0.0010287520326280746862934734053852 47:1 672:1 806:1 1065:1 1066:1 1067:1 1068:1 1069:1 #
-0.0077483157553844455092684206931608 457:1 1039:1 2907:1 #
-0.0012186285414116514343174646484158 14:1 42:1 303:1 399:1 951:1 1470:1 1685:1 2237:1 2238:1 #
-0.0021616151014606449845545377286271 42:1 235:1 987:1 1046:1 1269:1 1424:1 #
-0.0012584149279159350786477800099306 21:1 186:1 248:1 533:1 3124:1 3125:1 3126:1 3127:1 #
-0.0013815133169011082313326621573424 19:1 42:1 67:1 271:1 587:1 1318:1 1319:1 3142:1 4633:1 4634:1 4635:1 #
-0.0021778731205714437629827884279621 42:1 381:1 853:1 1078:1 4468:1 #
-0.00097084799974690304431856890943209 42:1 185:1 442:1 3937:1 4283:1 4284:1 4285:1 4286:1 #
-0.0012527026874066702830101682764052 6:1 831:1 1001:1 1768:1 3920:1 4436:1 4437:1 #
-0.0012984504333003236108134981208195 42:1 114:1 889:1 1745:1 1776:1 2222:1 5235:1 5236:1 #
-0.0022034785652258947682979872695341 19:1 80:1 807:1 986:1 2020:1 3855:1 #
-0.0021117886095816606160935346991891 42:1 3062:1 3493:1 3494:1 #
-0.0014191481069687483795860316604376 40:1 2185:1 2223:1 2258:1 3143:1 4793:1 #
-0.001943597365880524912087889966017 14:1 35:1 42:1 365:1 1865:1 1961:1 1962:1 #
-0.00155412426416930973468999432896 19:1 53:1 67:1 372:1 373:1 374:1 375:1 376:1 #
-0.0012047166278037310833959327993625 20:1 21:1 73:1 677:1 806:1 1442:1 2461:1 4350:1 4351:1 #
-0.00092460758907909976894723413920474 6:1 64:1 67:1 85:1 90:1 442:1 562:1 752:1 1209:1 2485:1 2486:1 2487:1 2488:1 2489:1 #
-0.00018982207830259192199440221315854 4:1 80:1 140:1 396:1 687:1 1257:1 4115:1 5622:1 5623:1 #
-0.0010848828731637753450267602772783 39:1 67:1 205:1 818:1 911:1 2398:1 2568:1 #
-0.0013097979422168886266125698014662 67:1 90:1 703:1 782:1 1448:1 2997:1 3744:1 3745:1 3746:1 #
-0.00072495384312854915104251674051739 6:1 21:1 1673:1 2436:1 2785:1 3157:1 3719:1 3720:1 #
-0.0014172234688779594691254715144169 55:1 64:1 104:1 1166:1 1212:1 4957:1 4958:1 #
-0.0059056407357866566240622852035358 6:1 14:1 73:1 152:1 427:1 461:1 818:1 1985:1 2337:1 2738:1 4786:1 #
-0.00098914253687138777026977010109476 6:1 23:1 1134:1 1241:1 1929:1 #
-0.00018251666964412029126041403515046 6:1 21:1 42:1 80:1 235:1 319:1 559:1 911:1 932:1 2440:1 5377:1 5378:1 #
-0.0016429542950891326720530560834277 4:1 636:1 740:1 2949:1 2950:1 #
-0.0010924610412929342158350198843664 171:1 277:1 328:1 2645:1 2646:1 2647:1 2648:1 #
-0.0020485738354254316717639738953949 19:1 1772:1 2166:1 2917:1 #
-0.0017892939561698351091934000578476 626:1 3306:1 3307:1 3308:1 #
-0.00082706734770232430420389135861114 6:1 2216:1 2531:1 2783:1 3228:1 4986:1 #
-0.0014298512025960460544715679986894 42:1 76:1 77:1 78:1 79:1 80:1 81:1 #
-0.0011703934699887048962591018508306 42:1 328:1 1753:1 2482:1 2483:1 2484:1 #
-0.00059377211690257399902270751823607 67:1 339:1 1451:1 2151:1 3866:1 4162:1 4163:1 4164:1 4165:1 #
-0.000797298119638413429338674731639 4:1 83:1 142:1 902:1 936:1 1792:1 3785:1 #
-0.00046013457074147725515272933094479 448:1 449:1 450:1 451:1 452:1 #
-0.00059388704658260471798414403821198 210:1 832:1 2141:1 2498:1 2499:1 2500:1 #
-0.00033004735843564784103162934592035 140:1 4547:1 4548:1 4549:1 4550:1 #
-0.00027437005111856805489312094437082 72:1 640:1 882:1 1398:1 1399:1 1400:1 #
-0.00027767793842279345694831760305021 48:1 142:1 1553:1 4639:1 4640:1 #
-0.00039180452882159322314237215323374 6:1 1790:1 1791:1 2679:1 3609:1 3610:1 #
-0.00021380117611447847780770104009207 156:1 4209:1 4500:1 4501:1 4502:1 #
